{"gradients/features.0.weight":{"values":[4,0,6,3,3,5,7,5,2,8,6,5,6,1,2,1,0,0,3,9,21,18,16,11,11,6,5,17,10,3,11,23,74,60,99,104,74,66,41,13,21,21,15,41,27,17,10,18,23,10,13,17,0,0,0,0,0,0,0,0,0,3,14,15],"bins":[-0.06968890130519867,-0.06768582761287689,-0.06568275392055511,-0.06367968022823334,-0.06167660281062126,-0.059673525393009186,-0.05767045170068741,-0.05566737800836563,-0.053664304316043854,-0.05166122689843178,-0.04965815320611,-0.04765507951378822,-0.04565200209617615,-0.04364892840385437,-0.04164585471153259,-0.03964277729392052,-0.03763970360159874,-0.03563662990927696,-0.033633552491664886,-0.03163047879934311,-0.029627405107021332,-0.027624329552054405,-0.02562125399708748,-0.0236181803047657,-0.021615104749798775,-0.019612029194831848,-0.01760895550251007,-0.015605879947543144,-0.013602805323898792,-0.01159973070025444,-0.009596655145287514,-0.007593580521643162,-0.005590509623289108,-0.0035874347668141127,-0.001584359910339117,0.00041871494613587856,0.002421789802610874,0.004424864426255226,0.006427939515560865,0.008431014604866505,0.010434089228510857,0.012437163852155209,0.01444023847579956,0.016443314030766487,0.018446389585733414,0.02044946327805519,0.022452538833022118,0.024455612525343895,0.02645868808031082,0.028461763635277748,0.030464837327599525,0.03246791288256645,0.03447098657488823,0.036474063992500305,0.03847713768482208,0.04048021137714386,0.04248328506946564,0.04448636248707771,0.04648943617939949,0.04849250987172127,0.050495587289333344,0.05249866098165512,0.0545017346739769,0.056504812091588974,0.05850788578391075],"_type":"histogram"},"gradients/features.1.weight":{"bins":[-0.01244568731635809,-0.012099281884729862,-0.011752876453101635,-0.011406471021473408,-0.01106006558984518,-0.010713660158216953,-0.0103672556579113,-0.010020850226283073,-0.009674444794654846,-0.009328039363026619,-0.008981633931398392,-0.008635228499770164,-0.008288823068141937,-0.00794241763651371,-0.00759601267054677,-0.007249607238918543,-0.006903201807290316,-0.006556796375662088,-0.006210390944033861,-0.005863985978066921,-0.005517580546438694,-0.005171175114810467,-0.0048247696831822395,-0.004478364251554012,-0.004131958819925785,-0.0037855536211282015,-0.003439148422330618,-0.0030927429907023907,-0.0027463375590741634,-0.00239993236027658,-0.0020535269286483526,-0.0017071216134354472,-0.0013607162982225418,-0.0010143109830096364,-0.0006679056095890701,-0.0003215002652723342,2.4905079044401646e-05,0.0003713104233611375,0.0007177157676778734,0.0010641211410984397,0.001410526456311345,0.0017569317715242505,0.002103337086737156,0.002449742518365383,0.0027961479499936104,0.003142553148791194,0.003488958580419421,0.0038353637792170048,0.004181769210845232,0.004528174642473459,0.0048745800741016865,0.005220985040068626,0.005567390471696854,0.005913795903325081,0.006260201334953308,0.006606606766581535,0.006953012198209763,0.0072994171641767025,0.00764582259580493,0.00799222756177187,0.008338632993400097,0.008685038425028324,0.009031443856656551,0.009377849288284779,0.009724254719913006],"_type":"histogram","values":[1,0,0,0,0,0,0,0,0,0,0,0,0,0,0,0,0,1,0,0,1,0,0,0,1,0,0,0,1,0,0,0,0,2,1,0,0,2,0,0,1,0,0,0,1,0,0,0,0,1,0,0,1,0,1,0,0,0,0,0,0,0,0,1]},"validation accuracy":0.875,"gradients/features.0.bias":{"values":[1,0,0,0,0,0,0,0,0,0,0,0,1,0,0,0,1,0,0,0,1,0,0,0,0,0,0,1,1,1,0,0,3,0,0,1,1,1,0,0,0,0,0,0,0,0,0,0,0,0,0,0,0,0,0,0,1,0,0,0,1,0,0,1],"bins":[-2.384185791015625e-07,-2.3096799850463867e-07,-2.2351741790771484e-07,-2.1606683731079102e-07,-2.086162567138672e-07,-2.0116567611694336e-07,-1.9371509552001953e-07,-1.862645149230957e-07,-1.7881393432617188e-07,-1.7136335372924805e-07,-1.6391277313232422e-07,-1.564621925354004e-07,-1.4901161193847656e-07,-1.4156103134155273e-07,-1.341104507446289e-07,-1.2665987014770508e-07,-1.1920928955078125e-07,-1.1175870895385742e-07,-1.043081283569336e-07,-9.685754776000977e-08,-8.940696716308594e-08,-8.195638656616211e-08,-7.450580596923828e-08,-6.705522537231445e-08,-5.960464477539063e-08,-5.21540641784668e-08,-4.470348358154297e-08,-3.725290298461914e-08,-2.9802322387695312e-08,-2.2351741790771484e-08,-1.4901161193847656e-08,-7.450580596923828e-09,0,7.450580596923828e-09,1.4901161193847656e-08,2.2351741790771484e-08,2.9802322387695312e-08,3.725290298461914e-08,4.470348358154297e-08,5.21540641784668e-08,5.960464477539063e-08,6.705522537231445e-08,7.450580596923828e-08,8.195638656616211e-08,8.940696716308594e-08,9.685754776000977e-08,1.043081283569336e-07,1.1175870895385742e-07,1.1920928955078125e-07,1.2665987014770508e-07,1.341104507446289e-07,1.4156103134155273e-07,1.4901161193847656e-07,1.564621925354004e-07,1.6391277313232422e-07,1.7136335372924805e-07,1.7881393432617188e-07,1.862645149230957e-07,1.9371509552001953e-07,2.0116567611694336e-07,2.086162567138672e-07,2.1606683731079102e-07,2.2351741790771484e-07,2.3096799850463867e-07,2.384185791015625e-07],"_type":"histogram"},"_runtime":19.71869248,"validation loss":4.618280356400646,"gradients/features.4.bias":{"values":[1,0,0,1,0,0,1,0,0,0,1,0,0,1,0,0,0,1,1,1,2,0,0,1,0,2,1,1,0,2,2,0,0,1,0,0,1,0,0,1,0,2,0,0,0,0,1,1,0,1,1,1,0,0,0,1,1,0,0,0,0,0,0,1],"bins":[-0.008002125658094883,-0.007737280800938606,-0.0074724359437823296,-0.0072075906209647655,-0.006942745763808489,-0.006677900906652212,-0.006413055583834648,-0.006148210726678371,-0.005883365869522095,-0.005618521012365818,-0.005353676155209541,-0.005088830832391977,-0.004823985975235701,-0.004559141118079424,-0.00429429579526186,-0.004029450938105583,-0.0037646060809493065,-0.00349976122379303,-0.0032349161338061094,-0.002970071043819189,-0.0027052261866629124,-0.0024403813295066357,-0.0021755362395197153,-0.0019106912659481168,-0.0016458462923765182,-0.0013810013188049197,-0.0011161563452333212,-0.0008513113716617227,-0.0005864663980901241,-0.0003216214245185256,-5.677645094692707e-05,0.00020806852262467146,0.0004729144275188446,0.0007377594010904431,0.0010026043746620417,0.0012674493482336402,0.0015322943218052387,0.0017971392953768373,0.002061984268948436,0.002326829358935356,0.002591674216091633,0.0028565190732479095,0.00312136416323483,0.0033862092532217503,0.003651054110378027,0.003915898967534304,0.004180744290351868,0.004445589147508144,0.004710434004664421,0.004975278861820698,0.0052401237189769745,0.0055049690417945385,0.005769813898950815,0.006034658756107092,0.006299504078924656,0.006564348936080933,0.006829193793237209,0.007094038650393486,0.007358883507549763,0.007623728830367327,0.00788857415318489,0.008153419010341167,0.008418263867497444,0.00868310872465372,0.008947953581809998],"_type":"histogram"},"gradients/classifier.3.bias":{"_type":"histogram","values":[1],"bins":[0.008826231583952904,0.008826231583952904]},"_timestamp":1.7659550084198275e+09,"validation recall":0,"gradients/features.7.bias":{"bins":[-2.852175384759903e-09,-2.723027137108147e-09,-2.5938788894563913e-09,-2.4647306418046355e-09,-2.3355823941528797e-09,-2.206434146501124e-09,-2.077285898849368e-09,-1.9481376511976123e-09,-1.8189894035458565e-09,-1.6898411558941007e-09,-1.5606929082423449e-09,-1.431544660590589e-09,-1.3023964129388332e-09,-1.1732481652870774e-09,-1.0440999176353216e-09,-9.149516699835658e-10,-7.8580342233181e-10,-6.566551746800542e-10,-5.275069270282984e-10,-3.9835867937654257e-10,-2.6921043172478676e-10,-1.4006218407303095e-10,-1.0913936421275139e-11,1.1823431123048067e-10,2.473825588822365e-10,3.765308065339923e-10,5.056790541857481e-10,6.348273018375039e-10,7.639755494892597e-10,8.931237971410155e-10,1.0222720447927713e-09,1.1514202924445271e-09,1.280568540096283e-09,1.4097167877480388e-09,1.5388650353997946e-09,1.6680132830515504e-09,1.7971615307033062e-09,1.926309778355062e-09,2.055458026006818e-09,2.1846062736585736e-09,2.3137545213103294e-09,2.4429027689620852e-09,2.572051016613841e-09,2.701199264265597e-09,2.8303475119173527e-09,2.9594957595691085e-09,3.0886440072208643e-09,3.21779225487262e-09,3.346940502524376e-09,3.4760887501761317e-09,3.6052369978278875e-09,3.734385245479643e-09,3.863533493131399e-09,3.992681740783155e-09,4.121829988434911e-09,4.2509782360866666e-09,4.380126483738422e-09,4.509274731390178e-09,4.638422979041934e-09,4.76757122669369e-09,4.896719474345446e-09,5.0258677219972014e-09,5.155015969648957e-09,5.284164217300713e-09,5.413312464952469e-09],"_type":"histogram","values":[1,0,0,0,0,0,0,0,0,0,0,1,0,0,0,0,0,0,1,3,3,1,4,7,4,1,0,0,1,1,0,0,1,1,0,1,0,0,0,0,0,0,0,0,0,0,0,0,0,0,0,0,0,0,0,0,0,0,0,0,0,0,0,1]},"gradients/features.4.weight":{"values":[1,0,0,0,0,0,1,0,0,0,1,0,0,0,0,1,0,0,0,1,1,0,1,0,0,1,3,0,0,1,3,2,3,1,0,1,2,3,0,0,0,0,0,0,0,1,1,0,0,0,1,0,0,0,0,0,0,0,1,0,0,0,0,1],"bins":[-0.013615519739687443,-0.013181140646338463,-0.012746761552989483,-0.012312382459640503,-0.011878003366291523,-0.011443624272942543,-0.011009245179593563,-0.010574866086244583,-0.010140486992895603,-0.009706107899546623,-0.009271728806197643,-0.008837349712848663,-0.008402970619499683,-0.007968591526150703,-0.007534211967140436,-0.007099832873791456,-0.006665453780442476,-0.006231074687093496,-0.005796695593744516,-0.005362316500395536,-0.0049279374070465565,-0.0044935583136975765,-0.004059179220348597,-0.003624799894168973,-0.003190420800819993,-0.002756041707471013,-0.002321662614122033,-0.0018872834043577313,-0.0014529043110087514,-0.0010185252176597714,-0.0005841460661031306,-0.00014976694365032017,0.00028461217880249023,0.0007189912721514702,0.0011533703655004501,0.001587749575264752,0.00202212855219841,0.0024565078783780336,0.0028908869717270136,0.0033252660650759935,0.0037596451584249735,0.004194024484604597,0.004628403577953577,0.005062782671302557,0.005497161764651537,0.005931540858000517,0.006365919951349497,0.006800299044698477,0.007234678138047457,0.007669057231396437,0.008103436790406704,0.008537815883755684,0.008972194977104664,0.009406574070453644,0.009840953163802624,0.010275332257151604,0.010709711350500584,0.011144090443849564,0.011578469537198544,0.012012848630547523,0.012447227723896503,0.012881606817245483,0.013315985910594463,0.013750365003943443,0.014184744097292423],"_type":"histogram"},"_step":7,"_wandb":{"runtime":19},"train loss":2.282217903273704,"gradients/classifier.1.weight":{"values":[3,3,9,19,27,36,40,71,89,99,158,182,237,349,448,567,714,903,1253,1664,2025,2401,2919,3674,4304,5365,6169,7507,10264,17370,50434,6847,5122,4453,4121,3458,2917,2486,2129,1884,1528,1275,976,774,600,480,373,306,239,177,140,96,84,68,53,30,26,14,17,10,8,3,2,1],"bins":[-0.001449749805033207,-0.0014019139343872666,-0.0013540781801566482,-0.0013062423095107079,-0.0012584065552800894,-0.001210570684634149,-0.0011627348139882088,-0.0011148990597575903,-0.00106706318911165,-0.0010192273184657097,-0.0009713915642350912,-0.0009235556935891509,-0.0008757198811508715,-0.0008278840687125921,-0.0007800481980666518,-0.0007322123856283724,-0.000684376573190093,-0.0006365407607518137,-0.0005887049483135343,-0.000540869077667594,-0.0004930332652293146,-0.0004451974527910352,-0.00039736161124892533,-0.0003495257697068155,-0.0003016899572685361,-0.0002538541448302567,-0.00020601830328814685,-0.00015818247629795223,-0.00011034664930775762,-6.2510822317563e-05,-1.4674995327368379e-05,3.316083166282624e-05,8.099665865302086e-05,0.00012883248564321548,0.0001766683126334101,0.00022450413962360471,0.00027233996661379933,0.0003201757790520787,0.00036801162059418857,0.0004158474621362984,0.0004636832745745778,0.0005115190870128572,0.0005593548994511366,0.0006071907700970769,0.0006550265825353563,0.0007028623949736357,0.000750698265619576,0.0007985340780578554,0.0008463698904961348,0.0008942057029344141,0.0009420415153726935,0.0009898773860186338,0.0010377131402492523,0.0010855490108951926,0.001133384881541133,0.0011812206357717514,0.0012290565064176917,0.001276892377063632,0.0013247281312942505,0.0013725640019401908,0.001420399872586131,0.0014682356268167496,0.0015160714974626899,0.0015639072516933084,0.0016117431223392487],"_type":"histogram"},"gradients/classifier.3.weight":{"values":[19,0,0,1,1,0,1,1,1,1,0,0,0,0,0,3,1,1,0,0,0,2,1,2,1,0,1,1,1,0,0,1,2,1,2,3,2,0,0,3,3,1,1,4,7,4,2,4,6,6,2,3,1,1,0,0,0,1,0,0,0,0,0,1],"bins":[0,0.00028814110555686057,0.0005762822111137211,0.0008644233457744122,0.0011525644222274423,0.0014407054986804724,0.0017288466915488243,0.0020169876515865326,0.0023051288444548845,0.0025932700373232365,0.0028814109973609447,0.0031695521902292967,0.0034576933830976486,0.003745834343135357,0.004033975303173065,0.004322116728872061,0.004610257688909769,0.004898398648947477,0.005186540074646473,0.005474681034684181,0.0057628219947218895,0.006050963420420885,0.006339104380458593,0.006627245340496302,0.006915386766195297,0.0072035277262330055,0.007491668686270714,0.007779809646308422,0.00806795060634613,0.008356092497706413,0.008644233457744122,0.00893237441778183,0.009220515377819538,0.009508656337857246,0.009796797297894955,0.010084938257932663,0.010373080149292946,0.010661221109330654,0.010949362069368362,0.01123750302940607,0.011525643989443779,0.011813784949481487,0.01210192684084177,0.012390067800879478,0.012678208760917187,0.012966349720954895,0.013254490680992603,0.013542631641030312,0.013830773532390594,0.014118914492428303,0.014407055452466011,0.01469519641250372,0.014983337372541428,0.015271478332579136,0.015559619292616844,0.015847761183977127,0.01613590121269226,0.016424043104052544,0.016712184995412827,0.01700032502412796,0.017288466915488243,0.017576606944203377,0.01786474883556366,0.018152888864278793,0.018441030755639076],"_type":"histogram"},"gradients/features.10.bias":{"bins":[-0.022157534956932068,-0.021403037011623383,-0.020648540928959846,-0.01989404298365116,-0.019139546900987625,-0.01838504895567894,-0.017630551010370255,-0.01687605492770672,-0.016121556982398033,-0.015367059968411922,-0.014612562954425812,-0.013858065940439701,-0.01310356892645359,-0.01234907191246748,-0.011594573967158794,-0.010840076953172684,-0.010085579939186573,-0.009331082925200462,-0.008576585911214352,-0.007822087965905666,-0.007067590951919556,-0.006313093937933445,-0.005558596923947334,-0.004804099444299936,-0.004049602430313826,-0.0032951051834970713,-0.002540607936680317,-0.0017861109226942062,-0.001031613675877452,-0.00027711648726835847,0.00047738070134073496,0.0012318778317421675,0.001986375078558922,0.002740872325375676,0.0034953695721924305,0.004249866586178541,0.005004364065825939,0.00575886107981205,0.0065133580937981606,0.0072678555734455585,0.008022353053092957,0.008776850067079067,0.009531347081065178,0.010285844095051289,0.0110403411090374,0.01179483812302351,0.012549336068332195,0.013303833082318306,0.014058330096304417,0.014812827110290527,0.015567324124276638,0.01632182113826275,0.017076319083571434,0.01783081516623497,0.018585313111543655,0.01933981105685234,0.020094307139515877,0.020848805084824562,0.021603301167488098,0.022357799112796783,0.02311229705810547,0.023866793140769005,0.02462129108607769,0.025375787168741226,0.02613028511404991],"_type":"histogram","values":[1,0,0,0,0,0,2,0,0,0,0,1,1,1,0,0,0,0,2,1,0,1,1,0,1,0,0,0,0,0,1,0,0,0,0,0,0,0,0,0,0,0,0,0,0,0,0,1,0,1,0,0,0,0,0,0,0,0,0,0,0,0,0,1]},"gradients/features.8.weight":{"values":[1,0,0,0,0,0,1,0,0,1,0,0,0,1,0,0,1,0,0,1,1,1,2,2,2,1,1,2,2,1,0,3,1,0,0,1,0,0,1,0,2,0,0,0,0,0,0,0,0,0,0,0,0,0,0,0,0,0,0,0,1,1,0,1],"bins":[-0.012170247733592987,-0.011764273047447205,-0.011358299292623997,-0.010952324606478214,-0.010546350851655006,-0.010140376165509224,-0.009734402410686016,-0.009328427724540234,-0.008922453969717026,-0.008516479283571243,-0.00811050459742546,-0.007704530842602253,-0.0072985561564564705,-0.006892581935971975,-0.00648660771548748,-0.006080633495002985,-0.00567465927451849,-0.005268685054033995,-0.0048627108335494995,-0.004456736613065004,-0.004050762392580509,-0.0036447879392653704,-0.0032388134859502316,-0.0028328392654657364,-0.0024268650449812412,-0.002020890824496746,-0.001614916487596929,-0.001208942150697112,-0.0008029679302126169,-0.00039699365152046084,8.980627171695232e-06,0.0004149549058638513,0.0008209282532334328,0.001226902473717928,0.001632876810617745,0.002038851147517562,0.002444825368002057,0.0028507995884865522,0.003256774041801691,0.0036627482622861862,0.004068722482770681,0.0044746967032551765,0.004880670923739672,0.005286645144224167,0.005692619830369949,0.0060985940508544445,0.00650456827133894,0.006910542491823435,0.00731651671230793,0.007722490932792425,0.00812846515327692,0.008534439839422703,0.00894041359424591,0.009346388280391693,0.009752362035214901,0.010158336721360683,0.010564310476183891,0.010970285162329674,0.011376259848475456,0.011782233603298664,0.012188208289444447,0.012594182044267654,0.013000156730413437,0.013406130485236645,0.013812105171382427],"_type":"histogram"},"gradients/classifier.1.bias":{"_type":"histogram","values":[2,3,2,2,2,2,0,0,2,0,1,3,4,2,1,1,0,3,2,2,3,0,1,1,2,2,2,3,1,0,0,18,1,0,0,1,0,1,1,1,0,1,1,3,2,0,0,0,1,0,2,2,1,1,1,2,3,0,2,1,1,1,1,2],"bins":[-0.0008921949192881584,-0.0008635310223326087,-0.0008348671835847199,-0.0008062032866291702,-0.0007775393896736205,-0.0007488755509257317,-0.0007202116539701819,-0.0006915477570146322,-0.0006628838600590825,-0.0006342200213111937,-0.000605556124355644,-0.0005768922274000943,-0.0005482283886522055,-0.0005195644916966558,-0.000490900594741106,-0.0004622367268893868,-0.0004335728590376675,-0.00040490899118594825,-0.00037624509423039854,-0.0003475812263786793,-0.00031891732942312956,-0.0002902534615714103,-0.00026158959371969104,-0.00023292571131605655,-0.00020426182891242206,-0.00017559794650878757,-0.00014693406410515308,-0.00011827019625343382,-8.960631384979934e-05,-6.0942435084143654e-05,-3.227855631848797e-05,-3.6146775528322905e-06,2.5049259420484304e-05,5.3713138186139986e-05,8.237701695179567e-05,0.00011104089207947254,0.00013970477448310703,0.00016836865688674152,0.00019703252473846078,0.00022569640714209527,0.00025436028954572976,0.000283024157397449,0.00031168805435299873,0.000340351922204718,0.00036901579005643725,0.00039767968701198697,0.00042634355486370623,0.00045500745181925595,0.0004836713196709752,0.0005123352166265249,0.0005409990553744137,0.0005696629523299634,0.0005983268492855132,0.000626990688033402,0.0006556545849889517,0.0006843184819445014,0.0007129823789000511,0.0007416462176479399,0.0007703101146034896,0.0007989740115590394,0.0008276378503069282,0.0008563017472624779,0.0008849656442180276,0.0009136294829659164,0.0009422933799214661]},"gradients/features.1.bias":{"values":[1,0,0,0,0,0,0,0,1,0,0,0,0,1,0,0,0,0,0,1,0,0,0,0,0,0,2,0,0,3,0,0,3,0,0,0,0,1,0,0,0,0,0,0,0,1,0,0,0,0,0,0,0,0,0,0,0,1,0,0,0,0,0,1],"bins":[-0.012649906799197197,-0.01226882915943861,-0.011887751519680023,-0.011506673879921436,-0.01112559624016285,-0.010744518600404263,-0.010363440029323101,-0.009982362389564514,-0.009601284749805927,-0.00922020711004734,-0.008839129470288754,-0.008458051830530167,-0.00807697419077158,-0.007695896551012993,-0.007314818445593119,-0.006933740805834532,-0.006552663166075945,-0.006171585526317358,-0.005790507886558771,-0.005409429781138897,-0.00502835214138031,-0.004647274501621723,-0.004266196861863136,-0.0038851189892739058,-0.003504041349515319,-0.003122963709756732,-0.0027418858371675014,-0.0023608081974089146,-0.0019797305576503277,-0.0015986526850610971,-0.0012175750453025103,-0.0008364972891286016,-0.00045541953295469284,-7.434180588461459e-05,0.00030673592118546367,0.0006878136191517115,0.0010688913753256202,0.0014499691314995289,0.0018310467712581158,0.0022121246438473463,0.002593202283605933,0.00297427992336452,0.0033553577959537506,0.0037364354357123375,0.004117513075470924,0.004498590715229511,0.0048796688206493855,0.005260746460407972,0.005641824100166559,0.006022901739925146,0.006403979379683733,0.006785057485103607,0.007166135124862194,0.007547212764620781,0.007928290404379368,0.008309368044137955,0.008690445683896542,0.009071523323655128,0.009452600963413715,0.009833679534494877,0.010214757174253464,0.01059583481401205,0.010976912453770638,0.011357990093529224,0.011739067733287811],"_type":"histogram"},"validation precision":0,"gradients/features.3.weight":{"values":[3,2,0,0,1,1,1,0,1,1,1,1,2,4,2,5,3,3,7,5,19,26,29,33,45,71,126,136,148,142,195,233,332,379,484,778,1259,1785,2757,4597,5472,4117,2802,1974,1328,932,633,442,330,201,195,155,116,99,91,66,58,42,34,22,16,13,8,5],"bins":[-0.038988273590803146,-0.03802523761987686,-0.03706219792366028,-0.036099161952733994,-0.03513612225651741,-0.034173086285591125,-0.03321004658937454,-0.03224701061844826,-0.031283970922231674,-0.03032093495130539,-0.029357897117733955,-0.02839485928416252,-0.027431821450591087,-0.026468783617019653,-0.02550574578344822,-0.024542707949876785,-0.02357967011630535,-0.022616632282733917,-0.021653594449162483,-0.02069055661559105,-0.019727518782019615,-0.01876448094844818,-0.017801443114876747,-0.016838405281305313,-0.01587536931037903,-0.01491233054548502,-0.013949292711913586,-0.012986254878342152,-0.012023217976093292,-0.011060180142521858,-0.010097142308950424,-0.00913410447537899,-0.008171064779162407,-0.007208026945590973,-0.006244989112019539,-0.005281951744109392,-0.004318913910537958,-0.003355876076966524,-0.0023928384762257338,-0.0014298007590696216,-0.00046676304191350937,0.0004962746752426028,0.001459312392398715,0.0024223499931395054,0.0033853878267109394,0.004348425660282373,0.00531146302819252,0.006274500861763954,0.007237538695335388,0.008200576528906822,0.009163614362478256,0.01012665219604969,0.011089690029621124,0.012052726931869984,0.013015764765441418,0.013978802599012852,0.014941840432584286,0.015904877334833145,0.01686791516840458,0.017830953001976013,0.018793990835547447,0.01975702866911888,0.020720066502690315,0.02168310433626175,0.022646142169833183],"_type":"histogram"},"train precision":0.9835164835164835,"gradients/features.3.bias":{"bins":[-2.3283064365386963e-09,-2.2637323127128184e-09,-2.1991581888869405e-09,-2.1345840650610626e-09,-2.0700099412351847e-09,-2.0054358174093068e-09,-1.940861693583429e-09,-1.876287569757551e-09,-1.811713445931673e-09,-1.7471393221057951e-09,-1.6825651982799172e-09,-1.6179910744540393e-09,-1.5534169506281614e-09,-1.4888428268022835e-09,-1.4242687029764056e-09,-1.3596945791505277e-09,-1.2951204553246498e-09,-1.230546331498772e-09,-1.165972207672894e-09,-1.101398083847016e-09,-1.0368239600211382e-09,-9.722498361952603e-10,-9.076757123693824e-10,-8.431015885435045e-10,-7.785274647176266e-10,-7.139533408917487e-10,-6.493792170658708e-10,-5.848050932399929e-10,-5.20230969414115e-10,-4.5565684558823705e-10,-3.9108272176235914e-10,-3.2650859793648124e-10,-2.6193447411060333e-10,-1.9736035028472543e-10,-1.3278622645884752e-10,-6.821210263296962e-11,-3.637978807091713e-12,6.093614501878619e-11,1.255102688446641e-10,1.90084392670542e-10,2.546585164964199e-10,3.192326403222978e-10,3.838067641481757e-10,4.483808879740536e-10,5.129550117999315e-10,5.775291356258094e-10,6.421032594516873e-10,7.066773832775652e-10,7.712515071034431e-10,8.35825630929321e-10,9.00399754755199e-10,9.649738785810769e-10,1.0295480024069548e-09,1.0941221262328327e-09,1.1586962500587106e-09,1.2232703738845885e-09,1.2878444977104664e-09,1.3524186215363443e-09,1.4169927453622222e-09,1.4815668691881e-09,1.546140993013978e-09,1.610715116839856e-09,1.6752892406657338e-09,1.7398633644916117e-09,1.8044374883174896e-09],"_type":"histogram","values":[2,0,0,0,1,0,0,0,0,0,0,0,0,0,0,0,0,0,0,0,0,0,0,0,0,0,2,1,3,1,0,2,1,1,2,1,0,3,1,1,1,0,1,4,0,0,0,0,0,0,0,0,0,0,0,1,1,1,0,0,0,0,0,1]},"gradients/features.8.bias":{"values":[1,0,0,0,0,0,0,1,0,1,0,1,1,0,0,0,0,0,1,1,1,0,4,1,2,0,3,2,0,3,1,0,0,1,0,0,0,0,0,0,0,0,0,1,0,2,0,0,1,0,0,0,0,0,0,0,0,0,1,0,0,0,1,1],"bins":[-0.018607361242175102,-0.018019335344433784,-0.017431309446692467,-0.01684328354895115,-0.01625525951385498,-0.015667233616113663,-0.015079207718372345,-0.014491181820631027,-0.01390315592288971,-0.013315130956470966,-0.012727105058729649,-0.01213907916098833,-0.011551054194569588,-0.01096302829682827,-0.010375002399086952,-0.009786977432668209,-0.009198951534926891,-0.008610925637185574,-0.00802290067076683,-0.007434874773025513,-0.006846848875284195,-0.0062588234432041645,-0.005670798011124134,-0.005082772113382816,-0.004494746681302786,-0.003906721249222755,-0.0033186953514814377,-0.0027306699194014072,-0.002142644254490733,-0.001554618589580059,-0.0009665930410847068,-0.0003785674343816936,0.00020945817232131958,0.0007974837790243328,0.001385509385727346,0.001973534934222698,0.0025615605991333723,0.0031495862640440464,0.003737611696124077,0.004325637593865395,0.004913663025945425,0.0055016884580254555,0.006089714355766773,0.006677739787846804,0.007265765219926834,0.007853791117668152,0.00844181701540947,0.009029841981828213,0.00961786787956953,0.010205893777310848,0.010793918743729591,0.011381944641470909,0.011969970539212227,0.01255799550563097,0.013146021403372288,0.013734047301113605,0.014322072267532349,0.014910098165273666,0.015498124063014984,0.016086149960756302,0.01667417585849762,0.017262199893593788,0.017850225791335106,0.018438251689076424,0.01902627758681774],"_type":"histogram"},"gradients/features.10.weight":{"values":[1,3,2,2,0,3,0,10,6,12,22,20,23,33,52,62,83,113,144,135,180,216,363,524,608,832,1314,2649,3716,854,468,286,185,153,132,114,74,55,56,54,46,44,43,24,15,17,12,10,16,7,5,10,5,0,0,1,1,0,1,1,3,1,1,2],"bins":[-0.03371497988700867,-0.03253687173128128,-0.031358759850263596,-0.03018064983189106,-0.029002539813518524,-0.02782442979514599,-0.026646319776773453,-0.025468209758400917,-0.02429009974002838,-0.023111989721655846,-0.02193387970328331,-0.020755769684910774,-0.01957765966653824,-0.018399549648165703,-0.017221439629793167,-0.01604332961142063,-0.014865219593048096,-0.01368710957467556,-0.012508999556303024,-0.011330889537930489,-0.010152779519557953,-0.008974669501185417,-0.0077965594828128815,-0.006618449464440346,-0.00544033944606781,-0.004262229427695274,-0.0030841194093227386,-0.001906009390950203,-0.0007278993725776672,0.00045021064579486847,0.0016283206641674042,0.00280643068253994,0.003984540700912476,0.005162650719285011,0.006340760737657547,0.007518870756030083,0.008696980774402618,0.009875090792775154,0.01105320081114769,0.012231310829520226,0.013409420847892761,0.014587530866265297,0.015765640884637833,0.01694375090301037,0.018121860921382904,0.01929997093975544,0.020478080958127975,0.02165619097650051,0.022834300994873047,0.024012411013245583,0.02519052103161812,0.026368631049990654,0.02754674106836319,0.028724851086735725,0.02990296110510826,0.031081071123480797,0.03225918114185333,0.03343728929758072,0.034615401178598404,0.03579351305961609,0.036971621215343475,0.03814972937107086,0.03932784125208855,0.04050595313310623,0.04168406128883362],"_type":"histogram"},"train accuracy":0.9967613353263578,"gradients/features.7.weight":{"bins":[-0.02511659264564514,-0.02434091828763485,-0.023565243929624557,-0.022789569571614265,-0.022013893350958824,-0.021238218992948532,-0.02046254463493824,-0.019686870276927948,-0.018911195918917656,-0.018135521560907364,-0.017359845340251923,-0.01658417098224163,-0.01580849662423134,-0.015032822266221046,-0.014257147908210754,-0.013481472618877888,-0.012705798260867596,-0.011930123902857304,-0.011154448613524437,-0.010378774255514145,-0.009603099897503853,-0.008827424608170986,-0.008051750250160694,-0.007276075892150402,-0.006500401068478823,-0.005724726244807243,-0.004949051886796951,-0.004173377063125372,-0.0033977024722844362,-0.0026220278814435005,-0.001846353174187243,-0.0010706784669309855,-0.00029500387609004974,0.0004806707729585469,0.0012563454220071435,0.002032020129263401,0.0028076947201043367,0.0035833693109452724,0.004359044134616852,0.005134718492627144,0.005910393316298723,0.006686068139970303,0.007461742497980595,0.008237416855990887,0.009013092145323753,0.009788766503334045,0.010564440861344337,0.011340116150677204,0.012115790508687496,0.012891464866697788,0.013667140156030655,0.014442814514040947,0.015218488872051239,0.01599416323006153,0.016769837588071823,0.017545513808727264,0.018321188166737556,0.01909686252474785,0.01987253688275814,0.020648211240768433,0.021423885598778725,0.022199561819434166,0.022975236177444458,0.02375091053545475,0.024526584893465042],"_type":"histogram","values":[3,4,4,8,11,7,5,10,15,15,22,20,27,29,44,45,64,65,80,126,158,165,211,277,402,562,647,866,1132,1580,2294,2797,2857,2620,2077,1878,1532,1117,898,649,530,396,314,218,191,158,121,114,62,45,27,15,18,14,11,18,11,11,11,11,11,9,4,5]},"train recall":0.9470899470899471}