{"gradients/classifier.1.weight":{"bins":[-4.448631133607828e-12,-4.379121197606306e-12,-4.309611261604784e-12,-4.240101759284132e-12,-4.17059182328261e-12,-4.101081887281088e-12,-4.031571951279567e-12,-3.962062015278045e-12,-3.892552079276523e-12,-3.823042576955871e-12,-3.753532640954349e-12,-3.684022704952827e-12,-3.6145127689513057e-12,-3.545002832949784e-12,-3.475493113788697e-12,-3.405983177787175e-12,-3.336473458626088e-12,-3.2669635226245664e-12,-3.1974535866230447e-12,-3.1279438674619575e-12,-3.058433931460436e-12,-2.988923995458914e-12,-2.919414276297827e-12,-2.8499043402963053e-12,-2.7803944042947837e-12,-2.7108846851336965e-12,-2.641374749132175e-12,-2.571864813130653e-12,-2.502355093969566e-12,-2.4328451579680443e-12,-2.3633352219665227e-12,-2.2938255028054355e-12,-2.224315566803914e-12,-2.154805630802392e-12,-2.085295911641305e-12,-2.0157859756397833e-12,-1.9462760396382617e-12,-1.8767663204771745e-12,-1.8072563844756528e-12,-1.7377465568943484e-12,-1.668236729313044e-12,-1.5987267933115223e-12,-1.529216965730218e-12,-1.4597071381489135e-12,-1.3901972021473918e-12,-1.3206873745660874e-12,-1.251177546984783e-12,-1.1816676109832613e-12,-1.112157783401957e-12,-1.0426479558206525e-12,-9.731380198191308e-13,-9.036281922378264e-13,-8.34118364656522e-13,-7.64608482865109e-13,-6.950986010736959e-13,-6.255887734923915e-13,-5.560788917009785e-13,-4.865690099095654e-13,-4.17059182328261e-13,-3.4754930053684796e-13,-2.7803944585048923e-13,-2.085295911641305e-13,-1.3901972292524462e-13,-6.950986146262231e-14,0],"_type":"histogram","values":[3,14,9,24,20,4,5,2,13,7,15,14,30,28,15,32,57,72,96,177,140,146,232,188,192,188,196,181,222,290,353,571,705,908,1071,1288,1333,1376,1291,1310,1376,1481,1687,2032,2414,2757,2743,2736,2448,2602,2670,3049,3102,3040,3282,2902,2455,2885,3536,3120,4554,3970,1336,85005]},"gradients/features.3.bias":{"values":[1,1,0,0,0,0,0,0,0,0,1,0,0,0,1,0,0,0,0,0,1,3,0,0,0,1,0,1,1,2,1,1,2,0,1,1,1,0,2,1,0,0,1,1,0,2,0,0,1,0,1,0,0,0,0,0,0,1,1,0,0,0,0,1],"bins":[-9.75781955236954e-19,-9.461358020830535e-19,-9.16489648929153e-19,-8.868434957752525e-19,-8.571973426213519e-19,-8.275511894674514e-19,-7.979050363135509e-19,-7.682588831596504e-19,-7.386127300057499e-19,-7.089665768518494e-19,-6.793204236979489e-19,-6.496742705440484e-19,-6.2002811739014785e-19,-5.903819642362473e-19,-5.607358110823468e-19,-5.310896579284463e-19,-5.014435047745458e-19,-4.717973516206453e-19,-4.421511984667448e-19,-4.1250504531284427e-19,-3.8285889215894375e-19,-3.5321273900504324e-19,-3.2356658585114273e-19,-2.939204326972422e-19,-2.642742795433417e-19,-2.346281263894412e-19,-2.0498197323554068e-19,-1.7533582008164017e-19,-1.4568966692773966e-19,-1.1604351377383915e-19,-8.639736061993863e-20,-5.675120746603812e-20,-2.710505431213761e-20,2.541098841762901e-21,3.218725199566341e-20,6.183340514956392e-20,9.147955830346444e-20,1.2112571145736495e-19,1.5077186461126546e-19,1.8041801776516597e-19,2.1006417091906648e-19,2.39710324072967e-19,2.693564772268675e-19,2.99002630380768e-19,3.2864878353466853e-19,3.5829493668856904e-19,3.8794108984246956e-19,4.1758724299637007e-19,4.472333961502706e-19,4.768795493041711e-19,5.065257024580716e-19,5.361718556119721e-19,5.658180087658726e-19,5.954641619197731e-19,6.2511031507367365e-19,6.547564682275742e-19,6.844026213814747e-19,7.140487745353752e-19,7.436949276892757e-19,7.733410808431762e-19,8.029872339970767e-19,8.326333871509772e-19,8.622795403048777e-19,8.919256934587783e-19,9.215718466126788e-19],"_type":"histogram"},"validation precision":0,"validation loss":10.00488471986142,"_wandb":{"runtime":156},"gradients/features.1.weight":{"_type":"histogram","values":[2,0,1,0,1,0,0,0,1,1,0,0,0,1,0,0,2,0,1,0,0,0,1,0,0,0,0,0,0,0,0,0,0,0,0,0,0,1,0,0,1,0,0,0,0,0,0,0,0,1,0,0,0,1,0,0,0,0,0,0,0,0,0,1],"bins":[-2.3099985466124018e-12,-2.206581055028134e-12,-2.103163563443866e-12,-1.9997460718595983e-12,-1.8963285802753305e-12,-1.7929110886910626e-12,-1.6894935971067948e-12,-1.586076105522527e-12,-1.4826586139382592e-12,-1.379241013933774e-12,-1.2758235223495062e-12,-1.1724060307652384e-12,-1.0689885391809706e-12,-9.655710475967028e-13,-8.621535560124349e-13,-7.587360644281671e-13,-6.553185728438993e-13,-5.519010812596314e-13,-4.484835896753636e-13,-3.4506607098604147e-13,-2.4164857940177364e-13,-1.3823108781750582e-13,-3.481358268071083e-14,6.860391567982058e-14,1.7202141404035198e-13,2.754389056246198e-13,3.7885639720888764e-13,4.822738887931555e-13,5.856914345875319e-13,6.891089261717998e-13,7.925264177560676e-13,8.959439093403354e-13,9.993614009246032e-13,1.102778892508871e-12,1.2061963840931389e-12,1.3096138756774067e-12,1.4130313672616746e-12,1.5164488588459424e-12,1.6198663504302102e-12,1.723283842014478e-12,1.826701333598746e-12,1.9301188251830137e-12,2.0335363167672815e-12,2.1369538083515494e-12,2.240371299935817e-12,2.343788791520085e-12,2.447206283104353e-12,2.5506237746886207e-12,2.654041483113323e-12,2.757458974697591e-12,2.8608764662818587e-12,2.9642939578661265e-12,3.0677114494503943e-12,3.171128941034662e-12,3.27454643261893e-12,3.377963924203198e-12,3.4813814157874656e-12,3.5847989073717335e-12,3.688216398956001e-12,3.791633673699835e-12,3.895051382124537e-12,3.99846865686837e-12,4.101886365293073e-12,4.205303640036906e-12,4.308721348461608e-12]},"gradients/features.4.bias":{"values":[1,0,0,0,0,0,0,0,0,0,0,1,0,0,0,0,2,1,0,0,0,0,0,0,1,0,1,1,0,2,0,0,1,0,0,0,1,1,1,1,4,0,3,0,2,0,1,0,0,0,0,1,1,2,0,1,0,0,0,0,0,1,0,1],"bins":[-6.039673969282511e-12,-5.92451868813848e-12,-5.80936340699445e-12,-5.6942085595312886e-12,-5.579053278387258e-12,-5.463897997243228e-12,-5.348743149780066e-12,-5.233587868636036e-12,-5.1184325874920056e-12,-5.003277306347975e-12,-4.888122025203945e-12,-4.772967177740783e-12,-4.657811896596753e-12,-4.5426566154527226e-12,-4.427501767989561e-12,-4.312346486845531e-12,-4.1971912057015e-12,-4.08203592455747e-12,-3.96688064341344e-12,-3.851725795950278e-12,-3.736570514806248e-12,-3.6214152336622174e-12,-3.5062601693586215e-12,-3.3911051050550256e-12,-3.2759498239109952e-12,-3.160794542766965e-12,-3.045639478463369e-12,-2.930484414159773e-12,-2.8153291330157426e-12,-2.7001738518717122e-12,-2.5850187875681163e-12,-2.4698637232645204e-12,-2.3547082252800555e-12,-2.2395531609764596e-12,-2.1243978798324292e-12,-2.009242598688399e-12,-1.894087534384803e-12,-1.7789323616609898e-12,-1.6637771889371766e-12,-1.5486220162133635e-12,-1.4334668434895503e-12,-1.3183116707657372e-12,-1.203156498041924e-12,-1.0880013253181109e-12,-9.728461525942977e-13,-8.576909798704846e-13,-7.425358071466714e-13,-6.273806344228583e-13,-5.122254616990451e-13,-3.97070288975232e-13,-2.8191511625141885e-13,-1.667599435276057e-13,-5.1604770803792555e-14,6.35504019200206e-14,1.7870557464383374e-13,2.938607473676469e-13,4.0901592009146004e-13,5.241710928152732e-13,6.393262655390863e-13,7.544814382628995e-13,8.696366109867126e-13,9.847917837105258e-13,1.099946956434339e-12,1.215102129158152e-12,1.3302573018819652e-12],"_type":"histogram"},"gradients/features.0.weight":{"bins":[-1.3054073447205106e-11,-1.249603719111203e-11,-1.1938000067657217e-11,-1.1379963811564142e-11,-1.0821926688109329e-11,-1.0263890432016254e-11,-9.70585330856144e-12,-9.147817052468366e-12,-8.589779929013552e-12,-8.031743672920477e-12,-7.473707416827402e-12,-6.915670293372589e-12,-6.357634037279514e-12,-5.7995973475055695e-12,-5.241560657731625e-12,-4.683523967957681e-12,-4.125487278183737e-12,-3.567450588409793e-12,-3.0094138986358487e-12,-2.451377425702339e-12,-1.893340735928395e-12,-1.3353040461544508e-12,-7.772674648007238e-13,-2.192308292368883e-13,3.3880580632694723e-13,8.968424418907828e-13,1.4548790774546183e-12,2.0129156588083452e-12,2.5709523485822894e-12,3.1289890383562335e-12,3.687025511289743e-12,4.245062201063687e-12,4.8030988908376315e-12,5.361135580611576e-12,5.91917227038552e-12,6.477208960159464e-12,7.035245649933408e-12,7.593281906026483e-12,8.151319029481296e-12,8.709355285574372e-12,9.267392409029185e-12,9.82542866512226e-12,1.0383464921215335e-11,1.0941502044670148e-11,1.1499538300763223e-11,1.2057575424218037e-11,1.2615611680311112e-11,1.3173648803765925e-11,1.3731685059859e-11,1.4289721315952075e-11,1.484775843940689e-11,1.5405794695499964e-11,1.596383095159304e-11,1.652186894240959e-11,1.7079905198502665e-11,1.763794145459574e-11,1.8195977710688815e-11,1.875401396678189e-11,1.9312051957598442e-11,1.9870088213691517e-11,2.0428124469784592e-11,2.0986160725877667e-11,2.1544198716694218e-11,2.2102234972787294e-11,2.266027122888037e-11],"_type":"histogram","values":[6,20,17,22,7,7,14,14,11,2,6,4,2,5,6,1,23,25,22,37,12,52,76,77,98,105,118,96,47,11,6,9,9,4,5,3,6,3,3,0,1,0,0,1,1,1,2,2,4,2,3,0,0,0,0,0,0,1,1,2,2,1,5,4]},"gradients/features.8.bias":{"bins":[-1.7169030086527926e-11,-1.6911106195949266e-11,-1.6653182305370606e-11,-1.6395258414791947e-11,-1.6137334524213287e-11,-1.5879410633634627e-11,-1.5621485008332492e-11,-1.5363561117753832e-11,-1.5105637227175173e-11,-1.4847713336596513e-11,-1.4589789446017853e-11,-1.4331865555439194e-11,-1.4073941664860534e-11,-1.3816017774281875e-11,-1.3558093016341477e-11,-1.3300169125762817e-11,-1.3042245235184158e-11,-1.2784321344605498e-11,-1.2526397454026839e-11,-1.2268472696086441e-11,-1.2010548805507781e-11,-1.1752624914929122e-11,-1.1494701024350462e-11,-1.1236777133771803e-11,-1.0978853243193143e-11,-1.0720928485252745e-11,-1.0463004594674086e-11,-1.0205080704095426e-11,-9.947156813516767e-12,-9.689232922938107e-12,-9.43130816499771e-12,-9.17338427441905e-12,-8.915459516478652e-12,-8.657535625899992e-12,-8.399611735321333e-12,-8.141686977380935e-12,-7.883763086802276e-12,-7.625839196223616e-12,-7.367915305644956e-12,-7.109990981385428e-12,-6.852067090806768e-12,-6.594143200228109e-12,-6.33621887596858e-12,-6.0782949853899204e-12,-5.820371094811261e-12,-5.562446770551732e-12,-5.3045228799730726e-12,-5.046598555713544e-12,-4.788674665134884e-12,-4.530750774556225e-12,-4.272826450296696e-12,-4.0149025597180366e-12,-3.756978235458508e-12,-3.4990543448798483e-12,-3.2411304543011887e-12,-2.9832063468820946e-12,-2.7252822394630005e-12,-2.4673581320439064e-12,-2.2094340246248123e-12,-1.9515101340461527e-12,-1.6935860266270586e-12,-1.4356619192079645e-12,-1.1777379202090876e-12,-9.198139212102108e-13,-6.618898137911167e-13],"_type":"histogram","values":[1,0,0,0,1,0,0,0,0,0,0,0,1,1,0,1,0,0,1,1,0,2,0,1,0,1,2,2,2,0,1,0,4,1,0,0,0,1,2,3,1,0,0,1,0,0,0,0,0,0,0,0,0,0,0,0,0,0,0,0,0,0,0,1]},"best validation loss":5.441015169247066,"gradients/features.0.bias":{"_type":"histogram","values":[1,0,0,0,0,0,0,0,0,0,0,0,0,0,0,0,0,0,0,0,0,0,0,0,0,0,0,1,0,1,0,0,0,1,0,0,1,1,2,0,1,0,0,1,1,0,1,0,1,0,0,0,0,0,0,0,0,1,0,0,0,1,0,1],"bins":[-1.1102230246251565e-16,-1.0798653637955624e-16,-1.0495077029659683e-16,-1.0191500421363742e-16,-9.8879238130678e-17,-9.584347204771859e-17,-9.280770596475918e-17,-8.977193988179977e-17,-8.673617379884035e-17,-8.370040771588094e-17,-8.066464163292153e-17,-7.762887554996212e-17,-7.45931094670027e-17,-7.155734338404329e-17,-6.852157730108388e-17,-6.548581121812447e-17,-6.245004513516506e-17,-5.941427905220564e-17,-5.637851296924623e-17,-5.334274688628682e-17,-5.0306980803327406e-17,-4.7271214720367993e-17,-4.423544863740858e-17,-4.119968255444917e-17,-3.8163916471489756e-17,-3.5128150388530344e-17,-3.209238430557093e-17,-2.905661822261152e-17,-2.6020852139652106e-17,-2.2985086056692694e-17,-1.9949319973733282e-17,-1.691355389077387e-17,-1.3877787807814457e-17,-1.0842021724855044e-17,-7.806255641895632e-18,-4.7704895589362195e-18,-1.734723475976807e-18,1.3010426069826053e-18,4.336808689942018e-18,7.37257477290143e-18,1.0408340855860843e-17,1.3444106938820255e-17,1.6479873021779667e-17,1.951563910473908e-17,2.2551405187698492e-17,2.5587171270657905e-17,2.862293735361732e-17,3.165870343657673e-17,3.469446951953614e-17,3.7730235602495554e-17,4.0766001685454967e-17,4.380176776841438e-17,4.683753385137379e-17,4.9873299934333204e-17,5.2909066017292616e-17,5.594483210025203e-17,5.898059818321144e-17,6.201636426617085e-17,6.505213034913027e-17,6.808789643208968e-17,7.112366251504909e-17,7.41594285980085e-17,7.719519468096792e-17,8.023096076392733e-17,8.326672684688674e-17]},"_step":21,"gradients/classifier.1.bias":{"_type":"histogram","values":[1,0,0,0,0,0,0,0,0,1,0,0,1,0,0,1,3,1,0,2,1,1,1,1,0,0,0,1,1,0,1,0,2,1,2,3,1,0,1,1,0,0,1,0,4,1,1,0,3,0,1,0,0,0,3,2,0,1,3,1,1,0,0,50],"bins":[-1.4353479342588127e-12,-1.4129206702198638e-12,-1.3904932977606976e-12,-1.3680660337217487e-12,-1.3456386612625826e-12,-1.3232113972236337e-12,-1.3007840247644675e-12,-1.2783567607255186e-12,-1.2559293882663525e-12,-1.2335021242274036e-12,-1.2110748601884547e-12,-1.1886474877292885e-12,-1.1662202236903396e-12,-1.1437928512311735e-12,-1.1213655871922246e-12,-1.0989382147330584e-12,-1.0765109506941095e-12,-1.0540836866551606e-12,-1.0316563141959945e-12,-1.0092290501570456e-12,-9.868016776978794e-13,-9.643744136589305e-13,-9.419470411997644e-13,-9.195197771608155e-13,-8.970924589117579e-13,-8.746651406627004e-13,-8.522378224136429e-13,-8.298105041645853e-13,-8.073832401256364e-13,-7.849559218765789e-13,-7.625286036275214e-13,-7.401012853784639e-13,-7.176739671294063e-13,-6.952466488803488e-13,-6.728193306312913e-13,-6.503920123822338e-13,-6.279646941331762e-13,-6.055374300942273e-13,-5.831101118451698e-13,-5.606827935961123e-13,-5.382554753470548e-13,-5.158281570979972e-13,-4.934008388489397e-13,-4.709735205998822e-13,-4.4854622945587896e-13,-4.2611891120682144e-13,-4.036916200628182e-13,-3.812643018137607e-13,-3.5883698356470317e-13,-3.3640966531564565e-13,-3.139823470665881e-13,-2.915550559225849e-13,-2.691277376735274e-13,-2.4670041942446985e-13,-2.2427311472793948e-13,-2.018458100314091e-13,-1.7941849178235159e-13,-1.5699117353329406e-13,-1.345638688367637e-13,-1.1213655736396974e-13,-8.970924589117579e-14,-6.728193441838184e-14,-4.4854622945587896e-14,-2.2427311472793948e-14,0]},"gradients/features.7.weight":{"values":[2,3,6,13,15,23,31,50,48,72,95,114,187,256,418,570,864,1137,1407,1664,1807,1999,2019,1925,1793,1736,1702,1371,1127,935,748,638,534,435,309,272,231,190,148,138,117,84,83,58,58,38,35,22,10,16,10,12,12,11,12,10,7,8,4,3,3,1,1,1],"bins":[-8.264708362126783e-12,-7.891034180251832e-12,-7.51736086573862e-12,-7.14368668386367e-12,-6.770012935669589e-12,-6.396339187475508e-12,-6.022665005600558e-12,-5.648991257406477e-12,-5.275317509212396e-12,-4.901643761018315e-12,-4.527970012824234e-12,-4.154295830949284e-12,-3.780622082755203e-12,-3.4069483345611218e-12,-3.0332743695266062e-12,-2.6596004044920907e-12,-2.2859266562980096e-12,-1.9122529081039286e-12,-1.538578943069413e-12,-1.1649050864551147e-12,-7.912312298408164e-13,-4.175573732265181e-13,-4.3883516612219786e-14,3.297903400020785e-13,7.034641966163768e-13,1.0771380532306751e-12,1.4508119098449734e-12,1.824485874879489e-12,2.19815962307357e-12,2.571833371267651e-12,2.9455073363021667e-12,3.3191813013366822e-12,3.692855049530763e-12,4.066528797724844e-12,4.440202545918925e-12,4.8138767277938754e-12,5.1875504759879565e-12,5.5612242241820375e-12,5.934898406056988e-12,6.308572154251069e-12,6.68224590244515e-12,7.055919650639231e-12,7.429593398833312e-12,7.803267580708262e-12,8.176941762583212e-12,8.550615077096424e-12,8.924289258971374e-12,9.297962573484586e-12,9.671636755359536e-12,1.0045310937234486e-11,1.0418984251747698e-11,1.0792658433622648e-11,1.116633174813586e-11,1.154000593001081e-11,1.191368011188576e-11,1.2287353426398973e-11,1.2661027608273923e-11,1.3034701790148873e-11,1.3408375104662085e-11,1.3782049286537035e-11,1.4155723468411985e-11,1.4529396782925197e-11,1.490307009743841e-11,1.5276745146675097e-11,1.565041846118831e-11],"_type":"histogram"},"gradients/features.1.bias":{"_type":"histogram","values":[1,1,0,0,0,0,1,0,0,0,1,0,1,0,0,0,0,1,1,1,1,0,0,0,2,0,1,0,0,0,1,0,1,0,0,0,0,0,1,0,0,0,0,0,0,0,0,0,0,0,0,0,0,0,0,0,0,0,0,0,0,0,0,1],"bins":[-3.742535795159263e-12,-3.642702892797667e-12,-3.542870207276505e-12,-3.4430375217553433e-12,-3.3432048362341815e-12,-3.2433719338725853e-12,-3.1435392483514235e-12,-3.0437065628302618e-12,-2.9438738773091e-12,-2.8440409749475037e-12,-2.744208289426342e-12,-2.6443756039051802e-12,-2.544542701543584e-12,-2.4447100160224222e-12,-2.3448773305012605e-12,-2.2450444281396642e-12,-2.1452117426185024e-12,-2.0453790570973407e-12,-1.9455461547357444e-12,-1.8457134692145827e-12,-1.745880783693421e-12,-1.646047989752042e-12,-1.546215195810663e-12,-1.4463825102895012e-12,-1.3465497163481221e-12,-1.2467169224067431e-12,-1.1468842368855814e-12,-1.0470514429442024e-12,-9.472186490028234e-13,-8.473859634816616e-13,-7.475531695402826e-13,-6.477204298090122e-13,-5.478876900777419e-13,-4.4805495034647147e-13,-3.482221835101468e-13,-2.483894166738221e-13,-1.485566769425517e-13,-4.8723923658754165e-14,5.110882962504337e-14,1.509415829088409e-13,2.5077433619263845e-13,3.5060707592390883e-13,4.504398427602335e-13,5.502726095965582e-13,6.501053493278286e-13,7.49938089059099e-13,8.49770883000478e-13,9.496035685216397e-13,1.0494363624630187e-12,1.1492691564043978e-12,1.2491018419255595e-12,1.3489346358669385e-12,1.4487673213881003e-12,1.5486001153294793e-12,1.6484329092708583e-12,1.74826559479202e-12,1.8480984971536163e-12,1.947931182674778e-12,2.04776386819594e-12,2.1475965537171016e-12,2.247429456078698e-12,2.3472621415998596e-12,2.4470948271210213e-12,2.5469277294826176e-12,2.6467604150037793e-12]},"gradients/features.3.weight":{"bins":[-7.200760387265914e-12,-6.718401876493196e-12,-6.236043799401347e-12,-5.753685288628629e-12,-5.2713267778559114e-12,-4.7889687007640624e-12,-4.3066101899913445e-12,-3.8242521128994955e-12,-3.3418936021267776e-12,-2.859535308194494e-12,-2.3771770142622106e-12,-1.8948185034894927e-12,-1.4124602095572092e-12,-9.301019156249257e-13,-4.47743513272425e-13,3.461483486996708e-14,5.169731830123592e-13,9.993314769446426e-13,1.4816898792971434e-12,1.964048281649644e-12,2.4464065755819275e-12,2.928764869514211e-12,3.411123380286929e-12,3.893481457378778e-12,4.375839968151496e-12,4.858198478924214e-12,5.340556556016063e-12,5.822915066788781e-12,6.30527314388063e-12,6.787631654653348e-12,7.269990165426066e-12,7.752348242517915e-12,8.234706319609764e-12,8.717064396701613e-12,9.1994233411552e-12,9.681781418247049e-12,1.0164139495338897e-11,1.0646498439792484e-11,1.1128856516884333e-11,1.1611214593976182e-11,1.2093572671068031e-11,1.2575931615521618e-11,1.3058289692613467e-11,1.3540647769705316e-11,1.4023006714158903e-11,1.4505364791250752e-11,1.49877228683426e-11,1.5470081812796188e-11,1.5952440757249775e-11,1.6434797966979886e-11,1.6917156911433473e-11,1.7399514121163584e-11,1.788187306561717e-11,1.8364232010070758e-11,1.884658921980087e-11,1.9328948164254456e-11,1.9811307108708043e-11,2.0293664318438154e-11,2.077602326289174e-11,2.1258382207345328e-11,2.174073941707544e-11,2.2223098361529026e-11,2.2705457305982613e-11,2.3187814515712724e-11,2.367017346016631e-11],"_type":"histogram","values":[29,15,10,20,48,89,103,89,165,332,601,1208,2235,3760,6087,5632,3267,1943,1372,914,703,462,391,448,331,239,241,262,222,198,124,114,86,103,96,90,54,54,46,43,68,51,49,24,25,16,32,27,25,19,12,13,19,16,18,23,19,17,20,22,17,8,1,1]},"gradients/features.10.weight":{"values":[2,2,1,0,3,0,0,2,2,5,10,13,10,7,9,7,11,16,20,15,15,17,10,10,8,10,10,16,25,21,19,20,25,40,42,56,64,75,104,160,183,277,307,336,374,367,330,256,210,237,216,235,227,184,233,349,440,488,637,475,465,822,1677,3617],"bins":[-3.0128729372469465e-11,-2.965756806805331e-11,-2.918640676363715e-11,-2.871524372449752e-11,-2.8244082420081362e-11,-2.7772921115665206e-11,-2.7301758076525573e-11,-2.6830596772109416e-11,-2.635943546769326e-11,-2.5888272428553627e-11,-2.541711112413747e-11,-2.4945949819721314e-11,-2.4474788515305157e-11,-2.4003625476165524e-11,-2.3532464171749368e-11,-2.306130286733321e-11,-2.2590141562917054e-11,-2.2118978523777422e-11,-2.1647817219361265e-11,-2.1176655914945108e-11,-2.0705492875805476e-11,-2.023433157138932e-11,-1.9763170266973162e-11,-1.9292008962557006e-11,-1.8820845923417373e-11,-1.8349684619001216e-11,-1.787852331458506e-11,-1.7407360275445427e-11,-1.693619897102927e-11,-1.6465037666613114e-11,-1.5993876362196957e-11,-1.5522713323057324e-11,-1.5051550283917692e-11,-1.4580388979501535e-11,-1.4109227675085378e-11,-1.3638065503307484e-11,-1.3166904198891327e-11,-1.2695742027113432e-11,-1.2224580722697276e-11,-1.1753418550919381e-11,-1.1282256379141486e-11,-1.081109507472533e-11,-1.0339932902947435e-11,-9.868771598531278e-12,-9.397609426753384e-12,-8.926448122337227e-12,-8.455285950559333e-12,-7.984123778781438e-12,-7.512962474365281e-12,-7.0418007362682555e-12,-6.57063899817123e-12,-6.099476826393335e-12,-5.6283150882963096e-12,-5.157153350199284e-12,-4.685991612102258e-12,-4.2148298740052326e-12,-3.743668135908207e-12,-3.2725061809707467e-12,-2.801344442873721e-12,-2.3301827047766954e-12,-1.8590209666796698e-12,-1.3878591201624269e-12,-9.16697273645184e-13,-4.4553550844310397e-13,2.562628047589853e-14],"_type":"histogram"},"gradients/classifier.3.weight":{"_type":"histogram","values":[50,0,0,0,0,0,0,0,0,0,0,0,0,0,0,0,0,0,0,0,0,0,0,0,0,0,0,1,1,1,7,8,3,10,7,6,2,1,0,0,0,0,0,0,0,0,0,0,0,0,0,0,0,0,0,0,1,0,0,0,1,0,0,1],"bins":[0,2.8345034652765833e-12,5.6690069305531665e-12,8.50351039582975e-12,1.1338013861106333e-11,1.4172517326382916e-11,1.70070207916595e-11,1.9841524256936083e-11,2.2676027722212666e-11,2.551053118748925e-11,2.8345034652765833e-11,3.1179538118042416e-11,3.4014041583319e-11,3.684854504859558e-11,3.9683048513872166e-11,4.251755197914875e-11,4.535205544442533e-11,4.8186558909701915e-11,5.10210623749785e-11,5.385556584025508e-11,5.6690069305531665e-11,5.952457277080825e-11,6.235907623608483e-11,6.519357970136141e-11,6.8028083166638e-11,7.086258663191458e-11,7.369709009719116e-11,7.653159356246775e-11,7.936609702774433e-11,8.220060049302091e-11,8.50351039582975e-11,8.786960742357408e-11,9.070411088885066e-11,9.353861435412725e-11,9.637311781940383e-11,9.920762128468041e-11,1.02042124749957e-10,1.0487662821523358e-10,1.0771113168051016e-10,1.1054563514578675e-10,1.1338013861106333e-10,1.1621464207633991e-10,1.190491455416165e-10,1.2188364206799918e-10,1.2471815247216966e-10,1.2755266287634015e-10,1.3038715940272283e-10,1.332216559291055e-10,1.36056166333276e-10,1.3889067673744648e-10,1.4172517326382916e-10,1.4455966979021184e-10,1.4739418019438233e-10,1.5022869059855282e-10,1.530631871249355e-10,1.5589768365131818e-10,1.5873219405548866e-10,1.6156670445965915e-10,1.6440120098604183e-10,1.672356975124245e-10,1.70070207916595e-10,1.7290471832076548e-10,1.7573921484714816e-10,1.7857371137353084e-10,1.8140822177770133e-10]},"_runtime":156,"validation recall":0,"gradients/features.10.bias":{"values":[1,0,0,0,0,0,0,0,0,0,0,0,0,0,0,0,0,0,0,0,1,0,0,0,0,0,0,0,0,0,1,0,1,2,1,1,4,1,1,1,0,0,0,0,0,0,0,0,0,0,0,0,0,0,0,0,0,0,0,0,0,0,0,1],"bins":[-2.1111334902457202e-11,-2.0781470294606308e-11,-2.0451605686755414e-11,-2.012174107890452e-11,-1.9791876471053627e-11,-1.9462011863202733e-11,-1.913214725535184e-11,-1.8802282647500945e-11,-1.847241803965005e-11,-1.8142553431799158e-11,-1.7812688823948264e-11,-1.748282421609737e-11,-1.7152959608246476e-11,-1.6823095000395583e-11,-1.649323039254469e-11,-1.6163365784693795e-11,-1.58335011768429e-11,-1.5503636568992007e-11,-1.5173771961141114e-11,-1.484390735329022e-11,-1.4514042745439326e-11,-1.4184178137588432e-11,-1.3854313529737539e-11,-1.3524448921886645e-11,-1.3194584314035751e-11,-1.2864719706184857e-11,-1.2534855098333963e-11,-1.220499049048307e-11,-1.1875125882632176e-11,-1.1545261274781282e-11,-1.1215396666930388e-11,-1.0885532059079495e-11,-1.0555667451228601e-11,-1.0225802843377707e-11,-9.895938235526813e-12,-9.56607362767592e-12,-9.236209019825026e-12,-8.906344411974132e-12,-8.576479804123238e-12,-8.246615196272344e-12,-7.91675058842145e-12,-7.586885980570557e-12,-7.257021372719663e-12,-6.927156764868769e-12,-6.5972921570178755e-12,-6.267427549166982e-12,-5.937562941316088e-12,-5.607698333465194e-12,-5.2778337256143004e-12,-4.947969117763407e-12,-4.618104509912513e-12,-4.288239902061619e-12,-3.958375294210725e-12,-3.6285106863598315e-12,-3.2986460785089378e-12,-2.968781470658044e-12,-2.6389168628071502e-12,-2.3090522549562564e-12,-1.9791876471053627e-12,-1.6493230392544689e-12,-1.3194584314035751e-12,-9.895938235526813e-13,-6.597292157017876e-13,-3.298646078508938e-13,0],"_type":"histogram"},"gradients/classifier.3.bias":{"_type":"histogram","values":[1],"bins":[1.130784528513562e-11,1.130784528513562e-11]},"gradients/features.8.weight":{"bins":[-1.4690478000733975e-11,-1.4465182524014963e-11,-1.4239887047295952e-11,-1.401459157057694e-11,-1.3789296093857928e-11,-1.3564000617138916e-11,-1.3338705140419904e-11,-1.3113409663700892e-11,-1.288811418698188e-11,-1.2662819577624607e-11,-1.2437524100905595e-11,-1.2212228624186583e-11,-1.1986933147467571e-11,-1.176163767074856e-11,-1.1536342194029547e-11,-1.1311046717310536e-11,-1.1085751240591524e-11,-1.0860455763872512e-11,-1.06351602871535e-11,-1.0409864810434488e-11,-1.0184569333715476e-11,-9.959273856996465e-12,-9.733978380277453e-12,-9.508682903558441e-12,-9.283388294201167e-12,-9.058092817482155e-12,-8.832797340763143e-12,-8.607501864044131e-12,-8.38220638732512e-12,-8.156910910606108e-12,-7.931615433887096e-12,-7.706319957168084e-12,-7.481024480449072e-12,-7.255729437410929e-12,-7.0304339606919175e-12,-6.805138483972906e-12,-6.579843007253894e-12,-6.354547964215751e-12,-6.129252487496739e-12,-5.903957010777727e-12,-5.6786615340587154e-12,-5.4533660573397036e-12,-5.228070580620692e-12,-5.00277510390168e-12,-4.777479627182668e-12,-4.552184150463656e-12,-4.326889107425513e-12,-4.1015936307065015e-12,-3.87629815398749e-12,-3.651002677268478e-12,-3.425707200549466e-12,-3.200411723830454e-12,-2.9751164639518768e-12,-2.749820987232865e-12,-2.524525510513853e-12,-2.2992302506352758e-12,-2.073934773916264e-12,-1.848639297197252e-12,-1.6233438204782402e-12,-1.3980484521794456e-12,-1.172753083880651e-12,-9.474576071616392e-13,-7.22162184652736e-13,-4.968667621438327e-13,-2.715713396349295e-13],"_type":"histogram","values":[1,0,0,1,0,0,0,1,0,0,1,1,1,0,1,0,0,0,1,1,1,1,1,4,0,0,0,0,0,1,1,1,1,1,1,1,1,2,1,1,0,1,0,1,1,0,0,0,0,0,0,0,0,0,0,0,0,0,0,0,0,0,0,1]},"validation accuracy":0.875,"gradients/features.7.bias":{"values":[1,0,0,0,0,0,1,1,0,0,0,1,3,1,0,1,2,1,0,3,1,2,3,3,2,0,1,2,1,0,1,0,0,0,0,0,0,0,0,0,0,0,0,0,0,0,0,0,0,0,0,0,0,0,0,0,0,0,0,0,0,0,0,1],"bins":[-2.1446874224478885e-18,-2.0247793208522016e-18,-1.9048712192565147e-18,-1.7849631176608278e-18,-1.6650550160651409e-18,-1.545146914469454e-18,-1.4252388128737671e-18,-1.3053307112780802e-18,-1.1854226096823933e-18,-1.0655145080867064e-18,-9.456064064910195e-19,-8.2569830489533265e-19,-7.057902032996458e-19,-5.858821017039589e-19,-4.65974000108272e-19,-3.460658985125851e-19,-2.261577969168982e-19,-1.062496953212113e-19,1.3658406274475593e-20,1.3356650787016248e-19,2.534746094658494e-19,3.7338271106153627e-19,4.932908126572232e-19,6.1319891425291005e-19,7.331070158485969e-19,8.530151174442838e-19,9.729232190399707e-19,1.0928313206356576e-18,1.2127394222313445e-18,1.3326475238270314e-18,1.4525556254227183e-18,1.5724637270184052e-18,1.692371828614092e-18,1.812279930209779e-18,1.932188031805466e-18,2.0520961334011528e-18,2.1720042349968396e-18,2.2919123365925265e-18,2.4118204381882134e-18,2.5317285397839003e-18,2.6516366413795872e-18,2.771544742975274e-18,2.891452844570961e-18,3.011360946166648e-18,3.1312690477623348e-18,3.2511771493580217e-18,3.3710852509537086e-18,3.4909933525493955e-18,3.610901454145082e-18,3.730809555740769e-18,3.850717657336456e-18,3.970625758932143e-18,4.09053386052783e-18,4.210441962123517e-18,4.330350063719204e-18,4.4502581653148906e-18,4.5701662669105775e-18,4.690074368506264e-18,4.809982470101951e-18,4.929890571697638e-18,5.049798673293325e-18,5.169706774889012e-18,5.289614876484699e-18,5.409522978080386e-18,5.5294310796760726e-18],"_type":"histogram"},"_timestamp":1.7659412037581275e+09,"train loss":1.8621370811641724e-08,"gradients/features.4.weight":{"values":[1,0,0,1,2,1,0,0,2,0,0,3,1,2,1,0,0,2,2,1,1,0,0,1,0,0,0,0,0,2,0,0,0,0,0,1,2,0,0,0,1,1,1,0,0,1,1,0,0,0,0,0,0,0,0,0,0,0,0,0,0,0,0,1],"bins":[-3.444829274265593e-12,-3.2886950541294313e-12,-3.1325606171528353e-12,-2.9764263970166738e-12,-2.8202919600400778e-12,-2.6641577399039162e-12,-2.5080233029273202e-12,-2.3518890827911587e-12,-2.195754862654997e-12,-2.039620425678401e-12,-1.8834862055422397e-12,-1.7273517685656437e-12,-1.5712175484294821e-12,-1.4150832198731034e-12,-1.2589488913167246e-12,-1.1028145627603458e-12,-9.46680234203967e-13,-7.905459056475883e-13,-6.344115770912095e-13,-4.782773027449394e-13,-3.2214297418856064e-13,-1.6600865918470903e-13,-9.87434418085742e-15,1.462599708229942e-13,3.023942858268458e-13,4.585286143832246e-13,6.146629429396033e-13,7.707972172858735e-13,9.269314916321436e-13,1.0830658201885224e-12,1.2392001487449011e-12,1.39533447730128e-12,1.5514690226980932e-12,1.707603351254472e-12,1.8637376798108507e-12,2.0198718999470122e-12,2.1760063369236082e-12,2.3321405570597697e-12,2.4882749940363658e-12,2.6444092141725273e-12,2.8005436511491233e-12,2.956677871285285e-12,3.1128120914214463e-12,3.2689465283980423e-12,3.425080748534204e-12,3.5812151855108e-12,3.737349405646961e-12,3.893483625783123e-12,4.0496182796001534e-12,4.205752499736315e-12,4.3618867198724764e-12,4.518020940008638e-12,4.6741551601447995e-12,4.83028981396183e-12,4.9864240340979915e-12,5.142558254234153e-12,5.2986924743703145e-12,5.454826694506476e-12,5.6109613483235066e-12,5.767095568459668e-12,5.92322978859583e-12,6.079364008731991e-12,6.235498662549022e-12,6.391632882685183e-12,6.547767102821345e-12],"_type":"histogram"}}