{"validation loss":127.0530776977539,"gradients/classifier.1.bias":{"values":[1,0,0,1,3,1,1,1,2,0,1,2,0,0,1,0,0,0,0,2,0,0,1,0,2,1,2,0,3,1,0,1,1,0,0,0,0,1,0,3,1,1,1,0,2,1,0,1,0,0,0,1,2,2,0,1,2,1,1,1,0,0,0,50],"bins":[-8.244276727964461e-08,-8.11545959322757e-08,-7.986643169033414e-08,-7.857826034296522e-08,-7.729009610102366e-08,-7.600192475365475e-08,-7.471376051171319e-08,-7.342558916434427e-08,-7.213742492240272e-08,-7.08492535750338e-08,-6.956108222766488e-08,-6.827291798572332e-08,-6.698474663835441e-08,-6.569658239641285e-08,-6.440841104904393e-08,-6.312024680710238e-08,-6.183207545973346e-08,-6.054390411236454e-08,-5.9255739870422985e-08,-5.796757207576775e-08,-5.667940428111251e-08,-5.5391232933743595e-08,-5.410306513908836e-08,-5.281489734443312e-08,-5.152672954977788e-08,-5.0238561755122646e-08,-4.895039396046741e-08,-4.766222616581217e-08,-4.6374054818443255e-08,-4.508588702378802e-08,-4.379771922913278e-08,-4.2509551434477544e-08,-4.1221383639822307e-08,-3.993321584516707e-08,-3.864504805051183e-08,-3.7356880255856595e-08,-3.606871246120136e-08,-3.478054111383244e-08,-3.3492373319177204e-08,-3.220420552452197e-08,-3.091603772986673e-08,-2.9627869935211493e-08,-2.8339702140556255e-08,-2.705153256954418e-08,-2.576336477488894e-08,-2.4475196980233704e-08,-2.3187027409221628e-08,-2.189885961456639e-08,-2.0610691819911153e-08,-1.9322524025255916e-08,-1.803435623060068e-08,-1.6746186659588602e-08,-1.5458018864933365e-08,-1.4169851070278128e-08,-1.288168238744447e-08,-1.1593513704610814e-08,-1.0305345909955577e-08,-9.01717811530034e-09,-7.729009432466682e-09,-6.440841193722235e-09,-5.152672954977788e-09,-3.864504716233341e-09,-2.576336477488894e-09,-1.288168238744447e-09,0],"_type":"histogram"},"gradients/features.3.weight":{"_type":"histogram","values":[1,0,1,0,1,3,2,7,17,39,78,87,76,94,204,318,379,696,1206,2497,3494,4274,5178,3986,2269,1556,1029,759,649,596,507,415,368,334,243,216,170,109,86,80,63,65,45,46,47,61,54,47,29,67,45,39,16,17,23,28,13,15,10,6,2,3,0,3],"bins":[-3.0817528795523685e-07,-2.9399890877357393e-07,-2.7982255801362044e-07,-2.656461788319575e-07,-2.51469828072004e-07,-2.372934488903411e-07,-2.231170839195329e-07,-2.0894071894872468e-07,-1.9476433976706176e-07,-1.8058797479625355e-07,-1.6641160982544534e-07,-1.5223524485463713e-07,-1.3805887988382892e-07,-1.2388251491302071e-07,-1.0970614283678515e-07,-9.552977076054958e-08,-8.135340578974137e-08,-6.717704081893316e-08,-5.30006687426976e-08,-3.882430377188939e-08,-2.4647935248367503e-08,-1.0471567613024035e-08,3.704800022319432e-09,1.788116676948448e-08,3.205753529300637e-08,4.6233903816528255e-08,6.041027234005014e-08,7.458663731085835e-08,8.876300228166656e-08,1.0293937435790212e-07,1.1711573932871033e-07,1.312921114049459e-07,1.454684763757541e-07,1.5964484134656232e-07,1.7382120631737052e-07,1.8799758549903345e-07,2.0217395046984166e-07,2.1635031544064987e-07,2.3052668041145807e-07,2.447030453822663e-07,2.588794245639292e-07,2.730557753238827e-07,2.872321545055456e-07,3.0140853368720855e-07,3.1558488444716204e-07,3.2976126362882496e-07,3.4393761438877846e-07,3.581139935704414e-07,3.7229034433039487e-07,3.864667235120578e-07,4.006431026937207e-07,4.148194534536742e-07,4.2899583263533714e-07,4.4317218339529063e-07,4.5734856257695355e-07,4.715249417586165e-07,4.857013209402794e-07,4.998776717002329e-07,5.140540224601864e-07,5.282304300635587e-07,5.424067808235122e-07,5.565831315834657e-07,5.707594823434192e-07,5.849358899467916e-07,5.991122407067451e-07]},"train loss":5.824225308970199e-05,"gradients/features.0.bias":{"bins":[-6.252776074688882e-12,-5.88507020893303e-12,-5.517364343177178e-12,-5.149658477421326e-12,-4.781952611665474e-12,-4.4142467459096224e-12,-4.0465408801537706e-12,-3.678835014397919e-12,-3.311129148642067e-12,-2.943423282886215e-12,-2.575717417130363e-12,-2.2080115513745113e-12,-1.8403056856186595e-12,-1.4725998198628076e-12,-1.1048939541069558e-12,-7.371880883511039e-13,-3.694822225952521e-13,-1.7763568394002505e-15,3.659295089164516e-13,7.336353746723034e-13,1.1013412404281553e-12,1.4690471061840071e-12,1.836752971939859e-12,2.204458837695711e-12,2.5721647034515627e-12,2.9398705692074145e-12,3.3075764349632664e-12,3.675282300719118e-12,4.04298816647497e-12,4.410694032230822e-12,4.778399897986674e-12,5.146105763742526e-12,5.5138116294983774e-12,5.881517495254229e-12,6.249223361010081e-12,6.616929226765933e-12,6.984635092521785e-12,7.352340958277637e-12,7.720046824033489e-12,8.08775268978934e-12,8.455458555545192e-12,8.823164421301044e-12,9.190870287056896e-12,9.558576152812748e-12,9.9262820185686e-12,1.0293987884324451e-11,1.0661693750080303e-11,1.1029399615836155e-11,1.1397105481592007e-11,1.1764811347347859e-11,1.213251721310371e-11,1.2500223078859563e-11,1.2867928944615414e-11,1.3235634810371266e-11,1.3603340676127118e-11,1.397104654188297e-11,1.4338752407638822e-11,1.4706458273394674e-11,1.5074164139150525e-11,1.5441870004906377e-11,1.580957587066223e-11,1.617728173641808e-11,1.6544987602173933e-11,1.6912693467929785e-11,1.7280399333685637e-11],"_type":"histogram","values":[1,0,0,0,0,0,0,0,0,0,0,1,1,2,3,2,1,1,2,0,1,0,0,0,0,0,0,0,0,0,0,0,0,0,0,0,0,0,0,0,0,0,0,0,0,0,0,0,0,0,0,0,0,0,0,0,0,0,0,0,0,0,0,1]},"gradients/classifier.1.weight":{"bins":[-1.854918139088113e-07,-1.8259351008964586e-07,-1.796951920596257e-07,-1.7679688824046025e-07,-1.7389857021044008e-07,-1.7100026639127464e-07,-1.681019625721092e-07,-1.6520364454208902e-07,-1.6230534072292357e-07,-1.594070226929034e-07,-1.5650871887373796e-07,-1.5361041505457251e-07,-1.5071209702455235e-07,-1.478137932053869e-07,-1.4491547517536674e-07,-1.420171713562013e-07,-1.3911886753703584e-07,-1.3622054950701568e-07,-1.3332224568785023e-07,-1.3042392765783006e-07,-1.2752562383866461e-07,-1.2462730580864445e-07,-1.21729001989479e-07,-1.188306910648862e-07,-1.1593238014029339e-07,-1.1303407632112794e-07,-1.1013576539653513e-07,-1.0723745447194233e-07,-1.0433914354734952e-07,-1.0144083262275672e-07,-9.854252880359127e-08,-9.564421787899846e-08,-9.274590695440565e-08,-8.984759602981285e-08,-8.694928510522004e-08,-8.40509812860546e-08,-8.115267036146179e-08,-7.825435943686898e-08,-7.535604851227617e-08,-7.245773758768337e-08,-6.955943376851792e-08,-6.666112284392511e-08,-6.376281191933231e-08,-6.08645009947395e-08,-5.7966190070146695e-08,-5.506788269826757e-08,-5.216957177367476e-08,-4.9271264401795634e-08,-4.637295347720283e-08,-4.347464255261002e-08,-4.0576335180730894e-08,-3.767802425613809e-08,-3.477971688425896e-08,-3.1881405959666154e-08,-2.8983095035073347e-08,-2.608478588683738e-08,-2.3186476738601414e-08,-2.0288167590365447e-08,-1.738985844212948e-08,-1.4491547517536674e-08,-1.1593238369300707e-08,-8.69492922106474e-09,-5.7966191846503534e-09,-2.8983095923251767e-09,0],"_type":"histogram","values":[5,9,26,23,43,70,118,148,195,199,255,258,289,262,305,362,357,424,513,575,688,715,753,877,890,954,1074,1112,1154,1219,1326,1229,1181,1214,1348,1484,1564,1683,1818,1974,2081,2004,1856,1673,1695,1905,2102,2104,2266,2326,1841,1727,1722,2011,1844,2159,2324,2433,2688,3268,2476,1535,267,85000]},"gradients/features.4.bias":{"values":[1,0,0,0,0,0,0,0,1,0,0,0,0,1,0,0,1,0,0,1,0,0,0,1,1,0,1,1,0,0,0,0,0,3,3,1,2,1,1,0,2,1,0,0,0,1,1,1,1,1,2,0,0,0,0,0,0,0,0,0,1,0,0,1],"bins":[-2.2992448123204667e-07,-2.2519837727941194e-07,-2.2047228753763193e-07,-2.157461835849972e-07,-2.1102007963236247e-07,-2.0629398989058245e-07,-2.0156788593794772e-07,-1.96841781985313e-07,-1.9211569224353298e-07,-1.8738958829089825e-07,-1.8266348433826352e-07,-1.7793738038562879e-07,-1.7321129064384877e-07,-1.6848518669121404e-07,-1.637590827385793e-07,-1.590329929967993e-07,-1.5430688904416456e-07,-1.4958078509152983e-07,-1.4485469534974982e-07,-1.401285913971151e-07,-1.3540248744448036e-07,-1.3067639770270034e-07,-1.259502937500656e-07,-1.2122418979743088e-07,-1.1649809295022351e-07,-1.1177199610301614e-07,-1.070458921503814e-07,-1.0231979530317403e-07,-9.759369845596666e-08,-9.286759450333193e-08,-8.814149765612456e-08,-8.341539370348983e-08,-7.868930396170981e-08,-7.396320711450244e-08,-6.923710316186771e-08,-6.451100631466034e-08,-5.978490946745296e-08,-5.505880551481823e-08,-5.033270866761086e-08,-4.560660826768981e-08,-4.0880507867768756e-08,-3.6154407467847705e-08,-3.142830706792665e-08,-2.670221022071928e-08,-2.197610982079823e-08,-1.7250009420877177e-08,-1.2523910797312965e-08,-7.797811285570333e-09,-3.071711773827701e-09,1.6543877379149308e-09,6.380487249657563e-09,1.1106586761400195e-08,1.5832686273142826e-08,2.0558786673063878e-08,2.528488529662809e-08,3.00109839201923e-08,3.4737084320113354e-08,3.9463184720034405e-08,4.418928511995546e-08,4.891538196716283e-08,5.364148236708388e-08,5.836758276700493e-08,6.30936796142123e-08,6.781978356684704e-08,7.254588041405441e-08],"_type":"histogram"},"validation recall":0,"best validation loss":85.76283806562424,"validation accuracy":0.875,"validation precision":0,"_runtime":45,"gradients/classifier.3.weight":{"_type":"histogram","values":[50,0,0,0,0,0,0,0,0,0,0,0,0,0,0,0,0,0,0,0,0,0,0,0,0,0,0,0,0,0,0,0,0,0,0,0,0,0,1,1,0,3,4,3,4,5,2,7,6,1,6,4,1,0,0,0,1,0,0,0,0,0,0,1],"bins":[0,1.1141133882119902e-07,2.2282267764239805e-07,3.3423401646359707e-07,4.456453552847961e-07,5.570566941059951e-07,6.684680329271941e-07,7.798793717483932e-07,8.912907105695922e-07,1.0027019925473724e-06,1.1141133882119902e-06,1.2255247838766081e-06,1.3369360658543883e-06,1.4483473478321685e-06,1.5597587434967863e-06,1.6711701391614042e-06,1.7825814211391844e-06,1.8939927031169645e-06,2.0054039850947447e-06,2.1168154944462003e-06,2.2282267764239805e-06,2.3396380584017606e-06,2.4510495677532163e-06,2.5624608497309964e-06,2.6738721317087766e-06,2.7852834136865567e-06,2.896694695664337e-06,3.0081062050157925e-06,3.1195174869935727e-06,3.230928768971353e-06,3.3423402783228084e-06,3.4537515603005886e-06,3.5651628422783688e-06,3.676574124256149e-06,3.787985406233929e-06,3.899396688211709e-06,4.0108079701894894e-06,4.1222197069146205e-06,4.233630988892401e-06,4.345042270870181e-06,4.456453552847961e-06,4.567864834825741e-06,4.679276116803521e-06,4.7906873987813015e-06,4.9020991355064325e-06,5.013510417484213e-06,5.124921699461993e-06,5.236332981439773e-06,5.347744263417553e-06,5.459155545395333e-06,5.5705668273731135e-06,5.681978109350894e-06,5.793389391328674e-06,5.904801128053805e-06,6.016212410031585e-06,6.127623692009365e-06,6.239034973987145e-06,6.3504462559649255e-06,6.461857537942706e-06,6.573268819920486e-06,6.684680556645617e-06,6.796091838623397e-06,6.907503120601177e-06,7.018914402578957e-06,7.1303256845567375e-06]},"gradients/features.0.weight":{"values":[9,6,3,3,3,0,7,6,3,6,6,3,8,11,6,7,3,6,6,21,63,75,41,31,43,68,71,50,49,46,43,53,29,27,32,19,12,14,14,8,10,15,3,9,16,8,8,7,8,4,6,2,1,0,0,0,0,0,0,0,0,0,12,4],"bins":[-3.5713054558073054e-07,-3.4335636200921726e-07,-3.295822068594134e-07,-3.1580802328790014e-07,-3.020338681380963e-07,-2.88259684566583e-07,-2.7448550099506974e-07,-2.607113458452659e-07,-2.469371622737526e-07,-2.3316299291309406e-07,-2.193888235524355e-07,-2.0561465419177694e-07,-1.9184048483111837e-07,-1.780663154704598e-07,-1.6429213189894654e-07,-1.5051796253828797e-07,-1.3674379317762941e-07,-1.2296962381697085e-07,-1.0919544735088493e-07,-9.542127799022637e-08,-8.164710152414045e-08,-6.787293216348189e-08,-5.409876280282333e-08,-4.032458988945109e-08,-2.655041697607885e-08,-1.277624495088503e-08,9.97927074308791e-10,1.4772099099502611e-08,2.8546271124696432e-08,4.232044403806867e-08,5.609461339872723e-08,6.986878986481315e-08,8.364295922547171e-08,9.741712858613027e-08,1.111913050522162e-07,1.249654815183021e-07,1.3873965087896067e-07,1.5251382023961924e-07,1.662879896002778e-07,1.8006215896093636e-07,1.9383634253244963e-07,2.076105118931082e-07,2.2138468125376676e-07,2.3515885061442532e-07,2.489330199750839e-07,2.6270720354659716e-07,2.76481358696401e-07,2.902555422679143e-07,3.040296974177181e-07,3.178038809892314e-07,3.315780645607447e-07,3.453522197105485e-07,3.591264032820618e-07,3.7290055843186565e-07,3.866747420033789e-07,4.004489255748922e-07,4.1422308072469605e-07,4.279972642962093e-07,4.4177141944601317e-07,4.5554560301752645e-07,4.693197865890397e-07,4.83093970160553e-07,4.968680968886474e-07,5.106422804601607e-07,5.24416464031674e-07],"_type":"histogram"},"gradients/features.4.weight":{"_type":"histogram","values":[1,0,0,0,0,0,0,0,1,0,0,0,0,0,0,0,0,1,1,1,1,2,1,1,2,1,1,1,1,2,0,0,0,0,3,0,1,2,0,1,0,0,0,0,0,1,0,0,0,0,0,1,0,1,0,0,3,0,0,0,0,0,0,1],"bins":[-2.360393267508698e-07,-2.28671225954713e-07,-2.213031109477015e-07,-2.139350101515447e-07,-2.065669093553879e-07,-1.991988085592311e-07,-1.9183070776307432e-07,-1.844625927560628e-07,-1.77094491959906e-07,-1.697263911637492e-07,-1.623582761567377e-07,-1.549901753605809e-07,-1.476220745644241e-07,-1.4025397376826731e-07,-1.3288587297211052e-07,-1.25517757965099e-07,-1.1814965716894221e-07,-1.1078155637278542e-07,-1.0341344847120126e-07,-9.604534056961711e-08,-8.867723977346031e-08,-8.130913897730352e-08,-7.394103107571937e-08,-6.657292317413521e-08,-5.9204822377978417e-08,-5.183671802910794e-08,-4.446861368023747e-08,-3.710050933136699e-08,-2.973240498249652e-08,-2.2364300633626044e-08,-1.499619628475557e-08,-7.628091935885095e-09,-2.5998758701462066e-10,7.108116761855854e-09,1.4476221110726328e-08,2.1844325459596803e-08,2.9212429808467277e-08,3.658053415733775e-08,4.3948638506208226e-08,5.13167428550787e-08,5.8684847203949175e-08,6.605294800010597e-08,7.342105590169012e-08,8.078916380327428e-08,8.815726459943107e-08,9.552536539558787e-08,1.0289347329717202e-07,1.1026158119875618e-07,1.1762968199491297e-07,1.2499778279106977e-07,1.3236589779808128e-07,1.3973399859423807e-07,1.4710209939039487e-07,1.5447020018655166e-07,1.6183830098270846e-07,1.6920641598971997e-07,1.7657451678587677e-07,1.8394261758203356e-07,1.9131073258904507e-07,1.9867883338520187e-07,2.0604693418135867e-07,2.1341503497751546e-07,2.2078313577367226e-07,2.2815125078068377e-07,2.3551935157684056e-07]},"gradients/features.3.bias":{"_type":"histogram","values":[1,0,0,0,0,0,0,0,1,0,1,0,1,0,1,1,2,1,0,0,0,0,0,0,2,0,0,1,2,0,2,0,2,0,0,0,0,0,1,0,1,0,1,0,2,0,0,1,2,1,1,1,0,0,0,0,0,1,1,0,0,0,0,1],"bins":[-3.907985046680551e-14,-3.7969627442180354e-14,-3.68594044175552e-14,-3.574918139293004e-14,-3.4638958368304884e-14,-3.352873534367973e-14,-3.241851231905457e-14,-3.1308289294429414e-14,-3.019806626980426e-14,-2.90878432451791e-14,-2.7977620220553945e-14,-2.6867397195928788e-14,-2.5757174171303632e-14,-2.4646951146678475e-14,-2.353672812205332e-14,-2.2426505097428162e-14,-2.1316282072803006e-14,-2.020605904817785e-14,-1.9095836023552692e-14,-1.7985612998927536e-14,-1.687538997430238e-14,-1.5765166949677223e-14,-1.4654943925052066e-14,-1.354472090042691e-14,-1.2434497875801753e-14,-1.1324274851176597e-14,-1.021405182655144e-14,-9.103828801926284e-15,-7.993605777301127e-15,-6.8833827526759706e-15,-5.773159728050814e-15,-4.6629367034256575e-15,-3.552713678800501e-15,-2.4424906541753444e-15,-1.3322676295501878e-15,-2.220446049250313e-16,8.881784197001252e-16,1.9984014443252818e-15,3.1086244689504383e-15,4.218847493575595e-15,5.329070518200751e-15,6.439293542825908e-15,7.549516567451064e-15,8.659739592076221e-15,9.769962616701378e-15,1.0880185641326534e-14,1.199040866595169e-14,1.3100631690576847e-14,1.4210854715202004e-14,1.532107773982716e-14,1.6431300764452317e-14,1.7541523789077473e-14,1.865174681370263e-14,1.9761969838327786e-14,2.0872192862952943e-14,2.19824158875781e-14,2.3092638912203256e-14,2.4202861936828413e-14,2.531308496145357e-14,2.6423307986078726e-14,2.7533531010703882e-14,2.864375403532904e-14,2.9753977059954195e-14,3.086420008457935e-14,3.197442310920451e-14]},"gradients/features.7.bias":{"_type":"histogram","values":[1,1,0,1,1,1,1,1,1,0,0,1,1,1,2,1,1,2,2,0,3,0,1,0,1,1,1,1,1,1,0,0,1,0,0,0,0,0,1,0,0,0,0,0,0,0,0,0,0,0,0,0,0,0,0,0,0,0,0,0,0,0,0,1],"bins":[-8.215650382226158e-14,-7.734785034685387e-14,-7.253919687144617e-14,-6.773054339603846e-14,-6.292188992063075e-14,-5.811323644522304e-14,-5.330458296981533e-14,-4.849592949440762e-14,-4.368727601899991e-14,-3.88786225435922e-14,-3.406996906818449e-14,-2.926131559277678e-14,-2.4452662117369073e-14,-1.9644008641961364e-14,-1.4835355166553654e-14,-1.0026701691145945e-14,-5.218048215738236e-15,-4.0939474033052647e-16,4.399258735077183e-15,9.207912210484892e-15,1.4016565685892601e-14,1.882521916130031e-14,2.363387263670802e-14,2.844252611211573e-14,3.325117958752344e-14,3.805983306293115e-14,4.286848653833886e-14,4.7677140013746566e-14,5.2485793489154275e-14,5.729444696456198e-14,6.21031004399697e-14,6.69117539153774e-14,7.172040739078511e-14,7.652906086619282e-14,8.133771434160053e-14,8.614636781700824e-14,9.095502129241595e-14,9.576367476782366e-14,1.0057232824323137e-13,1.0538098171863908e-13,1.1018963519404679e-13,1.149982886694545e-13,1.198069421448622e-13,1.2461559562026991e-13,1.2942424909567762e-13,1.3423290257108533e-13,1.3904155604649304e-13,1.4385020952190075e-13,1.4865886299730846e-13,1.5346751647271617e-13,1.5827616994812388e-13,1.630848234235316e-13,1.678934768989393e-13,1.72702130374347e-13,1.7751078384975472e-13,1.8231943732516243e-13,1.8712809080057013e-13,1.9193674427597784e-13,1.9674539775138555e-13,2.0155405122679326e-13,2.0636270470220097e-13,2.1117135817760868e-13,2.159800116530164e-13,2.207886651284241e-13,2.255973186038318e-13]},"_step":21,"_wandb":{"runtime":45},"gradients/features.8.weight":{"_type":"histogram","values":[1,0,0,0,0,0,0,0,0,0,0,0,0,1,0,1,0,0,1,2,1,0,3,1,0,1,1,0,1,3,1,2,1,1,0,1,1,2,0,0,1,2,0,1,0,0,0,0,0,0,0,0,0,0,0,0,0,0,0,1,0,0,0,1],"bins":[-7.950964118208503e-07,-7.828178922864026e-07,-7.705394295953738e-07,-7.582609100609261e-07,-7.459823905264784e-07,-7.337039278354496e-07,-7.214254083010019e-07,-7.091468887665542e-07,-6.968683692321065e-07,-6.845899065410777e-07,-6.7231138700663e-07,-6.600328674721823e-07,-6.477544047811534e-07,-6.354758852467057e-07,-6.23197365712258e-07,-6.109189030212292e-07,-5.986403834867815e-07,-5.863618639523338e-07,-5.74083401261305e-07,-5.618048817268573e-07,-5.495263621924096e-07,-5.372478995013807e-07,-5.24969379966933e-07,-5.126908604324854e-07,-5.004123977414565e-07,-4.881338782070088e-07,-4.758553586725611e-07,-4.6357686755982286e-07,-4.512983764470846e-07,-4.390198569126369e-07,-4.2674136579989863e-07,-4.1446284626545093e-07,-4.021843835744221e-07,-3.899058640399744e-07,-3.7762737292723614e-07,-3.6534888181449787e-07,-3.530703622800502e-07,-3.407918711673119e-07,-3.285133516328642e-07,-3.1623486052012595e-07,-3.039563694073877e-07,-2.9167784987294e-07,-2.793993587602017e-07,-2.6712086764746346e-07,-2.5484234811301576e-07,-2.425638570002775e-07,-2.302853516766845e-07,-2.1800684635309153e-07,-2.0572835524035327e-07,-1.9344984991676029e-07,-1.811713445931673e-07,-1.6889283926957432e-07,-1.5661433394598134e-07,-1.4433584283324308e-07,-1.320573375096501e-07,-1.1977883218605712e-07,-1.0750033396789149e-07,-9.522183574972587e-08,-8.294333042613289e-08,-7.066482510253991e-08,-5.8386326884374284e-08,-4.610782511349498e-08,-3.382932334261568e-08,-2.1550821571736378e-08,-9.272319800857076e-09]},"_timestamp":1.7659497139327831e+09,"gradients/features.8.bias":{"values":[1,0,0,0,0,0,0,1,0,0,0,1,2,0,1,1,2,0,1,0,2,2,0,1,2,1,1,1,0,1,2,0,1,3,0,1,1,0,1,0,0,0,0,0,0,0,0,0,0,0,0,0,0,0,0,1,0,0,0,0,0,0,0,1],"bins":[-7.55276914787828e-07,-7.436373152813758e-07,-7.319977157749236e-07,-7.203580594250525e-07,-7.087184599186003e-07,-6.970788604121481e-07,-6.854392609056958e-07,-6.737996045558248e-07,-6.621600050493726e-07,-6.505204055429203e-07,-6.388808060364681e-07,-6.272412065300159e-07,-6.156015501801448e-07,-6.039619506736926e-07,-5.923223511672404e-07,-5.806827516607882e-07,-5.690430953109171e-07,-5.574034958044649e-07,-5.457638962980127e-07,-5.341242967915605e-07,-5.224846972851083e-07,-5.108450409352372e-07,-4.99205441428785e-07,-4.875658419223328e-07,-4.7592624241588055e-07,-4.642866144877189e-07,-4.526470149812667e-07,-4.4100738705310505e-07,-4.2936778754665283e-07,-4.177281596184912e-07,-4.06088560112039e-07,-3.9444893218387733e-07,-3.828093326774251e-07,-3.711697331709729e-07,-3.5953010524281126e-07,-3.4789050573635905e-07,-3.362508778081974e-07,-3.246112783017452e-07,-3.1297165037358354e-07,-3.0133205086713133e-07,-2.896924229389697e-07,-2.7805282343251747e-07,-2.6641322392606526e-07,-2.547735959979036e-07,-2.431339964914514e-07,-2.3149438277414447e-07,-2.1985476905683754e-07,-2.082151553395306e-07,-1.9657554162222368e-07,-1.8493592790491675e-07,-1.7329631418760982e-07,-1.616567004703029e-07,-1.5001708675299597e-07,-1.3837748724654375e-07,-1.2673787352923682e-07,-1.1509825981192989e-07,-1.0345864609462296e-07,-9.181903237731603e-08,-8.01794186600091e-08,-6.853981204812953e-08,-5.6900198330822604e-08,-4.5260584613515675e-08,-3.3620974448922425e-08,-2.1981360731615496e-08,-1.0341749678843826e-08],"_type":"histogram"},"gradients/features.1.weight":{"values":[1,0,0,1,0,0,0,2,0,1,0,0,0,0,1,1,1,0,0,1,2,0,1,0,0,0,0,0,0,0,0,0,0,0,0,0,0,1,0,0,0,0,0,0,0,1,0,0,0,0,1,0,0,0,0,0,0,0,0,0,0,0,0,1],"bins":[-1.2250430359017628e-07,-1.1697092361373507e-07,-1.1143754363729386e-07,-1.0590416366085265e-07,-1.0037078368441144e-07,-9.483740370797022e-08,-8.930402373152901e-08,-8.37706437550878e-08,-7.823726377864659e-08,-7.270388380220538e-08,-6.717050382576417e-08,-6.163712384932296e-08,-5.610374387288175e-08,-5.057036389644054e-08,-4.503698391999933e-08,-3.950360394355812e-08,-3.397022396711691e-08,-2.8436843990675698e-08,-2.2903464014234487e-08,-1.7370084037793276e-08,-1.1836704061352066e-08,-6.303324084910855e-09,-7.699441084696446e-10,4.763435867971566e-09,1.0296815844412777e-08,1.5830195820853987e-08,2.1363575797295198e-08,2.689695577373641e-08,3.243033575017762e-08,3.796371572661883e-08,4.349709570306004e-08,4.903047567950125e-08,5.4563841445087746e-08,6.009722142152896e-08,6.563060139797017e-08,7.116398137441138e-08,7.669736135085259e-08,8.22307413272938e-08,8.776412130373501e-08,9.329750128017622e-08,9.883088125661743e-08,1.0436426123305864e-07,1.0989764120949985e-07,1.1543102118594106e-07,1.2096440116238227e-07,1.2649778113882348e-07,1.320311611152647e-07,1.375645410917059e-07,1.4309792106814712e-07,1.4863130104458833e-07,1.5416468102102954e-07,1.5969806099747075e-07,1.6523144097391196e-07,1.7076482095035317e-07,1.7629820092679438e-07,1.818315809032356e-07,1.873649608796768e-07,1.92898340856118e-07,1.9843172083255922e-07,2.0396510080900043e-07,2.0949848078544164e-07,2.1503186076188285e-07,2.2056524073832406e-07,2.2609862071476527e-07,2.3163200069120649e-07],"_type":"histogram"},"gradients/features.10.weight":{"_type":"histogram","values":[2,3,3,0,3,6,3,1,4,4,6,20,21,26,39,47,48,56,77,74,92,100,101,124,148,153,201,228,214,268,202,226,207,187,151,120,114,110,81,94,70,81,94,119,140,163,188,212,193,194,244,230,191,204,259,318,408,513,581,606,660,928,740,2924],"bins":[-1.165597723229439e-06,-1.1473838412712212e-06,-1.1291699593130033e-06,-1.1109561910416232e-06,-1.0927423090834054e-06,-1.0745284271251876e-06,-1.0563145451669698e-06,-1.038100663208752e-06,-1.0198868949373718e-06,-1.001673012979154e-06,-9.834591310209362e-07,-9.652452490627184e-07,-9.470314239479194e-07,-9.288175419897016e-07,-9.106037168749026e-07,-8.923898349166848e-07,-8.74175952958467e-07,-8.55962127843668e-07,-8.377482458854502e-07,-8.195344207706512e-07,-8.013205388124334e-07,-7.831067136976344e-07,-7.648928317394166e-07,-7.466789497811988e-07,-7.284651246663998e-07,-7.10251242708182e-07,-6.92037417593383e-07,-6.738235356351652e-07,-6.556096536769473e-07,-6.373958285621484e-07,-6.191819466039306e-07,-6.009681214891316e-07,-5.827542395309138e-07,-5.645404144161148e-07,-5.46326532457897e-07,-5.281126504996791e-07,-5.098988253848802e-07,-4.916849434266624e-07,-4.7347108989015396e-07,-4.5525723635364557e-07,-4.3704338281713717e-07,-4.188295292806288e-07,-4.006156757441204e-07,-3.8240179378590256e-07,-3.6418794024939416e-07,-3.4597408671288576e-07,-3.2776023317637737e-07,-3.09546379639869e-07,-2.9133249768165115e-07,-2.7311864414514275e-07,-2.5490479060863436e-07,-2.3669093707212596e-07,-2.1847706932476285e-07,-2.0026321578825446e-07,-1.8204936225174606e-07,-1.6383549450438295e-07,-1.4562164096787455e-07,-1.2740778743136616e-07,-1.0919391968400305e-07,-9.098006614749465e-08,-7.27662055055589e-08,-5.455234486362315e-08,-3.6338487774401074e-08,-1.812462890882216e-08,8.92305257460535e-11]},"gradients/features.1.bias":{"values":[2,0,0,0,0,0,0,1,0,0,0,0,0,1,0,0,0,0,1,1,0,1,1,0,0,0,0,0,0,0,0,0,0,1,0,1,0,0,1,0,0,0,0,2,1,0,0,0,0,0,0,0,0,0,0,0,0,0,1,0,0,0,0,1],"bins":[-1.4341281939778128e-07,-1.4078803189931932e-07,-1.3816324440085737e-07,-1.355384569023954e-07,-1.3291365519307874e-07,-1.3028886769461678e-07,-1.2766408019615483e-07,-1.2503929269769287e-07,-1.2241450519923092e-07,-1.1978971770076896e-07,-1.1716492309687965e-07,-1.1454013559841769e-07,-1.1191534809995574e-07,-1.0929055349606642e-07,-1.0666576599760447e-07,-1.0404097849914251e-07,-1.0141619100068056e-07,-9.879139639679124e-08,-9.616660889832929e-08,-9.354182139986733e-08,-9.091702679597802e-08,-8.829223929751606e-08,-8.56674517990541e-08,-8.304266430059215e-08,-8.041786969670284e-08,-7.779308219824088e-08,-7.516829469977893e-08,-7.254350009588961e-08,-6.991871259742766e-08,-6.72939250989657e-08,-6.466913760050375e-08,-6.204434299661443e-08,-5.9419555498152477e-08,-5.679476444697684e-08,-5.416997339580121e-08,-5.154518589733925e-08,-4.892039484616362e-08,-4.629560734770166e-08,-4.367081629652603e-08,-4.104602879806407e-08,-3.842123774688844e-08,-3.57964466957128e-08,-3.317165919725085e-08,-3.054686814607521e-08,-2.7922080647613257e-08,-2.5297289596437622e-08,-2.2672500321618827e-08,-2.0047711046800032e-08,-1.7422921771981237e-08,-1.4798132497162442e-08,-1.2173343222343647e-08,-9.548553059346432e-09,-6.923763784527637e-09,-4.298974509708842e-09,-1.6741847908008367e-09,9.506047060625633e-10,3.5753942029259633e-09,6.2001834777447584e-09,8.824972752563554e-09,1.1449762915560768e-08,1.4074552190379563e-08,1.6699342353376778e-08,1.9324131628195573e-08,2.194892090301437e-08,2.4573710177833163e-08],"_type":"histogram"},"gradients/classifier.3.bias":{"bins":[8.179483188541781e-07,8.179483188541781e-07],"_type":"histogram","values":[1]},"gradients/features.10.bias":{"values":[2,0,0,0,1,0,0,0,1,1,0,0,1,1,1,2,1,2,0,1,0,0,1,0,0,0,0,0,0,0,0,0,0,0,0,0,0,0,0,0,0,0,0,0,0,0,0,0,0,0,0,0,0,0,0,0,0,0,0,0,0,0,0,1],"bins":[-7.995473652044893e-07,-7.870544322940987e-07,-7.74561499383708e-07,-7.620685664733173e-07,-7.495756335629267e-07,-7.37082700652536e-07,-7.245898245855642e-07,-7.120968916751735e-07,-6.996039587647829e-07,-6.871110258543922e-07,-6.746180929440015e-07,-6.621251600336109e-07,-6.496322271232202e-07,-6.371392942128296e-07,-6.246463613024389e-07,-6.121534283920482e-07,-5.996605523250764e-07,-5.871676194146858e-07,-5.746746865042951e-07,-5.621817535939044e-07,-5.496888206835138e-07,-5.371958877731231e-07,-5.247029548627324e-07,-5.122100219523418e-07,-4.997170890419511e-07,-4.872241561315604e-07,-4.747312516428792e-07,-4.6223831873248855e-07,-4.497453858220979e-07,-4.372524529117072e-07,-4.24759548423026e-07,-4.122666155126353e-07,-3.9977368260224466e-07,-3.87280749691854e-07,-3.7478781678146333e-07,-3.622949122927821e-07,-3.4980197938239144e-07,-3.3730904647200077e-07,-3.248161135616101e-07,-3.1232318065121945e-07,-2.998302761625382e-07,-2.8733734325214755e-07,-2.748444103417569e-07,-2.623514774313662e-07,-2.4985854452097556e-07,-2.373656258214396e-07,-2.2487269291104894e-07,-2.12379774211513e-07,-1.9988684130112233e-07,-1.8739390839073167e-07,-1.7490098969119572e-07,-1.6240805678080505e-07,-1.499151380812691e-07,-1.3742220517087844e-07,-1.2492927226048778e-07,-1.1243634645552447e-07,-9.994342065056117e-08,-8.745049484559786e-08,-7.495756904063455e-08,-6.246463613024389e-08,-4.997171032528058e-08,-3.7478784520317276e-08,-2.498585516264029e-08,-1.2492927581320146e-08,0],"_type":"histogram"},"gradients/features.7.weight":{"_type":"histogram","values":[1,1,3,1,2,4,5,11,8,16,17,18,17,27,36,39,64,74,109,131,178,205,311,423,622,912,1335,1714,2024,2262,2387,2281,2212,1822,1555,1538,1384,1043,712,551,370,275,205,142,111,79,66,27,39,43,39,38,34,33,36,13,15,6,5,6,5,3,2,1],"bins":[-5.132355340720096e-07,-4.970836471329676e-07,-4.809317601939256e-07,-4.64779901676593e-07,-4.486280431592604e-07,-4.324761562202184e-07,-4.163242692811764e-07,-4.001724107638438e-07,-3.840205238248018e-07,-3.6786863688575977e-07,-3.517167783684272e-07,-3.3556489142938517e-07,-3.1941300449034316e-07,-3.0326114597301057e-07,-2.8710925903396856e-07,-2.7095740051663597e-07,-2.5480551357759396e-07,-2.3865362663855194e-07,-2.2250176812121936e-07,-2.0634988118217734e-07,-1.9019800845399004e-07,-1.7404613572580274e-07,-1.5789424878676073e-07,-1.4174237605857343e-07,-1.2559050333038613e-07,-1.0943863060219883e-07,-9.328675076858417e-08,-7.713487093496951e-08,-6.098299820678221e-08,-4.4831121925881234e-08,-2.8679245644980256e-08,-1.2527369364079277e-08,3.6245637602405623e-09,1.977644004114154e-08,3.592831632204252e-08,5.20801926029435e-08,6.823206888384448e-08,8.438394161203178e-08,1.0053582144564643e-07,1.1668770127926109e-07,1.328395740074484e-07,1.489914467356357e-07,1.65143319463823e-07,1.81295206402865e-07,1.974470791310523e-07,2.135989518592396e-07,2.2975083879828162e-07,2.459026973156142e-07,2.620545842546562e-07,2.7820647119369823e-07,2.943583297110308e-07,3.1051021665007283e-07,3.266620751674054e-07,3.4281396210644743e-07,3.5896584904548945e-07,3.7511770756282203e-07,3.9126959450186405e-07,4.0742148144090606e-07,4.2357333995823865e-07,4.3972522689728066e-07,4.558771138363227e-07,4.7202897235365526e-07,4.881808308709878e-07,5.043327178100299e-07,5.204846047490719e-07]}}