{"_timestamp":1.765954858578896e+09,"validation precision":0,"_step":20,"gradients/classifier.1.weight":{"_type":"histogram","values":[5,10,25,25,40,70,120,151,191,201,253,258,286,265,309,354,358,419,515,570,684,724,767,878,931,973,1105,1127,1147,1228,1287,1242,1125,1192,1353,1477,1570,1677,1852,1994,2102,1990,1838,1651,1674,1887,2103,2115,2314,2291,1849,1739,1681,2027,1818,2163,2396,2373,2677,3285,2467,1529,273,85000],"bins":[-9.611456519564854e-09,-9.461277095113019e-09,-9.311098558839603e-09,-9.160919134387768e-09,-9.010740598114353e-09,-8.860561173662518e-09,-8.710382637389102e-09,-8.560203212937267e-09,-8.410024676663852e-09,-8.259845252212017e-09,-8.109666715938602e-09,-7.959487291486766e-09,-7.809308755213351e-09,-7.659129330761516e-09,-7.5089507944881e-09,-7.3587713700362656e-09,-7.20859238967364e-09,-7.058413409311015e-09,-6.90823442894839e-09,-6.758055448585765e-09,-6.6078764682231395e-09,-6.457697487860514e-09,-6.307518507497889e-09,-6.157339527135264e-09,-6.007160102683429e-09,-5.8569811223208035e-09,-5.706802141958178e-09,-5.556623161595553e-09,-5.406444181232928e-09,-5.2562652008703026e-09,-5.106086220507677e-09,-4.955907240145052e-09,-4.805728259782427e-09,-4.655549279419802e-09,-4.5053702990571765e-09,-4.355191318694551e-09,-4.205012338331926e-09,-4.054833357969301e-09,-3.9046543776066756e-09,-3.75447539724405e-09,-3.60429619483682e-09,-3.454117214474195e-09,-3.3039382341115697e-09,-3.1537592537489445e-09,-3.0035800513417144e-09,-2.853401070979089e-09,-2.703222090616464e-09,-2.5530431102538387e-09,-2.4028641298912135e-09,-2.2526851495285882e-09,-2.102506169165963e-09,-1.9523271888033378e-09,-1.80214809741841e-09,-1.6519691170557849e-09,-1.5017900256708572e-09,-1.351611045308232e-09,-1.2014320649456067e-09,-1.0512530845829815e-09,-9.01074048709205e-10,-7.508950128354286e-10,-6.007160324728034e-10,-4.505370243546025e-10,-3.003580162364017e-10,-1.5017900811820084e-10,0]},"gradients/features.8.bias":{"bins":[-3.919346625025355e-08,-3.8589352158169277e-08,-3.798524161879868e-08,-3.738112752671441e-08,-3.6777016987343814e-08,-3.617290289525954e-08,-3.5568788803175266e-08,-3.496467826380467e-08,-3.43605641717204e-08,-3.37564536323498e-08,-3.315233954026553e-08,-3.2548225448181256e-08,-3.194411490881066e-08,-3.134000081672639e-08,-3.0735886724642114e-08,-3.013177618527152e-08,-2.9527662093187246e-08,-2.892354977745981e-08,-2.8319437461732377e-08,-2.7715325146004943e-08,-2.711121283027751e-08,-2.6507098738193235e-08,-2.59029864224658e-08,-2.5298874106738367e-08,-2.4694761791010933e-08,-2.40906494752835e-08,-2.3486535383199225e-08,-2.288242306747179e-08,-2.2278310751744357e-08,-2.1674198436016923e-08,-2.107008434393265e-08,-2.0465972028205215e-08,-1.986185793612094e-08,-1.9257745620393507e-08,-1.8653633304666073e-08,-1.804952098893864e-08,-1.7445408673211205e-08,-1.684129458112693e-08,-1.6237182265399497e-08,-1.5633069949672063e-08,-1.502895763394463e-08,-1.4424844430038775e-08,-1.382073122613292e-08,-1.3216618910405487e-08,-1.2612506594678052e-08,-1.2008393390772198e-08,-1.1404281075044764e-08,-1.080016787113891e-08,-1.0196055555411476e-08,-9.591942351505622e-09,-8.987830035778188e-09,-8.383717720050754e-09,-7.7796045161449e-09,-7.175491756328256e-09,-6.571378996511612e-09,-5.967266680784178e-09,-5.363153920967534e-09,-4.75904116115089e-09,-4.154928401334246e-09,-3.5508156415176018e-09,-2.9467028817009577e-09,-2.3425903439289186e-09,-1.7384775841122746e-09,-1.1343648242956306e-09,-5.30252175501289e-10],"_type":"histogram","values":[1,0,0,0,0,0,0,1,0,0,1,0,2,0,1,1,2,1,0,0,2,2,0,1,2,1,1,1,0,1,2,0,1,3,0,1,1,0,1,0,0,0,0,0,0,0,0,0,0,0,0,0,0,0,0,1,0,0,0,0,0,0,0,1]},"train recall":0,"_wandb":{"runtime":50},"train loss":1.9478043920884147e-05,"validation recall":0,"gradients/features.1.weight":{"values":[1,0,0,1,0,0,0,2,0,1,0,0,0,0,2,0,1,0,0,1,2,0,1,0,0,0,0,0,0,0,0,0,0,0,0,0,0,1,0,0,0,0,0,0,0,1,0,0,0,0,1,0,0,0,0,0,0,0,0,0,0,0,0,1],"bins":[-6.364427207472545e-09,-6.077219172340165e-09,-5.790010693118575e-09,-5.502802657986194e-09,-5.215594622853814e-09,-4.928386143632224e-09,-4.641178108499844e-09,-4.3539700733674636e-09,-4.066762038235083e-09,-3.779553559013493e-09,-3.492345523881113e-09,-3.205137266704128e-09,-2.9179290095271426e-09,-2.6307209743947624e-09,-2.3435127172177772e-09,-2.056304682085397e-09,-1.7690964249084118e-09,-1.481888278753729e-09,-1.1946801325990464e-09,-9.074718754220612e-10,-6.202637292673785e-10,-3.3305555535712017e-10,-4.5847381446861846e-11,2.413607924633965e-10,5.285689663736548e-10,8.157771125283375e-10,1.1029852586830202e-09,1.3901935158600054e-09,1.677401662014688e-09,1.964609808169371e-09,2.251818065346356e-09,2.5390261004787362e-09,2.8262343576557214e-09,3.1134426148327066e-09,3.400650649965087e-09,3.687858907142072e-09,3.975066942274452e-09,4.262275421496042e-09,4.5494834566284226e-09,4.836691491760803e-09,5.123899526893183e-09,5.411108006114773e-09,5.698316041247153e-09,5.985524076379534e-09,6.272732555601124e-09,6.559940590733504e-09,6.847148625865884e-09,7.134357105087474e-09,7.4215651402198546e-09,7.708773175352235e-09,7.995981654573825e-09,8.283189245616995e-09,8.570397724838585e-09,8.857606204060176e-09,9.144813795103346e-09,9.432022274324936e-09,9.719230753546526e-09,1.0006438344589696e-08,1.0293646823811287e-08,1.0580855303032877e-08,1.0868062894076047e-08,1.1155271373297637e-08,1.1442479852519227e-08,1.1729687443562398e-08,1.2016895922783988e-08],"_type":"histogram"},"gradients/classifier.3.bias":{"bins":[4.239390705151891e-08,4.239390705151891e-08],"_type":"histogram","values":[1]},"validation loss":6.690456498586187,"gradients/features.7.bias":{"values":[1,0,0,0,0,0,0,0,0,0,0,1,0,0,0,0,0,0,0,1,0,0,0,1,0,0,0,0,0,1,0,0,1,1,0,3,1,2,2,0,2,1,2,3,3,0,0,1,1,1,0,0,0,1,0,0,0,1,0,0,0,0,0,1],"bins":[-9.2148511043888e-15,-8.971122456014058e-15,-8.727393807639316e-15,-8.483665159264575e-15,-8.239936510889834e-15,-7.996207862515092e-15,-7.752479214140351e-15,-7.50875056576561e-15,-7.265021917390868e-15,-7.021293269016127e-15,-6.777564620641385e-15,-6.533835972266644e-15,-6.2901073238919025e-15,-6.046378675517161e-15,-5.80265002714242e-15,-5.558921378767678e-15,-5.315192730392937e-15,-5.0714640820181955e-15,-4.827735433643454e-15,-4.584006785268713e-15,-4.340278136893971e-15,-4.09654948851923e-15,-3.8528208401444886e-15,-3.609092191769747e-15,-3.3653635433950058e-15,-3.1216348950202644e-15,-2.877906246645523e-15,-2.6341775982707816e-15,-2.39044894989604e-15,-2.1467203015212988e-15,-1.9029916531465574e-15,-1.659263004771816e-15,-1.4155343563970746e-15,-1.1718057080223332e-15,-9.280770596475918e-16,-6.843484112728504e-16,-4.40619762898109e-16,-1.968911145233676e-16,4.683753385137379e-17,2.905661822261152e-16,5.342948306008566e-16,7.78023478975598e-16,1.0217521273503394e-15,1.2654807757250808e-15,1.5092094240998222e-15,1.7529380724745636e-15,1.996666720849305e-15,2.2403953692240464e-15,2.4841240175987878e-15,2.727852665973529e-15,2.9715813143482706e-15,3.215309962723012e-15,3.4590386110977533e-15,3.702767259472495e-15,3.946495907847236e-15,4.1902245562219775e-15,4.433953204596719e-15,4.67768185297146e-15,4.921410501346202e-15,5.165139149720943e-15,5.4088677980956845e-15,5.652596446470426e-15,5.896325094845167e-15,6.140053743219909e-15,6.38378239159465e-15],"_type":"histogram"},"validation accuracy":0.875,"gradients/features.0.weight":{"bins":[-1.876894550889574e-08,-1.8046749872269174e-08,-1.7324556011999448e-08,-1.6602360375372882e-08,-1.5880164738746316e-08,-1.515797087847659e-08,-1.4435775241850024e-08,-1.3713580493401878e-08,-1.2991385744953732e-08,-1.2269190996505586e-08,-1.154699624805744e-08,-1.0824800611430874e-08,-1.0102605862982728e-08,-9.380411114534581e-09,-8.658215477908016e-09,-7.93602072945987e-09,-7.213825981011723e-09,-6.491631232563577e-09,-5.769436040026221e-09,-5.047240847488865e-09,-4.325046099040719e-09,-3.602851128547968e-09,-2.880656158055217e-09,-2.158461187562466e-09,-1.436266217069715e-09,-7.140712465769639e-10,8.123723915787195e-12,7.303186944085382e-10,1.4525136649012893e-09,2.1747086353940404e-09,2.8969036058867914e-09,3.6190985763795425e-09,4.341295323229133e-09,5.063490071677279e-09,5.785685264214635e-09,6.507880456751991e-09,7.230075205200137e-09,7.952269953648283e-09,8.674465590274849e-09,9.396660338722995e-09,1.0118855087171141e-08,1.0841049835619287e-08,1.1563244584067434e-08,1.2285440220694e-08,1.3007634969142146e-08,1.3729829717590292e-08,1.4452025354216858e-08,1.5174219214486584e-08,1.589641485111315e-08,1.6618610487739716e-08,1.7340804348009442e-08,1.8062999984636008e-08,1.8785193844905734e-08,1.95073894815323e-08,2.0229585118158866e-08,2.0951778978428592e-08,2.1673974615055158e-08,2.2396170251681724e-08,2.311836411195145e-08,2.3840559748578016e-08,2.4562755385204582e-08,2.528494924547431e-08,2.6007144882100874e-08,2.67293387423706e-08,2.7451534378997167e-08],"_type":"histogram","values":[10,5,2,2,4,1,4,8,4,6,6,3,7,8,11,6,5,4,7,30,57,59,49,32,42,76,67,49,53,46,42,52,25,29,30,20,16,14,13,9,14,9,5,8,17,12,8,5,5,3,6,2,1,0,0,0,0,0,0,0,0,0,13,3]},"train precision":0,"gradients/features.10.bias":{"values":[2,0,0,0,1,0,0,0,1,1,0,0,1,1,1,2,1,2,0,1,0,0,0,1,0,0,0,0,0,0,0,0,0,0,0,0,0,0,0,0,0,0,0,0,0,0,0,0,0,0,0,0,0,0,0,0,0,0,0,0,0,0,0,1],"bins":[-4.143243614862513e-08,-4.0785053556646744e-08,-4.013767096466836e-08,-3.949029192540365e-08,-3.884290933342527e-08,-3.8195526741446884e-08,-3.75481441494685e-08,-3.690076511020379e-08,-3.625338251822541e-08,-3.560599992624702e-08,-3.495861733426864e-08,-3.431123474229025e-08,-3.366385570302555e-08,-3.301647311104716e-08,-3.236909051906878e-08,-3.172170792709039e-08,-3.1074328887825686e-08,-3.04269462958473e-08,-2.9779563703868916e-08,-2.913218111189053e-08,-2.8484800296268986e-08,-2.78374177042906e-08,-2.7190036888669056e-08,-2.654265429669067e-08,-2.5895271704712286e-08,-2.524789088909074e-08,-2.4600508297112356e-08,-2.395312748149081e-08,-2.3305744889512425e-08,-2.265836407389088e-08,-2.2010981481912495e-08,-2.136360066629095e-08,-2.0716218074312565e-08,-2.006883548233418e-08,-1.9421454666712634e-08,-1.877407207473425e-08,-1.8126691259112704e-08,-1.747930866713432e-08,-1.6831927851512773e-08,-1.618454525953439e-08,-1.5537164443912843e-08,-1.4889781851934458e-08,-1.4242400148134493e-08,-1.3595018444334528e-08,-1.2947635852356143e-08,-1.2300254148556178e-08,-1.1652872444756213e-08,-1.1005490740956247e-08,-1.0358109037156282e-08,-9.710727333356317e-09,-9.063345629556352e-09,-8.415963925756387e-09,-7.768582221956422e-09,-7.1212000740672465e-09,-6.4738179261780715e-09,-5.826436222378106e-09,-5.179054518578141e-09,-4.531672814778176e-09,-3.884291110978211e-09,-3.2369089630890358e-09,-2.5895272592890706e-09,-1.9421455554891054e-09,-1.2947636296445353e-09,-6.473818148222676e-10,0],"_type":"histogram"},"gradients/features.3.bias":{"values":[3,0,1,1,0,0,0,0,0,1,0,0,0,2,2,0,1,0,4,0,1,1,2,1,1,2,2,0,0,0,2,0,1,0,2,0,0,0,0,1,0,0,0,0,0,0,0,0,0,0,0,0,0,0,0,0,0,0,0,0,0,0,0,1],"bins":[-1.2212453270876722e-15,-1.1535911115245767e-15,-1.0859368959614812e-15,-1.0182826803983858e-15,-9.506284648352903e-16,-8.829742492721948e-16,-8.153200337090993e-16,-7.476658181460039e-16,-6.800116025829084e-16,-6.123573870198129e-16,-5.447031714567174e-16,-4.77048955893622e-16,-4.0939474033052647e-16,-3.41740524767431e-16,-2.740863092043355e-16,-2.0643209364124004e-16,-1.3877787807814457e-16,-7.112366251504909e-17,-3.469446951953614e-18,6.418476861114186e-17,1.3183898417423734e-16,1.9949319973733282e-16,2.671474153004283e-16,3.3480163086352377e-16,4.0245584642661925e-16,4.701100619897147e-16,5.377642775528102e-16,6.054184931159057e-16,6.730727086790012e-16,7.407269242420966e-16,8.083811398051921e-16,8.760353553682876e-16,9.43689570931383e-16,1.0113437864944785e-15,1.078998002057574e-15,1.1466522176206695e-15,1.214306433183765e-15,1.2819606487468604e-15,1.349614864309956e-15,1.4172690798730514e-15,1.4849232954361469e-15,1.5525775109992423e-15,1.6202317265623378e-15,1.6878859421254333e-15,1.7555401576885288e-15,1.8231943732516243e-15,1.8908485888147197e-15,1.9585028043778152e-15,2.0261570199409107e-15,2.093811235504006e-15,2.1614654510671016e-15,2.229119666630197e-15,2.2967738821932926e-15,2.364428097756388e-15,2.4320823133194835e-15,2.499736528882579e-15,2.5673907444456745e-15,2.63504496000877e-15,2.7026991755718655e-15,2.770353391134961e-15,2.8380076066980564e-15,2.905661822261152e-15,2.9733160378242474e-15,3.040970253387343e-15,3.1086244689504383e-15],"_type":"histogram"},"train accuracy":1,"gradients/features.1.bias":{"_type":"histogram","values":[2,0,0,0,0,0,1,0,0,0,0,0,1,0,0,0,0,1,0,1,0,2,0,0,0,0,0,0,0,0,0,0,0,1,0,1,0,0,1,0,0,0,0,1,1,1,0,0,0,0,0,0,0,0,0,0,0,0,1,0,0,0,0,1],"bins":[-7.39050864950741e-09,-7.2558212771411945e-09,-7.121133904774979e-09,-6.986446976497973e-09,-6.8517596041317574e-09,-6.717072231765542e-09,-6.582384859399326e-09,-6.44769793112232e-09,-6.313010558756105e-09,-6.178323186389889e-09,-6.0436358140236734e-09,-5.908948441657458e-09,-5.774261513380452e-09,-5.639574141014236e-09,-5.504886768648021e-09,-5.370199396281805e-09,-5.235512468004799e-09,-5.100825095638584e-09,-4.966137723272368e-09,-4.831450350906152e-09,-4.696762978539937e-09,-4.562076050262931e-09,-4.427388677896715e-09,-4.2927013055305e-09,-4.158013933164284e-09,-4.023326560798068e-09,-3.888639632521063e-09,-3.753952260154847e-09,-3.6192648877886313e-09,-3.4845777374670206e-09,-3.349890365100805e-09,-3.2152032147791942e-09,-3.0805158424129786e-09,-2.945828470046763e-09,-2.8111413197251522e-09,-2.6764539473589366e-09,-2.541766797037326e-09,-2.4070794246711102e-09,-2.2723922743494995e-09,-2.137704901983284e-09,-2.003017751661673e-09,-1.8683303792954575e-09,-1.7336431179515444e-09,-1.5989558566076312e-09,-1.4642684842414155e-09,-1.3295812228975024e-09,-1.1948939615535892e-09,-1.060206700209676e-09,-9.255194388657628e-10,-7.908321775218496e-10,-6.561449161779365e-10,-5.214575993228721e-10,-3.867703379789589e-10,-2.520830766350457e-10,-1.173957875355569e-10,1.729148768614408e-11,1.5197876290784507e-10,2.8666602425175824e-10,4.2135331335124704e-10,5.560406024507358e-10,6.90727863794649e-10,8.254151251385622e-10,9.601024419936266e-10,1.0947897033375398e-09,1.229476964681453e-09]},"gradients/features.4.bias":{"_type":"histogram","values":[1,0,0,0,0,0,0,0,1,0,0,0,0,1,0,0,1,0,0,1,0,0,0,1,1,0,1,1,0,0,0,0,0,3,3,1,2,2,0,0,2,1,0,0,0,1,1,1,1,2,1,0,0,0,0,0,0,0,0,0,1,0,0,1],"bins":[-1.1939777166958265e-08,-1.1694305079856804e-08,-1.1448832992755342e-08,-1.1203360017475461e-08,-1.0957887930374e-08,-1.0712415843272538e-08,-1.0466942867992657e-08,-1.0221470780891195e-08,-9.975998693789734e-09,-9.730526606688272e-09,-9.48505451958681e-09,-9.23958154430693e-09,-8.994109457205468e-09,-8.748637370104007e-09,-8.503164394824125e-09,-8.257692307722664e-09,-8.012220220621202e-09,-7.76674813351974e-09,-7.52127604641828e-09,-7.275803071138398e-09,-7.0303309840369366e-09,-6.784858896935475e-09,-6.539386365744804e-09,-6.293913834554132e-09,-6.048441747452671e-09,-5.802969660351209e-09,-5.557497129160538e-09,-5.312024597969867e-09,-5.066552510868405e-09,-4.8210804237669436e-09,-4.575607892576272e-09,-4.330135361385601e-09,-4.084664162462559e-09,-3.8391920753610975e-09,-3.593719544170426e-09,-3.3482472350243597e-09,-3.1027749258782933e-09,-2.857302616732227e-09,-2.6118303075861604e-09,-2.366357998440094e-09,-2.1208856892940275e-09,-1.875413380147961e-09,-1.6299410710018947e-09,-1.3844687618558282e-09,-1.1389964527097618e-09,-8.935241435636954e-10,-6.480518344176289e-10,-4.025795252715625e-10,-1.5710721612549605e-10,8.836509302057038e-11,3.338374021666368e-10,5.793097113127033e-10,8.247820204587697e-10,1.0702543296048361e-09,1.3157266387509026e-09,1.561198947896969e-09,1.8066712570430354e-09,2.052143566189102e-09,2.2976158753351683e-09,2.5430881844812347e-09,2.788560493627301e-09,3.0340328027733676e-09,3.279505111919434e-09,3.5249774210655005e-09,3.770449730211567e-09]},"gradients/features.7.weight":{"values":[1,1,3,2,1,4,4,12,8,16,19,19,16,25,42,33,69,73,114,130,186,210,329,432,639,940,1359,1723,2034,2303,2370,2298,2201,1772,1581,1542,1371,982,715,541,329,271,203,132,112,77,59,29,45,43,34,36,36,37,30,14,15,7,3,5,7,1,2,1],"bins":[-2.6618856452387263e-08,-2.5778852830171672e-08,-2.4938847431599243e-08,-2.4098843809383652e-08,-2.3258840187168062e-08,-2.2418834788595632e-08,-2.157883116638004e-08,-2.073882754416445e-08,-1.989882214559202e-08,-1.905881852337643e-08,-1.821881490116084e-08,-1.737880950258841e-08,-1.653880588037282e-08,-1.569880225815723e-08,-1.48587968595848e-08,-1.401879323736921e-08,-1.3178788726975199e-08,-1.2338784216581189e-08,-1.1498780594365599e-08,-1.0658776083971588e-08,-9.818771573577578e-09,-8.978767951361988e-09,-8.138763440967978e-09,-7.2987589305739675e-09,-6.458754864269167e-09,-5.618750797964367e-09,-4.778746287570357e-09,-3.9387422212655565e-09,-3.0987379329161513e-09,-2.258733644566746e-09,-1.4187294672396433e-09,-5.787252344013893e-10,2.6127899843686464e-10,1.1012832867862699e-09,1.941287575135675e-09,2.7812916414404754e-09,3.6212959297898806e-09,4.461300218139286e-09,5.301304284444086e-09,6.141308794838096e-09,6.9813128611428965e-09,7.821316927447697e-09,8.661321437841707e-09,9.501325948235717e-09,1.0341329570451308e-08,1.1181334080845318e-08,1.2021338591239328e-08,1.2861342213454918e-08,1.3701346723848928e-08,1.4541351234242939e-08,1.538135485645853e-08,1.622136025503096e-08,1.706136387724655e-08,1.790136749946214e-08,1.874137289803457e-08,1.958137652025016e-08,2.042138014246575e-08,2.126138554103818e-08,2.210138916325377e-08,2.294139278546936e-08,2.378139818404179e-08,2.462140180625738e-08,2.5461405428472972e-08,2.6301410827045402e-08,2.7141414449260992e-08],"_type":"histogram"},"gradients/features.3.weight":{"_type":"histogram","values":[1,0,1,0,1,3,1,7,16,40,73,90,82,112,202,309,375,716,1256,2565,3512,4321,5160,3903,2213,1531,1033,747,667,574,520,401,395,299,250,213,160,108,92,75,69,58,50,44,48,62,50,44,24,65,47,48,15,19,25,29,12,11,11,5,2,3,0,3],"bins":[-1.5909254358348335e-08,-1.517580550114417e-08,-1.4442356643940002e-08,-1.3708908674914255e-08,-1.2975459817710089e-08,-1.2242010960505922e-08,-1.1508562103301756e-08,-1.077511324609759e-08,-1.0041665277071843e-08,-9.308216419867676e-09,-8.57476756266351e-09,-7.841318705459344e-09,-7.107869848255177e-09,-6.374421435140221e-09,-5.640972577936054e-09,-4.907524164821098e-09,-4.174075307616931e-09,-3.4406266724573698e-09,-2.7071780372978083e-09,-1.973729180093642e-09,-1.2402805449340804e-09,-5.068318542633676e-10,2.266168364073451e-10,9.60065582589209e-10,1.6935142177487705e-09,2.426962852908332e-09,3.1604114880678935e-09,3.89386034527206e-09,4.627309202476226e-09,5.360757615591183e-09,6.094206472795349e-09,6.827654885910306e-09,7.561103743114472e-09,8.294552600318639e-09,9.028001457522805e-09,9.761449426548552e-09,1.0494898283752718e-08,1.1228347140956885e-08,1.1961795998161051e-08,1.2695244855365218e-08,1.3428692824390964e-08,1.416214168159513e-08,1.4895590538799297e-08,1.5629039396003463e-08,1.636248825320763e-08,1.7095937110411796e-08,1.7829385967615963e-08,1.856283482482013e-08,1.9296283682024296e-08,2.0029730762871623e-08,2.076317962007579e-08,2.1496628477279955e-08,2.2230077334484122e-08,2.2963526191688288e-08,2.3696975048892455e-08,2.443042390609662e-08,2.5163872763300787e-08,2.5897321620504954e-08,2.663077047770912e-08,2.7364217558556447e-08,2.8097666415760614e-08,2.883111527296478e-08,2.9564564130168947e-08,3.029801476372995e-08,3.103146184457728e-08]},"gradients/features.0.bias":{"_type":"histogram","values":[1,0,0,0,0,0,0,0,0,0,1,0,1,0,0,0,1,0,0,0,0,0,0,1,0,1,1,1,0,1,1,1,1,0,0,0,1,0,0,0,0,0,0,0,0,0,1,0,0,0,1,0,0,0,0,0,0,0,0,0,0,0,0,1],"bins":[-2.1671553440683056e-13,-2.095545958979983e-13,-2.0239365738916604e-13,-1.9523271888033378e-13,-1.8807178037150152e-13,-1.8091084186266926e-13,-1.73749903353837e-13,-1.6658896484500474e-13,-1.5942802633617248e-13,-1.5226708782734022e-13,-1.4510614931850796e-13,-1.379452108096757e-13,-1.3078427230084344e-13,-1.2362333379201118e-13,-1.1646239528317892e-13,-1.0930145677434666e-13,-1.021405182655144e-13,-9.497957975668214e-14,-8.781864124784988e-14,-8.065770273901762e-14,-7.349676423018536e-14,-6.63358257213531e-14,-5.917488721252084e-14,-5.2013948703688584e-14,-4.4853010194856324e-14,-3.7692071686024065e-14,-3.0531133177191805e-14,-2.3370194668359545e-14,-1.6209256159527285e-14,-9.048317650695026e-15,-1.887379141862766e-15,5.2735593669694936e-15,1.2434497875801753e-14,1.9595436384634013e-14,2.6756374893466273e-14,3.391731340229853e-14,4.107825191113079e-14,4.823919041996305e-14,5.540012892879531e-14,6.256106743762757e-14,6.972200594645983e-14,7.688294445529209e-14,8.404388296412435e-14,9.120482147295661e-14,9.836575998178887e-14,1.0552669849062113e-13,1.1268763699945339e-13,1.1984857550828565e-13,1.270095140171179e-13,1.3417045252595017e-13,1.4133139103478243e-13,1.4849232954361469e-13,1.5565326805244695e-13,1.628142065612792e-13,1.6997514507011147e-13,1.7713608357894373e-13,1.8429702208777599e-13,1.9145796059660825e-13,1.986188991054405e-13,2.0577983761427276e-13,2.1294077612310502e-13,2.2010171463193728e-13,2.2726265314076954e-13,2.344235916496018e-13,2.4158453015843406e-13]},"gradients/classifier.3.weight":{"values":[50,0,0,0,0,0,0,0,0,0,0,0,0,0,0,0,0,0,0,0,0,0,0,0,0,0,0,0,0,0,0,0,0,0,0,0,0,0,1,1,3,1,4,4,4,3,7,6,2,4,7,0,1,0,0,1,0,0,0,0,0,0,0,1],"bins":[0,5.828324489698389e-09,1.1656648979396778e-08,1.7484973469095166e-08,2.3313297958793555e-08,2.9141622448491944e-08,3.496994693819033e-08,4.079826965153188e-08,4.662659591758711e-08,5.245492218364234e-08,5.828324489698389e-08,6.411156761032544e-08,6.993989387638067e-08,7.57682201424359e-08,8.159653930306376e-08,8.742486556911899e-08,9.325319183517422e-08,9.908151810122945e-08,1.0490984436728468e-07,1.1073816352791255e-07,1.1656648979396778e-07,1.2239480895459565e-07,1.2822313522065087e-07,1.340514614867061e-07,1.3987978775276133e-07,1.4570811401881656e-07,1.515364402848718e-07,1.5736476655092702e-07,1.6319307860612753e-07,1.6902140487218276e-07,1.7484973113823798e-07,1.806780574042932e-07,1.8650638367034844e-07,1.9233470993640367e-07,1.981630362024589e-07,2.0399136246851413e-07,2.0981968873456935e-07,2.1564800078976987e-07,2.214763270558251e-07,2.2730465332188032e-07,2.3313297958793555e-07,2.3896129164313606e-07,2.447896179091913e-07,2.506179441752465e-07,2.5644627044130175e-07,2.62274596707357e-07,2.681029229734122e-07,2.7393124923946743e-07,2.7975957550552266e-07,2.855879017715779e-07,2.914162280376331e-07,2.9724455430368835e-07,3.030728805697436e-07,3.089012068357988e-07,3.1472953310185403e-07,3.2055785936790926e-07,3.2638615721225506e-07,3.322144834783103e-07,3.380428097443655e-07,3.4387113601042074e-07,3.4969946227647597e-07,3.555277885425312e-07,3.613561148085864e-07,3.6718444107464165e-07,3.730127673406969e-07],"_type":"histogram"},"_runtime":50,"gradients/features.4.weight":{"values":[1,0,0,0,0,0,0,0,0,1,0,0,0,0,0,0,0,1,1,1,1,2,1,1,1,2,1,1,1,2,0,0,0,0,3,0,1,2,0,1,0,0,0,0,0,1,0,0,0,0,0,1,0,0,1,0,3,0,0,0,0,0,0,1],"bins":[-1.232800084238761e-08,-1.1944793598672732e-08,-1.1561586354957853e-08,-1.1178379111242975e-08,-1.0795172755706517e-08,-1.0411965511991639e-08,-1.002875826827676e-08,-9.645551024561883e-09,-9.262343780847004e-09,-8.879136537132126e-09,-8.495929293417248e-09,-8.11272204970237e-09,-7.729514805987492e-09,-7.3463080063618236e-09,-6.963101206736155e-09,-6.579893963021277e-09,-6.196686719306399e-09,-5.813479475591521e-09,-5.430272231876643e-09,-5.0470654322509745e-09,-4.663858188536096e-09,-4.280650944821218e-09,-3.89744414519555e-09,-3.514236901480672e-09,-3.1310296577657937e-09,-2.7478224140509155e-09,-2.3646153923806423e-09,-1.981408370710369e-09,-1.598201126995491e-09,-1.2149939943029153e-09,-8.317868616103397e-10,-4.48579728917764e-10,-6.537170804676862e-11,3.1783542464580705e-10,7.010425573383827e-10,1.0842496900309584e-09,1.467456822723534e-09,1.8506639554161097e-09,2.2338710881086854e-09,2.6170781097789586e-09,3.0002853534938367e-09,3.383492597208715e-09,3.766699840923593e-09,4.149906640549261e-09,4.5331138842641394e-09,4.9163211279790175e-09,5.299527927604686e-09,5.682735171319564e-09,6.065942415034442e-09,6.44914965874932e-09,6.832356902464198e-09,7.215563702089867e-09,7.598771389893955e-09,7.981977745430413e-09,8.365184989145291e-09,8.74839223286017e-09,9.131599476575047e-09,9.514806720289926e-09,9.898013964004804e-09,1.0281221207719682e-08,1.066442756325614e-08,1.1047634806971018e-08,1.1430842050685897e-08,1.1814049294400775e-08,1.2197256538115653e-08],"_type":"histogram"},"gradients/features.8.weight":{"_type":"histogram","values":[1,0,0,0,0,0,0,0,0,0,0,0,0,1,0,1,0,1,0,2,1,0,3,1,0,1,1,0,1,3,1,2,1,1,0,1,1,2,0,0,1,2,0,1,0,0,0,0,0,0,0,0,0,0,0,0,0,0,0,1,0,0,0,1],"bins":[-4.123182861803798e-08,-4.059474179030076e-08,-3.995765140984986e-08,-3.932056458211264e-08,-3.868347420166174e-08,-3.804638737392452e-08,-3.740929699347362e-08,-3.6772210165736396e-08,-3.6135119785285497e-08,-3.5498032957548276e-08,-3.4860946129811055e-08,-3.4223855749360155e-08,-3.3586768921622934e-08,-3.2949678541172034e-08,-3.231259171343481e-08,-3.167550133298391e-08,-3.103841450524669e-08,-3.040132767750947e-08,-2.976423729705857e-08,-2.912714869296451e-08,-2.849006008887045e-08,-2.785297326113323e-08,-2.721588465703917e-08,-2.657879605294511e-08,-2.5941707448851048e-08,-2.5304618844756988e-08,-2.4667530240662927e-08,-2.4030441636568867e-08,-2.3393354808831646e-08,-2.2756266204737585e-08,-2.2119177600643525e-08,-2.1482088996549464e-08,-2.0845000392455404e-08,-2.0207911788361343e-08,-1.9570823184267283e-08,-1.8933734580173223e-08,-1.8296645976079162e-08,-1.7659557371985102e-08,-1.702247054424788e-08,-1.638538194015382e-08,-1.574829333605976e-08,-1.51112047319657e-08,-1.4474116127871639e-08,-1.3837027523777579e-08,-1.3199939807861938e-08,-1.2562851203767877e-08,-1.1925762599673817e-08,-1.1288673995579757e-08,-1.0651586279664116e-08,-1.0014497675570055e-08,-9.377409071475995e-09,-8.740320467381935e-09,-8.103232751466294e-09,-7.466144147372233e-09,-6.829055543278173e-09,-6.191967383273322e-09,-5.554878779179262e-09,-4.917790619174411e-09,-4.280702015080351e-09,-3.6436138550755004e-09,-3.006525473026045e-09,-2.3694370909765894e-09,-1.7323485979048314e-09,-1.095260215855376e-09,-4.5817186156149603e-10]},"gradients/classifier.1.bias":{"values":[1,0,0,1,3,1,1,1,2,0,1,2,0,0,1,0,0,0,0,2,0,0,1,0,2,1,2,0,3,1,0,1,1,0,0,0,0,1,0,3,1,1,1,0,2,1,0,1,0,0,0,1,2,2,0,1,2,1,1,1,0,0,0,50],"bins":[-4.272823872497611e-09,-4.206060832956382e-09,-4.139298237504363e-09,-4.072535197963134e-09,-4.005772602511115e-09,-3.939009562969886e-09,-3.872246523428657e-09,-3.805483927976638e-09,-3.7387208884354095e-09,-3.6719580709387856e-09,-3.6051952534421616e-09,-3.5384322139009328e-09,-3.471669396404309e-09,-3.404906578907685e-09,-3.338143539366456e-09,-3.271380721869832e-09,-3.204617904373208e-09,-3.1378550868765842e-09,-3.0710922693799603e-09,-3.0043292298387314e-09,-2.9375664123421075e-09,-2.8708035948454835e-09,-2.8040405553042547e-09,-2.7372777378076307e-09,-2.6705149203110068e-09,-2.603752102814383e-09,-2.536989285317759e-09,-2.47022624577653e-09,-2.403463428279906e-09,-2.336700610783282e-09,-2.2699375712420533e-09,-2.2031747537454294e-09,-2.1364119362488054e-09,-2.0696491187521815e-09,-2.0028863012555576e-09,-1.9361232617143287e-09,-1.8693604442177048e-09,-1.8025976267210808e-09,-1.7358346982021544e-09,-1.669071769683228e-09,-1.602308952186604e-09,-1.5355461346899801e-09,-1.4687832061710537e-09,-1.4020202776521273e-09,-1.3352574601555034e-09,-1.2684946426588795e-09,-1.201731714139953e-09,-1.1349687856210267e-09,-1.0682059681244027e-09,-1.0014431506277788e-09,-9.346802221088524e-10,-8.679173491010772e-10,-8.01154476093302e-10,-7.343916030855269e-10,-6.676287300777517e-10,-6.008658570699765e-10,-5.341029840622014e-10,-4.673401110544262e-10,-4.00577238046651e-10,-3.3381436503887585e-10,-2.670514920311007e-10,-2.002886190233255e-10,-1.3352574601555034e-10,-6.676287300777517e-11,0],"_type":"histogram"},"gradients/features.10.weight":{"values":[2,4,2,1,3,5,3,1,4,5,6,21,20,29,35,48,47,58,75,74,92,98,101,125,148,150,204,227,212,271,200,225,212,188,158,112,114,112,83,91,73,80,91,125,139,160,188,202,195,194,247,237,190,203,252,312,396,515,600,614,663,941,713,2928],"bins":[-6.040171740551159e-08,-5.945787506789202e-08,-5.8514036282986126e-08,-5.7570193945366555e-08,-5.662635160774698e-08,-5.568250927012741e-08,-5.473867048522152e-08,-5.379482814760195e-08,-5.2850985809982376e-08,-5.190714702507648e-08,-5.096330468745691e-08,-5.001946234983734e-08,-4.907562001221777e-08,-4.8131781227311876e-08,-4.7187938889692305e-08,-4.624409655207273e-08,-4.530025421445316e-08,-4.435641542954727e-08,-4.34125730919277e-08,-4.2468730754308126e-08,-4.1524891969402233e-08,-4.058104963178266e-08,-3.963720729416309e-08,-3.869336495654352e-08,-3.7749526171637626e-08,-3.6805683834018055e-08,-3.586184149639848e-08,-3.491800271149259e-08,-3.397416037387302e-08,-3.303031803625345e-08,-3.2086475698633876e-08,-3.1142636913727983e-08,-3.019879457610841e-08,-2.925495401484568e-08,-2.8311113453582948e-08,-2.7367271115963376e-08,-2.6423430554700644e-08,-2.5479588217081073e-08,-2.453574765581834e-08,-2.359190709455561e-08,-2.2648064756936037e-08,-2.1704224195673305e-08,-2.0760381858053734e-08,-1.9816541296791e-08,-1.887269895917143e-08,-1.7928858397908698e-08,-1.6985017836645966e-08,-1.6041175499026394e-08,-1.5097334937763662e-08,-1.4153492600144091e-08,-1.3209652038881359e-08,-1.2265810589440207e-08,-1.1321969139999055e-08,-1.0378127690557903e-08,-9.434286241116752e-09,-8.4904447916756e-09,-7.546603342234448e-09,-6.602762336882506e-09,-5.658920887441354e-09,-4.7150794380002026e-09,-3.771238432648261e-09,-2.827396983207109e-09,-1.883555533765957e-09,-9.397143063694102e-10,4.127049396673854e-12],"_type":"histogram"}}