{"gradients/classifier.3.weight":{"_type":"histogram","values":[49,0,0,0,0,0,0,0,0,0,0,0,0,0,0,0,0,0,0,0,0,0,0,0,0,0,0,0,0,0,0,0,0,0,0,0,0,0,0,0,1,1,1,2,2,2,2,10,6,4,2,3,6,4,2,0,0,1,0,1,0,0,0,1],"bins":[0,2.962525363914281e-11,5.925050727828562e-11,8.887576091742844e-11,1.1850101455657125e-10,1.4812626125682016e-10,1.7775152183485687e-10,2.073767824128936e-10,2.370020291131425e-10,2.666272758133914e-10,2.962525225136403e-10,3.2587779696946484e-10,3.5550304366971375e-10,3.8512829036996266e-10,4.147535648257872e-10,4.443788115260361e-10,4.74004058226285e-10,5.036293049265339e-10,5.332545516267828e-10,5.628797983270317e-10,5.925050450272806e-10,6.221303472386808e-10,6.517555939389297e-10,6.813808406391786e-10,7.110060873394275e-10,7.406313340396764e-10,7.702565807399253e-10,7.998818274401742e-10,8.295071296515744e-10,8.591323763518233e-10,8.887576230520722e-10,9.183828697523211e-10,9.4800811645257e-10,9.776334186639701e-10,1.0072586098530678e-09,1.036883912064468e-09,1.0665091032535656e-09,1.0961344054649658e-09,1.1257595966540634e-09,1.1553848988654636e-09,1.1850100900545613e-09,1.2146353922659614e-09,1.2442606944773615e-09,1.2738858856664592e-09,1.3035111878778594e-09,1.333136379066957e-09,1.3627616812783572e-09,1.3923868724674549e-09,1.422012174678855e-09,1.4516374768902551e-09,1.4812626680793528e-09,1.510887970290753e-09,1.5405131614798506e-09,1.5701384636912508e-09,1.5997636548803484e-09,1.6293889570917486e-09,1.6590142593031487e-09,1.6886394504922464e-09,1.7182647527036465e-09,1.7478899438927442e-09,1.7775152461041444e-09,1.807140437293242e-09,1.8367657395046422e-09,1.8663910417160423e-09,1.89601623290514e-09]},"validation recall":0,"gradients/features.7.bias":{"bins":[-2.7321894746634712e-17,-2.6095391039010485e-17,-2.4868887331386258e-17,-2.364238362376203e-17,-2.2415879916137804e-17,-2.1189376208513577e-17,-1.996287250088935e-17,-1.8736368793265124e-17,-1.7509865085640897e-17,-1.628336137801667e-17,-1.5056857670392443e-17,-1.3830353962768216e-17,-1.2603850255143989e-17,-1.1377346547519762e-17,-1.0150842839895535e-17,-8.924339132271308e-18,-7.697835424647081e-18,-6.4713317170228546e-18,-5.244828009398628e-18,-4.018324301774401e-18,-2.791820594150174e-18,-1.565316886525947e-18,-3.3881317890172014e-19,8.876905287225068e-19,2.1141942363467336e-18,3.3406979439709605e-18,4.5672016515951874e-18,5.793705359219414e-18,7.020209066843641e-18,8.246712774467868e-18,9.473216482092095e-18,1.0699720189716322e-17,1.1926223897340549e-17,1.3152727604964776e-17,1.4379231312589003e-17,1.560573502021323e-17,1.6832238727837456e-17,1.8058742435461683e-17,1.928524614308591e-17,2.0511749850710137e-17,2.1738253558334364e-17,2.296475726595859e-17,2.4191260973582818e-17,2.5417764681207045e-17,2.664426838883127e-17,2.78707720964555e-17,2.9097275804079725e-17,3.032377951170395e-17,3.155028321932818e-17,3.2776786926952406e-17,3.400329063457663e-17,3.522979434220086e-17,3.6456298049825087e-17,3.7682801757449313e-17,3.890930546507354e-17,4.013580917269777e-17,4.1362312880321994e-17,4.258881658794622e-17,4.381532029557045e-17,4.5041824003194675e-17,4.62683277108189e-17,4.749483141844313e-17,4.8721335126067356e-17,4.994783883369158e-17,5.117434254131581e-17],"_type":"histogram","values":[1,0,1,1,0,2,1,0,0,0,0,0,1,0,2,0,2,0,0,1,0,1,1,1,4,2,0,1,1,1,0,0,1,1,0,0,0,0,0,1,0,1,0,1,0,0,0,1,0,0,0,1,0,0,0,0,0,0,0,0,0,0,0,1]},"epoch":20,"_wandb":{"runtime":118},"gradients/features.7.weight":{"bins":[-1.4860877806111006e-10,-1.4406911774678122e-10,-1.3952947131024018e-10,-1.3498981099591134e-10,-1.304501506815825e-10,-1.2591049036725366e-10,-1.2137083005292482e-10,-1.1683118361638378e-10,-1.1229152330205494e-10,-1.077518629877261e-10,-1.0321220961229116e-10,-9.867255623685622e-11,-9.413289592252738e-11,-8.959323560819854e-11,-8.50535822327636e-11,-8.051392885732866e-11,-7.597426854299982e-11,-7.143460822867098e-11,-6.689495485323604e-11,-6.23553014778011e-11,-5.7815641163472264e-11,-5.3275984318590375e-11,-4.8736327473708485e-11,-4.4196670628826595e-11,-3.9657013783944706e-11,-3.5117356939062816e-11,-3.0577700094180926e-11,-2.6038043249299037e-11,-2.1498386404417147e-11,-1.6958729559535257e-11,-1.2419072714653367e-11,-7.879415869771478e-12,-3.3397451471017803e-12,1.1999116977801094e-12,5.739568542661999e-12,1.0279225387543889e-11,1.481888223242578e-11,1.9358539077307668e-11,2.3898195922189558e-11,2.8437852767071448e-11,3.297750961195334e-11,3.751716645683523e-11,4.2056823301717117e-11,4.6596480146599006e-11,5.1136136991480896e-11,5.5675793836362786e-11,6.021545068124468e-11,6.475510405667961e-11,6.929476437100845e-11,7.38344246853373e-11,7.837407806077223e-11,8.291373143620717e-11,8.745339175053601e-11,9.199305206486486e-11,9.653270544029979e-11,1.0107235881573473e-10,1.0561201913006357e-10,1.1015167944439241e-10,1.1469133281982735e-10,1.192309861952623e-10,1.2377064650959113e-10,1.2831030682391997e-10,1.32849953260461e-10,1.3738961357478985e-10,1.419292738891187e-10],"_type":"histogram","values":[1,1,0,2,1,1,5,1,7,3,4,14,8,16,16,32,44,69,105,142,153,204,291,342,471,663,879,1200,1640,2007,2226,2465,2479,2400,2242,1954,1549,1082,779,535,344,226,174,163,130,100,72,63,42,33,23,33,32,32,23,25,31,21,20,10,7,5,4,2]},"gradients/classifier.1.weight":{"bins":[-4.766269323663863e-11,-4.691796257061398e-11,-4.617323537403628e-11,-4.542850470801163e-11,-4.468377404198698e-11,-4.393904684540928e-11,-4.319431617938463e-11,-4.244958551335998e-11,-4.1704854847335326e-11,-4.096012765075763e-11,-4.0215396984732976e-11,-3.9470666318708325e-11,-3.8725939122130626e-11,-3.7981208456105975e-11,-3.7236477790081324e-11,-3.6491750593503625e-11,-3.5747019927478974e-11,-3.500228926145432e-11,-3.4257562064876623e-11,-3.351283139885197e-11,-3.276810073282732e-11,-3.202337353624962e-11,-3.127864287022497e-11,-3.053391220420032e-11,-2.978918500762262e-11,-2.904445434159797e-11,-2.8299723675573318e-11,-2.7554994744272143e-11,-2.6810265812970968e-11,-2.6065535146946317e-11,-2.5320806215645142e-11,-2.457607554962049e-11,-2.3831346618319316e-11,-2.308661768701814e-11,-2.234188702099349e-11,-2.1597158089692314e-11,-2.0852427423667663e-11,-2.0107698492366488e-11,-1.9362969561065313e-11,-1.8618238895040662e-11,-1.7873509963739487e-11,-1.7128781032438312e-11,-1.638405036641366e-11,-1.5639321435112485e-11,-1.489459250381131e-11,-1.4149861837786659e-11,-1.3405132906485484e-11,-1.2660403107822571e-11,-1.1915673309159658e-11,-1.1170943510496745e-11,-1.0426213711833832e-11,-9.681484780532656e-12,-8.936754981869743e-12,-8.19202518320683e-12,-7.447296251905655e-12,-6.702566453242742e-12,-5.957836654579829e-12,-5.213106855916916e-12,-4.468377490934872e-12,-3.7236481259528276e-12,-2.9789183272899145e-12,-2.234188745467436e-12,-1.4894591636449572e-12,-7.447295818224786e-13,0],"_type":"histogram","values":[2,0,18,25,44,42,54,68,92,131,193,273,333,387,401,428,532,642,778,885,966,897,885,1022,1047,995,914,856,1002,1167,1259,1309,1445,1640,1734,1805,1843,1873,1821,1723,1699,1573,1761,1936,2022,2265,1979,2047,1953,2446,1843,1780,1629,1560,2186,2409,1901,2358,3093,2950,2383,1101,95,83500]},"_timestamp":1.7659396058511817e+09,"gradients/features.0.bias":{"values":[1,0,0,0,0,0,0,0,0,0,1,0,0,1,0,1,0,0,0,1,0,0,1,2,0,0,0,0,1,0,0,0,1,2,0,0,0,0,0,0,0,0,0,0,0,0,1,1,0,0,0,0,0,0,1,0,0,0,0,0,0,0,0,1],"bins":[-4.718447854656915e-16,-4.473418163675191e-16,-4.2283884726934673e-16,-3.9833587817117433e-16,-3.7383290907300193e-16,-3.4932993997482953e-16,-3.2482697087665713e-16,-3.0032400177848473e-16,-2.7582103268031233e-16,-2.5131806358213993e-16,-2.2681509448396753e-16,-2.0231212538579513e-16,-1.7780915628762273e-16,-1.5330618718945033e-16,-1.2880321809127793e-16,-1.0430024899310553e-16,-7.979727989493313e-17,-5.5294310796760726e-17,-3.0791341698588326e-17,-6.288372600415926e-18,1.8214596497756474e-17,4.2717565595928875e-17,6.722053469410127e-17,9.172350379227368e-17,1.1622647289044608e-16,1.4072944198861848e-16,1.6523241108679088e-16,1.8973538018496328e-16,2.1423834928313568e-16,2.387413183813081e-16,2.632442874794805e-16,2.877472565776529e-16,3.122502256758253e-16,3.367531947739977e-16,3.612561638721701e-16,3.857591329703425e-16,4.102621020685149e-16,4.347650711666873e-16,4.592680402648597e-16,4.837710093630321e-16,5.082739784612045e-16,5.327769475593769e-16,5.572799166575493e-16,5.817828857557217e-16,6.062858548538941e-16,6.307888239520665e-16,6.552917930502389e-16,6.797947621484113e-16,7.042977312465837e-16,7.288007003447561e-16,7.533036694429285e-16,7.778066385411009e-16,8.023096076392733e-16,8.268125767374457e-16,8.513155458356181e-16,8.758185149337905e-16,9.003214840319629e-16,9.248244531301353e-16,9.493274222283077e-16,9.7383039132648e-16,9.983333604246525e-16,1.0228363295228249e-15,1.0473392986209973e-15,1.0718422677191697e-15,1.096345236817342e-15],"_type":"histogram"},"gradients/features.8.bias":{"bins":[-2.3084054112665342e-10,-2.2750815120708978e-10,-2.2417577516531395e-10,-2.208433852457503e-10,-2.1751099532618667e-10,-2.1417860540662303e-10,-2.108462293648472e-10,-2.0751383944528357e-10,-2.0418144952571993e-10,-2.008490596061563e-10,-1.9751668356438046e-10,-1.9418429364481682e-10,-1.9085190372525318e-10,-1.8751951380568954e-10,-1.841871377639137e-10,-1.8085474784435007e-10,-1.7752235792478643e-10,-1.741899818830106e-10,-1.7085759196344696e-10,-1.6752520204388333e-10,-1.6419281212431969e-10,-1.6086043608254386e-10,-1.5752804616298022e-10,-1.5419565624341658e-10,-1.5086326632385294e-10,-1.475308902820771e-10,-1.4419850036251347e-10,-1.4086611044294983e-10,-1.375337205233862e-10,-1.3420134448161036e-10,-1.3086895456204672e-10,-1.2753656464248309e-10,-1.2420418860070725e-10,-1.2087179868114362e-10,-1.1753940876157998e-10,-1.1420702578091024e-10,-1.1087464280024051e-10,-1.0754225288067687e-10,-1.0420986990000713e-10,-1.008774799804435e-10,-9.754509699977376e-11,-9.421270708021012e-11,-9.088032409954039e-11,-8.754793417997675e-11,-8.421555119930701e-11,-8.088316127974338e-11,-7.755077829907364e-11,-7.421838837951e-11,-7.088600539884027e-11,-6.755362241817053e-11,-6.42212324986069e-11,-6.088884951793716e-11,-5.755645959837352e-11,-5.4224073148256835e-11,-5.089168669814015e-11,-4.755930024802346e-11,-4.4226913797906775e-11,-4.089453081723704e-11,-3.7562144367120354e-11,-3.422975791700367e-11,-3.089737146688698e-11,-2.7564985016770294e-11,-2.4232598566653607e-11,-2.090021211653692e-11,-1.7567825666420234e-11],"_type":"histogram","values":[1,0,0,0,0,0,0,0,0,0,1,0,1,0,0,2,0,0,0,0,0,2,1,3,1,1,0,2,1,0,2,1,0,1,1,3,1,1,1,2,0,0,1,1,0,0,0,0,0,0,0,0,0,0,0,0,0,0,0,0,0,0,0,1]},"gradients/features.3.weight":{"bins":[-1.6062251528836669e-10,-1.5612855452928898e-10,-1.5163459377021127e-10,-1.4714064688892137e-10,-1.4264668612984366e-10,-1.3815272537076595e-10,-1.3365876461168824e-10,-1.2916480385261053e-10,-1.2467085697132063e-10,-1.2017689621224292e-10,-1.1568293545316521e-10,-1.111889746940875e-10,-1.066950139350098e-10,-1.0220106011482599e-10,-9.770709935574828e-11,-9.321314553556448e-11,-8.871918477648677e-11,-8.422522401740906e-11,-7.973127019722526e-11,-7.523730943814755e-11,-7.074335561796374e-11,-6.624939485888603e-11,-6.175543409980833e-11,-5.726147681017757e-11,-5.276751952054681e-11,-4.8273562230916056e-11,-4.37796049412853e-11,-3.928564418220759e-11,-3.4791686892576834e-11,-3.029772960294608e-11,-2.5803770578591845e-11,-2.1309811554237612e-11,-1.6815840386819048e-11,-1.2321882229826553e-11,-7.827924072834058e-12,-3.3339659158415635e-12,1.1599922411509311e-12,5.653950398143426e-12,1.014790855513592e-11,1.4641867579490153e-11,1.913582486912091e-11,2.3629782158751667e-11,2.81237411831059e-11,3.261770020746013e-11,3.711165749709089e-11,4.1605614786721645e-11,4.6099575545799354e-11,5.059353283543011e-11,5.508749012506087e-11,5.958145088413858e-11,6.407540470432238e-11,6.856936546340009e-11,7.30633192835839e-11,7.75572800426616e-11,8.205124080173931e-11,8.654519462192312e-11,9.103915538100082e-11,9.553311614007853e-11,1.0002706996026234e-10,1.0452103071934005e-10,1.0901499147841776e-10,1.1350894529860156e-10,1.1800289911878536e-10,1.2249685987786307e-10,1.2699082063694078e-10],"_type":"histogram","values":[4,4,13,13,5,10,9,6,7,21,17,22,28,19,22,22,27,25,17,20,36,28,36,22,19,31,55,82,160,237,393,819,1483,2561,3820,4873,4671,3447,2191,1657,1437,1141,854,548,399,311,270,243,134,90,56,67,48,20,17,38,36,31,30,12,9,16,20,9]},"_runtime":118,"gradients/features.3.bias":{"values":[1,0,0,0,0,0,0,0,0,0,0,0,0,0,0,0,0,0,0,1,1,2,0,2,2,0,1,1,1,1,2,1,2,1,1,1,1,1,3,1,1,0,2,0,0,0,0,0,0,0,0,0,0,0,0,0,0,0,1,0,0,0,0,1],"bins":[-1.3660947373317356e-17,-1.3217102108956102e-17,-1.2773256844594849e-17,-1.2329411580233596e-17,-1.1885566315872342e-17,-1.1441721051511089e-17,-1.0997875787149836e-17,-1.0554030522788582e-17,-1.0110185258427329e-17,-9.666339994066075e-18,-9.222494729704822e-18,-8.778649465343569e-18,-8.334804200982315e-18,-7.890958936621062e-18,-7.447113672259809e-18,-7.003268407898555e-18,-6.559423143537302e-18,-6.1155778791760484e-18,-5.671732614814795e-18,-5.227887350453542e-18,-4.784042086092288e-18,-4.340196821731035e-18,-3.8963515573697816e-18,-3.452506293008528e-18,-3.0086610286472748e-18,-2.5648157642860214e-18,-2.120970499924768e-18,-1.6771252355635147e-18,-1.2332799712022613e-18,-7.894347068410079e-19,-3.4558944247975454e-19,9.825582188149884e-20,5.421010862427522e-19,9.859463506040056e-19,1.429791614965259e-18,1.8736368793265124e-18,2.3174821436877657e-18,2.761327408049019e-18,3.2051726724102725e-18,3.649017936771526e-18,4.092863201132779e-18,4.536708465494033e-18,4.980553729855286e-18,5.424398994216539e-18,5.868244258577793e-18,6.312089522939046e-18,6.7559347873002995e-18,7.199780051661553e-18,7.643625316022806e-18,8.08747058038406e-18,8.531315844745313e-18,8.975161109106566e-18,9.41900637346782e-18,9.862851637829073e-18,1.0306696902190327e-17,1.075054216655158e-17,1.1194387430912833e-17,1.1638232695274087e-17,1.208207795963534e-17,1.2525923223996593e-17,1.2969768488357847e-17,1.34136137527191e-17,1.3857459017080354e-17,1.4301304281441607e-17,1.474514954580286e-17],"_type":"histogram"},"gradients/features.4.weight":{"bins":[-7.076397107175225e-11,-6.881963054983231e-11,-6.687529696680627e-11,-6.493095644488633e-11,-6.29866159229664e-11,-6.104228233994036e-11,-5.909794181802042e-11,-5.715360476554743e-11,-5.520926771307444e-11,-5.326493066060145e-11,-5.132059360812846e-11,-4.937625308620852e-11,-4.743191603373553e-11,-4.5487578981262544e-11,-4.3543238459342604e-11,-4.1598901406869615e-11,-3.9654564354396626e-11,-3.771022730192364e-11,-3.576589024945065e-11,-3.382154972753071e-11,-3.187721267505772e-11,-2.993287562258473e-11,-2.7988536835388267e-11,-2.6044198048191802e-11,-2.4099860995718814e-11,-2.2155523943245825e-11,-2.021118515604936e-11,-1.8266846368852896e-11,-1.6322509316379907e-11,-1.437817139654518e-11,-1.2433833476710454e-11,-1.0489495556875728e-11,-8.545164575934905e-12,-6.600826656100178e-12,-4.656488736265452e-12,-2.712150816430725e-12,-7.678128965959985e-13,1.176525023238728e-12,3.1208629430734547e-12,5.065200862908181e-12,7.009538782742908e-12,8.953876702577634e-12,1.0898214622412361e-11,1.2842552542247088e-11,1.4786890462081814e-11,1.6731227514554803e-11,1.8675566301751267e-11,2.0619905088947732e-11,2.256424214142072e-11,2.450857919389371e-11,2.6452917981090174e-11,2.8397256768286638e-11,3.034159382075963e-11,3.2285930873232616e-11,3.4230271395152556e-11,3.6174608447625545e-11,3.8118945500098533e-11,4.006328255257152e-11,4.200761960504451e-11,4.395196012696445e-11,4.589629717943744e-11,4.784063423191043e-11,4.978497475383037e-11,5.172931180630336e-11,5.3673648858776346e-11],"_type":"histogram","values":[1,0,0,0,0,0,0,0,0,0,0,0,0,0,0,0,0,0,0,0,0,1,2,2,0,1,0,0,0,1,2,2,0,0,2,3,0,3,1,0,1,1,0,0,1,0,3,1,0,0,0,1,0,0,0,0,0,1,0,0,0,0,1,1]},"gradients/features.4.bias":{"values":[1,0,0,0,0,0,0,1,0,0,0,0,0,0,0,0,0,0,0,1,0,0,0,0,2,0,1,1,0,2,0,0,2,0,3,1,0,1,0,1,0,1,0,2,1,1,0,1,0,1,1,1,1,0,0,0,0,0,1,0,1,1,0,2],"bins":[-6.038487765369638e-11,-5.922051737883294e-11,-5.8056153634522545e-11,-5.6891793359659104e-11,-5.572742961534871e-11,-5.456306934048527e-11,-5.339870559617488e-11,-5.223434532131144e-11,-5.1069981577001045e-11,-4.9905621302137604e-11,-4.874125755782721e-11,-4.757689728296377e-11,-4.641253353865338e-11,-4.524817326378994e-11,-4.4083809519479544e-11,-4.2919449244616104e-11,-4.175508550030571e-11,-4.059072522544227e-11,-3.942636495057883e-11,-3.8262001206268437e-11,-3.7097640931404996e-11,-3.5933277187094603e-11,-3.476891691223116e-11,-3.360455316792077e-11,-3.244019289305733e-11,-3.1275829148746936e-11,-3.0111468873883496e-11,-2.894710686429658e-11,-2.7782744854709662e-11,-2.6618382845122746e-11,-2.545402083553583e-11,-2.4289658825948912e-11,-2.3125296816361995e-11,-2.1960936541498555e-11,-2.0796574531911638e-11,-1.963221252232472e-11,-1.8467850512737805e-11,-1.7303488503150888e-11,-1.613912649356397e-11,-1.4974764483977054e-11,-1.3810402474390138e-11,-1.2646040464803221e-11,-1.1481678455216304e-11,-1.0317316445629388e-11,-9.152954436042471e-12,-7.988593293817292e-12,-6.824231284230375e-12,-5.659869274643459e-12,-4.495507265056542e-12,-3.3311452554696253e-12,-2.166783462723143e-12,-1.0024215615564436e-12,1.619403396102559e-13,1.3263022407769554e-12,2.490664141943655e-12,3.655025934690137e-12,4.819387944277054e-12,5.9837499538639705e-12,7.148111963450887e-12,8.312473973037804e-12,9.47683598262472e-12,1.06411971248499e-11,1.1805559134436816e-11,1.2969921144023733e-11,1.413428315361065e-11],"_type":"histogram"},"gradients/features.1.weight":{"bins":[-5.0010492275154306e-11,-4.8548557535221804e-11,-4.708661932584235e-11,-4.562468458590985e-11,-4.4162749845977345e-11,-4.270081510604484e-11,-4.123888036611234e-11,-3.9776942156732886e-11,-3.8315007416800384e-11,-3.685307267686788e-11,-3.539113446748843e-11,-3.3929199727555925e-11,-3.246726498762342e-11,-3.100533024769092e-11,-2.954339550775842e-11,-2.8081457298378965e-11,-2.6619522558446462e-11,-2.515758781851396e-11,-2.3695651343857982e-11,-2.2233714869202004e-11,-2.07717801292695e-11,-1.9309845389337e-11,-1.784790891468102e-11,-1.6385972440025043e-11,-1.492403770009254e-11,-1.34621020927983e-11,-1.200016648550406e-11,-1.053823087820982e-11,-9.07629527091558e-12,-7.61435966362134e-12,-6.152424056327099e-12,-4.690488449032859e-12,-3.228556311185571e-12,-1.7666207038913306e-12,-3.046850965970904e-13,1.1572505106971498e-12,2.61918611799139e-12,4.08112172528563e-12,5.5430573325798704e-12,7.004992939874111e-12,8.466928547168351e-12,9.928864154462591e-12,1.1390799761756831e-11,1.2852735369051072e-11,1.4314670976345312e-11,1.5776605716277814e-11,1.7238542190933792e-11,1.870047866558977e-11,2.0162413405522273e-11,2.1624348145454775e-11,2.3086284620110753e-11,2.454822109476673e-11,2.6010155834699233e-11,2.7472090574631736e-11,2.8934027049287714e-11,3.039596352394369e-11,3.1857898263876194e-11,3.3319833003808697e-11,3.47817677437412e-11,3.624370595312065e-11,3.7705640693053155e-11,3.916757543298566e-11,4.062951364236511e-11,4.2091448382297614e-11,4.3553383122230116e-11],"_type":"histogram","values":[1,0,0,0,0,0,0,0,0,0,0,0,0,0,0,0,0,0,0,1,1,1,0,1,0,0,1,0,0,1,1,0,0,1,0,1,0,0,0,0,1,0,0,0,0,0,0,1,0,1,0,0,1,0,1,0,0,0,0,0,0,0,0,1]},"train loss":2.377443042919647e-07,"gradients/classifier.1.bias":{"_type":"histogram","values":[2,0,0,1,0,0,0,1,3,0,1,2,1,1,1,1,0,1,0,0,0,1,1,0,0,1,1,1,2,1,2,1,1,1,1,0,0,0,0,1,2,2,1,1,0,3,0,0,1,0,0,0,2,3,0,1,2,1,1,1,0,0,0,49],"bins":[-1.9793892219732712e-11,-1.948461184064776e-11,-1.9175333196286282e-11,-1.886605281720133e-11,-1.8556774172839852e-11,-1.82474937937549e-11,-1.7938215149393422e-11,-1.762893477030847e-11,-1.7319656125946992e-11,-1.701037574686204e-11,-1.6701097102500562e-11,-1.639181672341561e-11,-1.6082538079054132e-11,-1.577325769996918e-11,-1.5463979055607702e-11,-1.515469867652275e-11,-1.4845420032161272e-11,-1.4536139653076319e-11,-1.4226860141353104e-11,-1.3917580629629889e-11,-1.3608301117906674e-11,-1.3299021606183459e-11,-1.2989742094460244e-11,-1.2680462582737029e-11,-1.2371182203652076e-11,-1.206190269192886e-11,-1.1752623180205646e-11,-1.144334366848243e-11,-1.1134064156759216e-11,-1.0824784645036e-11,-1.0515505133312786e-11,-1.020622562158957e-11,-9.896946109866356e-12,-9.587666598143141e-12,-9.278387086419926e-12,-8.969107574696711e-12,-8.659828062973496e-12,-8.350548551250281e-12,-8.041269039527066e-12,-7.731989527803851e-12,-7.422710016080636e-12,-7.113430070676552e-12,-6.804150558953337e-12,-6.494871047230122e-12,-6.185591101826038e-12,-5.876311590102823e-12,-5.567032078379608e-12,-5.257752566656393e-12,-4.948473054933178e-12,-4.639193543209963e-12,-4.329914031486748e-12,-4.020634519763533e-12,-3.711355008040318e-12,-3.4020752794766684e-12,-3.092795550913019e-12,-2.783516039189804e-12,-2.474236527466589e-12,-2.164957015743374e-12,-1.855677504020159e-12,-1.5463977754565095e-12,-1.2371182637332945e-12,-9.278387520100795e-13,-6.185591318666472e-13,-3.092795659333236e-13,0]},"gradients/features.10.weight":{"bins":[-2.861898218409209e-10,-2.817180932979113e-10,-2.7724639251047734e-10,-2.7277466396746775e-10,-2.6830296318003377e-10,-2.638312346370242e-10,-2.593595338495902e-10,-2.548878053065806e-10,-2.5041610451914664e-10,-2.4594437597613705e-10,-2.414726751887031e-10,-2.370009466456935e-10,-2.325292319804717e-10,-2.2805751731524992e-10,-2.2358580265002814e-10,-2.1911408798480636e-10,-2.1464235944179677e-10,-2.10170644776575e-10,-2.056989301113532e-10,-2.0122721544613142e-10,-1.9675550078090964e-10,-1.9228378611568786e-10,-1.8781207145046608e-10,-1.833403567852443e-10,-1.7886864212002251e-10,-1.7439692745480073e-10,-1.6992521278957895e-10,-1.6545348424656936e-10,-1.6098176958134758e-10,-1.565100549161258e-10,-1.5203834025090401e-10,-1.4756662558568223e-10,-1.4309491092046045e-10,-1.3862319625523867e-10,-1.3415148159001689e-10,-1.296797669247951e-10,-1.2520805225957332e-10,-1.2073633759435154e-10,-1.1626461599023585e-10,-1.1179290132501407e-10,-1.0732117972089839e-10,-1.028494650556766e-10,-9.837775039045482e-11,-9.390603572523304e-11,-8.943432106001126e-11,-8.496260639478947e-11,-8.049088479067379e-11,-7.601917012545201e-11,-7.154745546023022e-11,-6.707574079500844e-11,-6.260402612978666e-11,-5.8132307995117927e-11,-5.366058986044919e-11,-4.918887519522741e-11,-4.471716053000563e-11,-4.0245442395336894e-11,-3.577372773011511e-11,-3.130201306489333e-11,-2.6830294930224596e-11,-2.2358580265002814e-11,-1.7886863865057556e-11,-1.3415147465112298e-11,-8.943431932528778e-12,-4.471715966264389e-12,0],"_type":"histogram","values":[1,4,1,5,7,6,14,21,18,19,15,29,31,41,45,55,65,67,73,90,93,98,120,142,178,175,187,202,188,231,225,201,182,172,141,156,114,133,118,111,87,99,98,130,131,155,198,205,222,294,263,265,231,222,252,266,304,374,435,528,684,872,1078,2657]},"gradients/features.10.bias":{"_type":"histogram","values":[1,1,0,0,0,0,1,0,0,0,1,1,1,0,0,1,1,0,1,4,2,0,0,0,0,0,0,0,0,0,0,0,0,0,0,0,0,0,0,0,0,0,0,0,0,0,0,0,0,0,0,0,0,0,0,0,0,0,0,0,0,0,0,1],"bins":[-2.09643580273422e-10,-2.0636851949529245e-10,-2.030934587171629e-10,-1.9981838406124552e-10,-1.9654332328311597e-10,-1.932682625049864e-10,-1.8999318784906905e-10,-1.867181270709395e-10,-1.8344306629280993e-10,-1.8016800551468037e-10,-1.7689294473655082e-10,-1.7361787008063345e-10,-1.703428093025039e-10,-1.6706774852437434e-10,-1.6379267386845697e-10,-1.6051761309032742e-10,-1.5724255231219786e-10,-1.539674915340683e-10,-1.5069243075593874e-10,-1.4741735610002138e-10,-1.4414229532189182e-10,-1.4086723454376227e-10,-1.375921598878449e-10,-1.3431709910971534e-10,-1.3104203833158579e-10,-1.2776697755345623e-10,-1.2449191677532667e-10,-1.212168421194093e-10,-1.1794178134127975e-10,-1.1466672056315019e-10,-1.1139165284612673e-10,-1.0811658512910327e-10,-1.0484152435097371e-10,-1.0156645663395025e-10,-9.82913958558207e-11,-9.501632813879723e-11,-9.174126736066768e-11,-8.846619964364422e-11,-8.519113886551466e-11,-8.19160711484912e-11,-7.864101037036164e-11,-7.536594265333818e-11,-7.209088187520862e-11,-6.881581415818516e-11,-6.55407533800556e-11,-6.226568566303214e-11,-5.899062488490259e-11,-5.571556063732608e-11,-5.244049638974957e-11,-4.916543214217306e-11,-4.589036789459655e-11,-4.261530364702004e-11,-3.934023939944353e-11,-3.6065175151867024e-11,-3.2790110904290515e-11,-2.9515046656714006e-11,-2.623998067441402e-11,-2.2964916426837512e-11,-1.9689852179261003e-11,-1.6414787931684494e-11,-1.3139723684107985e-11,-9.864659436531475e-12,-6.5895951889549664e-12,-3.3145309413784574e-12,-3.946678866963843e-14]},"best validation loss":5.08498502558723,"_step":42,"gradients/features.8.weight":{"values":[1,2,0,0,0,0,0,2,0,0,0,0,0,0,0,2,0,0,1,0,2,0,1,2,1,1,1,2,1,0,4,0,1,0,0,3,0,0,0,1,0,0,1,1,1,0,0,0,0,0,0,0,0,0,0,0,0,0,0,0,0,0,0,1],"bins":[-2.0147888912802614e-10,-1.985475117649571e-10,-1.9561612052410027e-10,-1.9268474316103124e-10,-1.897533657979622e-10,-1.8682198843489317e-10,-1.8389059719403633e-10,-1.809592198309673e-10,-1.7802784246789827e-10,-1.7509645122704143e-10,-1.721650738639724e-10,-1.6923369650090336e-10,-1.6630230526004652e-10,-1.633709278969775e-10,-1.6043955053390846e-10,-1.5750817317083943e-10,-1.545767819299826e-10,-1.5164540456691356e-10,-1.4871402720384452e-10,-1.4578263596298768e-10,-1.4285125859991865e-10,-1.3991988123684962e-10,-1.3698848999599278e-10,-1.3405711263292375e-10,-1.3112573526985472e-10,-1.2819435790678568e-10,-1.2526296666592884e-10,-1.223315893028598e-10,-1.1940021193979078e-10,-1.1646882069893394e-10,-1.1353744333586491e-10,-1.1060606597279588e-10,-1.0767468167083294e-10,-1.0474330430776391e-10,-1.0181192000580097e-10,-9.888053570383804e-11,-9.5949158340769e-11,-9.301777403880607e-11,-9.008639667573703e-11,-8.71550123737741e-11,-8.422362807181116e-11,-8.129225070874213e-11,-7.83608664067792e-11,-7.542948904371016e-11,-7.249810474174723e-11,-6.95667273786782e-11,-6.663534307671526e-11,-6.370395877475232e-11,-6.077258141168329e-11,-5.7841197109720355e-11,-5.490981627720437e-11,-5.1978435444688387e-11,-4.90470546121724e-11,-4.611567377965642e-11,-4.318428947769348e-11,-4.02529086451775e-11,-3.7321527812661515e-11,-3.439014698014553e-11,-3.1458766147629547e-11,-2.8527383580390087e-11,-2.5596001013150627e-11,-2.2664620180634643e-11,-1.973323934811866e-11,-1.68018567808792e-11,-1.3870475948363215e-11],"_type":"histogram"},"validation accuracy":0.875,"gradients/features.1.bias":{"_type":"histogram","values":[1,0,0,0,0,0,0,0,0,0,0,0,0,0,0,0,0,0,0,0,0,0,0,1,1,0,0,0,1,0,2,0,0,0,1,0,0,0,1,0,0,0,0,1,1,0,1,1,0,0,0,0,0,1,0,0,0,0,0,0,1,0,0,2],"bins":[-6.570674560002487e-11,-6.44856737452848e-11,-6.326460189054472e-11,-6.204353003580465e-11,-6.082245818106458e-11,-5.96013863263245e-11,-5.838031447158443e-11,-5.715924261684435e-11,-5.593817076210428e-11,-5.4717098907364203e-11,-5.349602705262413e-11,-5.2274955197884054e-11,-5.105388334314398e-11,-4.9832811488403905e-11,-4.861173963366383e-11,-4.7390667778923756e-11,-4.616959592418368e-11,-4.494852753889056e-11,-4.3727455684150485e-11,-4.250638382941041e-11,-4.1285311974670336e-11,-4.006424011993026e-11,-3.8843168265190187e-11,-3.762209641045011e-11,-3.640102455571004e-11,-3.517995270096996e-11,-3.395888084622989e-11,-3.2737808991489814e-11,-3.151673713674974e-11,-3.0295665282009665e-11,-2.907459342726959e-11,-2.7853521572529516e-11,-2.663244624834249e-11,-2.541137612832589e-11,-2.4190304273585816e-11,-2.2969232418845742e-11,-2.1748160564105667e-11,-2.0527088709365593e-11,-1.930601685462552e-11,-1.8084944999885444e-11,-1.686387314514537e-11,-1.5642801290405295e-11,-1.442172943566522e-11,-1.3200657580925146e-11,-1.1979585726185071e-11,-1.0758514738806735e-11,-9.53744288406666e-12,-8.316371029326586e-12,-7.095299174586511e-12,-5.874227319846437e-12,-4.653155465106362e-12,-3.4320840440471567e-12,-2.2110121893070822e-12,-9.89940442987225e-13,2.311313033326323e-13,1.4522030496524896e-12,2.673274795972347e-12,3.894346650712421e-12,5.115418505452496e-12,6.336489926511701e-12,7.557562214932645e-12,8.778633202310981e-12,9.999705057051056e-12,1.122077691179113e-11,1.2441848766531205e-11]},"validation loss":8.743577957477617,"gradients/features.0.weight":{"values":[1,3,1,3,3,2,1,1,1,1,16,6,5,2,3,2,8,2,10,12,7,21,10,11,27,27,18,28,34,34,56,45,41,50,38,31,39,46,43,64,55,22,20,20,19,4,12,16,10,21,8,1,1,5,7,8,4,7,6,14,4,2,1,4],"bins":[-9.563141251112128e-11,-9.252310723129042e-11,-8.941480889035347e-11,-8.630650361052261e-11,-8.319819833069175e-11,-8.00898999897548e-11,-7.698159470992394e-11,-7.387328943009308e-11,-7.076499108915613e-11,-6.765668580932527e-11,-6.454838052949441e-11,-6.144007524966355e-11,-5.83317769087266e-11,-5.522347162889574e-11,-5.211516981851183e-11,-4.900686453868097e-11,-4.5898562728297065e-11,-4.279026091791316e-11,-3.96819556380823e-11,-3.6573653827698394e-11,-3.3465348547867535e-11,-3.035704673748363e-11,-2.7248744927099722e-11,-2.414044138199234e-11,-2.1032137836884957e-11,-1.7923834291777574e-11,-1.481553074667019e-11,-1.1707228936286285e-11,-8.598925391178902e-12,-5.4906222797523885e-12,-2.382319168325875e-12,7.259839431006387e-13,3.834287054527152e-12,6.942590165953666e-12,1.005089327738018e-11,1.3159195955125824e-11,1.6267499500233207e-11,1.937580304534059e-11,2.2484104855724496e-11,2.559240840083188e-11,2.870071194593926e-11,3.180901375632317e-11,3.4917319036154026e-11,3.802562084653793e-11,4.113392265692184e-11,4.42422279367527e-11,4.7350529747136605e-11,5.0458835026967463e-11,5.356713683735137e-11,5.6675438647735277e-11,5.978374045811918e-11,6.289204573795004e-11,6.60003510177809e-11,6.910864935871786e-11,7.221695463854871e-11,7.532525991837957e-11,7.843356519821043e-11,8.154186353914739e-11,8.465016881897824e-11,8.77584740988091e-11,9.086677243974606e-11,9.397507771957692e-11,9.708338299940777e-11,1.0019168134034473e-10,1.0329998662017559e-10],"_type":"histogram"},"gradients/classifier.3.bias":{"bins":[1.8220036590577138e-10,1.8220036590577138e-10],"_type":"histogram","values":[1]},"validation precision":0}