{"gradients/features.3.bias":{"values":[1,0,0,0,0,0,0,0,0,0,0,1,0,0,0,0,0,0,0,0,0,0,0,0,0,0,0,0,1,0,0,0,1,2,0,1,0,0,2,5,2,3,0,2,0,0,0,2,0,1,1,2,1,1,0,0,0,1,0,1,0,0,0,1],"bins":[-2.1141942363467336e-18,-2.0633722595114756e-18,-2.0125502826762176e-18,-1.9617283058409596e-18,-1.9109063290057016e-18,-1.8600843521704435e-18,-1.8092623753351855e-18,-1.7584403984999275e-18,-1.7076184216646695e-18,-1.6567964448294115e-18,-1.6059744679941534e-18,-1.5551524911588954e-18,-1.5043305143236374e-18,-1.4535085374883794e-18,-1.4026865606531214e-18,-1.3518645838178633e-18,-1.3010426069826053e-18,-1.2502206301473473e-18,-1.1993986533120893e-18,-1.1485766764768313e-18,-1.0977546996415732e-18,-1.0469327228063152e-18,-9.961107459710572e-19,-9.452887691357992e-19,-8.944667923005412e-19,-8.436448154652831e-19,-7.928228386300251e-19,-7.420008617947671e-19,-6.911788849595091e-19,-6.403569081242511e-19,-5.89534931288993e-19,-5.38712954453735e-19,-4.87890977618477e-19,-4.37069000783219e-19,-3.8624702394796095e-19,-3.3542504711270293e-19,-2.846030702774449e-19,-2.337810934421869e-19,-1.8295911660692887e-19,-1.3213713977167085e-19,-8.131516293641283e-20,-3.049318610115481e-20,2.0328790734103208e-20,7.115076756936123e-20,1.2197274440461925e-19,1.7279472123987727e-19,2.236166980751353e-19,2.744386749103933e-19,3.2526065174565133e-19,3.7608262858090935e-19,4.2690460541616737e-19,4.777265822514254e-19,5.285485590866834e-19,5.793705359219414e-19,6.301925127571995e-19,6.810144895924575e-19,7.318364664277155e-19,7.826584432629735e-19,8.334804200982315e-19,8.843023969334896e-19,9.351243737687476e-19,9.859463506040056e-19,1.0367683274392636e-18,1.0875903042745216e-18,1.1384122811097797e-18],"_type":"histogram"},"train loss":1.8581576503168273e-08,"validation recall":0,"best validation loss":5.441105769203887,"gradients/features.10.bias":{"_type":"histogram","values":[1,0,0,0,0,0,0,0,0,0,0,0,0,0,0,0,0,0,0,0,1,0,0,0,0,0,0,0,0,0,1,0,1,2,1,1,4,1,1,1,0,0,0,0,0,0,0,0,0,0,0,0,0,0,0,0,0,0,0,0,0,0,0,1],"bins":[-2.1015468879004295e-11,-2.068710133751317e-11,-2.035873553074552e-11,-2.0030367989254394e-11,-1.9702002182486744e-11,-1.9373634640995618e-11,-1.904526883422797e-11,-1.8716901292736843e-11,-1.8388535485969193e-11,-1.8060167944478067e-11,-1.7731802137710417e-11,-1.740343459621929e-11,-1.7075068789451642e-11,-1.6746701247960516e-11,-1.6418335441192866e-11,-1.608996789970174e-11,-1.576160209293409e-11,-1.5433234551442965e-11,-1.5104868744675315e-11,-1.477650120318419e-11,-1.4448134529054801e-11,-1.4119767854925414e-11,-1.3791401180796026e-11,-1.3463034506666638e-11,-1.313466783253725e-11,-1.2806301158407862e-11,-1.2477934484278475e-11,-1.2149567810149087e-11,-1.1821201136019699e-11,-1.1492834461890311e-11,-1.1164467787760923e-11,-1.0836101113631535e-11,-1.0507734439502148e-11,-1.017936776537276e-11,-9.851001091243372e-12,-9.522634417113984e-12,-9.194267742984596e-12,-8.865901068855209e-12,-8.537534394725821e-12,-8.209167720596433e-12,-7.880801046467045e-12,-7.552434372337657e-12,-7.224067264527401e-12,-6.895700590398013e-12,-6.567333916268625e-12,-6.238967242139237e-12,-5.9106005680098495e-12,-5.582233893880462e-12,-5.253867219751074e-12,-4.925500545621686e-12,-4.597133871492298e-12,-4.2687671973629104e-12,-3.940400523233523e-12,-3.6120336322637003e-12,-3.2836669581343125e-12,-2.9553002840049247e-12,-2.626933609875537e-12,-2.298566935746149e-12,-1.9702002616167613e-12,-1.6418334790671563e-12,-1.3134668049377685e-12,-9.851001308083807e-13,-6.567334024688842e-13,-3.283667012344421e-13,0]},"gradients/features.7.weight":{"values":[2,3,8,12,17,22,33,47,53,73,99,118,188,263,440,574,875,1174,1419,1703,1796,2033,2050,1875,1790,1743,1648,1372,1118,897,754,622,529,417,310,264,244,179,150,135,114,87,75,60,55,35,36,18,9,16,10,12,12,10,13,10,6,10,2,3,4,0,1,1],"bins":[-8.213762135722558e-12,-7.841041184397657e-12,-7.468320233072756e-12,-7.095598848066986e-12,-6.7228778967420855e-12,-6.350156945417185e-12,-5.977435560411415e-12,-5.604714609086514e-12,-5.231993657761613e-12,-4.8592727064367125e-12,-4.486551755111812e-12,-4.113830370106042e-12,-3.741109418781141e-12,-3.3683884674562403e-12,-2.995667299290905e-12,-2.6229461311255697e-12,-2.250225179800669e-12,-1.877504228475768e-12,-1.5047830603104329e-12,-1.1320620005653148e-12,-7.593409408201968e-13,-3.866198810750787e-13,-1.3898821329960676e-14,3.5882223841515737e-13,7.315432981602754e-13,1.1042643579053935e-12,1.4769854176505115e-12,1.8497065858158468e-12,2.2224275371407476e-12,2.5951484884656484e-12,2.9678696566309837e-12,3.340590824796319e-12,3.713310908759482e-12,4.0860318600843826e-12,4.458752811409283e-12,4.831474196415053e-12,5.204195147739954e-12,5.576916099064855e-12,5.9496374840706245e-12,6.322358435395525e-12,6.695079386720426e-12,7.067800338045327e-12,7.440521289370228e-12,7.813242240695129e-12,8.185964059381767e-12,8.558685010706668e-12,8.931405962031569e-12,9.30412691335647e-12,9.67684786468137e-12,1.0049568816006271e-11,1.0422289767331172e-11,1.0795010718656073e-11,1.1167731669980974e-11,1.1540453488667612e-11,1.1913174439992513e-11,1.2285895391317414e-11,1.2658616342642315e-11,1.3031337293967216e-11,1.3404058245292116e-11,1.3776779196617017e-11,1.4149501015303656e-11,1.4522221966628557e-11,1.4894942917953458e-11,1.526766386927836e-11,1.564038482060326e-11],"_type":"histogram"},"validation accuracy":0.875,"gradients/features.8.weight":{"bins":[-1.4624801369933493e-11,-1.4400474736275815e-11,-1.4176147235256398e-11,-1.3951820601598719e-11,-1.372749396794104e-11,-1.3503166466921623e-11,-1.3278839833263945e-11,-1.3054512332244528e-11,-1.2830185698586849e-11,-1.260585906492917e-11,-1.2381531563909753e-11,-1.2157204930252075e-11,-1.1932878296594396e-11,-1.1708550795574979e-11,-1.14842241619173e-11,-1.1259897528259621e-11,-1.1035570027240205e-11,-1.0811243393582526e-11,-1.0586916759924847e-11,-1.036258925890543e-11,-1.0138262625247751e-11,-9.913935124228335e-12,-9.689608490570656e-12,-9.465281856912977e-12,-9.24095435589356e-12,-9.016627722235881e-12,-8.792301088578203e-12,-8.567973587558786e-12,-8.343646953901107e-12,-8.119320320243428e-12,-7.894992819224012e-12,-7.670666185566333e-12,-7.446339551908654e-12,-7.222012484570106e-12,-6.997685417231558e-12,-6.7733583498930106e-12,-6.549031716235332e-12,-6.324704648896784e-12,-6.100377581558236e-12,-5.876050514219688e-12,-5.6517238805620096e-12,-5.427396813223462e-12,-5.203069745884914e-12,-4.978743112227235e-12,-4.7544160448886874e-12,-4.53008897755014e-12,-4.305761910211592e-12,-4.081435276553913e-12,-3.857108209215365e-12,-3.632781358717252e-12,-3.408454291378704e-12,-3.184127440880591e-12,-2.959800373542043e-12,-2.7354735230439298e-12,-2.511146455705382e-12,-2.2868196052072687e-12,-2.062492537868721e-12,-1.8381656873706076e-12,-1.613838728452277e-12,-1.3895117695339465e-12,-1.1651849190358332e-12,-9.408579601175027e-13,-7.165310011991721e-13,-4.922040422808416e-13,-2.6787708336251104e-13],"_type":"histogram","values":[1,0,0,1,0,0,0,1,0,0,1,1,0,1,1,0,0,0,1,1,1,1,1,4,0,0,0,0,0,1,1,2,0,1,1,1,1,2,1,1,0,1,0,1,1,0,0,0,0,0,0,0,0,0,0,0,0,0,0,0,0,0,0,1]},"_runtime":160,"_wandb":{"runtime":160},"_step":42,"gradients/features.1.weight":{"_type":"histogram","values":[2,0,0,1,0,1,0,0,1,1,0,0,0,1,0,0,2,0,1,0,0,1,0,0,0,0,0,0,0,0,0,0,0,0,0,0,1,0,0,0,1,0,0,0,0,0,0,0,0,1,0,0,0,1,0,0,0,0,0,0,0,0,0,1],"bins":[-2.286868611145465e-12,-2.1838700552806456e-12,-2.080871499415826e-12,-1.9778729435510067e-12,-1.8748743876861873e-12,-1.7718759402415851e-12,-1.668877492796983e-12,-1.5658789369321635e-12,-1.462880381067344e-12,-1.3598818252025247e-12,-1.2568832693377052e-12,-1.153884821893103e-12,-1.0508862660282836e-12,-9.478877101634642e-13,-8.448892085087534e-13,-7.418907068540426e-13,-6.388921509892231e-13,-5.358935951244037e-13,-4.328950934696929e-13,-3.298965647099278e-13,-2.2689803595016267e-13,-1.2389950719039755e-13,-2.0900978430632433e-14,8.209755032913268e-14,1.850960790888978e-13,2.880946078486629e-13,3.9109313660842804e-13,4.940916382631388e-13,5.970901941279583e-13,7.000887499927777e-13,8.030872516474885e-13,9.060857533021993e-13,1.0090843091670187e-12,1.1120828650318382e-12,1.2150814208966576e-12,1.3180798683412598e-12,1.4210784242060792e-12,1.5240769800708986e-12,1.6270754275155008e-12,1.7300739833803203e-12,1.8330725392451397e-12,1.936071095109959e-12,2.0390696509747785e-12,2.142068206839598e-12,2.245066545863983e-12,2.3480651017288023e-12,2.4510636575936218e-12,2.554062213458441e-12,2.6570607693232606e-12,2.76005932518808e-12,2.8630578810528995e-12,2.966056436917719e-12,3.0690549927825383e-12,3.1720533318069233e-12,3.2750518876717427e-12,3.378050443536562e-12,3.4810489994013816e-12,3.584047555266201e-12,3.687045894290586e-12,3.79004466699584e-12,3.893043006020225e-12,3.996041778725479e-12,4.099040117749864e-12,4.2020388904551176e-12,4.3050372294795025e-12]},"gradients/features.3.weight":{"bins":[-7.1128628160999074e-12,-6.632127572819835e-12,-6.151392763220631e-12,-5.6706575199405584e-12,-5.189922276660486e-12,-4.709187033380413e-12,-4.2284517901003404e-12,-3.747716980501137e-12,-3.266981737221064e-12,-2.7862464939409914e-12,-2.3055114675013533e-12,-1.824776441061715e-12,-1.3440411977816424e-12,-8.63306062921787e-13,-3.825709280619316e-13,9.816420679792381e-14,5.788993416577792e-13,1.0596344765176346e-12,1.54036961137749e-12,2.0211046378171282e-12,2.501839881097201e-12,2.9825751243772736e-12,3.4633101508169117e-12,3.94404517725655e-12,4.4247804205366226e-12,4.905515663816695e-12,5.386250473415899e-12,5.8669857166959716e-12,6.347720959976044e-12,6.828456203256117e-12,7.30919144653619e-12,7.789926689816262e-12,8.270660198372859e-12,8.751395441652932e-12,9.232130684933004e-12,9.712865928213077e-12,1.019360117149315e-11,1.0674335547411484e-11,1.1155070790691557e-11,1.163580603397163e-11,1.2116541277251702e-11,1.2597276520531775e-11,1.3078011763811848e-11,1.355874700709192e-11,1.4039481383010255e-11,1.4520216626290328e-11,1.50009518695704e-11,1.5481687112850473e-11,1.5962422356130546e-11,1.6443157599410618e-11,1.692389284269069e-11,1.7404628085970764e-11,1.7885363329250836e-11,1.836609857253091e-11,1.884683381581098e-11,1.9327569059091054e-11,1.9808304302371127e-11,2.0289037810927724e-11,2.0769773054207796e-11,2.125050829748787e-11,2.1731243540767942e-11,2.2211978784048014e-11,2.2692714027328087e-11,2.317344927060816e-11,2.3654184513888232e-11],"_type":"histogram","values":[29,14,9,26,47,100,103,93,183,368,661,1309,2365,4017,6339,5343,2982,1841,1313,900,647,447,421,429,313,237,246,253,217,175,133,97,90,96,97,95,44,50,50,46,65,59,48,24,20,21,24,34,23,18,15,11,19,17,16,25,18,20,23,19,17,5,1,1]},"gradients/classifier.3.bias":{"bins":[1.1247819516058133e-11,1.1247819516058133e-11],"_type":"histogram","values":[1]},"validation precision":0,"gradients/features.8.bias":{"_type":"histogram","values":[1,0,0,0,1,0,0,0,0,0,0,0,1,1,0,1,0,0,1,1,0,2,0,1,0,1,3,2,1,0,1,0,4,1,0,0,0,2,1,3,1,0,0,1,0,0,0,0,0,0,0,0,0,0,0,0,0,0,0,0,0,0,0,1],"bins":[-1.7057966150701986e-11,-1.680139534443459e-11,-1.654482453816719e-11,-1.6288253731899793e-11,-1.6031682925632396e-11,-1.5775112119364998e-11,-1.55185413130976e-11,-1.5261970506830203e-11,-1.5005399700562805e-11,-1.4748828894295407e-11,-1.4492258955389747e-11,-1.423568814912235e-11,-1.3979117342854952e-11,-1.3722546536587554e-11,-1.3465975730320157e-11,-1.3209404924052759e-11,-1.2952834117785361e-11,-1.2696263311517964e-11,-1.2439692505250566e-11,-1.2183121698983168e-11,-1.192655089271577e-11,-1.1669980086448373e-11,-1.1413409280180975e-11,-1.1156838473913577e-11,-1.0900268535007918e-11,-1.064369772874052e-11,-1.0387126922473122e-11,-1.0130556116205724e-11,-9.873985309938327e-12,-9.617414503670929e-12,-9.360843697403531e-12,-9.104272891136134e-12,-8.847702084868736e-12,-8.591131278601338e-12,-8.33456047233394e-12,-8.077989666066543e-12,-7.821419727160883e-12,-7.564848920893485e-12,-7.308278114626088e-12,-7.05170730835869e-12,-6.795136502091292e-12,-6.538565695823895e-12,-6.281994889556497e-12,-6.025424083289099e-12,-5.7688532770217016e-12,-5.512282470754304e-12,-5.255711664486906e-12,-4.9991408582195085e-12,-4.74257048563298e-12,-4.485999679365582e-12,-4.229428873098184e-12,-3.972858066830787e-12,-3.716287260563389e-12,-3.4597164542959913e-12,-3.203145864869028e-12,-2.9465750586016304e-12,-2.6900042523342327e-12,-2.4334336629072695e-12,-2.1768628566398718e-12,-1.920292050372474e-12,-1.6637212441050764e-12,-1.407150546257896e-12,-1.1505798484107155e-12,-8.940090421433178e-13,-6.374382900860287e-13]},"_timestamp":1.7659409273378944e+09,"gradients/features.1.bias":{"values":[1,1,0,0,0,0,0,1,0,0,0,1,0,1,0,0,0,0,1,2,0,1,0,0,0,2,1,0,0,0,1,0,1,0,0,0,0,0,0,1,0,0,0,0,0,0,0,0,0,0,0,0,0,0,0,0,0,0,0,0,0,0,0,1],"bins":[-3.797138818650847e-12,-3.696161432475975e-12,-3.5951838294606686e-12,-3.4942064432857967e-12,-3.3932290571109247e-12,-3.2922514540956183e-12,-3.1912740679207463e-12,-3.0902966817458744e-12,-2.9893192955710024e-12,-2.888341692555696e-12,-2.787364306380824e-12,-2.686386920205952e-12,-2.5854093171906456e-12,-2.4844319310157736e-12,-2.3834545448409017e-12,-2.2824769418255952e-12,-2.1814995556507233e-12,-2.0805221694758513e-12,-1.979544566460545e-12,-1.878567180285673e-12,-1.777589794110801e-12,-1.6766122995157118e-12,-1.5756348049206226e-12,-1.4746574187457506e-12,-1.3736799241506614e-12,-1.2727024295555722e-12,-1.1717250433807003e-12,-1.070747548785611e-12,-9.697700541905219e-13,-8.687926680156499e-13,-7.678151734205607e-13,-6.668377330355801e-13,-5.658602926505996e-13,-4.64882852265619e-13,-3.639053847755841e-13,-2.629279172855492e-13,-1.6195047690056863e-13,-6.09730229630609e-14,4.0004430974446836e-14,1.4098188491195457e-13,2.419593388494623e-13,3.429367792344429e-13,4.4391424672447777e-13,5.448917142145127e-13,6.458691545994932e-13,7.468465949844738e-13,8.47824089579563e-13,9.48801475754435e-13,1.0497789703495242e-12,1.1507564649446134e-12,1.2517338511194853e-12,1.3527113457145745e-12,1.4536887318894465e-12,1.5546662264845357e-12,1.6556437210796249e-12,1.7566211072544968e-12,1.8575987102698033e-12,1.9585760964446752e-12,2.059553482619547e-12,2.160530868794419e-12,2.2615084718097256e-12,2.3624858579845975e-12,2.4634632441594695e-12,2.564440847174776e-12,2.665418233349648e-12],"_type":"histogram"},"gradients/classifier.3.weight":{"bins":[0,2.816427212976036e-12,5.632854425952072e-12,8.449281205247239e-12,1.1265708851904144e-11,1.4082136498561049e-11,1.6898562410494478e-11,1.9714990057151383e-11,2.2531417703808287e-11,2.5347845350465192e-11,2.8164272997122097e-11,3.0980700643779e-11,3.3797124820988955e-11,3.661355246764586e-11,3.9429980114302765e-11,4.224640776095967e-11,4.5062835407616575e-11,4.787926305427348e-11,5.0695690700930385e-11,5.351211834758729e-11,5.6328545994244195e-11,5.91449736409011e-11,6.1961401287558e-11,6.477782893421491e-11,6.759424964197791e-11,7.041067728863482e-11,7.322710493529172e-11,7.604353258194863e-11,7.885996022860553e-11,8.167638787526244e-11,8.449281552191934e-11,8.730924316857624e-11,9.012567081523315e-11,9.294209846189005e-11,9.575852610854696e-11,9.857495375520386e-11,1.0139138140186077e-10,1.0420780904851767e-10,1.0702423669517458e-10,1.0984066434183148e-10,1.1265709198848839e-10,1.1547351269625139e-10,1.182899472818022e-10,1.211063749284591e-10,1.23922802575116e-10,1.2673923022177291e-10,1.2955565786842982e-10,1.3237208551508672e-10,1.3518849928395582e-10,1.3800492693061273e-10,1.4082135457726963e-10,1.4363778222392654e-10,1.4645420987058344e-10,1.4927063751724035e-10,1.5208706516389725e-10,1.5490349281055416e-10,1.5771992045721106e-10,1.6053634810386797e-10,1.6335277575052487e-10,1.6616920339718178e-10,1.6898563104383868e-10,1.7180205869049558e-10,1.746184863371525e-10,1.774349139838094e-10,1.802513416304663e-10],"_type":"histogram","values":[50,0,0,0,0,0,0,0,0,0,0,0,0,0,0,0,0,0,0,0,0,0,0,0,0,0,0,1,1,1,7,8,3,9,8,6,2,1,0,0,0,0,0,0,0,0,0,0,0,0,0,0,0,0,0,0,1,0,0,0,0,1,0,1]},"gradients/classifier.1.weight":{"bins":[-4.424842870581758e-12,-4.355704599084964e-12,-4.2865663275881705e-12,-4.217428489772246e-12,-4.148290218275452e-12,-4.0791519467786586e-12,-4.010013675281865e-12,-3.94087583746594e-12,-3.871737565969147e-12,-3.802599294472353e-12,-3.733461022975559e-12,-3.664323185159635e-12,-3.595184913662841e-12,-3.5260466421660475e-12,-3.4569085875096883e-12,-3.3877703160128947e-12,-3.3186322613565356e-12,-3.249493989859742e-12,-3.1803557183629483e-12,-3.111217663706589e-12,-3.0420793922097955e-12,-2.9729413375534364e-12,-2.9038030660566427e-12,-2.8346650114002836e-12,-2.76552673990349e-12,-2.696388685247131e-12,-2.627250413750337e-12,-2.558112359093978e-12,-2.4889740875971844e-12,-2.4198360329408253e-12,-2.3506977614440316e-12,-2.2815597067876725e-12,-2.212421435290879e-12,-2.1432831637940852e-12,-2.074145109137726e-12,-2.0050068376409325e-12,-1.9358687829845733e-12,-1.8667305114877797e-12,-1.7975924568314205e-12,-1.7284542937548442e-12,-1.6593161306782678e-12,-1.5901778591814741e-12,-1.5210396961048978e-12,-1.4519015330283214e-12,-1.382763369951745e-12,-1.3136252068751686e-12,-1.2444870437985922e-12,-1.1753488807220158e-12,-1.1062107176454394e-12,-1.037072554568863e-12,-9.679343914922867e-13,-8.987962284157103e-13,-8.296580653391339e-13,-7.605198480524489e-13,-6.913816849758725e-13,-6.222435218992961e-13,-5.531053588227197e-13,-4.839671957461433e-13,-4.1482903266956694e-13,-3.4569084248793625e-13,-2.7655267941135986e-13,-2.0741451633478347e-13,-1.3827633970567993e-13,-6.913816985283996e-14,0],"_type":"histogram","values":[3,14,10,24,19,5,4,2,13,11,11,19,30,23,17,31,58,71,100,177,139,147,238,192,183,189,194,178,230,285,364,559,706,904,1080,1291,1337,1371,1283,1307,1372,1478,1687,2038,2402,2773,2743,2721,2460,2583,2676,3051,3110,3033,3277,2908,2452,2895,3531,3118,4555,3973,1340,85005]},"gradients/features.10.weight":{"_type":"histogram","values":[2,2,1,0,3,0,0,2,2,5,11,11,12,6,9,7,11,16,20,16,14,16,11,9,8,11,8,17,26,21,20,19,25,39,42,58,62,75,101,160,181,277,305,339,367,369,331,263,215,230,220,237,227,183,229,350,436,483,649,471,443,828,1694,3619],"bins":[-2.999516954260706e-11,-2.952610031470293e-11,-2.9057029352075325e-11,-2.858795838944772e-11,-2.8118889161543592e-11,-2.7649818198915987e-11,-2.718074897101186e-11,-2.6711678008384254e-11,-2.6242608780480126e-11,-2.577353781785252e-11,-2.5304468589948392e-11,-2.4835397627320788e-11,-2.436632839941666e-11,-2.3897257436789054e-11,-2.3428188208884926e-11,-2.295911724625732e-11,-2.2490048018353193e-11,-2.2020977055725588e-11,-2.1551906093097983e-11,-2.1082836865193855e-11,-2.061376590256625e-11,-2.014469667466212e-11,-1.9675625712034517e-11,-1.9206556484130388e-11,-1.8737485521502784e-11,-1.8268416293598655e-11,-1.779934533097105e-11,-1.7330276103066922e-11,-1.6861205140439317e-11,-1.639213591253519e-11,-1.5923064949907584e-11,-1.5453995722003455e-11,-1.4984923024652375e-11,-1.4515853796748246e-11,-1.404678370148238e-11,-1.3577712738854775e-11,-1.3108642643588908e-11,-1.2639572548323041e-11,-1.2170502453057175e-11,-1.1701432357791308e-11,-1.1232362262525442e-11,-1.0763292167259575e-11,-1.0294222071993708e-11,-9.825151976727842e-12,-9.356081881461975e-12,-8.887011786196108e-12,-8.417941690930242e-12,-7.948871595664375e-12,-7.479801500398509e-12,-7.010730971451773e-12,-6.541660876185906e-12,-6.07259078092004e-12,-5.603520685654173e-12,-5.1344505903883064e-12,-4.66538049512244e-12,-4.196309966175704e-12,-3.7272398709098375e-12,-3.258169775643971e-12,-2.7890996803781043e-12,-2.3200295851122377e-12,-1.850959489846371e-12,-1.3818892861602872e-12,-9.128190824742033e-13,-4.4374896010328235e-13,2.5321192760824687e-14]},"gradients/features.4.bias":{"bins":[-6.0217482042435044e-12,-5.907016195627612e-12,-5.792284620692589e-12,-5.677552612076697e-12,-5.562820603460805e-12,-5.448088594844913e-12,-5.33335701990989e-12,-5.218625011293998e-12,-5.103893002678106e-12,-4.989161427743083e-12,-4.874429419127191e-12,-4.759697410511299e-12,-4.644965401895407e-12,-4.530233826960384e-12,-4.415501818344492e-12,-4.3007698097285996e-12,-4.1860378011127075e-12,-4.0713062261776845e-12,-3.956574217561792e-12,-3.8418422089459e-12,-3.727110634010877e-12,-3.6123786253949852e-12,-3.497646616779093e-12,-3.3829148250036356e-12,-3.268183033228178e-12,-3.153451024612286e-12,-3.0387192328368284e-12,-2.9239872242209364e-12,-2.809255432445479e-12,-2.6945234238295868e-12,-2.5797916320541292e-12,-2.465059623438237e-12,-2.350327614822345e-12,-2.2355958230468875e-12,-2.1208638144309955e-12,-2.006132022655538e-12,-1.891400014039646e-12,-1.7766682222641883e-12,-1.6619363220685135e-12,-1.5472044218728387e-12,-1.4324725216771639e-12,-1.317740621481489e-12,-1.2030087212858143e-12,-1.0882768210901395e-12,-9.735450293146819e-13,-8.588130749088985e-13,-7.440812289233323e-13,-6.293493287276575e-13,-5.146174285319827e-13,-3.9988552833630786e-13,-2.8515365524568737e-13,-1.7042176860253971e-13,-5.568988195939206e-14,5.904200468375559e-14,1.7377389132690324e-13,2.8850576441752374e-13,4.0323766461319854e-13,5.179695648088734e-13,6.327014650045482e-13,7.474333109901143e-13,8.621652111857891e-13,9.768970571713553e-13,1.0916289573670301e-12,1.206360857562705e-12,1.3210927577583798e-12],"_type":"histogram","values":[1,0,0,0,0,0,0,0,0,0,0,1,0,0,0,0,2,1,0,0,0,0,0,0,1,0,1,1,0,2,0,0,1,0,0,1,0,1,1,1,3,1,2,1,1,1,1,0,0,0,0,1,1,1,1,1,0,0,0,0,0,1,0,1]},"gradients/features.0.weight":{"bins":[-1.2838336296838726e-11,-1.2281221178911395e-11,-1.1724106060984063e-11,-1.1166990943056732e-11,-1.06098758251294e-11,-1.0052760707202069e-11,-9.495645589274737e-12,-8.938530471347406e-12,-8.381415353420074e-12,-7.824300235492743e-12,-7.267185117565411e-12,-6.71006999963808e-12,-6.152954881710748e-12,-5.595839763783417e-12,-5.038724645856085e-12,-4.481609527928754e-12,-3.924494410001422e-12,-3.367379292074091e-12,-2.8102641741467593e-12,-2.253149056219428e-12,-1.6960339382920964e-12,-1.1389188203647649e-12,-5.818037024374334e-13,-2.468858451010192e-14,5.324265334172296e-13,1.089541651344561e-12,1.6466567692718925e-12,2.203771887199224e-12,2.7608870051265555e-12,3.318002123053887e-12,3.8751172409812185e-12,4.43223235890855e-12,4.9893457421124054e-12,5.546460860039737e-12,6.1035759779670684e-12,6.6606910958944e-12,7.217806213821731e-12,7.774921331749063e-12,8.332036449676394e-12,8.889151567603726e-12,9.446266685531057e-12,1.0003381803458389e-11,1.056049692138572e-11,1.1117612039313052e-11,1.1674727157240383e-11,1.2231842275167715e-11,1.2788957393095046e-11,1.3346072511022378e-11,1.3903187628949709e-11,1.446030274687704e-11,1.5017417864804372e-11,1.5574532982731704e-11,1.6131648100659035e-11,1.6688763218586367e-11,1.7245878336513698e-11,1.780299345444103e-11,1.836010857236836e-11,1.8917223690295693e-11,1.9474338808223024e-11,2.0031453926150355e-11,2.0588569044077687e-11,2.114568416200502e-11,2.170279927993235e-11,2.225991439785968e-11,2.2817029515787013e-11],"_type":"histogram","values":[7,22,20,17,6,11,12,16,8,6,5,1,5,7,1,0,26,26,27,31,27,55,76,110,95,102,114,80,26,7,5,11,7,4,3,3,6,3,3,0,1,0,0,1,1,1,2,2,3,3,2,1,0,0,0,0,0,1,1,2,1,2,6,3]},"validation loss":10.005543708814015,"gradients/features.0.bias":{"_type":"histogram","values":[1,1,0,0,0,0,0,0,0,1,0,2,0,0,1,0,0,1,0,0,0,1,0,1,0,0,0,0,1,1,1,0,1,0,0,1,0,0,0,0,0,0,0,0,0,0,0,0,0,0,0,0,0,0,0,1,0,0,0,0,0,0,0,1],"bins":[-6.071532165918825e-17,-5.759824041329242e-17,-5.44811591673966e-17,-5.136407792150077e-17,-4.824699667560495e-17,-4.512991542970912e-17,-4.2012834183813297e-17,-3.889575293791747e-17,-3.5778671692021646e-17,-3.266159044612582e-17,-2.9544509200229996e-17,-2.642742795433417e-17,-2.3310346708438345e-17,-2.019326546254252e-17,-1.7076184216646695e-17,-1.395910297075087e-17,-1.0842021724855044e-17,-7.724940478959219e-18,-4.607859233063394e-18,-1.4907779871675686e-18,1.6263032587282567e-18,4.743384504624082e-18,7.860465750519907e-18,1.0977546996415732e-17,1.4094628242311558e-17,1.7211709488207383e-17,2.0328790734103208e-17,2.3445871979999033e-17,2.656295322589486e-17,2.9680034471790684e-17,3.279711571768651e-17,3.5914196963582334e-17,3.903127820947816e-17,4.2148359455373985e-17,4.526544070126981e-17,4.8382521947165635e-17,5.149960319306146e-17,5.4616684438957286e-17,5.773376568485311e-17,6.085084693074894e-17,6.396792817664476e-17,6.708500942254059e-17,7.020209066843641e-17,7.331917191433224e-17,7.643625316022806e-17,7.955333440612389e-17,8.267041565201971e-17,8.578749689791554e-17,8.890457814381136e-17,9.202165938970719e-17,9.513874063560301e-17,9.825582188149884e-17,1.0137290312739466e-16,1.0448998437329049e-16,1.0760706561918632e-16,1.1072414686508214e-16,1.1384122811097797e-16,1.169583093568738e-16,1.2007539060276962e-16,1.2319247184866544e-16,1.2630955309456127e-16,1.294266343404571e-16,1.3254371558635292e-16,1.3566079683224874e-16,1.3877787807814457e-16]},"gradients/classifier.1.bias":{"bins":[-1.4266693295489352e-12,-1.404377590781547e-12,-1.382085960434376e-12,-1.3597942216669878e-12,-1.3375024828995996e-12,-1.3152107441322114e-12,-1.2929191137850404e-12,-1.2706273750176522e-12,-1.248335636250264e-12,-1.226044005903093e-12,-1.2037522671357048e-12,-1.1814605283683166e-12,-1.1591687896009284e-12,-1.1368771592537574e-12,-1.1145854204863692e-12,-1.092293681718981e-12,-1.0700019429515928e-12,-1.0477103126044218e-12,-1.0254185738370336e-12,-1.0031268350696454e-12,-9.808352047224744e-13,-9.585434659550862e-13,-9.36251727187698e-13,-9.139599884203098e-13,-8.916683580731388e-13,-8.693766193057506e-13,-8.47084934748471e-13,-8.247931959810828e-13,-8.025015114238032e-13,-7.80209772656415e-13,-7.579180880991354e-13,-7.356263493317472e-13,-7.133346647744676e-13,-6.91042980217188e-13,-6.687512414497998e-13,-6.464595568925202e-13,-6.24167818125132e-13,-6.018761335678524e-13,-5.795843948004642e-13,-5.572927102431846e-13,-5.350009714757964e-13,-5.127092869185168e-13,-4.904176023612372e-13,-4.68125863593849e-13,-4.458341790365694e-13,-4.235424673742355e-13,-4.012507557119016e-13,-3.789590440495677e-13,-3.566673323872338e-13,-3.343756207248999e-13,-3.12083909062566e-13,-2.897921974002321e-13,-2.675004857378982e-13,-2.452088011806186e-13,-2.229170895182847e-13,-2.006253778559508e-13,-1.783336661936169e-13,-1.56041954531283e-13,-1.337502428689491e-13,-1.1145854475914235e-13,-8.916683309680845e-14,-6.687512143447455e-14,-4.4583416548404226e-14,-2.2291708274202113e-14,0],"_type":"histogram","values":[1,0,0,0,0,0,0,0,0,1,0,0,1,0,0,1,3,1,0,2,1,1,1,1,0,0,0,1,1,0,1,0,2,1,2,3,1,0,1,1,0,0,1,0,4,1,1,0,3,0,1,0,0,0,3,2,0,1,3,1,1,0,0,50]},"gradients/features.7.bias":{"_type":"histogram","values":[1,0,0,0,0,0,0,0,1,0,1,0,0,0,0,1,0,0,0,0,1,0,1,0,0,0,0,0,1,1,1,1,3,2,0,2,1,2,0,1,1,2,1,1,1,1,1,0,0,1,1,0,0,0,0,0,0,0,0,0,0,0,0,1],"bins":[-3.333921680392926e-18,-3.2406421770765463e-18,-3.1473626737601665e-18,-3.0540831704437867e-18,-2.960803667127407e-18,-2.867524163811027e-18,-2.774244660494647e-18,-2.6809651571782674e-18,-2.5876856538618875e-18,-2.4944061505455077e-18,-2.401126647229128e-18,-2.307847143912748e-18,-2.2145676405963682e-18,-2.1212881372799884e-18,-2.0280086339636086e-18,-1.9347291306472288e-18,-1.841449627330849e-18,-1.748170124014469e-18,-1.6548906206980893e-18,-1.5616111173817095e-18,-1.4683316140653296e-18,-1.3750521107489498e-18,-1.28177260743257e-18,-1.1884931041161902e-18,-1.0952136007998103e-18,-1.0019340974834305e-18,-9.086545941670507e-19,-8.153750908506709e-19,-7.22095587534291e-19,-6.288160842179112e-19,-5.355365809015314e-19,-4.422570775851516e-19,-3.4897757426877174e-19,-2.556980709523919e-19,-1.624185676360121e-19,-6.913906431963227e-20,2.414043899674756e-20,1.1741994231312738e-19,2.106994456295072e-19,3.0397894894588703e-19,3.9725845226226686e-19,4.905379555786467e-19,5.838174588950265e-19,6.770969622114063e-19,7.703764655277862e-19,8.63655968844166e-19,9.569354721605458e-19,1.0502149754769256e-18,1.1434944787933055e-18,1.2367739821096853e-18,1.3300534854260651e-18,1.423332988742445e-18,1.5166124920588248e-18,1.6098919953752046e-18,1.7031714986915844e-18,1.7964510020079642e-18,1.889730505324344e-18,1.983010008640724e-18,2.0762895119571037e-18,2.1695690152734835e-18,2.2628485185898634e-18,2.356128021906243e-18,2.449407525222623e-18,2.542687028539003e-18,2.6359665318553827e-18]},"gradients/features.4.weight":{"_type":"histogram","values":[1,0,0,1,3,0,0,0,2,0,1,2,1,2,1,0,0,3,1,1,1,0,0,1,0,0,0,0,0,2,0,0,0,0,0,1,2,0,0,1,0,1,1,0,0,1,1,0,0,0,0,0,0,0,0,0,0,0,0,0,0,0,0,1],"bins":[-3.3936746642038162e-12,-3.2389767951057635e-12,-3.084278926007711e-12,-2.9295808400692236e-12,-2.774882970971171e-12,-2.620185101873118e-12,-2.465487015934631e-12,-2.3107891468365782e-12,-2.1560912777385255e-12,-2.0013934086404728e-12,-1.84669553954242e-12,-1.6919974536039328e-12,-1.5372995845058801e-12,-1.3826017154078274e-12,-1.2279037378895574e-12,-1.0732057603712875e-12,-9.185078912732347e-13,-7.638099679650734e-13,-6.09112044656912e-13,-4.544141213487507e-13,-2.9971619804058935e-13,-1.45018274732428e-13,9.679648575733335e-15,1.6437757188389468e-13,3.19075495192056e-13,4.737734185002174e-13,6.284713418083787e-13,7.831692651165401e-13,9.378671884247014e-13,1.0925650575227541e-12,1.247263035041024e-12,1.401961012559294e-12,1.5566584479764778e-12,1.7113563170745305e-12,1.8660541861725832e-12,2.0207522721110704e-12,2.175450141209123e-12,2.330148010307176e-12,2.484846096245663e-12,2.639543965343716e-12,2.7942418344417685e-12,2.9489397035398213e-12,3.103637572637874e-12,3.2583356585763612e-12,3.413033527674414e-12,3.5677313967724666e-12,3.722429482710954e-12,3.8771273518090066e-12,4.031825220907059e-12,4.186523090005112e-12,4.341220959103165e-12,4.4959188282012175e-12,4.65061669729927e-12,4.805315000078192e-12,4.960012869176245e-12,5.114710738274297e-12,5.26940860737235e-12,5.424106476470403e-12,5.5788043455684555e-12,5.733502214666508e-12,5.88820051744543e-12,6.042898386543483e-12,6.197596255641535e-12,6.352294124739588e-12,6.506991993837641e-12]}}