{"gradients/features.8.weight":{"_type":"histogram","values":[1,0,0,0,0,0,0,0,0,0,0,0,0,1,0,1,0,0,2,1,1,0,2,2,0,1,1,0,1,3,1,2,1,1,0,1,1,2,0,0,1,2,0,1,0,0,0,0,0,0,0,0,0,0,0,0,0,0,0,1,0,0,0,1],"bins":[-4.1643698267535e-08,-4.1000614459107965e-08,-4.035752709796725e-08,-3.971444328954021e-08,-3.907135948111318e-08,-3.842827211997246e-08,-3.7785188311545426e-08,-3.714210450311839e-08,-3.6499017141977674e-08,-3.585593333355064e-08,-3.52128495251236e-08,-3.4569765716696566e-08,-3.392667835555585e-08,-3.3283594547128814e-08,-3.264051073870178e-08,-3.199742337756106e-08,-3.1354339569134027e-08,-3.071125576070699e-08,-3.0068168399566275e-08,-2.942508459113924e-08,-2.8782000782712203e-08,-2.8138915197928327e-08,-2.749582961314445e-08,-2.6852745804717415e-08,-2.620966021993354e-08,-2.5566574635149664e-08,-2.4923490826722627e-08,-2.4280405241938752e-08,-2.3637319657154876e-08,-2.299423584872784e-08,-2.2351150263943964e-08,-2.1708066455516928e-08,-2.1064980870733052e-08,-2.0421895285949176e-08,-1.977881147752214e-08,-1.9135725892738265e-08,-1.849264030795439e-08,-1.7849556499527353e-08,-1.7206470914743477e-08,-1.656338710631644e-08,-1.5920301521532565e-08,-1.527721593674869e-08,-1.4634131240143233e-08,-1.3991046543537777e-08,-1.3347961846932321e-08,-1.2704877150326865e-08,-1.206179156554299e-08,-1.1418706868937534e-08,-1.0775622172332078e-08,-1.0132536587548202e-08,-9.489451890942746e-09,-8.84636719433729e-09,-8.203282497731834e-09,-7.560197801126378e-09,-6.9171122163425025e-09,-6.2740275197370465e-09,-5.6309428231315906e-09,-4.987857682436925e-09,-4.344772541742259e-09,-3.701687845136803e-09,-3.058602926486742e-09,-2.415518007836681e-09,-1.7724330891866202e-09,-1.1293481705365593e-09,-4.862632518864984e-10]},"gradients/features.0.weight":{"bins":[-1.9114400728881265e-08,-1.8389046729794245e-08,-1.7663690954350386e-08,-1.6938336955263367e-08,-1.6212982956176347e-08,-1.5487627180732488e-08,-1.4762273181645469e-08,-1.403691829438003e-08,-1.331156340711459e-08,-1.2586209408027571e-08,-1.1860854520762132e-08,-1.1135499633496693e-08,-1.0410145634409673e-08,-9.684790747144234e-09,-8.959435859878795e-09,-8.234081860791775e-09,-7.508726973526336e-09,-6.783372530350107e-09,-6.058017643084668e-09,-5.332663199908438e-09,-4.607308312642999e-09,-3.88195386946677e-09,-3.1565994262905406e-09,-2.4312447610697063e-09,-1.705890095848872e-09,-9.805354306280378e-10,-2.5518087642950604e-10,4.70173733280177e-10,1.19552834298986e-09,1.9208830082106942e-09,2.6462374513869236e-09,3.371592116607758e-09,4.096946781828592e-09,4.822301225004821e-09,5.5476561122702606e-09,6.27301055544649e-09,6.998365442711929e-09,7.723719441798949e-09,8.449074329064388e-09,9.174429216329827e-09,9.899784103595266e-09,1.0625138102682286e-08,1.1350492989947725e-08,1.2075847877213164e-08,1.2801201876300183e-08,1.3526556763565623e-08,1.4251911650831062e-08,1.497726564991808e-08,1.570262142536194e-08,1.642797542444896e-08,1.715332942353598e-08,1.7878685198979838e-08,1.8604039198066857e-08,1.9329393197153877e-08,2.0054748972597736e-08,2.0780102971684755e-08,2.1505456970771775e-08,2.2230812746215634e-08,2.2956166745302653e-08,2.3681520744389672e-08,2.440687651983353e-08,2.513223051892055e-08,2.585758451800757e-08,2.658294029345143e-08,2.730829429253845e-08],"_type":"histogram","values":[9,6,2,3,3,1,6,5,5,6,5,4,7,3,13,7,5,4,3,14,55,57,65,33,32,63,85,48,52,45,41,61,25,29,32,24,11,19,14,10,11,13,4,6,10,16,8,9,3,5,4,4,3,0,0,0,0,0,0,0,0,0,11,5]},"train recall":0,"gradients/features.4.bias":{"_type":"histogram","values":[1,0,0,0,0,0,0,0,1,0,0,0,0,1,0,0,1,0,0,1,0,0,0,1,1,0,1,1,0,0,0,0,0,3,3,1,1,2,1,0,2,1,0,0,0,1,1,1,1,1,2,0,0,0,0,0,0,0,0,1,0,0,0,1],"bins":[-1.2061070364666193e-08,-1.1812901767882522e-08,-1.1564732282920431e-08,-1.131656368613676e-08,-1.1068395089353089e-08,-1.0820225604390998e-08,-1.0572057007607327e-08,-1.0323888410823656e-08,-1.0075718925861565e-08,-9.827550329077894e-09,-9.579381732294223e-09,-9.331212247332132e-09,-9.083043650548461e-09,-8.83487505376479e-09,-8.5867055688027e-09,-8.338536972019028e-09,-8.090367487056938e-09,-7.842198890273266e-09,-7.594030293489595e-09,-7.345861252616714e-09,-7.0976922117438335e-09,-6.849523614960162e-09,-6.6013545740872814e-09,-6.3531855332144005e-09,-6.105016936430729e-09,-5.8568478955578485e-09,-5.6086788546849675e-09,-5.3605098138120866e-09,-5.1123412170284155e-09,-4.8641721761555345e-09,-4.616003135282654e-09,-4.3678345384989825e-09,-4.1196654976261016e-09,-3.871496456753221e-09,-3.6233276379249446e-09,-3.3751588190966686e-09,-3.1269897782237877e-09,-2.8788209593955116e-09,-2.6306521405672356e-09,-2.3824830996943547e-09,-2.1343142808660787e-09,-1.8861454620378026e-09,-1.6379764211649217e-09,-1.3898076023366457e-09,-1.1416386724860672e-09,-8.934697426354887e-10,-6.453008682960615e-10,-3.971319662010586e-10,-1.4896306410605575e-10,9.920583798894711e-11,3.4737474008394997e-10,5.955436144233772e-10,8.437125442739557e-10,1.0918814741245342e-09,1.3400502929528102e-09,1.5882192228033887e-09,1.8363881526539672e-09,2.084556971482243e-09,2.332726012355124e-09,2.5808948311834e-09,2.829063650011676e-09,3.077232690884557e-09,3.325401509712833e-09,3.573570550585714e-09,3.82173936941399e-09]},"gradients/features.3.bias":{"values":[1,0,0,0,0,0,0,0,0,0,1,1,1,0,0,1,1,0,2,1,3,2,3,1,1,2,0,3,2,0,2,0,1,0,0,0,0,0,0,0,0,0,0,0,1,0,0,0,1,0,0,0,0,0,0,0,0,0,0,0,0,0,0,1],"bins":[-2.858824288409778e-15,-2.734357879008442e-15,-2.6098914696071063e-15,-2.4854250602057704e-15,-2.3609586508044345e-15,-2.2364922414030985e-15,-2.1120258320017626e-15,-1.9875594226004267e-15,-1.863093013199091e-15,-1.738626603797755e-15,-1.614160194396419e-15,-1.489693784995083e-15,-1.3652273755937472e-15,-1.2407609661924113e-15,-1.1162945567910754e-15,-9.918281473897395e-16,-8.673617379884035e-16,-7.428953285870676e-16,-6.184289191857317e-16,-4.939625097843958e-16,-3.694961003830599e-16,-2.45029690981724e-16,-1.205632815803881e-16,3.903127820947816e-18,1.2836953722228372e-16,2.5283594662361963e-16,3.7730235602495554e-16,5.017687654262915e-16,6.262351748276274e-16,7.507015842289633e-16,8.751679936302992e-16,9.99634403031635e-16,1.124100812432971e-15,1.248567221834307e-15,1.3730336312356428e-15,1.4975000406369787e-15,1.6219664500383146e-15,1.7464328594396505e-15,1.8708992688409865e-15,1.9953656782423224e-15,2.1198320876436583e-15,2.244298497044994e-15,2.36876490644633e-15,2.493231315847666e-15,2.617697725249002e-15,2.742164134650338e-15,2.8666305440516737e-15,2.9910969534530096e-15,3.1155633628543455e-15,3.2400297722556815e-15,3.3644961816570174e-15,3.4889625910583533e-15,3.613429000459689e-15,3.737895409861025e-15,3.862361819262361e-15,3.986828228663697e-15,4.111294638065033e-15,4.235761047466369e-15,4.360227456867705e-15,4.4846938662690405e-15,4.6091602756703764e-15,4.733626685071712e-15,4.858093094473048e-15,4.982559503874384e-15,5.10702591327572e-15],"_type":"histogram"},"gradients/features.0.bias":{"bins":[-2.0961010704922955e-13,-2.0516921495072893e-13,-2.007283228522283e-13,-1.9628743075372768e-13,-1.9184653865522705e-13,-1.8740564655672642e-13,-1.829647544582258e-13,-1.7852386235972517e-13,-1.7408297026122455e-13,-1.6964207816272392e-13,-1.652011860642233e-13,-1.6076029396572267e-13,-1.5631940186722204e-13,-1.5187850976872141e-13,-1.474376176702208e-13,-1.4299672557172016e-13,-1.3855583347321954e-13,-1.341149413747189e-13,-1.2967404927621828e-13,-1.2523315717771766e-13,-1.2079226507921703e-13,-1.163513729807164e-13,-1.1191048088221578e-13,-1.0746958878371515e-13,-1.0302869668521453e-13,-9.85878045867139e-14,-9.414691248821327e-14,-8.970602038971265e-14,-8.526512829121202e-14,-8.08242361927114e-14,-7.638334409421077e-14,-7.194245199571014e-14,-6.750155989720952e-14,-6.306066779870889e-14,-5.861977570020827e-14,-5.417888360170764e-14,-4.973799150320701e-14,-4.529709940470639e-14,-4.085620730620576e-14,-3.6415315207705135e-14,-3.197442310920451e-14,-2.7533531010703882e-14,-2.3092638912203256e-14,-1.865174681370263e-14,-1.4210854715202004e-14,-9.769962616701378e-15,-5.329070518200751e-15,-8.881784197001252e-16,3.552713678800501e-15,7.993605777301127e-15,1.2434497875801753e-14,1.687538997430238e-14,2.1316282072803006e-14,2.5757174171303632e-14,3.019806626980426e-14,3.4638958368304884e-14,3.907985046680551e-14,4.3520742565306136e-14,4.796163466380676e-14,5.240252676230739e-14,5.684341886080802e-14,6.128431095930864e-14,6.572520305780927e-14,7.016609515630989e-14,7.460698725481052e-14],"_type":"histogram","values":[1,0,0,0,0,0,0,0,1,0,0,0,0,1,0,0,0,0,0,0,0,1,0,0,0,0,0,0,2,0,0,0,1,0,0,0,0,0,1,1,1,0,0,0,1,1,0,1,0,1,0,0,1,0,0,0,0,0,0,0,0,0,0,1]},"train loss":1.9653249186291077e-05,"gradients/features.1.bias":{"_type":"histogram","values":[1,1,0,0,0,0,0,1,0,0,0,0,0,1,0,0,0,0,1,0,1,2,0,0,0,0,0,0,0,0,0,0,0,1,0,0,1,0,0,1,0,0,0,1,1,1,0,0,0,0,0,0,0,0,0,0,0,0,0,1,0,0,0,1],"bins":[-7.55655094053509e-09,-7.41947570048751e-09,-7.2824009045291405e-09,-7.145326108570771e-09,-7.0082508685231915e-09,-6.871175628475612e-09,-6.7341008325172425e-09,-6.597026036558873e-09,-6.4599507965112934e-09,-6.322875556463714e-09,-6.1858007605053444e-09,-6.048725964546975e-09,-5.9116507244993954e-09,-5.774575484451816e-09,-5.6375006884934464e-09,-5.500425892535077e-09,-5.3633506524874974e-09,-5.226275412439918e-09,-5.0892006164815484e-09,-4.952125820523179e-09,-4.8150505804755994e-09,-4.67797534042802e-09,-4.54090054446965e-09,-4.403825748511281e-09,-4.266750508463701e-09,-4.129675268416122e-09,-3.992600472457752e-09,-3.855525676499383e-09,-3.7184504364518034e-09,-3.581375418448829e-09,-3.4443004004458544e-09,-3.30722538244288e-09,-3.1701505864845103e-09,-3.033075568481536e-09,-2.8960005504785613e-09,-2.758925532475587e-09,-2.6218505144726123e-09,-2.484775496469638e-09,-2.3477004784666633e-09,-2.210625460463689e-09,-2.0735504424607143e-09,-1.9364754244577398e-09,-1.7994004064547653e-09,-1.6623253884517908e-09,-1.5252503704488163e-09,-1.3881753524458418e-09,-1.2511003344428673e-09,-1.1140253164398928e-09,-9.769502984369183e-10,-8.398752804339438e-10,-7.028002624309693e-10,-5.657252444279948e-10,-4.2865022642502026e-10,-2.9157520842204576e-10,-1.5450019041907126e-10,-1.7425172416096757e-11,1.1964984558687775e-10,2.5672486358985225e-10,3.9379988159282675e-10,5.308748995958013e-10,6.679499175987758e-10,8.050249356017503e-10,9.420999536047248e-10,1.0791749716076993e-09,1.2162499896106738e-09]},"gradients/features.8.bias":{"values":[1,0,0,0,0,0,0,1,0,0,0,1,2,0,1,1,2,1,0,0,2,2,0,0,3,1,1,1,0,1,2,0,1,3,0,1,1,0,0,1,0,0,0,0,0,0,0,0,0,0,0,0,0,0,0,1,0,0,0,0,0,0,0,1],"bins":[-3.962713890359737e-08,-3.9016896380417165e-08,-3.840665385723696e-08,-3.779640778134308e-08,-3.718616525816287e-08,-3.657592273498267e-08,-3.5965680211802464e-08,-3.535543413590858e-08,-3.4745191612728377e-08,-3.413494908954817e-08,-3.352470656636797e-08,-3.2914460490474085e-08,-3.230421796729388e-08,-3.1693975444113676e-08,-3.108373292093347e-08,-3.047348684503959e-08,-2.9863244321859383e-08,-2.925300179867918e-08,-2.8642759275498975e-08,-2.803251497596193e-08,-2.7422272452781726e-08,-2.6812028153244682e-08,-2.6201785630064478e-08,-2.5591541330527434e-08,-2.498129880734723e-08,-2.4371054507810186e-08,-2.376081198462998e-08,-2.3150567685092938e-08,-2.2540325161912733e-08,-2.193008086237569e-08,-2.1319838339195485e-08,-2.070959403965844e-08,-2.0099349740121397e-08,-1.9489107216941193e-08,-1.887886291740415e-08,-1.8268620394223944e-08,-1.76583760946869e-08,-1.7048133571506696e-08,-1.6437889271969652e-08,-1.5827646748789448e-08,-1.5217402449252404e-08,-1.46071599260722e-08,-1.3996916514713575e-08,-1.3386673103354951e-08,-1.2776429691996327e-08,-1.2166186280637703e-08,-1.1555942869279079e-08,-1.0945699457920455e-08,-1.033545604656183e-08,-9.725212635203206e-09,-9.114969223844582e-09,-8.504725812485958e-09,-7.894482401127334e-09,-7.28423943385792e-09,-6.6739960224992956e-09,-6.0637526111406714e-09,-5.453509199782047e-09,-4.843266232512633e-09,-4.233022821154009e-09,-3.6227794097953847e-09,-3.0125359984367606e-09,-2.4022925870781364e-09,-1.7920491757195123e-09,-1.1818058753831906e-09,-5.715625195357177e-10],"_type":"histogram"},"train accuracy":1,"validation precision":0,"_step":20,"validation recall":0,"gradients/features.10.weight":{"values":[2,4,2,1,3,5,3,1,4,5,5,20,21,29,37,47,47,61,74,76,93,100,97,129,146,152,202,232,215,263,203,226,207,186,153,120,115,106,83,90,73,79,91,120,141,162,186,202,196,196,249,228,193,212,266,320,402,504,587,606,651,934,736,2925],"bins":[-6.09873751500345e-08,-6.003438102197833e-08,-5.908139044663585e-08,-5.812839631857969e-08,-5.717540219052353e-08,-5.6222411615181045e-08,-5.5269417487124883e-08,-5.431642335906872e-08,-5.336343278372624e-08,-5.241043865567008e-08,-5.1457444527613916e-08,-5.050445395227143e-08,-4.955145982421527e-08,-4.859846569615911e-08,-4.764547512081663e-08,-4.6692480992760466e-08,-4.573949041741798e-08,-4.478649628936182e-08,-4.383350216130566e-08,-4.288051158596318e-08,-4.1927517457907015e-08,-4.0974523329850854e-08,-4.002153275450837e-08,-3.906853862645221e-08,-3.811554449839605e-08,-3.7162553923053565e-08,-3.6209559794997404e-08,-3.525656566694124e-08,-3.430357509159876e-08,-3.33505809635426e-08,-3.2397586835486436e-08,-3.144459626014395e-08,-3.049160213208779e-08,-2.953860800403163e-08,-2.8585615652332308e-08,-2.7632623300632986e-08,-2.6679629172576824e-08,-2.5726636820877502e-08,-2.477364446917818e-08,-2.3820650341122018e-08,-2.2867657989422696e-08,-2.1914665637723374e-08,-2.0961671509667212e-08,-2.000867915796789e-08,-1.9055686806268568e-08,-1.8102692678212406e-08,-1.7149700326513084e-08,-1.6196707974813762e-08,-1.524371562311444e-08,-1.4290721495058278e-08,-1.3337729143358956e-08,-1.2384735903481214e-08,-1.1431743551781892e-08,-1.047875031190415e-08,-9.525757072026408e-09,-8.572764720327086e-09,-7.619771480449344e-09,-6.666778684660812e-09,-5.71378588887228e-09,-4.7607926489945385e-09,-3.8077998532060064e-09,-2.8548070574174744e-09,-1.9018140395843375e-09,-9.48821132773503e-10,4.171771001565405e-12],"_type":"histogram"},"gradients/features.7.weight":{"bins":[-2.6921048501549194e-08,-2.607492177730819e-08,-2.522879327671035e-08,-2.4382666552469345e-08,-2.3536539828228342e-08,-2.269041310398734e-08,-2.1844286379746336e-08,-2.0998157879148494e-08,-2.015203115490749e-08,-1.9305904430666487e-08,-1.8459775930068645e-08,-1.7613649205827642e-08,-1.676752248158664e-08,-1.5921395757345636e-08,-1.5075269033104632e-08,-1.422914053250679e-08,-1.3383013808265787e-08,-1.2536887084024784e-08,-1.1690759471605361e-08,-1.0844631859185938e-08,-9.998505134944935e-09,-9.152378410703932e-09,-8.306250798284509e-09,-7.460123185865086e-09,-6.613996461624083e-09,-5.76786929329387e-09,-4.921742124963657e-09,-4.075614956633444e-09,-3.2294877883032314e-09,-2.3833606199730184e-09,-1.5372334516428054e-09,-6.911062833125925e-10,1.5501910866078106e-10,1.001146276990994e-09,1.847273445321207e-09,2.69340061365142e-09,3.539527781981633e-09,4.385654950311846e-09,5.231782118642059e-09,6.077909286972272e-09,6.924036455302485e-09,7.770163179543488e-09,8.61629079196291e-09,9.462418404382333e-09,1.0308545128623336e-08,1.115467185286434e-08,1.2000799465283762e-08,1.2846927077703185e-08,1.3693053801944188e-08,1.4539180526185191e-08,1.5385307250426195e-08,1.6231435751024037e-08,1.707756247526504e-08,1.7923689199506043e-08,1.8769817700103886e-08,1.961594442434489e-08,2.0462071148585892e-08,2.1308197872826895e-08,2.2154324597067898e-08,2.300045309766574e-08,2.3846579821906744e-08,2.4692706546147747e-08,2.553883504674559e-08,2.6384961770986592e-08,2.7231088495227596e-08],"_type":"histogram","values":[1,1,3,1,2,4,4,12,8,16,16,18,17,25,40,37,62,76,107,131,179,201,312,415,624,894,1307,1673,2007,2249,2406,2275,2224,1840,1554,1558,1382,1075,719,555,381,281,201,148,109,86,63,26,42,44,41,34,36,37,32,15,14,7,4,6,5,3,2,1]},"_runtime":45,"gradients/features.1.weight":{"_type":"histogram","values":[1,0,0,1,0,0,0,2,0,1,0,0,0,0,1,1,1,0,0,1,2,0,1,0,0,0,0,0,0,0,0,0,0,0,0,0,1,0,0,0,0,0,0,0,0,1,0,0,0,1,0,0,0,0,0,0,0,0,0,0,0,0,0,1],"bins":[-6.504039529175998e-09,-6.21104856435295e-09,-5.9180571554406924e-09,-5.625066190617645e-09,-5.332075225794597e-09,-5.039084260971549e-09,-4.746093296148501e-09,-4.453101887236244e-09,-4.160110922413196e-09,-3.867119957590148e-09,-3.5741287707224956e-09,-3.281137583854843e-09,-2.988146619031795e-09,-2.6951556542087474e-09,-2.4021644673410947e-09,-2.109173280473442e-09,-1.8161823156503942e-09,-1.523191239805044e-09,-1.2302001639596938e-09,-9.372090881143436e-10,-6.442180122689933e-10,-3.512269364236431e-10,-5.823586057829289e-11,2.3475521526705734e-10,5.277462911124076e-10,8.207373669577578e-10,1.113728442803108e-09,1.4067195186484582e-09,1.6997105944938085e-09,1.9927015593168562e-09,2.285692746184509e-09,2.5786839330521616e-09,2.8716744537859995e-09,3.1646654186090473e-09,3.4576566054767e-09,3.750647792344353e-09,4.0436387571674e-09,4.336629721990448e-09,4.629621130902706e-09,4.9226120957257535e-09,5.215603060548801e-09,5.508594025371849e-09,5.801584990194897e-09,6.0945763991071544e-09,6.387567363930202e-09,6.68055832875325e-09,6.9735497376655076e-09,7.266540702488555e-09,7.559531667311603e-09,7.85252307622386e-09,8.145513596957699e-09,8.438505005869956e-09,8.731495526603794e-09,9.024486935516052e-09,9.31747834442831e-09,9.610468865162147e-09,9.903460274074405e-09,1.0196451682986662e-08,1.04894422037205e-08,1.0782433612632758e-08,1.1075425021545016e-08,1.1368415542278854e-08,1.1661406951191111e-08,1.1954397471924949e-08,1.2247388880837207e-08]},"gradients/classifier.1.weight":{"_type":"histogram","values":[5,8,26,26,41,70,119,146,195,202,254,258,286,263,310,360,352,432,511,572,682,727,755,881,910,963,1077,1136,1169,1223,1301,1231,1151,1208,1339,1494,1570,1674,1840,1984,2078,2009,1841,1661,1693,1891,2094,2130,2273,2314,1845,1725,1705,2012,1830,2164,2353,2406,2686,3272,2471,1531,265,85000],"bins":[-9.714321791420844e-09,-9.562535652207771e-09,-9.410749512994698e-09,-9.258963373781626e-09,-9.107176346390133e-09,-8.95539020717706e-09,-8.803604067963988e-09,-8.651817928750916e-09,-8.500031789537843e-09,-8.34824565032477e-09,-8.196458622933278e-09,-8.044672483720205e-09,-7.892886344507133e-09,-7.74110020529406e-09,-7.589314066080988e-09,-7.437527482778705e-09,-7.285741343565633e-09,-7.13395520435256e-09,-6.9821686210502776e-09,-6.830382481837205e-09,-6.678596342624132e-09,-6.52680975932185e-09,-6.375023620108777e-09,-6.223237480895705e-09,-6.071450897593422e-09,-5.91966475838035e-09,-5.767878619167277e-09,-5.6160924799542045e-09,-5.464305896651922e-09,-5.312519757438849e-09,-5.160733618225777e-09,-5.008947034923494e-09,-4.857160895710422e-09,-4.705374756497349e-09,-4.553588173195067e-09,-4.401802033981994e-09,-4.2500158947689215e-09,-4.098229311466639e-09,-3.9464431722535664e-09,-3.794657033040494e-09,-3.6428706717828163e-09,-3.4910843105251388e-09,-3.339298171312066e-09,-3.1875118100543887e-09,-3.035725448796711e-09,-2.8839393095836385e-09,-2.732152948325961e-09,-2.5803668091128884e-09,-2.428580447855211e-09,-2.2767940865975334e-09,-2.1250079473844607e-09,-1.9732215861267832e-09,-1.8214353358914082e-09,-1.669649085656033e-09,-1.5178627243983556e-09,-1.3660764741629805e-09,-1.2142902239276054e-09,-1.0625039736922304e-09,-9.107176679457041e-10,-7.589313621991778e-10,-6.071451119638027e-10,-4.5535883397285204e-10,-3.0357255598190136e-10,-1.5178627799095068e-10,0]},"gradients/features.4.weight":{"values":[1,0,0,0,0,0,0,0,0,1,0,0,0,0,0,0,0,1,1,1,1,2,1,1,1,2,1,1,1,2,0,0,0,0,3,1,1,1,1,0,0,0,0,0,0,1,0,0,0,0,0,1,0,1,0,0,3,0,0,0,0,0,0,1],"bins":[-1.2404822058442733e-08,-1.2017934203356617e-08,-1.1631047236448921e-08,-1.1244159381362806e-08,-1.085727241445511e-08,-1.0470384559368995e-08,-1.0083497592461299e-08,-9.696609737375184e-09,-9.309722770467488e-09,-8.922834915381372e-09,-8.535947060295257e-09,-8.149060093387561e-09,-7.762172238301446e-09,-7.37528482730454e-09,-6.9883974163076346e-09,-6.601510005310729e-09,-6.214622594313823e-09,-5.827735183316918e-09,-5.440847772320012e-09,-5.0539603613231066e-09,-4.667072950326201e-09,-4.2801850952400855e-09,-3.89329768424318e-09,-3.5064102732462743e-09,-3.1195228622493687e-09,-2.732635451252463e-09,-2.3457480402555575e-09,-1.958860407214047e-09,-1.5719729962171414e-09,-1.1850855852202358e-09,-7.981980632010277e-10,-4.113105966929709e-10,-2.4423130184914044e-11,3.624643363231428e-10,7.493518028311996e-10,1.1362393248504077e-09,1.5231267358473133e-09,1.910014146844219e-09,2.2969017798857294e-09,2.683789190882635e-09,3.0706766018795406e-09,3.4575640128764462e-09,3.844451423873352e-09,4.2313388348702574e-09,4.618226689956373e-09,5.0051141009532785e-09,5.392001511950184e-09,5.77888892294709e-09,6.165776333943995e-09,6.552663744940901e-09,6.9395511559378065e-09,7.326438566934712e-09,7.713325977931618e-09,8.100213833017733e-09,8.487100799925429e-09,8.873988655011544e-09,9.26087651009766e-09,9.647763477005356e-09,1.0034651332091471e-08,1.0421538298999167e-08,1.0808426154085282e-08,1.1195313120992978e-08,1.1582200976079093e-08,1.1969087942986789e-08,1.2355975798072905e-08],"_type":"histogram"},"gradients/classifier.3.bias":{"bins":[4.285610444298982e-08,4.285610444298982e-08],"_type":"histogram","values":[1]},"gradients/classifier.3.weight":{"_type":"histogram","values":[50,0,0,0,0,0,0,0,0,0,0,0,0,0,0,0,0,0,0,0,0,0,0,0,0,0,0,0,0,0,0,0,0,0,0,0,0,0,1,1,0,3,4,3,3,5,3,7,6,1,6,4,1,0,0,0,1,0,0,0,0,0,0,1],"bins":[0,5.828489246795243e-09,1.1656978493590486e-08,1.748546729629652e-08,2.3313956987180973e-08,2.9142446678065426e-08,3.497093459259304e-08,4.079942428347749e-08,4.6627913974361945e-08,5.24564036652464e-08,5.828489335613085e-08,6.411337949430163e-08,6.994186918518608e-08,7.577035887607053e-08,8.159884856695498e-08,8.742733825783944e-08,9.325582794872389e-08,9.908431763960834e-08,1.049128073304928e-07,1.1074129702137725e-07,1.165697867122617e-07,1.2239827640314616e-07,1.2822675898860325e-07,1.3405525578491506e-07,1.3988373837037216e-07,1.4571223516668397e-07,1.5154071775214106e-07,1.5736921454845287e-07,1.6319769713390997e-07,1.6902619393022178e-07,1.7485467651567888e-07,1.8068317331199069e-07,1.8651165589744778e-07,1.9234013848290488e-07,1.981686352792167e-07,2.0399711786467378e-07,2.098256146609856e-07,2.156540972464427e-07,2.214825940427545e-07,2.273110766282116e-07,2.331395734245234e-07,2.389680560099805e-07,2.447965528062923e-07,2.506250496026041e-07,2.564535179772065e-07,2.622820147735183e-07,2.681105115698301e-07,2.7393900836614193e-07,2.797674767407443e-07,2.855959735370561e-07,2.9142447033336794e-07,2.972529387079703e-07,3.030814355042821e-07,3.0890993230059394e-07,3.1473842909690575e-07,3.2056689747150813e-07,3.2639539426781994e-07,3.3222389106413175e-07,3.3805238786044356e-07,3.4388085623504594e-07,3.4970935303135775e-07,3.5553784982766956e-07,3.6136634662398137e-07,3.6719481499858375e-07,3.7302331179489556e-07]},"_timestamp":1.7659530678875556e+09,"validation accuracy":0.875,"gradients/features.7.bias":{"bins":[-2.3037127760972e-15,-2.1263373006785713e-15,-1.9489618252599428e-15,-1.7715863498413142e-15,-1.5942108744226857e-15,-1.4168353990040572e-15,-1.2394599235854287e-15,-1.0620844481668001e-15,-8.847089727481716e-16,-7.073334973295431e-16,-5.299580219109146e-16,-3.5258254649228604e-16,-1.7520707107365752e-16,2.168404344971009e-18,1.7954387976359953e-16,3.5691935518222806e-16,5.342948306008566e-16,7.116703060194851e-16,8.890457814381136e-16,1.0664212568567422e-15,1.2437967322753707e-15,1.4211722076939992e-15,1.5985476831126277e-15,1.7759231585312563e-15,1.9532986339498848e-15,2.1306741093685133e-15,2.308049584787142e-15,2.4854250602057704e-15,2.662800535624399e-15,2.8401760110430274e-15,3.017551486461656e-15,3.1949269618802845e-15,3.372302437298913e-15,3.5496779127175415e-15,3.72705338813617e-15,3.9044288635547986e-15,4.081804338973427e-15,4.259179814392056e-15,4.436555289810684e-15,4.613930765229313e-15,4.791306240647941e-15,4.96868171606657e-15,5.146057191485198e-15,5.323432666903827e-15,5.500808142322455e-15,5.678183617741084e-15,5.855559093159712e-15,6.032934568578341e-15,6.2103100439969694e-15,6.387685519415598e-15,6.5650609948342264e-15,6.742436470252855e-15,6.9198119456714835e-15,7.097187421090112e-15,7.27456289650874e-15,7.451938371927369e-15,7.629313847345998e-15,7.806689322764626e-15,7.984064798183255e-15,8.161440273601883e-15,8.338815749020512e-15,8.51619122443914e-15,8.693566699857769e-15,8.870942175276397e-15,9.048317650695026e-15],"_type":"histogram","values":[1,1,1,2,1,0,1,0,0,1,3,1,1,1,2,2,1,0,0,1,0,1,2,2,0,1,0,0,0,0,0,1,0,0,1,0,1,1,0,0,0,0,0,0,0,0,0,0,1,0,0,0,0,0,0,0,0,0,0,0,0,0,0,1]},"validation loss":6.69025527367814,"_wandb":{"runtime":45},"train precision":0,"gradients/classifier.1.bias":{"bins":[-4.319718804879358e-09,-4.252223018141876e-09,-4.184727675493605e-09,-4.117231888756123e-09,-4.049736546107852e-09,-3.98224075937037e-09,-3.914744972632889e-09,-3.847249629984617e-09,-3.779753843247136e-09,-3.712258278554259e-09,-3.6447627138613825e-09,-3.577267149168506e-09,-3.5097715844756294e-09,-3.442276019782753e-09,-3.3747802330452714e-09,-3.307284668352395e-09,-3.2397891036595183e-09,-3.1722935389666418e-09,-3.1047979742737652e-09,-3.0373021875362838e-09,-2.9698066228434072e-09,-2.9023110581505307e-09,-2.834815493457654e-09,-2.7673199287647776e-09,-2.699824364071901e-09,-2.6323285773344196e-09,-2.564833012641543e-09,-2.4973374479486665e-09,-2.42984188325579e-09,-2.3623463185629134e-09,-2.294850531825432e-09,-2.2273549671325554e-09,-2.159859402439679e-09,-2.0923638377468023e-09,-2.024868273053926e-09,-1.9573724863164443e-09,-1.889876921623568e-09,-1.8223813569306913e-09,-1.7548857922378147e-09,-1.6873901165226357e-09,-1.6198945518297592e-09,-1.5523989871368826e-09,-1.4849033114217036e-09,-1.417407746728827e-09,-1.3499121820359505e-09,-1.2824165063207715e-09,-1.214920941627895e-09,-1.147425265912716e-09,-1.0799297012198394e-09,-1.012434136526963e-09,-9.44938460811784e-10,-8.774428961189074e-10,-8.099472759148796e-10,-7.424516557108518e-10,-6.749560910179753e-10,-6.074604708139475e-10,-5.399648506099197e-10,-4.72469230405892e-10,-4.049736379574398e-10,-3.3747804550898763e-10,-2.6998242530495986e-10,-2.024868189787199e-10,-1.3499121265247993e-10,-6.749560632623997e-11,0],"_type":"histogram","values":[1,0,0,1,3,1,1,1,2,0,1,2,0,0,1,0,0,0,0,2,0,0,1,0,2,1,2,0,3,1,0,1,1,0,0,0,0,1,0,3,1,1,1,0,2,1,0,1,0,0,0,1,2,2,0,1,2,1,1,1,0,0,0,50]},"gradients/features.10.bias":{"_type":"histogram","values":[2,0,0,0,1,0,0,0,2,0,0,0,1,1,1,2,1,2,0,1,0,0,1,0,0,0,0,0,0,0,0,0,0,0,0,0,0,0,0,0,0,0,0,0,0,0,0,0,0,0,0,0,0,0,0,0,0,0,0,0,0,0,0,1],"bins":[-4.184055057976366e-08,-4.1186790866731826e-08,-4.053303470641367e-08,-3.987927499338184e-08,-3.922551528035001e-08,-3.8571759120031857e-08,-3.7917999407000025e-08,-3.726423969396819e-08,-3.661047998093636e-08,-3.595672382061821e-08,-3.5302964107586376e-08,-3.4649204394554545e-08,-3.399544823423639e-08,-3.334168852120456e-08,-3.268792880817273e-08,-3.2034172647854575e-08,-3.1380412934822743e-08,-3.072665322179091e-08,-3.007289706147276e-08,-2.9419137348440927e-08,-2.8765377635409095e-08,-2.8111619698734103e-08,-2.745786176205911e-08,-2.680410204902728e-08,-2.6150344112352286e-08,-2.5496586175677294e-08,-2.4842826462645462e-08,-2.418906852597047e-08,-2.3535310589295477e-08,-2.2881550876263645e-08,-2.2227792939588653e-08,-2.157403322655682e-08,-2.092027528988183e-08,-2.0266517353206837e-08,-1.9612757640175005e-08,-1.8958999703500012e-08,-1.830523999046818e-08,-1.7651482053793188e-08,-1.6997724117118196e-08,-1.6343964404086364e-08,-1.5690206467411372e-08,-1.503644853073638e-08,-1.4382688817704548e-08,-1.3728930881029555e-08,-1.3075172056176143e-08,-1.2421413231322731e-08,-1.1767655294647739e-08,-1.1113896469794327e-08,-1.0460137644940914e-08,-9.806378820087502e-09,-9.15261999523409e-09,-8.498862058559098e-09,-7.845103233705686e-09,-7.191344408852274e-09,-6.5375860280880715e-09,-5.883827647323869e-09,-5.230068822470457e-09,-4.576309997617045e-09,-3.922551616852843e-09,-3.2687930140440358e-09,-2.6150344112352286e-09,-1.9612758084264215e-09,-1.3075172056176143e-09,-6.537586028088072e-10,0]},"gradients/features.3.weight":{"bins":[-1.624214718276562e-08,-1.549931916144942e-08,-1.4756490251954801e-08,-1.4013661342460182e-08,-1.3270833321143982e-08,-1.2528005299827782e-08,-1.1785176390333163e-08,-1.1042347480838544e-08,-1.0299519459522344e-08,-9.556691438206144e-09,-8.813862528711525e-09,-8.071033619216905e-09,-7.3282055979007055e-09,-6.585377132495296e-09,-5.842548667089886e-09,-5.099720201684477e-09,-4.356891736279067e-09,-3.6140632708736575e-09,-2.871234805468248e-09,-2.1284063400628384e-09,-1.3855778746574288e-09,-6.427494092520192e-10,1.0007905615339041e-10,8.429075215588e-10,1.5857359869642096e-09,2.328564452369619e-09,3.0713929177750288e-09,3.814221383180438e-09,4.557049848585848e-09,5.2998783139912575e-09,6.042706779396667e-09,6.785535244802077e-09,7.528363710207486e-09,8.271191731523686e-09,9.014020641018305e-09,9.756849550512925e-09,1.0499677571829125e-08,1.1242505593145324e-08,1.1985334502639944e-08,1.2728163412134563e-08,1.3470991433450763e-08,1.4213819454766963e-08,1.4956647476083162e-08,1.56994772737562e-08,1.64423052950724e-08,1.71851333163886e-08,1.792796311406164e-08,1.867079113537784e-08,1.941361915669404e-08,2.015644717801024e-08,2.089927519932644e-08,2.1642104996999478e-08,2.2384933018315678e-08,2.3127761039631878e-08,2.3870590837304917e-08,2.4613418858621117e-08,2.5356246879937316e-08,2.6099074901253516e-08,2.6841902922569716e-08,2.7584732720242755e-08,2.8327560741558955e-08,2.9070388762875154e-08,2.9813218560548194e-08,3.0556044805507554e-08,3.129887460318059e-08],"_type":"histogram","values":[1,0,1,0,1,3,1,7,10,40,73,84,87,91,188,309,339,648,1137,2282,3367,4210,5103,4237,2462,1607,1082,791,660,592,529,423,362,331,276,221,173,118,86,81,63,70,49,42,51,55,53,47,31,61,53,44,17,16,27,27,13,10,12,6,2,3,0,3]}}