{"gradients/features.10.weight":{"_type":"histogram","values":[1,1,5,4,5,5,4,8,5,8,7,5,5,5,8,12,16,14,20,32,29,51,67,76,81,88,111,136,143,191,143,191,185,205,235,221,183,199,175,156,136,137,111,131,131,133,151,155,148,190,209,221,220,230,252,290,355,538,791,785,690,821,1255,2708],"bins":[-3.1972693250281736e-05,-3.1472933187615126e-05,-3.0973173124948516e-05,-3.0473411243292503e-05,-2.9973651180625893e-05,-2.9473891117959283e-05,-2.897412923630327e-05,-2.847436917363666e-05,-2.797460911097005e-05,-2.747484904830344e-05,-2.697508898563683e-05,-2.6475327103980817e-05,-2.5975567041314207e-05,-2.5475806978647597e-05,-2.4976045096991584e-05,-2.4476285034324974e-05,-2.3976524971658364e-05,-2.3476764908991754e-05,-2.2977004846325144e-05,-2.247724296466913e-05,-2.197748290200252e-05,-2.147772283933591e-05,-2.0977960957679898e-05,-2.0478200895013288e-05,-1.9978440832346678e-05,-1.9478680769680068e-05,-1.8978920707013458e-05,-1.8479158825357445e-05,-1.7979398762690835e-05,-1.7479638700024225e-05,-1.697987681836821e-05,-1.64801167557016e-05,-1.5980358512024395e-05,-1.5480596630368382e-05,-1.4980836567701772e-05,-1.4481076505035162e-05,-1.398131553287385e-05,-1.348155547020724e-05,-1.2981794498045929e-05,-1.2482034435379319e-05,-1.1982273463218007e-05,-1.1482513400551397e-05,-1.0982752428390086e-05,-1.0482992365723476e-05,-9.983231393562164e-06,-9.483471330895554e-06,-8.983710358734243e-06,-8.483950296067633e-06,-7.984189323906321e-06,-7.48442880649236e-06,-6.9846682890783995e-06,-6.484907771664439e-06,-5.985147254250478e-06,-5.485386736836517e-06,-4.9856262194225565e-06,-4.485865702008596e-06,-3.986105184594635e-06,-3.4863448945543496e-06,-2.986584377140389e-06,-2.486823859726428e-06,-1.9870633423124673e-06,-1.4873028248985065e-06,-9.875423074845457e-07,-4.87781790070585e-07,1.1978751324193126e-08]},"_timestamp":1.76595300091957e+09,"gradients/features.1.weight":{"bins":[-5.673770374414744e-06,-5.4200986596697476e-06,-5.166426944924751e-06,-4.912755230179755e-06,-4.65908397018211e-06,-4.405412255437113e-06,-4.151740540692117e-06,-3.898068825947121e-06,-3.6443971112021245e-06,-3.3907253964571282e-06,-3.137053681712132e-06,-2.883382194340811e-06,-2.629710479595815e-06,-2.3760387648508186e-06,-2.1223672774794977e-06,-1.8686955627345014e-06,-1.6150238479895052e-06,-1.3613521332445089e-06,-1.1076805321863503e-06,-8.540088742847729e-07,-6.003372163831955e-07,-3.4666555848161806e-07,-9.299390058004064e-08,1.6067775732153677e-07,4.143494152231142e-07,6.680210731246916e-07,9.21692731026269e-07,1.1753643320844276e-06,1.4290360468294239e-06,1.6827077615744201e-06,1.936379248945741e-06,2.1900509636907373e-06,2.4437222236883827e-06,2.697393938433379e-06,2.9510656531783752e-06,3.204737140549696e-06,3.4584088552946923e-06,3.7120805700396886e-06,3.9657520574110094e-06,4.219423772156006e-06,4.473095486901002e-06,4.726767201645998e-06,4.9804389163909946e-06,5.234110631135991e-06,5.487781891133636e-06,5.7414536058786325e-06,5.995125320623629e-06,6.248797035368625e-06,6.502468750113621e-06,6.756140464858618e-06,7.009812179603614e-06,7.26348389434861e-06,7.5171556090936065e-06,7.770827323838603e-06,8.024499038583599e-06,8.278170753328595e-06,8.531842468073592e-06,8.785513273323886e-06,9.039184988068882e-06,9.292856702813879e-06,9.546528417558875e-06,9.800200132303871e-06,1.0053871847048867e-05,1.0307543561793864e-05,1.056121527653886e-05],"_type":"histogram","values":[1,0,0,0,0,0,0,1,1,0,0,1,2,0,0,1,1,0,1,0,1,1,1,0,0,0,0,0,0,0,1,0,0,0,0,0,0,0,0,0,0,1,0,0,0,0,0,0,0,0,0,0,0,1,0,0,0,0,0,0,0,0,0,1]},"gradients/features.4.bias":{"bins":[-6.644329914706759e-06,-6.498508355434751e-06,-6.352686341415392e-06,-6.206864782143384e-06,-6.061042768124025e-06,-5.915221208852017e-06,-5.769399194832658e-06,-5.62357763556065e-06,-5.4777556215412915e-06,-5.3319340622692835e-06,-5.1861125029972754e-06,-5.0402904889779165e-06,-4.8944689297059085e-06,-4.74864691568655e-06,-4.602825356414542e-06,-4.457003342395183e-06,-4.311181783123175e-06,-4.165360223851167e-06,-4.019538209831808e-06,-3.8737166505598e-06,-3.727894636540441e-06,-3.582073077268433e-06,-3.4362512906227494e-06,-3.290429503977066e-06,-3.1446077173313824e-06,-2.998785930685699e-06,-2.8529641440400155e-06,-2.707142357394332e-06,-2.561320798122324e-06,-2.4154990114766406e-06,-2.269677224830957e-06,-2.1238554381852737e-06,-1.97803365153959e-06,-1.8322118648939067e-06,-1.6863900782482233e-06,-1.5405684052893776e-06,-1.394746618643694e-06,-1.2489248319980106e-06,-1.1031031590391649e-06,-9.572813723934814e-07,-8.11459585747798e-07,-6.656377991021145e-07,-5.198160692998499e-07,-3.739943110758759e-07,-2.2817255285190186e-07,-8.235079462792783e-08,6.34709635960462e-08,2.0929272182002023e-07,3.5511448004399426e-07,5.009362666896777e-07,6.467579964919423e-07,7.925797262942069e-07,9.384015129398904e-07,1.0842232995855738e-06,1.2300449725444196e-06,1.375866759190103e-06,1.5216885458357865e-06,1.66751033248147e-06,1.8133321191271534e-06,1.959153905772837e-06,2.104975465044845e-06,2.2507972516905284e-06,2.396619038336212e-06,2.5424408249818953e-06,2.6882626116275787e-06],"_type":"histogram","values":[1,0,0,0,0,0,0,0,0,0,0,0,0,1,0,0,0,0,0,0,0,2,0,2,1,5,0,1,0,4,0,2,0,1,1,0,3,1,0,0,0,1,0,1,0,0,0,1,1,0,0,1,0,0,0,0,0,1,0,0,0,0,0,1]},"gradients/features.1.bias":{"bins":[-9.00483883015113e-06,-8.843685463943984e-06,-8.68253209773684e-06,-8.521378731529694e-06,-8.360225365322549e-06,-8.199071999115404e-06,-8.037918632908259e-06,-7.876765266701113e-06,-7.715611900493968e-06,-7.554458534286823e-06,-7.393305168079678e-06,-7.232151801872533e-06,-7.070998435665388e-06,-6.9098450694582425e-06,-6.748691703251097e-06,-6.587538337043952e-06,-6.426384970836807e-06,-6.265231149882311e-06,-6.104077783675166e-06,-5.942924417468021e-06,-5.7817710512608755e-06,-5.62061768505373e-06,-5.459464318846585e-06,-5.29831095263944e-06,-5.137157586432295e-06,-4.97600422022515e-06,-4.814850854018005e-06,-4.6536974878108595e-06,-4.492544121603714e-06,-4.331390755396569e-06,-4.170237389189424e-06,-4.009084022982279e-06,-3.847930656775134e-06,-3.6867772905679885e-06,-3.5256239243608434e-06,-3.3644705581536982e-06,-3.203317191946553e-06,-3.042163825739408e-06,-2.8810104595322628e-06,-2.7198570933251176e-06,-2.5587037271179724e-06,-2.397550133537152e-06,-2.2363967673300067e-06,-2.0752434011228615e-06,-1.9140900349157164e-06,-1.7529366687085712e-06,-1.591783302501426e-06,-1.430629936294281e-06,-1.2694765700871358e-06,-1.1083232038799906e-06,-9.471698376728455e-07,-7.860164146222814e-07,-6.248630484151363e-07,-4.6370968220799114e-07,-3.0255628757913655e-07,-1.4140290716113668e-07,1.9750473256863188e-08,1.8090385367486306e-07,3.4205723409286293e-07,5.032106287217175e-07,6.643639949288627e-07,8.255173611360078e-07,9.866707841865718e-07,1.147824150393717e-06,1.3089775166008621e-06],"_type":"histogram","values":[1,0,0,0,1,0,0,0,0,0,0,0,0,0,0,0,0,1,0,0,0,1,0,0,1,0,1,0,1,0,0,0,0,0,0,0,0,0,1,0,1,0,0,1,1,1,0,0,0,0,1,1,0,0,0,0,0,0,0,0,0,0,0,2]},"gradients/classifier.3.bias":{"_type":"histogram","values":[1],"bins":[2.7830945327878e-05,2.7830945327878e-05]},"gradients/features.3.bias":{"_type":"histogram","values":[1,0,0,0,0,1,0,1,0,0,0,0,0,2,0,0,1,0,0,0,1,2,1,0,0,0,0,1,1,2,1,0,0,1,2,1,1,0,0,0,0,0,1,1,1,0,2,0,1,0,0,2,0,0,0,0,0,0,0,0,1,1,0,2],"bins":[-7.389644451905042e-13,-7.096545573404001e-13,-6.803446694902959e-13,-6.510347816401918e-13,-6.217248937900877e-13,-5.924150059399835e-13,-5.631051180898794e-13,-5.337952302397753e-13,-5.044853423896711e-13,-4.75175454539567e-13,-4.4586556668946287e-13,-4.1655567883935873e-13,-3.872457909892546e-13,-3.5793590313915047e-13,-3.2862601528904634e-13,-2.993161274389422e-13,-2.7000623958883807e-13,-2.4069635173873394e-13,-2.113864638886298e-13,-1.8207657603852567e-13,-1.5276668818842154e-13,-1.234568003383174e-13,-9.414691248821327e-14,-6.483702463810914e-14,-3.552713678800501e-14,-6.217248937900877e-15,2.3092638912203256e-14,5.240252676230739e-14,8.171241461241152e-14,1.1102230246251565e-13,1.4033219031261979e-13,1.6964207816272392e-13,1.9895196601282805e-13,2.282618538629322e-13,2.575717417130363e-13,2.8688162956314045e-13,3.161915174132446e-13,3.455014052633487e-13,3.7481129311345285e-13,4.04121180963557e-13,4.334310688136611e-13,4.627409566637652e-13,4.920508445138694e-13,5.213607323639735e-13,5.506706202140776e-13,5.799805080641818e-13,6.092903959142859e-13,6.3860028376439e-13,6.679101716144942e-13,6.972200594645983e-13,7.265299473147024e-13,7.558398351648066e-13,7.851497230149107e-13,8.144596108650148e-13,8.43769498715119e-13,8.730793865652231e-13,9.023892744153272e-13,9.316991622654314e-13,9.610090501155355e-13,9.903189379656396e-13,1.0196288258157438e-12,1.048938713665848e-12,1.078248601515952e-12,1.1075584893660562e-12,1.1368683772161603e-12]},"gradients/classifier.1.weight":{"values":[3,6,14,21,36,42,72,74,101,132,147,199,189,204,209,219,231,255,270,329,389,391,465,545,629,708,712,766,674,800,740,775,768,846,987,1200,1382,1459,1690,1730,1696,1632,1508,1443,1467,1683,2115,2440,2369,2134,1910,1900,2143,2459,2540,2469,2960,2779,3403,4008,3467,3356,2106,85604],"bins":[-5.208245966059621e-06,-5.126867108629085e-06,-5.045488251198549e-06,-4.9641093937680125e-06,-4.882730536337476e-06,-4.80135167890694e-06,-4.719972821476404e-06,-4.638593964045867e-06,-4.557215106615331e-06,-4.475836249184795e-06,-4.3944573917542584e-06,-4.313078534323722e-06,-4.231699676893186e-06,-4.1503208194626495e-06,-4.068941962032113e-06,-3.987563104601577e-06,-3.906184247171041e-06,-3.824805844487855e-06,-3.7434267596836435e-06,-3.662047902253107e-06,-3.580669044822571e-06,-3.4992901873920346e-06,-3.4179113299614983e-06,-3.336532472530962e-06,-3.255153842474101e-06,-3.173774985043565e-06,-3.0923961276130285e-06,-3.011017270182492e-06,-2.929638412751956e-06,-2.8482595553214196e-06,-2.7668806978908833e-06,-2.685501840460347e-06,-2.6041229830298107e-06,-2.5227441255992744e-06,-2.441365268168738e-06,-2.359986410738202e-06,-2.2786075533076655e-06,-2.1972286958771292e-06,-2.115849838446593e-06,-2.0344709810160566e-06,-1.9530921235855203e-06,-1.8717133798418217e-06,-1.7903345224112854e-06,-1.7089556649807491e-06,-1.6275769212370506e-06,-1.5461980638065143e-06,-1.464819206375978e-06,-1.3834403489454417e-06,-1.3020614915149054e-06,-1.220682634084369e-06,-1.1393037766538328e-06,-1.0579249192232965e-06,-9.765460617927602e-07,-8.951672612056427e-07,-8.137884606185253e-07,-7.32409603187989e-07,-6.510307457574527e-07,-5.696518883269164e-07,-4.882730308963801e-07,-4.0689423030926264e-07,-3.2551537287872634e-07,-2.4413651544819004e-07,-1.6275768643936317e-07,-8.137884321968158e-08,0],"_type":"histogram"},"_step":0,"_wandb":{"runtime":4},"gradients/features.4.weight":{"_type":"histogram","values":[1,0,0,0,0,0,0,0,0,0,0,0,0,0,0,0,1,0,1,1,1,0,0,1,2,1,3,3,0,2,0,1,0,0,3,2,0,1,0,1,0,0,0,0,0,1,0,0,1,0,0,1,1,0,0,1,0,0,0,0,1,0,0,1],"bins":[-7.316784831346013e-06,-7.0949149630905595e-06,-6.873045094835106e-06,-6.651175226579653e-06,-6.4293053583242e-06,-6.207435490068747e-06,-5.9855660765606444e-06,-5.763696208305191e-06,-5.541826340049738e-06,-5.319956471794285e-06,-5.098086603538832e-06,-4.8762167352833785e-06,-4.654346867027925e-06,-4.432476998772472e-06,-4.210607130517019e-06,-3.988737262261566e-06,-3.766867621379788e-06,-3.544997753124335e-06,-3.3231278848688817e-06,-3.101258243987104e-06,-2.8793883757316507e-06,-2.6575185074761976e-06,-2.4356486392207444e-06,-2.213778770965291e-06,-1.991908902709838e-06,-1.7700391481412225e-06,-1.548169393572607e-06,-1.3262995253171539e-06,-1.1044296570617007e-06,-8.825599024930852e-07,-6.606900342376321e-07,-4.3882022282559774e-07,-2.1695041141356342e-07,4.919414209325623e-09,2.2678923983221466e-07,4.486590796659584e-07,6.705288910779927e-07,8.923987024900271e-07,1.1142685707454802e-06,1.3361383253140957e-06,1.5580081935695489e-06,1.779878061825002e-06,2.0017478163936175e-06,2.2236176846490707e-06,2.445487552904524e-06,2.667357421159977e-06,2.889227062041755e-06,3.111096930297208e-06,3.332966798552661e-06,3.5548366668081144e-06,3.7767065350635676e-06,3.998576175945345e-06,4.2204460442007985e-06,4.442315912456252e-06,4.664185780711705e-06,4.886055648967158e-06,5.107925517222611e-06,5.329795385478064e-06,5.551665253733518e-06,5.77353466724162e-06,5.995404535497073e-06,6.217274403752526e-06,6.4391442720079795e-06,6.661014140263433e-06,6.882884008518886e-06]},"gradients/features.8.bias":{"_type":"histogram","values":[1,0,0,0,2,0,0,0,0,0,2,2,1,1,1,2,0,0,0,3,3,1,1,0,1,0,0,2,1,0,3,0,0,1,0,2,0,0,0,0,0,0,0,0,0,0,0,0,0,0,0,0,0,0,0,0,0,0,0,0,0,1,0,1],"bins":[-1.6536143448320217e-05,-1.6267693354166113e-05,-1.5999243260012008e-05,-1.5730793165857904e-05,-1.5462344890693203e-05,-1.5193893887044396e-05,-1.4925444702384993e-05,-1.4656994608230889e-05,-1.4388544514076784e-05,-1.4120095329417381e-05,-1.3851645235263277e-05,-1.3583195141109172e-05,-1.3314745046955068e-05,-1.3046295862295665e-05,-1.277784576814156e-05,-1.2509395673987456e-05,-1.2240945579833351e-05,-1.1972496395173948e-05,-1.1704046301019844e-05,-1.1435596206865739e-05,-1.1167147022206336e-05,-1.0898696928052232e-05,-1.0630246833898127e-05,-1.0361796739744022e-05,-1.009334755508462e-05,-9.824897460930515e-06,-9.55644736677641e-06,-9.287998182117008e-06,-9.019548087962903e-06,-8.751097993808798e-06,-8.482647899654694e-06,-8.214198714995291e-06,-7.945748620841186e-06,-7.677299436181784e-06,-7.408849342027679e-06,-7.1403992478735745e-06,-6.871949608466821e-06,-6.603499514312716e-06,-6.3350498749059625e-06,-6.066599780751858e-06,-5.798150141345104e-06,-5.5297005019383505e-06,-5.261250407784246e-06,-4.992800768377492e-06,-4.724350674223388e-06,-4.455901034816634e-06,-4.187450940662529e-06,-3.919001301255776e-06,-3.6505514344753465e-06,-3.3821015676949173e-06,-3.113651700914488e-06,-2.845201834134059e-06,-2.5767521947273053e-06,-2.308302327946876e-06,-2.039852461166447e-06,-1.7714025943860179e-06,-1.5029527276055887e-06,-1.2345028608251596e-06,-9.660529940447304e-07,-6.97603240951139e-07,-4.2915337417070987e-07,-1.6070353581199015e-07,1.0774630254672957e-07,3.761961409054493e-07,6.44645979264169e-07]},"gradients/features.0.weight":{"_type":"histogram","values":[10,5,5,12,15,2,4,4,4,20,21,33,25,37,13,56,53,41,50,98,99,47,39,37,26,12,13,25,25,23,26,29,11,6,6,7,13,13,2,3,3,4,12,3,0,2,2,6,2,4,0,0,0,0,0,0,1,0,0,1,5,0,0,9],"bins":[-1.5917448763502762e-05,-1.5112551409401931e-05,-1.43076540553011e-05,-1.3502757610694971e-05,-1.269786025659414e-05,-1.189296290249331e-05,-1.1088065548392478e-05,-1.0283168194291648e-05,-9.478271749685518e-06,-8.673374395584688e-06,-7.868477041483857e-06,-7.063579687383026e-06,-6.258682333282195e-06,-5.453785433928715e-06,-4.648888079827884e-06,-3.843991180474404e-06,-3.0390938263735734e-06,-2.234196699646418e-06,-1.4292994592324249e-06,-6.244022756618506e-07,1.804949079087237e-07,9.85392034635879e-07,1.7902892750498722e-06,2.5951865154638654e-06,3.4000836421910208e-06,4.204980996291852e-06,5.009877895645332e-06,5.8147752497461624e-06,6.619672603846993e-06,7.424569503200473e-06,8.229466402553953e-06,9.034363756654784e-06,9.839261110755615e-06,1.0644158464856446e-05,1.1449055818957277e-05,1.2253952263563406e-05,1.3058849617664237e-05,1.3863746971765067e-05,1.4668644325865898e-05,1.5473540770472027e-05,1.6278438124572858e-05,1.708333547867369e-05,1.788823283277452e-05,1.869313018687535e-05,1.949802754097618e-05,2.0302924895077012e-05,2.1107822249177843e-05,2.1912719603278674e-05,2.2717616957379505e-05,2.3522512492490932e-05,2.4327409846591763e-05,2.5132307200692594e-05,2.5937204554793425e-05,2.6742101908894256e-05,2.7546999262995087e-05,2.8351896617095917e-05,2.915679397119675e-05,2.996169132529758e-05,3.0766586860409006e-05,3.157148603349924e-05,3.237638156861067e-05,3.31812807417009e-05,3.398617627681233e-05,3.4791075449902564e-05,3.559597098501399e-05]},"gradients/features.7.weight":{"bins":[-1.8923372408607975e-05,-1.8417220417177305e-05,-1.791106660675723e-05,-1.740491461532656e-05,-1.689876262389589e-05,-1.6392608813475817e-05,-1.5886456822045147e-05,-1.5380304830614477e-05,-1.4874151929689106e-05,-1.4367999028763734e-05,-1.3861847037333064e-05,-1.3355694136407692e-05,-1.284954123548232e-05,-1.234338924405165e-05,-1.1837236343126278e-05,-1.1331084351695608e-05,-1.0824931450770237e-05,-1.0318778549844865e-05,-9.812626558414195e-06,-9.306473657488823e-06,-8.800321666058153e-06,-8.294168765132781e-06,-7.78801586420741e-06,-7.281863418029388e-06,-6.7757109718513675e-06,-6.269558525673347e-06,-5.763406079495326e-06,-5.257253178569954e-06,-4.751100732391933e-06,-4.244948286213912e-06,-3.7387956126622157e-06,-3.2326429391105194e-06,-2.7264895834377967e-06,-2.2203371372597758e-06,-1.7141844637080794e-06,-1.2080319038432208e-06,-7.018793439783622e-07,-1.9572678411350353e-07,3.104257757513551e-07,8.165783356162137e-07,1.3227308954810724e-06,1.828883455345931e-06,2.3350360152107896e-06,2.841188688762486e-06,3.347341134940507e-06,3.853493581118528e-06,4.3596464820439e-06,4.8657989282219205e-06,5.371951374399941e-06,5.878103820577962e-06,6.384256266755983e-06,6.890409167681355e-06,7.396561613859376e-06,7.902714060037397e-06,8.408866960962769e-06,8.915018952393439e-06,9.42117185331881e-06,9.927324754244182e-06,1.0433476745674852e-05,1.0939629646600224e-05,1.1445781638030894e-05,1.1951934538956266e-05,1.2458087439881638e-05,1.2964239431312308e-05,1.347039233223768e-05],"_type":"histogram","values":[1,1,1,1,0,3,7,11,13,12,11,26,29,40,58,58,70,77,84,102,124,158,191,226,286,313,371,422,509,612,719,911,1152,1426,1673,1893,2265,2347,2328,2263,1744,1257,1005,829,600,363,276,155,120,103,82,67,51,51,38,45,29,15,11,9,2,0,0,2]},"gradients/features.8.weight":{"values":[1,0,0,0,0,1,0,0,0,0,0,0,0,0,0,1,0,0,0,0,0,1,0,1,0,0,1,1,1,0,0,4,3,3,0,2,1,1,1,2,0,2,1,0,1,1,0,0,0,0,0,0,0,0,0,0,0,0,0,0,0,0,0,2],"bins":[-1.7983806174015626e-05,-1.7701313481666148e-05,-1.741882078931667e-05,-1.713632809696719e-05,-1.6853835404617712e-05,-1.6571342712268233e-05,-1.6288851838908158e-05,-1.600635914655868e-05,-1.57238664542092e-05,-1.5441373761859722e-05,-1.5158881069510244e-05,-1.4876388377160765e-05,-1.4593895684811287e-05,-1.4311402992461808e-05,-1.4028911209607031e-05,-1.3746418517257553e-05,-1.3463925824908074e-05,-1.3181433132558595e-05,-1.2898940440209117e-05,-1.261644865735434e-05,-1.2333955965004861e-05,-1.2051463272655383e-05,-1.1768970580305904e-05,-1.1486477887956426e-05,-1.1203985195606947e-05,-1.092149341275217e-05,-1.0639000720402692e-05,-1.0356508028053213e-05,-1.0074015335703734e-05,-9.791522643354256e-06,-9.509030860499479e-06,-9.22653816815e-06,-8.944045475800522e-06,-8.661552783451043e-06,-8.379060091101564e-06,-8.096567398752086e-06,-7.814074706402607e-06,-7.5315824688004795e-06,-7.249089776451001e-06,-6.966597538848873e-06,-6.684104846499395e-06,-6.401612608897267e-06,-6.119119916547788e-06,-5.83662722419831e-06,-5.554134986596182e-06,-5.271642294246703e-06,-4.989149601897225e-06,-4.706657364295097e-06,-4.4241646719456185e-06,-4.141672434343491e-06,-3.859179741994012e-06,-3.576687277018209e-06,-3.2941945846687304e-06,-3.0117021196929272e-06,-2.729209654717124e-06,-2.446717189741321e-06,-2.1642244973918423e-06,-1.8817320324160391e-06,-1.599239567440236e-06,-1.3167469887775951e-06,-1.034254523801792e-06,-7.517620019825699e-07,-4.692694801633479e-07,-1.867769583441259e-07,9.571557058052349e-08],"_type":"histogram"},"gradients/features.3.weight":{"values":[1,2,5,2,6,4,3,5,12,17,7,7,3,7,7,16,12,20,6,33,77,45,60,61,126,150,300,538,855,1444,3147,5006,5340,4384,2746,2155,1345,1101,753,386,320,283,359,270,245,223,87,80,72,109,119,55,94,28,44,45,21,6,13,16,27,19,31,8],"bins":[-2.3016280465526506e-05,-2.2294903828878887e-05,-2.1573527192231268e-05,-2.085215055558365e-05,-2.013077391893603e-05,-1.940939728228841e-05,-1.868802064564079e-05,-1.796664400899317e-05,-1.7245267372345552e-05,-1.6523892554687336e-05,-1.5802515918039717e-05,-1.5081138371897396e-05,-1.4359762644744478e-05,-1.3638386008096859e-05,-1.291700937144924e-05,-1.219563273480162e-05,-1.1474256098154001e-05,-1.0752879461506382e-05,-1.0031502824858762e-05,-9.310126188211143e-06,-8.588749551563524e-06,-7.867373824410606e-06,-7.145997187762987e-06,-6.4246205511153676e-06,-5.703243914467748e-06,-4.981867277820129e-06,-4.26049064117251e-06,-3.5391144592722412e-06,-2.817737822624622e-06,-2.0963611859770026e-06,-1.3749847767030587e-06,-6.536082537422772e-07,6.776645022910088e-08,7.891429731898825e-07,1.510519496150664e-06,2.231895905424608e-06,2.9532725420722272e-06,3.6746491787198465e-06,4.396025360620115e-06,5.117401997267734e-06,5.8387786339153536e-06,6.560155270562973e-06,7.281531907210592e-06,8.002908543858211e-06,8.724284271011129e-06,9.445660907658748e-06,1.0167037544306368e-05,1.0888414180953987e-05,1.1609790817601606e-05,1.2331167454249226e-05,1.3052544090896845e-05,1.3773920727544464e-05,1.4495297364192083e-05,1.5216673091345001e-05,1.5938050637487322e-05,1.665942727413494e-05,1.738080391078256e-05,1.8102178728440776e-05,1.8823555365088396e-05,1.9544932001736015e-05,2.0266308638383634e-05,2.0987685275031254e-05,2.1709061911678873e-05,2.2430438548326492e-05,2.315181518497411e-05],"_type":"histogram"},"_runtime":4.816415773,"gradients/features.0.bias":{"bins":[-7.639755494892597e-11,-7.310063665499911e-11,-6.980371836107224e-11,-6.650680006714538e-11,-6.320988177321851e-11,-5.991296347929165e-11,-5.661604518536478e-11,-5.331912689143792e-11,-5.002220859751105e-11,-4.672529030358419e-11,-4.3428372009657323e-11,-4.013145371573046e-11,-3.6834535421803594e-11,-3.353761712787673e-11,-3.0240698833949864e-11,-2.6943780540023e-11,-2.3646862246096134e-11,-2.034994395216927e-11,-1.7053025658242404e-11,-1.375610736431554e-11,-1.0459189070388675e-11,-7.16227077646181e-12,-3.865352482534945e-12,-5.684341886080801e-13,2.7284841053187847e-12,6.0254023992456496e-12,9.322320693172514e-12,1.261923898709938e-11,1.5916157281026244e-11,1.921307557495311e-11,2.2509993868879974e-11,2.580691216280684e-11,2.9103830456733704e-11,3.240074875066057e-11,3.5697667044587433e-11,3.89945853385143e-11,4.229150363244116e-11,4.558842192636803e-11,4.888534022029489e-11,5.218225851422176e-11,5.547917680814862e-11,5.877609510207549e-11,6.207301339600235e-11,6.536993168992922e-11,6.866684998385608e-11,7.196376827778295e-11,7.526068657170981e-11,7.855760486563668e-11,8.185452315956354e-11,8.51514414534904e-11,8.844835974741727e-11,9.174527804134414e-11,9.5042196335271e-11,9.833911462919787e-11,1.0163603292312473e-10,1.049329512170516e-10,1.0822986951097846e-10,1.1152678780490533e-10,1.1482370609883219e-10,1.1812062439275905e-10,1.2141754268668592e-10,1.2471446098061278e-10,1.2801137927453965e-10,1.3130829756846651e-10,1.3460521586239338e-10],"_type":"histogram","values":[1,0,0,0,0,0,0,0,0,2,0,0,0,0,0,1,1,1,0,0,2,0,0,4,1,0,1,0,1,0,0,0,0,0,0,0,0,0,0,0,0,0,0,0,0,0,0,0,0,0,0,0,0,0,0,0,0,0,0,0,0,0,0,1]},"gradients/classifier.3.weight":{"_type":"histogram","values":[50,0,0,0,0,0,0,0,0,0,0,0,0,0,0,0,0,0,0,0,0,0,0,0,0,0,0,0,0,0,0,0,0,0,1,1,0,1,2,2,1,2,2,2,2,1,5,4,2,1,5,3,4,1,0,4,3,0,0,0,0,0,0,1],"bins":[0,2.2700082809024025e-06,4.540016561804805e-06,6.8100248427072074e-06,9.08003312360961e-06,1.1350040949764661e-05,1.3620049685414415e-05,1.5890058421064168e-05,1.816006624721922e-05,2.043007407337427e-05,2.2700081899529323e-05,2.4970091544673778e-05,2.724009937082883e-05,2.951010719698388e-05,3.1780116842128336e-05,3.405012466828339e-05,3.632013249443844e-05,3.859014032059349e-05,4.086014814674854e-05,4.3130155972903594e-05,4.5400163799058646e-05,4.7670175263192505e-05,4.9940183089347556e-05,5.221019091550261e-05,5.448019874165766e-05,5.675020656781271e-05,5.902021439396776e-05,6.129022222012281e-05,6.356023368425667e-05,6.583023787243292e-05,6.810024933656678e-05,7.037025352474302e-05,7.264026498887688e-05,7.491027645301074e-05,7.718028064118698e-05,7.945029210532084e-05,8.172029629349709e-05,8.399030775763094e-05,8.626031194580719e-05,8.853032340994105e-05,9.080032759811729e-05,9.307033906225115e-05,9.534035052638501e-05,9.761035471456125e-05,9.988036617869511e-05,0.00010215037036687136,0.00010442038183100522,0.00010669038601918146,0.00010896039748331532,0.00011123040894744918,0.00011350041313562542,0.00011577042459975928,0.00011804042878793553,0.00012031044025206938,0.00012258044444024563,0.0001248504559043795,0.00012712046736851335,0.0001293904788326472,0.00013166047574486583,0.0001339304872089997,0.00013620049867313355,0.0001384705101372674,0.00014074050704948604,0.0001430105185136199,0.00014528052997775376]},"gradients/features.7.bias":{"_type":"histogram","values":[1,0,0,0,0,0,0,0,0,0,0,0,3,0,0,0,0,3,0,3,1,1,1,1,1,0,1,2,0,0,1,1,0,2,2,1,1,0,0,2,1,0,0,0,0,0,1,0,1,0,0,0,0,0,0,0,0,0,0,0,0,0,0,1],"bins":[-1.6484591469634324e-12,-1.5754064719430971e-12,-1.5023537969227618e-12,-1.4293011219024265e-12,-1.3562484468820912e-12,-1.283195771861756e-12,-1.2101430968414206e-12,-1.1370904218210853e-12,-1.06403774680075e-12,-9.909850717804147e-13,-9.179323967600794e-13,-8.448797217397441e-13,-7.718270467194088e-13,-6.987743716990735e-13,-6.257216966787382e-13,-5.526690216584029e-13,-4.796163466380676e-13,-4.065636716177323e-13,-3.33510996597397e-13,-2.604583215770617e-13,-1.8740564655672642e-13,-1.1435297153639112e-13,-4.1300296516055823e-14,3.175237850427948e-14,1.0480505352461478e-13,1.7785772854495008e-13,2.509104035652854e-13,3.239630785856207e-13,3.97015753605956e-13,4.700684286262913e-13,5.431211036466266e-13,6.161737786669619e-13,6.892264536872972e-13,7.622791287076325e-13,8.353318037279678e-13,9.083844787483031e-13,9.814371537686384e-13,1.0544898287889737e-12,1.127542503809309e-12,1.2005951788296443e-12,1.2736478538499796e-12,1.3467005288703149e-12,1.4197532038906502e-12,1.4928058789109855e-12,1.5658585539313208e-12,1.638911228951656e-12,1.7119639039719914e-12,1.7850165789923267e-12,1.858069254012662e-12,1.9311219290329973e-12,2.0041746040533326e-12,2.077227279073668e-12,2.150279954094003e-12,2.2233326291143385e-12,2.2963853041346738e-12,2.369437979155009e-12,2.4424906541753444e-12,2.5155433291956797e-12,2.588596004216015e-12,2.6616486792363503e-12,2.7347013542566856e-12,2.807754029277021e-12,2.880806704297356e-12,2.9538593793176915e-12,3.0269120543380268e-12]},"gradients/features.10.bias":{"bins":[-2.1583935449598357e-05,-2.1246680262265727e-05,-2.0909425074933097e-05,-2.0572168068611063e-05,-2.0234912881278433e-05,-1.9897657693945803e-05,-1.9560402506613173e-05,-1.922314550029114e-05,-1.888589031295851e-05,-1.854863512562588e-05,-1.821137993829325e-05,-1.7874124750960618e-05,-1.7536867744638585e-05,-1.7199612557305954e-05,-1.6862357369973324e-05,-1.6525102182640694e-05,-1.618784517631866e-05,-1.585058998898603e-05,-1.55133348016534e-05,-1.517607961432077e-05,-1.4838823517493438e-05,-1.4501568330160808e-05,-1.4164312233333476e-05,-1.3827057046000846e-05,-1.3489801858668216e-05,-1.3152545761840884e-05,-1.2815290574508253e-05,-1.2478034477680922e-05,-1.2140779290348291e-05,-1.180352319352096e-05,-1.146626800618833e-05,-1.1129011909360997e-05,-1.0791756722028367e-05,-1.0454501534695737e-05,-1.0117246347363107e-05,-9.779990250535775e-06,-9.442735063203145e-06,-9.105478966375813e-06,-8.768223779043183e-06,-8.43096768221585e-06,-8.09371249488322e-06,-7.75645730755059e-06,-7.4192012107232586e-06,-7.0819455686432775e-06,-6.7446899265632965e-06,-6.407434739230666e-06,-6.070179097150685e-06,-5.732923455070704e-06,-5.395667812990723e-06,-5.058412170910742e-06,-4.721156528830761e-06,-4.38390088675078e-06,-4.046645244670799e-06,-3.7093898299644934e-06,-3.3721341878845124e-06,-3.0348787731782068e-06,-2.6976231310982257e-06,-2.3603674890182447e-06,-2.0231118469382636e-06,-1.6858563185451203e-06,-1.348600790151977e-06,-1.011345148071996e-06,-6.740896196788526e-07,-3.36834006020581e-07,4.215779392247043e-10],"_type":"histogram","values":[2,2,0,0,0,0,2,1,0,1,2,0,1,0,1,0,1,0,0,0,0,0,0,0,0,1,0,0,0,0,0,0,1,0,0,0,0,0,0,0,0,0,0,0,0,0,0,0,0,0,0,0,0,0,0,0,0,0,0,0,0,0,0,1]},"gradients/classifier.1.bias":{"bins":[-2.6891520974459127e-06,-2.6471341243450297e-06,-2.6051161512441467e-06,-2.563098178143264e-06,-2.521080205042381e-06,-2.4790620045678224e-06,-2.4370440314669395e-06,-2.3950260583660565e-06,-2.3530080852651736e-06,-2.3109901121642906e-06,-2.2689721390634077e-06,-2.2269541659625247e-06,-2.1849359654879663e-06,-2.1429179923870834e-06,-2.1009000192862004e-06,-2.0588820461853174e-06,-2.0168640730844345e-06,-1.9748460999835515e-06,-1.9328281268826686e-06,-1.890810040094948e-06,-1.848792066994065e-06,-1.806774093893182e-06,-1.7647560071054613e-06,-1.7227380340045784e-06,-1.6807200609036954e-06,-1.6387020878028125e-06,-1.5966841147019295e-06,-1.5546660279142088e-06,-1.5126480548133259e-06,-1.470630081712443e-06,-1.4286119949247222e-06,-1.3865940218238393e-06,-1.3445760487229563e-06,-1.3025580756220734e-06,-1.2605401025211904e-06,-1.2185220157334697e-06,-1.1765040426325868e-06,-1.1344860695317038e-06,-1.0924679827439832e-06,-1.0504500096431002e-06,-1.0084320365422172e-06,-9.664140634413343e-07,-9.243960334970325e-07,-8.823780035527307e-07,-8.403600304518477e-07,-7.983420573509648e-07,-7.563240274066629e-07,-7.143059974623611e-07,-6.722880243614782e-07,-6.302700512605952e-07,-5.882520213162934e-07,-5.462339913719916e-07,-5.042160182711086e-07,-4.6219801674851624e-07,-4.2018001522592385e-07,-3.7816201370333147e-07,-3.361440121807391e-07,-2.941260106581467e-07,-2.521080091355543e-07,-2.1009000761296193e-07,-1.6807200609036954e-07,-1.2605400456777716e-07,-8.403600304518477e-08,-4.2018001522592385e-08,0],"_type":"histogram","values":[2,1,2,1,0,0,2,1,1,2,0,1,1,0,0,0,0,0,2,0,0,1,0,3,0,2,1,1,2,0,1,0,1,0,0,0,0,1,2,1,2,0,1,1,1,1,0,1,0,0,0,1,1,3,0,1,2,1,1,1,0,0,0,50]}}