{"gradients/features.7.bias":{"bins":[-9.622294280808852e-19,-8.735027268559972e-19,-7.847760256311093e-19,-6.960493244062213e-19,-6.073226231813333e-19,-5.185959219564454e-19,-4.298692207315574e-19,-3.4114251950666946e-19,-2.524158182817815e-19,-1.6368911705689354e-19,-7.496241583200558e-20,1.376428539288238e-20,1.0249098661777034e-19,1.912176878426583e-19,2.7994438906754626e-19,3.686710902924342e-19,4.573977915173222e-19,5.461244927422101e-19,6.348511939670981e-19,7.235778951919861e-19,8.12304596416874e-19,9.01031297641762e-19,9.8975799886665e-19,1.078484700091538e-18,1.1672114013164259e-18,1.2559381025413138e-18,1.3446648037662018e-18,1.4333915049910897e-18,1.5221182062159777e-18,1.6108449074408657e-18,1.6995716086657536e-18,1.7882983098906416e-18,1.8770250111155296e-18,1.9657517123404175e-18,2.0544784135653055e-18,2.1432051147901934e-18,2.2319318160150814e-18,2.3206585172399694e-18,2.4093852184648573e-18,2.4981119196897453e-18,2.5868386209146332e-18,2.6755653221395212e-18,2.764292023364409e-18,2.853018724589297e-18,2.941745425814185e-18,3.030472127039073e-18,3.119198828263961e-18,3.207925529488849e-18,3.296652230713737e-18,3.385378931938625e-18,3.474105633163513e-18,3.562832334388401e-18,3.651559035613289e-18,3.740285736838177e-18,3.829012438063065e-18,3.917739139287953e-18,4.0064658405128406e-18,4.0951925417377286e-18,4.1839192429626165e-18,4.2726459441875045e-18,4.3613726454123924e-18,4.4500993466372804e-18,4.538826047862168e-18,4.627552749087056e-18,4.716279450311944e-18],"_type":"histogram","values":[1,0,1,2,1,0,0,1,1,0,1,0,1,1,5,1,2,2,1,0,0,4,1,0,1,0,0,0,3,1,0,0,0,0,0,0,0,0,0,0,0,0,0,0,0,0,0,0,0,0,0,0,0,0,0,0,0,0,0,0,0,0,0,1]},"best validation loss":16.846906334369123,"train loss":1.831562186594901e-08,"_timestamp":1.765942367441141e+09,"gradients/features.7.weight":{"bins":[-8.185248485947927e-12,-7.817869615567297e-12,-7.450491612548404e-12,-7.083113175848643e-12,-6.715734739148882e-12,-6.348356302449121e-12,-5.9809778657493595e-12,-5.613599429049598e-12,-5.246220992349837e-12,-4.878842555650076e-12,-4.511464118950315e-12,-4.1440856822505534e-12,-3.776707245550792e-12,-3.409328808851031e-12,-3.0419503721512697e-12,-2.6745719354515085e-12,-2.3071934987517473e-12,-1.939815062051986e-12,-1.5724366253522248e-12,-1.2050581886524636e-12,-8.376797519527024e-13,-4.703013152529412e-13,-1.0292287855317994e-13,2.644555581465813e-13,6.318339948463425e-13,9.992124315461037e-13,1.366590868245865e-12,1.7339693049456262e-12,2.1013477416453874e-12,2.4687261783451486e-12,2.83610461504491e-12,3.203483051744671e-12,3.5708606210826943e-12,3.9382390577824555e-12,4.305617494482217e-12,4.672995931181978e-12,5.040374367881739e-12,5.4077528045815004e-12,5.775131241281262e-12,6.142509677981023e-12,6.509888114680784e-12,6.877266551380545e-12,7.2446449880803065e-12,7.612023858460937e-12,7.979401861479829e-12,8.346779864498721e-12,8.714158734879351e-12,9.081537605259982e-12,9.448915608278874e-12,9.816293611297766e-12,1.0183672481678396e-11,1.0551051352059027e-11,1.0918429355077919e-11,1.1285807358096811e-11,1.1653186228477441e-11,1.2020565098858071e-11,1.2387943101876964e-11,1.2755321104895856e-11,1.3122699975276486e-11,1.3490078845657116e-11,1.3857456848676009e-11,1.42248348516949e-11,1.4592212854713793e-11,1.495959259245616e-11,1.5326970595475053e-11],"_type":"histogram","values":[2,3,5,12,18,20,33,45,49,73,87,113,178,247,387,546,835,1091,1334,1659,1756,1964,1981,1977,1764,1740,1725,1429,1151,985,759,669,569,444,315,286,257,202,154,139,128,83,90,63,56,45,35,23,8,17,12,11,11,11,12,10,9,7,5,3,2,2,1,1]},"gradients/classifier.1.bias":{"bins":[-1.4138958016537972e-12,-1.3918036645063636e-12,-1.36971152735893e-12,-1.3476193902114963e-12,-1.32552736148428e-12,-1.3034352243368463e-12,-1.2813430871894127e-12,-1.259250950041979e-12,-1.2371588128945454e-12,-1.2150666757471118e-12,-1.1929745385996782e-12,-1.1708825098724618e-12,-1.1487903727250282e-12,-1.1266982355775945e-12,-1.1046060984301609e-12,-1.0825139612827273e-12,-1.0604218241352936e-12,-1.03832968698786e-12,-1.0162376582606436e-12,-9.9414552111321e-13,-9.720533839657763e-13,-9.499612468183427e-13,-9.27869109670909e-13,-9.057769725234754e-13,-8.836848895861504e-13,-8.615927524387168e-13,-8.395006152912832e-13,-8.174085323539582e-13,-7.953163952065245e-13,-7.732242580590909e-13,-7.511321209116573e-13,-7.290400379743323e-13,-7.069479008268986e-13,-6.84855763679465e-13,-6.6276368074214e-13,-6.406715435947063e-13,-6.185794064472727e-13,-5.964872692998391e-13,-5.743951863625141e-13,-5.523030492150804e-13,-5.302109120676468e-13,-5.081188291303218e-13,-4.860266919828882e-13,-4.639345548354545e-13,-4.418424447930752e-13,-4.197503076456416e-13,-3.9765819760326226e-13,-3.7556606045582863e-13,-3.534739504134493e-13,-3.3138184037107e-13,-3.0928970322363636e-13,-2.8719759318125704e-13,-2.651054560338234e-13,-2.430133459914441e-13,-2.209212223965376e-13,-1.9882909880163113e-13,-1.7673697520672466e-13,-1.5464485161181818e-13,-1.325527280169117e-13,-1.104606111982688e-13,-8.836848760336233e-14,-6.627636400845585e-14,-4.4184243801681164e-14,-2.2092121900840582e-14,0],"_type":"histogram","values":[1,0,0,0,0,0,0,0,0,1,0,0,1,0,0,1,3,1,0,2,1,1,1,1,0,0,0,1,1,0,1,0,2,1,2,3,1,0,1,1,0,0,1,0,4,1,1,0,3,0,1,0,0,0,3,2,0,1,3,1,1,0,0,50]},"gradients/features.10.bias":{"_type":"histogram","values":[1,0,0,0,0,0,0,0,0,0,0,0,0,0,0,0,0,0,0,0,0,1,0,0,0,0,0,0,0,0,1,0,1,0,3,1,1,4,1,1,0,0,0,0,0,0,0,0,0,0,0,0,0,0,0,0,0,0,0,0,0,0,0,1],"bins":[-2.1054814142162925e-11,-2.0725832508561304e-11,-2.0396850874959682e-11,-2.006786924135806e-11,-1.973888760775644e-11,-1.9409905974154817e-11,-1.9080926075276672e-11,-1.875194444167505e-11,-1.842296280807343e-11,-1.8093981174471807e-11,-1.7764999540870186e-11,-1.7436017907268564e-11,-1.7107036273666942e-11,-1.677805464006532e-11,-1.64490730064637e-11,-1.6120091372862078e-11,-1.5791111473983932e-11,-1.546212984038231e-11,-1.513314820678069e-11,-1.4804166573179067e-11,-1.4475184939577446e-11,-1.4146203305975824e-11,-1.3817221672374203e-11,-1.3488240038772581e-11,-1.315925840517096e-11,-1.2830277638931076e-11,-1.2501296005329454e-11,-1.2172314371727833e-11,-1.1843332738126211e-11,-1.151435110452459e-11,-1.1185370338284706e-11,-1.0856388704683084e-11,-1.0527407071081463e-11,-1.0198425437479841e-11,-9.86944380387822e-12,-9.540463037638336e-12,-9.211481404036714e-12,-8.882499770435093e-12,-8.553518136833471e-12,-8.22453650323185e-12,-7.895555736991966e-12,-7.566574103390344e-12,-7.237592469788723e-12,-6.908610836187101e-12,-6.57962920258548e-12,-6.250648002664727e-12,-5.9216663690631055e-12,-5.592685169142353e-12,-5.263703535540731e-12,-4.93472190193911e-12,-4.605740702018357e-12,-4.2767590684167356e-12,-3.947777868495983e-12,-3.6187962348943614e-12,-3.28981460129274e-12,-2.9608331845315528e-12,-2.6318517677703657e-12,-2.3028703510091786e-12,-1.9738889342479915e-12,-1.64490730064637e-12,-1.3159258838851828e-12,-9.869444671239958e-13,-6.579629419425914e-13,-3.289814709712957e-13,0]},"gradients/features.10.weight":{"values":[2,2,1,0,3,0,0,2,2,5,11,13,10,6,9,7,10,17,19,19,11,13,12,12,8,9,10,12,19,25,21,19,21,29,43,50,67,67,94,144,178,236,309,345,354,375,353,279,228,225,231,231,242,192,223,336,438,491,640,499,452,812,1693,3638],"bins":[-3.0034124492983594e-11,-2.9564451581309825e-11,-2.9094775200189105e-11,-2.8625102288515336e-11,-2.815542764211809e-11,-2.7685752995720847e-11,-2.7216078349323602e-11,-2.6746403702926358e-11,-2.627673079125259e-11,-2.5807056144855345e-11,-2.53373814984581e-11,-2.4867706852060856e-11,-2.439803220566361e-11,-2.3928357559266367e-11,-2.3458684647592598e-11,-2.2989010001195354e-11,-2.251933535479811e-11,-2.2049660708400864e-11,-2.157998606200362e-11,-2.111031315032985e-11,-2.0640638503932607e-11,-2.0170963857535362e-11,-1.9701289211138118e-11,-1.9231614564740873e-11,-1.876193991834363e-11,-1.829226700666986e-11,-1.7822592360272616e-11,-1.735291771387537e-11,-1.6883243067478126e-11,-1.6413568421080882e-11,-1.5943895509407113e-11,-1.547422086300987e-11,-1.5004546216612624e-11,-1.4534872437577118e-11,-1.4065197791179873e-11,-1.3595523144782629e-11,-1.3125849365747122e-11,-1.2656174719349877e-11,-1.2186500072952633e-11,-1.1716826293917126e-11,-1.1247151647519882e-11,-1.0777477868484375e-11,-1.030780322208713e-11,-9.838128575689886e-12,-9.36845479665438e-12,-8.898780150257135e-12,-8.42910550385989e-12,-7.959431724824384e-12,-7.48975707842714e-12,-7.020082865710764e-12,-6.550408652994388e-12,-6.080734440278013e-12,-5.611059793880768e-12,-5.141385581164393e-12,-4.671711368448017e-12,-4.202037155731642e-12,-3.732362509334397e-12,-3.2626882966180215e-12,-2.793014083901646e-12,-2.323339654344836e-12,-1.8536654416284604e-12,-1.3839911204918676e-12,-9.143167993552748e-13,-4.4464245111362766e-13,2.5031875105162825e-14],"_type":"histogram"},"_runtime":163,"gradients/features.8.bias":{"_type":"histogram","values":[1,0,0,0,1,0,0,0,0,0,0,1,0,1,0,1,0,0,1,1,1,1,0,1,0,1,3,1,2,0,1,0,4,1,0,0,0,2,1,2,2,0,0,1,0,0,0,0,0,0,0,0,0,0,0,0,0,0,0,0,0,0,0,1],"bins":[-1.692638910977262e-11,-1.6671644967325427e-11,-1.6416900824878233e-11,-1.616215668243104e-11,-1.590741427470732e-11,-1.5652670132260127e-11,-1.5397925989812933e-11,-1.514318184736574e-11,-1.4888437704918545e-11,-1.463369356247135e-11,-1.4378950287385894e-11,-1.41242061449387e-11,-1.3869462869853244e-11,-1.361471872740605e-11,-1.3359974584958856e-11,-1.31052313098734e-11,-1.2850487167426206e-11,-1.2595743024979011e-11,-1.2340999749893555e-11,-1.2086255607446361e-11,-1.1831511464999167e-11,-1.1576768189913711e-11,-1.1322024047466517e-11,-1.1067279905019323e-11,-1.0812536629933867e-11,-1.0557792487486672e-11,-1.0303048345039478e-11,-1.0048304202592284e-11,-9.793560927506828e-12,-9.538816785059634e-12,-9.28407264261244e-12,-9.029329367526984e-12,-8.774586092441528e-12,-8.519841949994333e-12,-8.265098674908877e-12,-8.010354532461683e-12,-7.755610390014489e-12,-7.500866247567295e-12,-7.246122972481839e-12,-6.991378830034645e-12,-6.7366351212683195e-12,-6.4818909788211254e-12,-6.2271472700548e-12,-5.972403561288475e-12,-5.717659418841281e-12,-5.462915710074956e-12,-5.208171567627762e-12,-4.953427858861437e-12,-4.6986841500951115e-12,-4.4439400076479174e-12,-4.189196298881592e-12,-3.934452590115267e-12,-3.679708447668073e-12,-3.424964738901748e-12,-3.1702208132949883e-12,-2.9154768876882287e-12,-2.6607331789219035e-12,-2.405989253315144e-12,-2.1512453277083843e-12,-1.8965014021016247e-12,-1.6417575849150823e-12,-1.38701376772854e-12,-1.1322698421217803e-12,-8.775259707251293e-13,-6.227820993284783e-13]},"validation loss":30.69011473659296,"_wandb":{"runtime":163},"validation precision":0,"gradients/features.0.weight":{"bins":[-1.2675901994718686e-11,-1.2124417789194375e-11,-1.1572933583670064e-11,-1.1021449378145753e-11,-1.0469965172621443e-11,-9.918480099735394e-12,-9.366995894211083e-12,-8.815511688686772e-12,-8.264027483162462e-12,-7.712543277638151e-12,-7.16105907211384e-12,-6.60957443290866e-12,-6.0580902273843495e-12,-5.506606021860039e-12,-4.955121382654859e-12,-4.403637177130548e-12,-3.8521529716062375e-12,-3.3006687660819267e-12,-2.7491843437171815e-12,-2.197699921352436e-12,-1.6462157158281254e-12,-1.0947314018835974e-12,-5.432470879390694e-13,8.23722600545862e-15,5.597215399499866e-13,1.1112058538945147e-12,1.6626901678390427e-12,2.214174590203788e-12,2.7656587957280987e-12,3.3171430012524095e-12,3.868627640457589e-12,4.4201118459819e-12,4.971596051506211e-12,5.5230802570305215e-12,6.074564462554832e-12,6.626049101760012e-12,7.177533307284323e-12,7.729017946489503e-12,8.280502152013813e-12,8.831986357538124e-12,9.383470563062435e-12,9.934954768586746e-12,1.0486438974111056e-11,1.1037923179635367e-11,1.1589408252521416e-11,1.2140892458045727e-11,1.2692376663570037e-11,1.3243860869094348e-11,1.3795345074618659e-11,1.434682928014297e-11,1.489831348566728e-11,1.544979769119159e-11,1.6001281896715902e-11,1.6552766102240213e-11,1.7104250307764524e-11,1.7655734513288834e-11,1.820722045353662e-11,1.8758704659060932e-11,1.9310188864585243e-11,1.9861673070109553e-11,2.0413157275633864e-11,2.0964641481158175e-11,2.1516125686682486e-11,2.2067609892206796e-11,2.2619094097731107e-11],"_type":"histogram","values":[9,18,22,17,6,11,11,16,10,3,6,2,3,8,2,1,27,22,32,28,26,51,81,104,81,122,111,79,29,6,8,10,7,3,4,2,5,4,3,1,1,0,0,0,2,0,2,3,4,2,3,0,0,0,0,0,0,1,1,2,1,2,6,3]},"gradients/classifier.3.weight":{"values":[50,0,0,0,0,0,0,0,0,0,0,0,0,0,0,0,0,0,0,0,0,0,0,0,0,0,1,0,2,6,4,7,7,7,6,5,2,0,0,0,0,0,0,0,0,0,0,0,0,0,0,0,0,0,0,0,1,0,0,0,1,0,0,1],"bins":[0,2.8341244281970823e-12,5.668248856394165e-12,8.502373284591247e-12,1.133649771278833e-11,1.4170622140985412e-11,1.7004746569182494e-11,1.9838870130017838e-11,2.267299542557666e-11,2.550712072113548e-11,2.8341244281970823e-11,3.117536784280617e-11,3.400949313836499e-11,3.684361843392381e-11,3.9677740260035677e-11,4.25118655555945e-11,4.534599085115332e-11,4.818011614671214e-11,5.101424144227096e-11,5.3848363268382826e-11,5.6682488563941646e-11,5.951661385950047e-11,6.235073568561234e-11,6.518486445061811e-11,6.801898627672998e-11,7.085310810284184e-11,7.368723686784762e-11,7.652135869395948e-11,7.935548052007135e-11,8.218960928507713e-11,8.5023731111189e-11,8.785785987619477e-11,9.069198170230663e-11,9.35261035284185e-11,9.636023229342427e-11,9.919435411953614e-11,1.0202848288454192e-10,1.0486260471065378e-10,1.0769672653676565e-10,1.1053085530177142e-10,1.1336497712788329e-10,1.1619909895399516e-10,1.1903322771900093e-10,1.218673495451128e-10,1.2470147137122467e-10,1.2753559319733654e-10,1.3036972890123621e-10,1.3320385072734808e-10,1.3603797255345995e-10,1.3887209437957182e-10,1.417062162056837e-10,1.4454035190958336e-10,1.4737447373569523e-10,1.502085955618071e-10,1.5304271738791897e-10,1.5587683921403084e-10,1.587109610401427e-10,1.6154509674404238e-10,1.6437921857015425e-10,1.6721334039626612e-10,1.70047462222378e-10,1.7288158404848986e-10,1.7571571975238953e-10,1.785498415785014e-10,1.8138396340461327e-10],"_type":"histogram"},"gradients/features.8.weight":{"bins":[-1.4493009223293107e-11,-1.4270582979203361e-11,-1.4048155867751877e-11,-1.382572962366213e-11,-1.3603302512210647e-11,-1.33808762681209e-11,-1.3158450024031154e-11,-1.293602291257967e-11,-1.2713596668489924e-11,-1.2491170424400178e-11,-1.2268743312948693e-11,-1.2046317068858947e-11,-1.1823890824769201e-11,-1.1601463713317717e-11,-1.137903746922797e-11,-1.1156610357776486e-11,-1.093418411368674e-11,-1.0711757869596994e-11,-1.048933075814551e-11,-1.0266904514055764e-11,-1.004447740260428e-11,-9.822051158514533e-12,-9.599624914424787e-12,-9.377197802973303e-12,-9.154771558883557e-12,-8.93234531479381e-12,-8.709918203342326e-12,-8.48749195925258e-12,-8.265065715162834e-12,-8.04263860371135e-12,-7.820212359621603e-12,-7.597785248170119e-12,-7.375359004080373e-12,-7.152931892628889e-12,-6.9305056485391425e-12,-6.708078970768527e-12,-6.485652292997912e-12,-6.263225615227297e-12,-6.040799371137551e-12,-5.8183726933669355e-12,-5.59594601559632e-12,-5.373519337825705e-12,-5.151093093735959e-12,-4.928666415965344e-12,-4.7062397381947285e-12,-4.483813060424113e-12,-4.261386816334367e-12,-4.038960138563752e-12,-3.816533460793137e-12,-3.594106999862956e-12,-3.371680322092341e-12,-3.14925386116216e-12,-2.926827183391545e-12,-2.7044007224613642e-12,-2.481974044690749e-12,-2.2595475837605683e-12,-2.037120905989953e-12,-1.8146943366395552e-12,-1.5922677672891572e-12,-1.3698411979387592e-12,-1.1474146285883613e-12,-9.249880592379633e-13,-7.025614898875654e-13,-4.801349205371674e-13,-2.577083782918238e-13],"_type":"histogram","values":[1,0,1,0,0,0,0,1,0,0,1,1,0,1,1,0,0,0,1,2,0,1,2,3,0,0,0,0,0,1,1,2,0,1,1,1,1,2,1,1,0,1,0,1,1,0,0,0,0,0,0,0,0,0,0,0,0,0,0,0,0,0,0,1]},"gradients/features.3.weight":{"values":[29,14,5,19,39,74,112,88,147,305,543,1073,2024,3468,5731,6019,3571,2135,1420,964,743,511,379,459,344,244,244,256,228,200,144,113,93,98,97,95,51,60,39,56,63,47,51,19,28,17,33,32,21,16,16,8,23,16,20,20,18,19,21,19,18,7,1,1],"bins":[-7.229105335182506e-12,-6.750116091081004e-12,-6.271126413298633e-12,-5.792137169197131e-12,-5.31314749141476e-12,-4.834158247313258e-12,-4.355169003211756e-12,-3.876179325429385e-12,-3.3971900813278832e-12,-2.9182006203859467e-12,-2.4392111594440102e-12,-1.9602219153425082e-12,-1.4812324544005717e-12,-1.0022429934586352e-12,-5.23253640936916e-13,-4.426423420508807e-14,4.347251725267398e-13,9.137146334686763e-13,1.3927039859903956e-12,1.871693338512115e-12,2.3506827994540513e-12,2.829672260395988e-12,3.30866150449749e-12,3.787651182279861e-12,4.266640426381363e-12,4.745629670482865e-12,5.224619348265236e-12,5.703608592366738e-12,6.18259783646824e-12,6.661587514250611e-12,7.140576758352113e-12,7.619566436134484e-12,8.098556547597724e-12,8.577545791699226e-12,9.056535035800728e-12,9.535525147263968e-12,1.001451439136547e-11,1.0493503635466972e-11,1.0972492879568474e-11,1.1451482123669976e-11,1.1930472235133216e-11,1.2409461479234718e-11,1.288845072333622e-11,1.3367439967437722e-11,1.3846429211539224e-11,1.4325418455640726e-11,1.4804407699742228e-11,1.5283397811205468e-11,1.5762387922668708e-11,1.6241376299408472e-11,1.6720366410871712e-11,1.7199354787611476e-11,1.7678344899074716e-11,1.815733327581448e-11,1.863632338727772e-11,1.911531349874096e-11,1.9594301875480724e-11,2.0073291986943964e-11,2.0552280363683728e-11,2.1031270475146968e-11,2.1510260586610208e-11,2.1989248963349972e-11,2.2468239074813212e-11,2.2947227451552976e-11,2.3426217563016216e-11],"_type":"histogram"},"gradients/features.3.bias":{"bins":[-1.5720931501039814e-18,-1.5315414477541818e-18,-1.4909897454043822e-18,-1.4504380430545825e-18,-1.409886340704783e-18,-1.3693346383549833e-18,-1.3287829360051837e-18,-1.288231233655384e-18,-1.2476795313055844e-18,-1.2071278289557848e-18,-1.1665761266059851e-18,-1.1260244242561855e-18,-1.0854727219063859e-18,-1.0449210195565863e-18,-1.0043693172067866e-18,-9.63817614856987e-19,-9.232659125071874e-19,-8.827142101573877e-19,-8.421625078075881e-19,-8.016108054577885e-19,-7.610591031079889e-19,-7.205074007581892e-19,-6.799556984083896e-19,-6.3940399605859e-19,-5.988522937087903e-19,-5.583005913589907e-19,-5.177488890091911e-19,-4.771971866593915e-19,-4.366454843095918e-19,-3.960937819597922e-19,-3.5554207960999257e-19,-3.1499037726019294e-19,-2.744386749103933e-19,-2.338869725605937e-19,-1.9333527021079405e-19,-1.5278356786099442e-19,-1.122318655111948e-19,-7.168016316139517e-20,-3.112846081159554e-20,9.423241538204091e-21,4.997494388800372e-20,9.052664623780335e-20,1.3107834858760298e-19,1.716300509374026e-19,2.1218175328720223e-19,2.5273345563700186e-19,2.932851579868015e-19,3.338368603366011e-19,3.7438856268640075e-19,4.149402650362004e-19,4.55491967386e-19,4.960436697357996e-19,5.365953720855993e-19,5.771470744353989e-19,6.176987767851985e-19,6.5825047913499815e-19,6.988021814847978e-19,7.393538838345974e-19,7.79905586184397e-19,8.204572885341967e-19,8.610089908839963e-19,9.01560693233796e-19,9.421123955835956e-19,9.826640979333952e-19,1.0232158002831948e-18],"_type":"histogram","values":[1,0,0,0,0,0,0,0,0,0,0,0,0,0,1,0,0,0,0,0,1,3,0,0,0,1,0,0,0,0,0,1,1,0,1,0,2,2,2,2,1,0,2,0,1,1,3,1,3,0,0,0,0,0,1,0,0,0,0,0,0,0,0,1]},"gradients/features.4.bias":{"_type":"histogram","values":[1,0,0,0,0,0,0,0,0,0,0,1,0,0,0,0,1,2,0,0,0,0,0,0,1,0,1,1,0,2,0,0,0,1,0,0,1,1,1,0,5,1,2,0,2,0,1,0,0,0,0,2,0,2,0,1,0,0,0,0,0,1,0,1],"bins":[-5.97107779887196e-12,-5.85713378839503e-12,-5.743189777918101e-12,-5.629245767441171e-12,-5.5153017569642415e-12,-5.401357746487312e-12,-5.287413736010382e-12,-5.173469725533453e-12,-5.059525715056523e-12,-4.9455821382604626e-12,-4.831638127783533e-12,-4.717694117306603e-12,-4.603750106829674e-12,-4.489806096352744e-12,-4.375862085875815e-12,-4.261918075398885e-12,-4.1479740649219554e-12,-4.034030054445026e-12,-3.920086043968096e-12,-3.806142033491167e-12,-3.692198023014237e-12,-3.578254229377742e-12,-3.4643102189008124e-12,-3.3503662084238828e-12,-3.236422197946953e-12,-3.1224781874700236e-12,-3.008534176993094e-12,-2.8945901665161644e-12,-2.7806463728796693e-12,-2.6667023624027397e-12,-2.55275835192581e-12,-2.4388143414488805e-12,-2.324869897291082e-12,-2.210926103654587e-12,-2.0969820931776573e-12,-1.9830380827007277e-12,-1.869094072223798e-12,-1.7551500617468685e-12,-1.641206051269939e-12,-1.5272621492132266e-12,-1.413318138736297e-12,-1.2993741282593674e-12,-1.185430226202655e-12,-1.0714862157257254e-12,-9.575422052487959e-13,-8.435981947718663e-13,-7.296542385050453e-13,-6.157102822382243e-13,-5.017662717612947e-13,-3.8782228838941946e-13,-2.738783050175442e-13,-1.599343216456689e-13,-4.599033827379362e-14,6.795364509808166e-14,1.8189762846995694e-13,2.958416118418322e-13,4.097855952137075e-13,5.237296056906371e-13,6.376735619574581e-13,7.51617518224279e-13,8.655615287012086e-13,9.795055391781382e-13,1.0934495496550678e-12,1.2073934517117801e-12,1.3213374621887097e-12]},"gradients/features.1.bias":{"values":[1,1,0,0,0,0,0,0,1,0,0,1,0,1,0,0,0,0,1,2,1,0,0,0,2,0,1,0,0,0,1,1,0,0,0,0,0,0,0,1,0,0,0,0,0,0,0,0,0,0,0,0,0,0,0,0,0,0,0,0,0,0,0,1],"bins":[-3.773488466141117e-12,-3.67345780530326e-12,-3.573427144465402e-12,-3.4733964836275444e-12,-3.3733658227896868e-12,-3.273335161951829e-12,-3.1733045011139716e-12,-3.073273840276114e-12,-2.9732431794382563e-12,-2.8732125186003987e-12,-2.773181857762541e-12,-2.6731511969246835e-12,-2.573120536086826e-12,-2.4730898752489683e-12,-2.3730592144111107e-12,-2.273028553573253e-12,-2.1729978927353955e-12,-2.0729674487379723e-12,-1.9729367879001147e-12,-1.872906127062257e-12,-1.7728753578041823e-12,-1.6728446969663247e-12,-1.572814036128467e-12,-1.4727833752906094e-12,-1.372752822872969e-12,-1.2727221620351115e-12,-1.1726915011972538e-12,-1.0726608403593962e-12,-9.726301795215386e-13,-8.72599518683681e-13,-7.725688578458234e-13,-6.725381970079658e-13,-5.725075361701082e-13,-4.724768753322506e-13,-3.7244621449439297e-13,-2.7241558076158967e-13,-1.7238491992373206e-13,-7.235426586213803e-14,2.7676388199456003e-14,1.2770703548478646e-13,2.2773769632264407e-13,3.277683571605017e-13,4.277990179983593e-13,5.278296788362169e-13,6.278602854639659e-13,7.278909463018235e-13,8.279216071396811e-13,9.279522679775387e-13,1.0279829288153963e-12,1.128013589653254e-12,1.2280442504911115e-12,1.3280749113289692e-12,1.4281055721668268e-12,1.5281362330046844e-12,1.628166893842542e-12,1.7281975546803996e-12,1.82822810709804e-12,1.9282587679358976e-12,2.028289428773755e-12,2.1283200896116128e-12,2.2283507504494704e-12,2.328381411287328e-12,2.4284120721251856e-12,2.5284427329630432e-12,2.628473393800901e-12],"_type":"histogram"},"gradients/classifier.3.bias":{"_type":"histogram","values":[1],"bins":[1.1146753658985986e-11,1.1146753658985986e-11]},"gradients/features.1.weight":{"_type":"histogram","values":[2,0,1,0,1,0,0,1,0,0,1,0,0,1,0,0,2,1,0,0,0,1,0,0,0,0,0,0,0,0,0,0,0,0,0,1,0,0,0,0,1,0,0,0,0,0,0,0,1,0,0,0,0,1,0,0,0,0,0,0,0,0,0,1],"bins":[-2.277235691683366e-12,-2.1734079379970295e-12,-2.0695804011511276e-12,-1.9657526474647913e-12,-1.861924893778455e-12,-1.7580972485123358e-12,-1.6542694948259995e-12,-1.5504418495598804e-12,-1.446614095873544e-12,-1.342786450607425e-12,-1.2389588053413059e-12,-1.1351310516549695e-12,-1.0313034063888504e-12,-9.27475652702514e-13,-8.23648007436395e-13,-7.198203079601673e-13,-6.159926084839396e-13,-5.121649090077118e-13,-4.083372095314841e-13,-3.045095371603107e-13,-2.0068183768408299e-13,-9.685414498411885e-14,6.973547715845296e-15,1.1080124041580944e-13,2.1462893311577358e-13,3.184566325920013e-13,4.22284332068229e-13,5.261120315444567e-13,6.299396768105758e-13,7.337673762868036e-13,8.375950757630313e-13,9.414228294493676e-13,1.0452504747154867e-12,1.1490781199816058e-12,1.2529058736679421e-12,1.3567335189340612e-12,1.4605612726203976e-12,1.5643889178865167e-12,1.668216671572853e-12,1.7720443168389721e-12,1.8758720705253085e-12,1.9796996073712103e-12,2.0835273610575467e-12,2.187355114743883e-12,2.2911828684302193e-12,2.395010405276121e-12,2.4988381589624575e-12,2.602665912648794e-12,2.7064934494946957e-12,2.810321203181032e-12,2.9141489568673684e-12,3.0179767105537048e-12,3.1218042473996066e-12,3.225632001085943e-12,3.3294597547722793e-12,3.4332875084586156e-12,3.5371150453045175e-12,3.640942582150419e-12,3.74477055267719e-12,3.848598089523092e-12,3.952426060049863e-12,4.056253596895765e-12,4.1600811337416665e-12,4.263909104268437e-12,4.367736641114339e-12]},"gradients/features.4.weight":{"_type":"histogram","values":[1,0,0,1,2,1,0,0,2,0,0,3,1,2,1,0,0,1,3,0,2,0,0,1,0,0,0,0,0,2,0,0,0,0,0,1,1,1,0,0,1,0,1,1,0,0,2,0,0,0,0,0,0,0,0,0,0,0,0,0,0,0,0,1],"bins":[-3.400786163093583e-12,-3.2476736144121388e-12,-3.0945610657306943e-12,-2.94144851704925e-12,-2.7883359683678055e-12,-2.6352232028459266e-12,-2.482110654164482e-12,-2.3289981054830378e-12,-2.1758855568015933e-12,-2.022773008120149e-12,-1.8696604594387045e-12,-1.7165478023370428e-12,-1.5634352536555984e-12,-1.410322704974154e-12,-1.2572100478724924e-12,-1.104097499191048e-12,-9.509849505096035e-13,-7.978724018281591e-13,-6.447597989366061e-13,-4.91647196045053e-13,-3.385346473636086e-13,-1.8542207157710988e-13,-3.2309495790611154e-14,1.2080307999588757e-13,2.739156557823863e-13,4.2702823156888503e-13,5.801408073553838e-13,7.332534102469368e-13,8.863659589283812e-13,1.0394785076098256e-12,1.1925911647114873e-12,1.3457037133929317e-12,1.4988162620743761e-12,1.6519288107558205e-12,1.805041359437265e-12,1.9581539081187094e-12,2.1112664568001538e-12,2.2643792223220327e-12,2.417491771003477e-12,2.5706043196849215e-12,2.723716868366366e-12,2.8768294170478104e-12,3.0299419657292548e-12,3.183054514410699e-12,3.336167279932578e-12,3.4892798286140225e-12,3.642392377295467e-12,3.795504709136477e-12,3.948617474658356e-12,4.101730240180235e-12,4.254842572021245e-12,4.4079553375431235e-12,4.5610676693841334e-12,4.714180434906012e-12,4.867292766747022e-12,5.020405532268901e-12,5.173517864109911e-12,5.32663062963179e-12,5.479743395153669e-12,5.632855726994679e-12,5.785968492516558e-12,5.939080824357568e-12,6.0921935898794466e-12,6.2453059217204565e-12,6.3984186872423354e-12]},"gradients/features.0.bias":{"bins":[-6.418476861114186e-17,-6.150136823424024e-17,-5.881796785733862e-17,-5.613456748043699e-17,-5.345116710353537e-17,-5.0767766726633745e-17,-4.808436634973212e-17,-4.54009659728305e-17,-4.2717565595928875e-17,-4.003416521902725e-17,-3.735076484212563e-17,-3.4667364465224004e-17,-3.198396408832238e-17,-2.930056371142076e-17,-2.6617163334519134e-17,-2.393376295761751e-17,-2.1250362580715887e-17,-1.8566962203814263e-17,-1.588356182691264e-17,-1.3200161450011016e-17,-1.0516761073109393e-17,-7.83336069620777e-18,-5.149960319306146e-18,-2.4665599424045226e-18,2.168404344971009e-19,2.9002408113987244e-18,5.583641188300348e-18,8.267041565201971e-18,1.0950441942103595e-17,1.3633842319005218e-17,1.6317242695906842e-17,1.9000643072808465e-17,2.168404344971009e-17,2.4367443826611712e-17,2.7050844203513336e-17,2.973424458041496e-17,3.241764495731658e-17,3.5101045334218206e-17,3.778444571111983e-17,4.046784608802145e-17,4.3151246464923076e-17,4.58346468418247e-17,4.8518047218726323e-17,5.1201447595627947e-17,5.388484797252957e-17,5.65682483494312e-17,5.925164872633282e-17,6.193504910323444e-17,6.461844948013606e-17,6.730184985703769e-17,6.998525023393931e-17,7.266865061084093e-17,7.535205098774256e-17,7.803545136464418e-17,8.07188517415458e-17,8.340225211844743e-17,8.608565249534905e-17,8.876905287225068e-17,9.14524532491523e-17,9.413585362605392e-17,9.681925400295555e-17,9.950265437985717e-17,1.0218605475675879e-16,1.0486945513366042e-16,1.0755285551056204e-16],"_type":"histogram","values":[1,0,0,0,0,0,0,0,0,0,0,0,0,2,0,0,1,0,0,0,0,2,0,1,1,1,0,1,0,2,0,0,0,0,0,0,0,0,0,2,0,0,0,0,0,0,0,0,0,0,0,0,0,0,0,0,0,0,0,0,1,0,0,1]},"validation recall":0,"validation accuracy":0.8863636363636364,"_step":21,"gradients/classifier.1.weight":{"values":[3,14,9,26,19,3,5,3,12,7,15,16,32,23,16,33,53,73,104,159,135,144,226,191,184,169,191,185,198,279,324,492,669,874,1020,1236,1333,1404,1270,1317,1387,1400,1675,1981,2385,2719,2762,2827,2423,2657,2643,3076,3157,2986,3336,3011,2491,2842,3630,3077,4607,4039,1416,85007],"bins":[-4.422361782330242e-12,-4.353262542111658e-12,-4.284162868212205e-12,-4.2150636279936204e-12,-4.145963954094167e-12,-4.076864713875583e-12,-4.007765473656999e-12,-3.938665799757546e-12,-3.869566559538962e-12,-3.8004673193203775e-12,-3.731367645420924e-12,-3.66226840520234e-12,-3.5931689481433216e-12,-3.524069491084303e-12,-3.4549702508657187e-12,-3.3858707938067e-12,-3.3167713367476814e-12,-3.2476718796886628e-12,-3.178572422629644e-12,-3.10947318241106e-12,-3.0403737253520413e-12,-2.9712742682930227e-12,-2.9021750280744385e-12,-2.83307557101542e-12,-2.763976113956401e-12,-2.6948766568973825e-12,-2.625777199838364e-12,-2.5566779596197797e-12,-2.487578502560761e-12,-2.4184790455017424e-12,-2.3493798052831583e-12,-2.2802803482241396e-12,-2.211180891165121e-12,-2.1420814341061023e-12,-2.0729819770470836e-12,-2.0038827368284995e-12,-1.934783279769481e-12,-1.865683822710462e-12,-1.7965844740716608e-12,-1.7274851254328594e-12,-1.6583856683738407e-12,-1.589286211314822e-12,-1.5201868626760207e-12,-1.4510875140372193e-12,-1.3819880569782006e-12,-1.312888599919182e-12,-1.2437892512803805e-12,-1.1746899026415791e-12,-1.1055904455825605e-12,-1.0364909885235418e-12,-9.673916398847404e-13,-8.982922370358304e-13,-8.291928341869204e-13,-7.600934313380103e-13,-6.909940284891003e-13,-6.218946256401903e-13,-5.527952227912802e-13,-4.836958199423702e-13,-4.145964170934602e-13,-3.4549701424455015e-13,-2.763976113956401e-13,-2.072982085467301e-13,-1.3819880569782006e-13,-6.909940284891003e-14,0],"_type":"histogram"}}