{"gradients/features.8.bias":{"_type":"histogram","values":[1,0,1,1,0,0,0,0,2,1,1,1,0,0,0,0,2,2,1,0,0,0,2,2,1,1,0,0,0,1,0,1,1,1,1,0,1,0,0,0,0,0,0,1,0,1,1,0,0,0,0,0,1,0,1,0,0,0,1,0,0,0,0,1],"bins":[-0.0002901583502534777,-0.0002813392202369869,-0.00027252009022049606,-0.0002637009311001748,-0.00025488180108368397,-0.00024606267106719315,-0.00023724354105070233,-0.0002284243964822963,-0.00021960526646580547,-0.00021078613644931465,-0.0002019669918809086,-0.0001931478618644178,-0.00018432873184792697,-0.00017550958727952093,-0.0001666904572630301,-0.00015787131269462407,-0.00014905218267813325,-0.00014023305266164243,-0.0001314139080932364,-0.00012259477807674557,-0.00011377564078429714,-0.00010495650349184871,-9.613737347535789e-05,-8.731823618290946e-05,-7.849909889046103e-05,-6.96799615980126e-05,-6.086082794354297e-05,-5.204169428907335e-05,-4.322255699662492e-05,-3.4403419704176486e-05,-2.558428604970686e-05,-1.6765150576247834e-05,-7.946044206619263e-06,8.73091266839765e-07,9.692226740298793e-06,1.851136221375782e-05,2.7330497687216848e-05,3.614963497966528e-05,4.4968768634134904e-05,5.378790228860453e-05,6.260703958105296e-05,7.142617687350139e-05,8.024531416594982e-05,8.906444418244064e-05,9.788358147488907e-05,0.0001067027187673375,0.00011552184878382832,0.00012434099335223436,0.00013316012336872518,0.000141979253385216,0.00015079839795362204,0.00015961752797011286,0.0001684366725385189,0.00017725580255500972,0.00018607493257150054,0.00019489407713990659,0.0002037132071563974,0.00021253233717288822,0.00022135148174129426,0.00023017061175778508,0.0002389897417742759,0.0002478088717907667,0.000256628030911088,0.0002654471609275788,0.0002742662909440696]},"gradients/features.10.weight":{"bins":[-0.0006035793921910226,-0.0005877577350474894,-0.0005719360196962953,-0.000556114362552762,-0.0005402927054092288,-0.0005244709900580347,-0.0005086493329145014,-0.0004928276757709682,-0.0004770059895236045,-0.0004611843032762408,-0.0004453626461327076,-0.0004295409598853439,-0.0004137192736379802,-0.000397897616494447,-0.0003820759302470833,-0.0003662542731035501,-0.0003504325868561864,-0.0003346109006088227,-0.0003187892434652895,-0.0003029675572179258,-0.00028714590007439256,-0.00027132421382702887,-0.0002555025275796652,-0.00023968085588421673,-0.00022385918418876827,-0.0002080375124933198,-0.00019221584079787135,-0.00017639415455050766,-0.0001605724828550592,-0.00014475081115961075,-0.00012892912491224706,-0.0001131074532167986,-9.728583972901106e-05,-8.14641680335626e-05,-6.564248906215653e-05,-4.982081372872926e-05,-3.3999138395302e-05,-1.8177463061874732e-05,-2.355787728447467e-06,1.3465887604979798e-05,2.9287562938407063e-05,4.510923827183433e-05,6.0930913605261594e-05,7.675259257666767e-05,9.257426427211612e-05,0.00010839593596756458,0.00012421762221492827,0.00014003929391037673,0.00015586096560582519,0.00017168263730127364,0.0001875043089967221,0.0002033259952440858,0.00021914766693953425,0.0002349693386349827,0.0002507910248823464,0.0002666126820258796,0.0002824343682732433,0.000298256054520607,0.0003140777116641402,0.0003298993979115039,0.0003457210841588676,0.00036154274130240083,0.0003773644275497645,0.00039318608469329774,0.00040900777094066143],"_type":"histogram","values":[2,2,3,3,4,4,4,7,6,8,5,13,11,10,9,20,16,37,41,43,49,57,82,92,98,108,121,163,189,229,245,279,444,711,904,1170,1925,3048,1497,681,397,245,193,145,97,79,67,52,54,44,32,27,16,12,4,5,5,1,1,0,3,1,2,2]},"gradients/features.4.weight":{"_type":"histogram","values":[1,0,0,0,0,0,1,0,1,0,0,1,0,0,0,0,2,1,2,1,0,1,2,0,3,2,0,4,0,0,0,1,0,0,0,1,0,2,0,0,0,1,2,0,0,0,0,0,0,0,0,0,0,0,1,0,1,0,0,0,0,0,0,1],"bins":[-0.00019513942243065685,-0.00018803404236678034,-0.00018092866230290383,-0.00017382328223902732,-0.0001667179021751508,-0.0001596125221112743,-0.0001525071420473978,-0.00014540176198352128,-0.00013829638191964477,-0.00013119100185576826,-0.00012408562179189175,-0.00011698024172801524,-0.00010987486166413873,-0.00010276948160026222,-9.566410153638572e-05,-8.85587214725092e-05,-8.14533414086327e-05,-7.434796134475619e-05,-6.724258128087968e-05,-6.013720121700317e-05,-5.303182115312666e-05,-4.592644108925015e-05,-3.882106102537364e-05,-3.171568096149713e-05,-2.461030089762062e-05,-1.750492083374411e-05,-1.0399540769867599e-05,-3.2941607059910893e-06,3.8112193578854203e-06,1.091659942176193e-05,1.802197948563844e-05,2.512735954951495e-05,3.223272506147623e-05,3.933810512535274e-05,4.644348518922925e-05,5.354886525310576e-05,6.065424531698227e-05,6.775962538085878e-05,7.486500544473529e-05,8.19703855086118e-05,8.907576557248831e-05,9.618114563636482e-05,0.00010328652570024133,0.00011039190576411784,0.00011749728582799435,0.00012460266589187086,0.00013170804595574737,0.00013881342601962388,0.00014591880608350039,0.0001530241861473769,0.0001601295662112534,0.00016723494627512991,0.00017434032633900642,0.00018144570640288293,0.00018855108646675944,0.00019565646653063595,0.00020276184659451246,0.00020986722665838897,0.00021697260672226548,0.000224077986786142,0.0002311833668500185,0.000238288746913895,0.0002453941269777715,0.00025249950704164803,0.00025960488710552454]},"gradients/features.10.bias":{"_type":"histogram","values":[1,0,0,0,0,0,1,0,0,1,0,0,0,0,0,0,0,0,0,0,0,1,0,0,0,0,0,1,0,0,0,0,1,0,2,1,0,0,0,2,0,1,0,0,0,1,1,0,0,0,0,0,0,0,0,0,0,1,0,0,0,0,0,1],"bins":[-0.0004413552233017981,-0.0004311977536417544,-0.0004210402548778802,-0.0004108827852178365,-0.0004007252864539623,-0.0003905678167939186,-0.0003804103471338749,-0.0003702528483700007,-0.000360095378709957,-0.0003499379090499133,-0.0003397804102860391,-0.0003296229406259954,-0.0003194654709659517,-0.0003093079722020775,-0.0002991505025420338,-0.0002889930037781596,-0.0002788355341181159,-0.0002686780644580722,-0.000258520565694198,-0.0002483630960341543,-0.00023820561182219535,-0.0002280481276102364,-0.0002178906579501927,-0.00020773317373823375,-0.0001975756895262748,-0.00018741820531431586,-0.0001772607211023569,-0.0001671032514423132,-0.00015694576723035425,-0.0001467882830183953,-0.0001366308133583516,-0.00012647332914639264,-0.0001163158449344337,-0.00010615836072247475,-9.600088378647342e-05,-8.584340685047209e-05,-7.568592263851315e-05,-6.55284384265542e-05,-5.537096149055287e-05,-4.5213480916572735e-05,-3.50560003425926e-05,-2.489851976861246e-05,-1.4741039194632322e-05,-4.583558620652184e-06,5.573921953327954e-06,1.573140252730809e-05,2.588888310128823e-05,3.604636367526837e-05,4.6203844249248505e-05,5.636132482322864e-05,6.651880539720878e-05,7.667628233321011e-05,8.683376654516906e-05,9.6991250757128e-05,0.00010714872769312933,0.00011730620462913066,0.0001274636888410896,0.00013762117305304855,0.0001477786572650075,0.0001579361269250512,0.00016809361113701016,0.0001782510953489691,0.00018840856500901282,0.00019856604922097176,0.0002087235334329307]},"gradients/features.3.bias":{"_type":"histogram","values":[2,0,1,0,0,0,3,0,0,0,0,0,0,1,0,1,0,0,0,1,1,1,1,0,1,1,3,0,4,0,3,0,1,1,0,1,0,0,1,0,1,0,1,0,0,1,0,0,0,0,0,0,0,0,0,0,0,0,0,0,0,0,0,1],"bins":[-1.5006662579253316e-11,-1.4374279544426827e-11,-1.3741896509600338e-11,-1.3109513474773848e-11,-1.247713043994736e-11,-1.184474740512087e-11,-1.1212364370294381e-11,-1.0579981335467892e-11,-9.947598300641403e-12,-9.315215265814913e-12,-8.682832230988424e-12,-8.050449196161935e-12,-7.418066161335446e-12,-6.785683126508957e-12,-6.153300091682468e-12,-5.5209170568559784e-12,-4.888534022029489e-12,-4.256150987203e-12,-3.623767952376511e-12,-2.9913849175500218e-12,-2.3590018827235326e-12,-1.7266188478970435e-12,-1.0942358130705543e-12,-4.618527782440651e-13,1.7053025658242404e-13,8.029132914089132e-13,1.4352963262354024e-12,2.0676793610618915e-12,2.7000623958883807e-12,3.33244543071487e-12,3.964828465541359e-12,4.597211500367848e-12,5.229594535194337e-12,5.8619775700208265e-12,6.494360604847316e-12,7.126743639673805e-12,7.759126674500294e-12,8.391509709326783e-12,9.023892744153272e-12,9.656275778979762e-12,1.028865881380625e-11,1.092104184863274e-11,1.1553424883459229e-11,1.2185807918285718e-11,1.2818190953112207e-11,1.3450573987938697e-11,1.4082957022765186e-11,1.4715340057591675e-11,1.5347723092418164e-11,1.5980106127244653e-11,1.6612489162071142e-11,1.724487219689763e-11,1.787725523172412e-11,1.850963826655061e-11,1.91420213013771e-11,1.9774404336203588e-11,2.0406787371030077e-11,2.1039170405856567e-11,2.1671553440683056e-11,2.2303936475509545e-11,2.2936319510336034e-11,2.3568702545162523e-11,2.4201085579989012e-11,2.48334686148155e-11,2.546585164964199e-11]},"gradients/features.7.bias":{"bins":[-5.4569682106375694e-11,-5.3290705182007514e-11,-5.2011728257639334e-11,-5.0732751333271153e-11,-4.945377440890297e-11,-4.817479748453479e-11,-4.689582056016661e-11,-4.561684363579843e-11,-4.433786671143025e-11,-4.305888978706207e-11,-4.177991286269389e-11,-4.050093593832571e-11,-3.922195901395753e-11,-3.794298208958935e-11,-3.666400516522117e-11,-3.538502824085299e-11,-3.410605131648481e-11,-3.282707439211663e-11,-3.154809746774845e-11,-3.026912054338027e-11,-2.8990143619012088e-11,-2.7711166694643907e-11,-2.6432189770275727e-11,-2.5153212845907547e-11,-2.3874235921539366e-11,-2.2595258997171186e-11,-2.1316282072803006e-11,-2.0037305148434825e-11,-1.8758328224066645e-11,-1.7479351299698465e-11,-1.6200374375330284e-11,-1.4921397450962104e-11,-1.3642420526593924e-11,-1.2363443602225743e-11,-1.1084466677857563e-11,-9.805489753489383e-12,-8.526512829121202e-12,-7.247535904753022e-12,-5.9685589803848416e-12,-4.689582056016661e-12,-3.410605131648481e-12,-2.1316282072803006e-12,-8.526512829121202e-13,4.263256414560601e-13,1.7053025658242404e-12,2.9842794901924208e-12,4.263256414560601e-12,5.5422333389287814e-12,6.821210263296962e-12,8.100187187665142e-12,9.379164112033322e-12,1.0658141036401503e-11,1.1937117960769683e-11,1.3216094885137863e-11,1.4495071809506044e-11,1.5774048733874224e-11,1.7053025658242404e-11,1.8332002582610585e-11,1.9610979506978765e-11,2.0889956431346945e-11,2.2168933355715126e-11,2.3447910280083306e-11,2.4726887204451486e-11,2.6005864128819667e-11,2.7284841053187847e-11],"_type":"histogram","values":[1,1,0,0,0,0,0,0,0,0,0,0,0,0,0,0,0,1,1,0,0,0,0,0,0,0,0,0,1,0,0,0,0,0,0,3,0,0,1,0,2,2,3,1,2,4,1,3,0,0,0,2,1,0,0,0,0,0,1,0,0,0,0,1]},"train accuracy":0.9985052316890882,"train recall":0.9788359788359788,"validation loss":4.823505823733285,"gradients/classifier.1.bias":{"bins":[-2.0915515051456168e-05,-2.038672573689837e-05,-1.9857938241329975e-05,-1.9329148926772177e-05,-1.8800361431203783e-05,-1.8271572116645984e-05,-1.774278462107759e-05,-1.721399530651979e-05,-1.6685207810951397e-05,-1.61564184963936e-05,-1.5627631000825204e-05,-1.5098841686267406e-05,-1.457005328120431e-05,-1.4041264876141213e-05,-1.3512476471078116e-05,-1.298368806601502e-05,-1.2454899660951924e-05,-1.1926111255888827e-05,-1.139732285082573e-05,-1.0868534445762634e-05,-1.0339746040699538e-05,-9.810957635636441e-06,-9.282169230573345e-06,-8.753380825510249e-06,-8.22459151095245e-06,-7.695803105889354e-06,-7.167015155573608e-06,-6.638226750510512e-06,-6.109437890700065e-06,-5.580649485636968e-06,-5.051861080573872e-06,-4.523072675510775e-06,-3.994283360952977e-06,-3.4654949558898807e-06,-2.9367065508267842e-06,-2.4079179183900123e-06,-1.879129513326916e-06,-1.3503411082638195e-06,-8.215525895138853e-07,-2.9276412760737003e-07,2.3602433429914527e-07,7.648127962056606e-07,1.2936012581121759e-06,1.82238977686211e-06,2.3511781819252064e-06,2.879966586988303e-06,3.4087552194250748e-06,3.937543624488171e-06,4.466332029551268e-06,4.995120434614364e-06,5.5239088396774605e-06,6.052697244740557e-06,6.581485649803653e-06,7.110274509614101e-06,7.639062459929846e-06,8.167850864992943e-06,8.696639270056039e-06,9.225428584613837e-06,9.754216989676934e-06,1.028300539474003e-05,1.0811793799803127e-05,1.1340582204866223e-05,1.186937060992932e-05,1.2398159014992416e-05,1.2926947420055512e-05],"_type":"histogram","values":[1,4,0,1,3,1,2,1,0,0,0,2,0,1,3,3,3,0,0,1,1,0,4,1,0,3,2,0,1,1,1,1,1,2,7,7,7,7,4,16,0,0,0,0,1,0,1,0,0,0,0,0,2,1,0,0,2,0,0,0,0,0,0,1]},"gradients/features.1.bias":{"_type":"histogram","values":[1,0,0,0,0,0,0,0,1,0,0,0,0,0,0,0,0,1,0,0,0,0,0,0,1,0,1,0,0,0,0,0,0,0,1,0,0,1,1,0,0,0,1,0,0,2,0,1,0,0,0,0,1,0,0,1,0,0,0,0,0,0,0,2],"bins":[-0.00014476091018877923,-0.0001397913583787158,-0.00013482179201673716,-0.00012985224020667374,-0.0001248826738446951,-0.00011991312203463167,-0.00011494356294861063,-0.0001099740038625896,-0.00010500445205252618,-0.00010003489296650514,-9.50653338804841e-05,-9.009577479446307e-05,-8.512621570844203e-05,-8.0156656622421e-05,-7.518710481235757e-05,-7.021754572633654e-05,-6.52479866403155e-05,-6.027842755429447e-05,-5.530887210625224e-05,-5.03393130202312e-05,-4.5369757572188973e-05,-4.040019848616794e-05,-3.54306394001469e-05,-3.046108213311527e-05,-2.5491524866083637e-05,-2.0521967599052005e-05,-1.5552410332020372e-05,-1.0582851245999336e-05,-5.613293978967704e-06,-6.437362571887206e-07,4.325821464590263e-06,9.295379641116597e-06,1.4264936908148229e-05,1.923449417517986e-05,2.4204051442211494e-05,2.917361052823253e-05,3.414316597627476e-05,3.9112725062295794e-05,4.408228414831683e-05,4.905183959635906e-05,5.4021398682380095e-05,5.899095776840113e-05,6.396051321644336e-05,6.89300723024644e-05,7.389963138848543e-05,7.886919047450647e-05,8.383874228456989e-05,8.880830137059093e-05,9.377786045661196e-05,9.8747419542633e-05,0.00010371697862865403,0.00010868653043871745,0.00011365608952473849,0.00011862564861075953,0.00012359520769678056,0.00012856475950684398,0.00013353432586882263,0.00013850387767888606,0.0001434734440408647,0.00014844299585092813,0.00015341254766099155,0.0001583821140229702,0.00016335166583303362,0.00016832123219501227,0.0001732907840050757]},"gradients/features.3.weight":{"bins":[-0.0005203144391998649,-0.0005059375544078648,-0.0004915606114082038,-0.0004771837266162038,-0.0004628068127203733,-0.00044842989882454276,-0.0004340530140325427,-0.0004196761001367122,-0.0004052991862408817,-0.00039092227234505117,-0.00037654535844922066,-0.0003621684736572206,-0.0003477915597613901,-0.0003334146458655596,-0.0003190377610735595,-0.000304660847177729,-0.0002902839332818985,-0.000275907019386068,-0.0002615301054902375,-0.0002471532206982374,-0.0002327763068024069,-0.0002183993929065764,-0.0002040224935626611,-0.00018964559421874583,-0.00017526868032291532,-0.0001608917664270848,-0.00014651486708316952,-0.00013213796773925424,-0.00011776105384342372,-0.00010338414722355083,-8.900724060367793e-05,-7.463033398380503e-05,-6.025342736393213e-05,-4.5876520744059235e-05,-3.149961412418634e-05,-1.712270750431344e-05,-2.7458008844405413e-06,1.1631105735432357e-05,2.6008012355305254e-05,4.038491897517815e-05,5.476182559505105e-05,6.913873221492395e-05,8.351563883479685e-05,9.789254545466974e-05,0.00011226945207454264,0.00012664636597037315,0.00014102326531428844,0.00015540016465820372,0.00016977707855403423,0.00018415399244986475,0.00019853089179378003,0.0002129077911376953,0.00022728470503352582,0.00024166161892935634,0.0002560385037213564,0.0002704154176171869,0.0002847923315130174,0.00029916924540884793,0.00031354615930467844,0.0003279230440966785,0.000342299957992509,0.0003566768718883395,0.0003710537566803396,0.0003854306705761701,0.0003998075844720006],"_type":"histogram","values":[3,5,8,7,5,4,0,0,2,4,4,5,14,9,25,19,27,26,21,34,39,64,89,75,82,120,146,206,331,437,674,906,1461,2090,3248,4617,5580,3438,2602,1935,1311,858,532,344,242,198,147,169,162,119,97,51,31,41,30,20,21,7,8,6,6,1,4,1]},"gradients/features.1.weight":{"_type":"histogram","values":[1,0,0,0,0,0,0,0,0,0,0,0,1,0,0,0,0,0,0,0,0,0,0,0,0,0,0,2,1,0,1,0,0,1,1,1,0,0,0,1,0,0,0,0,0,1,1,0,1,0,1,0,1,0,0,0,0,0,0,0,0,0,0,1],"bins":[-0.0002340956125408411,-0.00022760937281418592,-0.00022112313308753073,-0.00021463689336087555,-0.00020815065363422036,-0.00020166441390756518,-0.00019517817418091,-0.0001886919344542548,-0.00018220569472759962,-0.00017571946955285966,-0.00016923322982620448,-0.0001627469900995493,-0.0001562607503728941,-0.00014977451064623892,-0.00014328827091958374,-0.00013680203119292855,-0.00013031579146627337,-0.00012382955173961818,-0.000117343312012963,-0.00011085707228630781,-0.00010437083255965263,-9.788460010895506e-05,-9.139836038229987e-05,-8.491212065564469e-05,-7.84258809289895e-05,-7.193964120233431e-05,-6.545340147567913e-05,-5.896716538700275e-05,-5.2480925660347566e-05,-4.599468593369238e-05,-3.9508449845016e-05,-3.302221011836082e-05,-2.653598494362086e-05,-2.0049745216965675e-05,-1.3563507309299894e-05,-7.07726849213941e-06,-5.910296749789268e-07,5.895209142181557e-06,1.238144795934204e-05,1.8867685867007822e-05,2.5353925593663007e-05,3.184016532031819e-05,3.832640504697338e-05,4.4812641135649756e-05,5.129888086230494e-05,5.7785120588960126e-05,6.42713566776365e-05,7.075759640429169e-05,7.724383613094687e-05,8.373007585760206e-05,9.021631558425725e-05,9.670255531091243e-05,0.00010318879503756762,0.00010967502748826519,0.00011616126721492037,0.00012264751421753317,0.00012913375394418836,0.0001356199791189283,0.0001421062188455835,0.00014859245857223868,0.00015507869829889387,0.00016156493802554905,0.00016805117775220424,0.00017453741747885942,0.0001810236572055146]},"validation accuracy":0.875,"gradients/features.8.weight":{"values":[1,0,0,0,0,0,0,0,0,0,1,0,0,1,1,0,0,1,1,0,2,1,0,1,2,0,1,1,1,0,3,2,0,0,0,1,0,0,4,0,0,0,1,1,1,0,0,0,0,1,0,1,0,0,0,1,0,0,0,0,0,0,0,1],"bins":[-0.0003190439601894468,-0.00031036860309541225,-0.0003016932460013777,-0.00029301788890734315,-0.0002843425318133086,-0.00027566717471927404,-0.00026699184672906995,-0.0002583164896350354,-0.00024964113254100084,-0.0002409657754469663,-0.00023229041835293174,-0.00022361506125889719,-0.00021493970416486263,-0.00020626434707082808,-0.00019758900452870876,-0.0001889136474346742,-0.00018023829034063965,-0.0001715629332466051,-0.00016288757615257055,-0.00015421223361045122,-0.00014553687651641667,-0.00013686151942238212,-0.00012818616232834756,-0.00011951081251027063,-0.00011083545541623607,-0.00010216009832220152,-9.348474850412458e-05,-8.480939141009003e-05,-7.613403431605548e-05,-6.745868449797854e-05,-5.8783327403943986e-05,-5.010797394788824e-05,-4.1432620491832495e-05,-3.275726703577675e-05,-2.40819117607316e-05,-1.540655648568645e-05,-6.731203029630706e-06,1.9441513359197415e-06,1.0619505701470189e-05,1.9294860976515338e-05,2.7970214432571083e-05,3.664556788862683e-05,4.5320921344682574e-05,5.399627843871713e-05,6.267163553275168e-05,7.134698535082862e-05,8.002234244486317e-05,8.869769226294011e-05,9.737304935697466e-05,0.00010604840645100921,0.00011472375626908615,0.0001233991060871631,0.00013207446318119764,0.0001407498202752322,0.00014942517736926675,0.0001581005344633013,0.00016677589155733585,0.00017545123409945518,0.00018412659119348973,0.00019280194828752428,0.00020147730538155884,0.0002101526624755934,0.0002188280050177127,0.00022750336211174726,0.00023617871920578182],"_type":"histogram"},"_step":20,"gradients/classifier.3.bias":{"_type":"histogram","values":[1],"bins":[0.00017808644042816013,0.00017808644042816013]},"gradients/classifier.1.weight":{"bins":[-5.082486677565612e-05,-4.938462734571658e-05,-4.7944384277798235e-05,-4.65041448478587e-05,-4.506390177994035e-05,-4.3623662350000814e-05,-4.218341928208247e-05,-4.074317985214293e-05,-3.9302936784224585e-05,-3.7862697354285046e-05,-3.64224542863667e-05,-3.498221485642716e-05,-3.354197178850882e-05,-3.210173235856928e-05,-3.0661489290650934e-05,-2.9221249860711396e-05,-2.7781008611782454e-05,-2.6340767362853512e-05,-2.490052611392457e-05,-2.346028486499563e-05,-2.2020043616066687e-05,-2.0579802367137745e-05,-1.9139561118208803e-05,-1.769931986927986e-05,-1.6259080439340323e-05,-1.481883828091668e-05,-1.3378597031987738e-05,-1.1938355783058796e-05,-1.0498115443624556e-05,-9.057874194695614e-06,-7.6176329457666725e-06,-6.177391696837731e-06,-4.737150447908789e-06,-3.296909198979847e-06,-1.8566681774245808e-06,-4.164270421824767e-07,1.0238140930596273e-06,2.464055341988569e-06,3.90429613617016e-06,5.344537385099102e-06,6.784778634028044e-06,8.225019882956985e-06,9.665261131885927e-06,1.1105502380814869e-05,1.2545742720249109e-05,1.398598396917805e-05,1.5426225218106993e-05,1.6866466467035934e-05,1.8306707715964876e-05,1.9746948964893818e-05,2.118719021382276e-05,2.26274314627517e-05,2.4067672711680643e-05,2.5507913960609585e-05,2.6948155209538527e-05,2.838839645846747e-05,2.9828635888407007e-05,3.126887895632535e-05,3.270911838626489e-05,3.4149361454183236e-05,3.5589600884122774e-05,3.702984395204112e-05,3.847008338198066e-05,3.9910326449899e-05,4.135056587983854e-05],"_type":"histogram","values":[1,5,1,6,2,5,10,19,22,39,51,71,96,118,135,143,195,257,346,437,577,660,807,980,1210,1579,1930,2311,2905,3823,4796,6931,10468,16801,28699,65621,2330,1224,903,765,627,467,371,254,221,168,144,109,94,66,48,31,38,27,20,11,9,7,4,1,2,0,1,1]},"gradients/features.0.bias":{"bins":[-3.259629011154175e-09,-3.1868694350123405e-09,-3.1141098588705063e-09,-3.041350282728672e-09,-2.9685907065868378e-09,-2.8958311304450035e-09,-2.8230715543031693e-09,-2.750311978161335e-09,-2.6775524020195007e-09,-2.6047928258776665e-09,-2.5320332497358322e-09,-2.459273673593998e-09,-2.3865140974521637e-09,-2.3137545213103294e-09,-2.240994945168495e-09,-2.168235369026661e-09,-2.0954757928848267e-09,-2.0227162167429924e-09,-1.949956640601158e-09,-1.877197064459324e-09,-1.8044374883174896e-09,-1.7316779121756554e-09,-1.6589183360338211e-09,-1.5861587598919868e-09,-1.5133991837501526e-09,-1.4406396076083183e-09,-1.367880031466484e-09,-1.2951204553246498e-09,-1.2223608791828156e-09,-1.1496013030409813e-09,-1.076841726899147e-09,-1.0040821507573128e-09,-9.313225746154785e-10,-8.585629984736443e-10,-7.8580342233181e-10,-7.130438461899757e-10,-6.402842700481415e-10,-5.675246939063072e-10,-4.94765117764473e-10,-4.220055416226387e-10,-3.4924596548080444e-10,-2.764863893389702e-10,-2.0372681319713593e-10,-1.3096723705530167e-10,-5.820766091346741e-11,1.4551915228366852e-11,8.731149137020111e-11,1.6007106751203537e-10,2.3283064365386963e-10,3.055902197957039e-10,3.7834979593753815e-10,4.511093720793724e-10,5.238689482212067e-10,5.966285243630409e-10,6.693881005048752e-10,7.421476766467094e-10,8.149072527885437e-10,8.87666828930378e-10,9.604264050722122e-10,1.0331859812140465e-09,1.1059455573558807e-09,1.178705133497715e-09,1.2514647096395493e-09,1.3242242857813835e-09,1.3969838619232178e-09],"_type":"histogram","values":[1,0,0,0,0,0,0,0,0,0,0,0,0,0,0,0,0,0,0,0,1,0,0,0,1,1,0,0,1,0,0,0,0,0,0,1,0,0,1,0,0,1,1,0,3,0,1,0,0,0,0,0,0,0,0,0,0,0,0,0,1,0,0,2]},"_timestamp":1.7659550695069919e+09,"gradients/features.4.bias":{"values":[1,0,0,0,0,0,0,0,0,0,1,0,0,0,0,0,0,3,1,0,0,1,1,0,0,0,1,0,1,0,1,0,1,2,3,1,2,1,0,0,1,0,0,2,2,0,1,0,0,0,0,1,0,1,0,1,1,0,0,0,0,0,0,1],"bins":[-0.00017472173203714192,-0.0001696849794825539,-0.00016464821237605065,-0.00015961145982146263,-0.00015457469271495938,-0.00014953794016037136,-0.00014450117305386811,-0.0001394644204992801,-0.00013442765339277685,-0.00012939090083818883,-0.00012435413373168558,-0.00011931738117709756,-0.00011428062134655192,-0.00010924386151600629,-0.00010420710168546066,-9.917034185491502e-05,-9.413358202436939e-05,-8.909682219382375e-05,-8.406006236327812e-05,-7.902330253273249e-05,-7.398654270218685e-05,-6.894978287164122e-05,-6.391302304109558e-05,-5.887626684852876e-05,-5.3839507017983124e-05,-4.880274718743749e-05,-4.3765987356891856e-05,-3.872922752634622e-05,-3.3692471333779395e-05,-2.8655709684244357e-05,-2.3618951672688127e-05,-1.8582191842142493e-05,-1.3545432011596859e-05,-8.508672181051224e-06,-3.4719132600002922e-06,1.564846115797991e-06,6.601605491596274e-06,1.1638365322141908e-05,1.667512333369814e-05,2.1711883164243773e-05,2.6748642994789407e-05,3.178540282533504e-05,3.6822162655880675e-05,4.185892248642631e-05,4.6895678678993136e-05,5.193243850953877e-05,5.6969198340084404e-05,6.200595817063004e-05,6.704271800117567e-05,7.20794778317213e-05,7.711623766226694e-05,8.215299749281257e-05,8.718975732335821e-05,9.222651715390384e-05,9.726327698444948e-05,0.00010230003681499511,0.00010733678936958313,0.00011237354920012876,0.0001174103090306744,0.00012244707613717765,0.00012748382869176567,0.00013252059579826891,0.00013755734835285693,0.00014259411545936018,0.0001476308680139482],"_type":"histogram"},"train precision":0.9893048128342246,"train loss":1.2126305897618295,"validation precision":0,"validation recall":0,"_runtime":45,"_wandb":{"runtime":45},"gradients/classifier.3.weight":{"bins":[-0.00011850165901705623,-0.00010598138032946736,-9.346109436592087e-05,-8.094080840237439e-05,-6.842052971478552e-05,-5.590024738921784e-05,-4.337996506365016e-05,-3.0859682738082483e-05,-1.8339400412514806e-05,-5.819118086947128e-06,6.7011642386205494e-06,1.9221446564188227e-05,3.1741728889755905e-05,4.426201121532358e-05,5.678229354089126e-05,6.930257950443774e-05,8.182285819202662e-05,9.434313687961549e-05,0.00010686342284316197,0.00011938370880670846,0.00013190398749429733,0.0001444242661818862,0.0001569445594213903,0.00016946483810897917,0.00018198511679656804,0.0001945053954841569,0.00020702567417174578,0.00021954596741124988,0.00023206624609883875,0.0002445865247864276,0.0002571068180259317,0.00026962708216160536,0.00028214737540110946,0.00029466766864061356,0.0003071879327762872,0.0003197082260157913,0.00033222849015146494,0.00034474878339096904,0.00035726907663047314,0.0003697893407661468,0.0003823096340056509,0.000394829927245155,0.0004073501913808286,0.0004198704846203327,0.0004323907778598368,0.00044491104199551046,0.00045743133523501456,0.0004699515993706882,0.0004824718926101923,0.0004949921858496964,0.0005075124790892005,0.0005200327141210437,0.0005325530073605478,0.0005450733006000519,0.000557593593839556,0.0005701138870790601,0.0005826341221109033,0.0005951544153504074,0.0006076747085899115,0.0006201950018294156,0.0006327152950689197,0.0006452355883084238,0.0006577558233402669,0.000670276116579771,0.0006827964098192751],"_type":"histogram","values":[3,6,5,7,6,4,3,2,0,15,0,0,0,0,0,0,0,0,0,0,0,0,0,0,0,0,0,0,0,0,0,0,1,0,0,0,0,0,0,0,0,0,1,0,1,1,3,2,2,3,1,2,3,5,5,3,5,3,1,3,3,0,0,1]},"gradients/features.7.weight":{"values":[3,7,6,2,6,4,10,14,8,19,24,25,36,38,67,63,79,86,103,113,118,161,215,288,297,388,452,587,719,897,1155,1346,1863,2356,2348,2323,1969,1741,1492,1237,955,779,649,510,412,368,297,238,177,141,126,90,71,52,27,28,13,13,17,9,6,1,3,1],"bins":[-0.0003444966860115528,-0.00033471931237727404,-0.00032494193874299526,-0.0003151645651087165,-0.0003053871914744377,-0.00029560981784015894,-0.0002858324151020497,-0.00027605504146777093,-0.00026627766783349216,-0.0002565002941992134,-0.0002467229205649346,-0.00023694554693065584,-0.00022716817329637706,-0.0002173907996620983,-0.00020761341147590429,-0.0001978360378416255,-0.00018805866420734674,-0.00017828129057306796,-0.0001685039169387892,-0.00015872652875259519,-0.0001489491551183164,-0.00013917178148403764,-0.00012939440784975886,-0.00011961702693952248,-0.0001098396533052437,-0.00010006227967096493,-9.028489876072854e-05,-8.050752512644976e-05,-7.073015149217099e-05,-6.09527705819346e-05,-5.117539694765583e-05,-4.1398019675398245e-05,-3.1620642403140664e-05,-2.1843265130883083e-05,-1.2065889677614905e-05,-2.2885133148520254e-06,7.488863047910854e-06,1.7266240320168436e-05,2.7043615773436613e-05,3.682099122670479e-05,4.659836849896237e-05,5.6375745771219954e-05,6.615312304347754e-05,7.593049667775631e-05,8.570787031203508e-05,9.548525122227147e-05,0.00010526262485655025,0.00011504000576678663,0.0001248173794010654,0.00013459475303534418,0.00014437212666962296,0.00015414951485581696,0.00016392688849009573,0.0001737042621243745,0.00018348163575865328,0.00019325900939293206,0.00020303638302721083,0.00021281377121340483,0.0002225911448476836,0.00023236851848196238,0.00024214589211624116,0.00025192328030243516,0.00026170065393671393,0.0002714780275709927,0.0002812554012052715],"_type":"histogram"},"gradients/features.0.weight":{"_type":"histogram","values":[4,3,1,4,3,1,0,0,0,0,3,6,3,4,0,10,11,14,14,21,4,4,4,2,4,12,28,22,16,20,6,0,5,20,23,0,13,72,81,111,121,63,33,20,17,13,21,19,28,13,14,23,29,18,8,3,0,8,5,11,3,2,2,1],"bins":[-0.0013377200812101364,-0.0013051406713202596,-0.0012725612614303827,-0.0012399818515405059,-0.001207402441650629,-0.0011748230317607522,-0.0011422436218708754,-0.0011096642119809985,-0.0010770848020911217,-0.001044505275785923,-0.0010119258658960462,-0.0009793464560061693,-0.0009467670461162925,-0.0009141876362264156,-0.0008816082263365388,-0.000849028816446662,-0.0008164494065567851,-0.0007838699966669083,-0.0007512905867770314,-0.0007187111768871546,-0.0006861317669972777,-0.00065355229889974,-0.0006209728890098631,-0.0005883934791199863,-0.0005558140692301095,-0.0005232346593402326,-0.0004906552494503558,-0.00045807581045664847,-0.0004254964005667716,-0.0003929169906768948,-0.0003603375516831875,-0.00032775814179331064,-0.0002951788483187556,-0.0002625994384288788,-0.0002300200139870867,-0.00019744058954529464,-0.0001648611796554178,-0.00013228176976554096,-9.970234532374889e-05,-6.712292815791443e-05,-3.454351099207997e-05,-1.9640938262455165e-06,3.061532333958894e-05,6.31947405054234e-05,9.577415767125785e-05,0.0001283535675611347,0.00016093299200292677,0.00019351241644471884,0.00022609182633459568,0.0002586712362244725,0.00029125064611434937,0.00032383008510805666,0.0003564094949979335,0.00038898890488781035,0.00042156834388151765,0.0004541477537713945,0.00048672716366127133,0.0005193065735511482,0.000551885983441025,0.0005844653933309019,0.0006170448614284396,0.0006496242713183165,0.0006822036812081933,0.0007147830910980701,0.000747362500987947]}}