{"validation recall":0,"gradients/features.8.bias":{"_type":"histogram","values":[1,0,0,0,0,0,0,0,1,0,0,0,0,0,0,0,1,2,0,0,1,0,1,2,1,0,0,2,1,0,1,1,4,0,1,2,1,2,2,1,1,0,1,1,0,0,0,0,0,0,0,0,0,0,0,0,0,0,0,0,0,0,0,1],"bins":[-3.5429845723911058e-09,-3.4908722579274354e-09,-3.43876016550837e-09,-3.3866478510446996e-09,-3.334535536581029e-09,-3.282423222117359e-09,-3.2303111296982934e-09,-3.178198815234623e-09,-3.1260865007709526e-09,-3.073974408351887e-09,-3.021862093888217e-09,-2.9697497794245464e-09,-2.917637464960876e-09,-2.8655253725418106e-09,-2.8134130580781402e-09,-2.76130074361447e-09,-2.7091884291507995e-09,-2.657076336731734e-09,-2.6049640222680637e-09,-2.5528517078043933e-09,-2.500739615385328e-09,-2.4486273009216575e-09,-2.396514986457987e-09,-2.3444026719943167e-09,-2.2922905795752513e-09,-2.240178265111581e-09,-2.1880659506479105e-09,-2.135953858228845e-09,-2.0838415437651747e-09,-2.0317292293015043e-09,-1.979616914837834e-09,-1.9275048224187685e-09,-1.875392507955098e-09,-1.8232803045137302e-09,-1.7711679900500599e-09,-1.719055786608692e-09,-1.6669434721450216e-09,-1.6148312687036537e-09,-1.5627190652622858e-09,-1.5106067507986154e-09,-1.4584945473572475e-09,-1.4063822328935771e-09,-1.3542700294522092e-09,-1.3021577149885388e-09,-1.250045511547171e-09,-1.197933308105803e-09,-1.1458209936421326e-09,-1.0937087902007647e-09,-1.0415964757370944e-09,-9.894842722957264e-10,-9.37371957832056e-10,-8.852597543906882e-10,-8.33147495438169e-10,-7.810352364856499e-10,-7.289229775331307e-10,-6.768107185806116e-10,-6.246985151392437e-10,-5.725862561867245e-10,-5.204739972342054e-10,-4.683617382816863e-10,-4.162494793291671e-10,-3.64137220376648e-10,-3.1202496142412883e-10,-2.599127302271853e-10,-2.0780047127466617e-10]},"gradients/features.4.weight":{"values":[1,0,0,0,0,0,0,0,0,0,0,0,0,0,1,0,0,0,0,0,0,0,0,0,0,0,0,1,0,1,0,0,1,1,1,1,1,0,0,1,2,2,2,5,1,1,0,2,1,0,0,0,0,1,1,1,0,0,1,0,0,0,1,1],"bins":[-2.095824624959164e-09,-2.0453743143633574e-09,-1.994924003767551e-09,-1.9444736931717443e-09,-1.894023382575938e-09,-1.8435730719801313e-09,-1.7931227613843248e-09,-1.7426724507885183e-09,-1.6922221401927118e-09,-1.6417718295969053e-09,-1.5913215190010987e-09,-1.5408712084052922e-09,-1.4904208978094857e-09,-1.4399705872136792e-09,-1.3895202766178727e-09,-1.3390699660220662e-09,-1.2886196554262597e-09,-1.2381693448304532e-09,-1.1877190342346466e-09,-1.1372687236388401e-09,-1.0868184130430336e-09,-1.036368102447227e-09,-9.859177918514206e-10,-9.35467481255614e-10,-8.850171706598076e-10,-8.34566860064001e-10,-7.841165494681945e-10,-7.33666238872388e-10,-6.832159282765815e-10,-6.32765617680775e-10,-5.823153070849685e-10,-5.31864996489162e-10,-4.814146858933555e-10,-4.3096437529754894e-10,-3.8051406470174243e-10,-3.300637541059359e-10,-2.796134435101294e-10,-2.2916313291432289e-10,-1.7871282231851637e-10,-1.2826251172270986e-10,-7.781220112690335e-11,-2.7361890531096833e-11,2.308842006470968e-11,7.35387306605162e-11,1.239890412563227e-10,1.7443935185212922e-10,2.2488966244793573e-10,2.7533997304374225e-10,3.2579028363954876e-10,3.762405942353553e-10,4.266909048311618e-10,4.771412154269683e-10,5.275915260227748e-10,5.780418366185813e-10,6.284921472143878e-10,6.789424578101944e-10,7.293927684060009e-10,7.798430790018074e-10,8.302933895976139e-10,8.807437001934204e-10,9.311940107892269e-10,9.816443213850334e-10,1.03209463198084e-09,1.0825449425766465e-09,1.132995253172453e-09],"_type":"histogram"},"gradients/features.7.bias":{"bins":[-8.326672684688674e-16,-8.119319019200821e-16,-7.911965353712969e-16,-7.704611688225116e-16,-7.497258022737263e-16,-7.28990435724941e-16,-7.082550691761558e-16,-6.875197026273705e-16,-6.667843360785852e-16,-6.460489695298e-16,-6.253136029810147e-16,-6.045782364322294e-16,-5.838428698834441e-16,-5.631075033346589e-16,-5.423721367858736e-16,-5.216367702370883e-16,-5.00901403688303e-16,-4.801660371395178e-16,-4.594306705907325e-16,-4.3869530404194723e-16,-4.1795993749316196e-16,-3.972245709443767e-16,-3.764892043955914e-16,-3.5575383784680614e-16,-3.3501847129802087e-16,-3.142831047492356e-16,-2.9354773820045033e-16,-2.7281237165166505e-16,-2.520770051028798e-16,-2.313416385540945e-16,-2.1060627200530924e-16,-1.8987090545652396e-16,-1.691355389077387e-16,-1.4840017235895342e-16,-1.2766480581016815e-16,-1.0692943926138287e-16,-8.61940727125976e-17,-6.545870616381233e-17,-4.472333961502706e-17,-2.3987973066241786e-17,-3.2526065174565133e-18,1.748276003132876e-17,3.821812658011403e-17,5.89534931288993e-17,7.968885967768458e-17,1.0042422622646985e-16,1.2115959277525512e-16,1.418949593240404e-16,1.6263032587282567e-16,1.8336569242161094e-16,2.041010589703962e-16,2.248364255191815e-16,2.4557179206796675e-16,2.6630715861675203e-16,2.870425251655373e-16,3.0777789171432257e-16,3.2851325826310784e-16,3.492486248118931e-16,3.699839913606784e-16,3.9071935790946366e-16,4.1145472445824893e-16,4.321900910070342e-16,4.529254575558195e-16,4.7366082410460475e-16,4.9439619065339e-16],"_type":"histogram","values":[1,0,0,0,0,0,0,0,0,0,0,0,0,0,0,0,0,0,0,0,0,0,0,0,1,0,0,0,0,0,1,1,1,1,1,0,2,2,1,2,4,1,0,0,1,0,2,1,0,1,1,0,1,1,1,0,0,1,1,1,0,0,0,1]},"_wandb":{"runtime":79},"gradients/classifier.1.bias":{"bins":[-3.4916197710899155e-10,-3.437063134104079e-10,-3.382506774673999e-10,-3.3279501376881626e-10,-3.2733935007023263e-10,-3.21883686371649e-10,-3.1642805042864097e-10,-3.1097238673005734e-10,-3.055167230314737e-10,-3.000610870884657e-10,-2.9460542338988205e-10,-2.891497596912984e-10,-2.836940959927148e-10,-2.7823846004970676e-10,-2.727827963511231e-10,-2.673271326525395e-10,-2.6187146895395585e-10,-2.5641583301094784e-10,-2.509601693123642e-10,-2.4550450561378057e-10,-2.4004886967077255e-10,-2.345932059721889e-10,-2.2913754227360528e-10,-2.2368189245280945e-10,-2.1822624263201362e-10,-2.1277057893343e-10,-2.0731492911263416e-10,-2.0185926541405053e-10,-1.964036155932547e-10,-1.9094795189467106e-10,-1.8549230207387524e-10,-1.800366383752916e-10,-1.7458098855449578e-10,-1.6912533873369995e-10,-1.6366967503511631e-10,-1.5821402521432049e-10,-1.5275836151573685e-10,-1.4730271169494102e-10,-1.418470479963574e-10,-1.3639139817556156e-10,-1.3093573447697793e-10,-1.254800846561821e-10,-1.2002443483538627e-10,-1.1456877113680264e-10,-1.0911312131600681e-10,-1.0365746455631708e-10,-9.820180779662735e-11,-9.274615103693762e-11,-8.729049427724789e-11,-8.183483751755816e-11,-7.637918075786843e-11,-7.09235239981787e-11,-6.546786723848896e-11,-6.001221741769314e-11,-5.4556560658003406e-11,-4.9100903898313675e-11,-4.3645247138623944e-11,-3.818959037893421e-11,-3.273393361924448e-11,-2.7278280329001703e-11,-2.1822623569311972e-11,-1.636696680962224e-11,-1.0911311784655986e-11,-5.455655892327993e-12,0],"_type":"histogram","values":[1,0,1,0,0,0,0,2,2,2,0,1,1,1,2,0,1,0,0,0,0,1,1,0,0,1,0,3,2,0,2,2,0,1,1,0,0,0,0,1,2,2,1,1,0,1,2,0,1,0,0,0,2,3,0,1,0,3,1,1,0,0,0,50]},"_runtime":79,"gradients/features.8.weight":{"values":[1,0,1,0,0,0,0,0,0,1,0,0,0,0,0,0,1,0,1,0,0,1,0,0,0,2,0,0,0,1,0,1,0,1,3,2,2,0,0,1,1,2,2,0,1,2,0,2,2,0,0,0,0,0,0,0,0,0,0,0,0,0,0,1],"bins":[-3.792373970412655e-09,-3.736603915172054e-09,-3.6808340819760588e-09,-3.6250640267354584e-09,-3.569294193539463e-09,-3.5135241382988625e-09,-3.457754305102867e-09,-3.4019842498622666e-09,-3.346214194621666e-09,-3.2904443614256706e-09,-3.2346743061850702e-09,-3.1789044729890747e-09,-3.1231344177484743e-09,-3.067364362507874e-09,-3.0115945293118784e-09,-2.955824474071278e-09,-2.9000546408752825e-09,-2.844284585634682e-09,-2.7885147524386866e-09,-2.7327446971980862e-09,-2.676974641957486e-09,-2.6212048087614903e-09,-2.56543475352089e-09,-2.5096649203248944e-09,-2.453894865084294e-09,-2.3981250318882985e-09,-2.342354976647698e-09,-2.2865849214070977e-09,-2.230815088211102e-09,-2.1750450329705018e-09,-2.1192751997745063e-09,-2.063505144533906e-09,-2.0077353113379104e-09,-1.95196525609731e-09,-1.8961952008567096e-09,-1.840425367660714e-09,-1.7846553124201137e-09,-1.7288853682018157e-09,-1.6731154239835178e-09,-1.6173454797652198e-09,-1.5615755355469219e-09,-1.505805591328624e-09,-1.4500355360880235e-09,-1.3942655918697255e-09,-1.3384956476514276e-09,-1.2827257034331296e-09,-1.2269557592148317e-09,-1.1711858149965337e-09,-1.1154157597559333e-09,-1.0596458155376354e-09,-1.0038758713193374e-09,-9.481059271010395e-10,-8.923359828827415e-10,-8.365659831532923e-10,-7.807960389349944e-10,-7.250260947166964e-10,-6.692560949872473e-10,-6.134861507689493e-10,-5.577162065506513e-10,-5.019462623323534e-10,-4.461762626029042e-10,-3.9040631838460627e-10,-3.346363464107327e-10,-2.7886640219243475e-10,-2.2309643021856118e-10],"_type":"histogram"},"gradients/features.10.bias":{"values":[1,0,0,0,0,0,0,0,0,0,0,0,0,0,0,1,0,0,1,0,0,4,0,0,0,3,1,3,0,0,1,0,0,0,0,0,0,0,0,0,0,0,0,0,0,0,0,0,0,0,0,0,0,0,0,0,0,0,0,0,0,0,0,1],"bins":[-4.09932354727971e-09,-4.035271672364615e-09,-3.971219797449521e-09,-3.907167922534427e-09,-3.843116047619333e-09,-3.779063728615029e-09,-3.7150118536999344e-09,-3.65095997878484e-09,-3.586908103869746e-09,-3.5228562289546517e-09,-3.4588043540395574e-09,-3.3947522570798583e-09,-3.330700382164764e-09,-3.26664850724967e-09,-3.2025964102899707e-09,-3.1385445353748764e-09,-3.074492660459782e-09,-3.010440785544688e-09,-2.9463889106295937e-09,-2.8823368136698946e-09,-2.8182849387548004e-09,-2.754233063839706e-09,-2.690180966880007e-09,-2.6261290919649127e-09,-2.5620772170498185e-09,-2.4980253421347243e-09,-2.43397346721963e-09,-2.369921370259931e-09,-2.3058694953448367e-09,-2.2418176204297424e-09,-2.1777655234700433e-09,-2.113713648554949e-09,-2.049661773639855e-09,-1.9856098987247606e-09,-1.9215580238096663e-09,-1.8575059268499672e-09,-1.793454051934873e-09,-1.7294021770197787e-09,-1.665350191082382e-09,-1.6012982051449853e-09,-1.537246330229891e-09,-1.4731944553147969e-09,-1.4091424693774002e-09,-1.3450904834400035e-09,-1.2810386085249093e-09,-1.216986733609815e-09,-1.1529347476724183e-09,-1.0888827617350216e-09,-1.0248308868199274e-09,-9.607790119048332e-10,-8.967270259674365e-10,-8.32675095541191e-10,-7.686231651149456e-10,-7.045712346887001e-10,-6.405193042624546e-10,-5.764673738362092e-10,-5.124154434099637e-10,-4.4836351298371824e-10,-3.843115825574728e-10,-3.202596521312273e-10,-2.5620772170498185e-10,-1.921557912787364e-10,-1.2810386085249093e-10,-6.405193042624546e-11,0],"_type":"histogram"},"gradients/features.0.bias":{"values":[1,0,0,0,0,0,0,0,0,0,0,0,3,0,2,1,1,1,0,1,0,1,0,1,0,0,0,0,0,1,0,0,0,0,0,0,1,0,0,0,0,0,0,0,0,0,0,1,0,0,0,0,0,0,0,0,0,0,0,0,0,0,0,1],"bins":[-9.769962616701378e-15,-9.117706589734098e-15,-8.465450562766819e-15,-7.813194535799539e-15,-7.16093850883226e-15,-6.50868248186498e-15,-5.856426454897701e-15,-5.204170427930421e-15,-4.551914400963142e-15,-3.899658373995862e-15,-3.247402347028583e-15,-2.5951463200613034e-15,-1.942890293094024e-15,-1.2906342661267445e-15,-6.38378239159465e-16,1.3877787807814457e-17,6.661338147750939e-16,1.3183898417423734e-15,1.970645868709653e-15,2.6229018956769323e-15,3.2751579226442118e-15,3.927413949611491e-15,4.579669976578771e-15,5.23192600354605e-15,5.88418203051333e-15,6.536438057480609e-15,7.188694084447889e-15,7.840950111415168e-15,8.493206138382448e-15,9.145462165349727e-15,9.797718192317006e-15,1.0449974219284286e-14,1.1102230246251565e-14,1.1754486273218845e-14,1.2406742300186124e-14,1.3058998327153404e-14,1.3711254354120683e-14,1.4363510381087963e-14,1.5015766408055242e-14,1.5668022435022522e-14,1.63202784619898e-14,1.697253448895708e-14,1.762479051592436e-14,1.827704654289164e-14,1.892930256985892e-14,1.95815585968262e-14,2.0233814623793478e-14,2.0886070650760757e-14,2.1538326677728037e-14,2.2190582704695316e-14,2.2842838731662596e-14,2.3495094758629875e-14,2.4147350785597155e-14,2.4799606812564434e-14,2.5451862839531714e-14,2.6104118866498993e-14,2.6756374893466273e-14,2.7408630920433552e-14,2.806088694740083e-14,2.871314297436811e-14,2.936539900133539e-14,3.001765502830267e-14,3.066991105526995e-14,3.132216708223723e-14,3.197442310920451e-14],"_type":"histogram"},"gradients/classifier.3.weight":{"bins":[0,5.00674446346494e-10,1.001348892692988e-09,1.5020233945506334e-09,2.002697785385976e-09,2.503372176221319e-09,3.0040467891012668e-09,3.5047211799366096e-09,4.005395570771952e-09,4.5060701836519e-09,5.006744352442638e-09,5.507418965322586e-09,6.0080935782025335e-09,6.5087677469932714e-09,7.009442359873219e-09,7.510116972753167e-09,8.010791141543905e-09,8.511465310334643e-09,9.0121403673038e-09,9.512814536094538e-09,1.0013488704885276e-08,1.0514163761854434e-08,1.1014837930645172e-08,1.151551209943591e-08,1.2016187156405067e-08,1.2516861325195805e-08,1.3017535493986543e-08,1.351820966277728e-08,1.4018884719746438e-08,1.4519558888537176e-08,1.5020233945506334e-08,1.5520907226118652e-08,1.602158228308781e-08,1.6522257340056967e-08,1.7022930620669285e-08,1.7523605677638443e-08,1.80242807346076e-08,1.852495401521992e-08,1.9025629072189076e-08,1.9526304129158234e-08,2.0026977409770552e-08,2.052765246673971e-08,2.1028327523708867e-08,2.1529000804321186e-08,2.2029675861290343e-08,2.25303509182595e-08,2.303102419887182e-08,2.3531699255840977e-08,2.4032374312810134e-08,2.4533047593422452e-08,2.503372265039161e-08,2.5534395931003928e-08,2.6035070987973086e-08,2.6535746044942243e-08,2.703641932555456e-08,2.753709438252372e-08,2.8037769439492877e-08,2.8538442720105195e-08,2.9039117777074352e-08,2.953979283404351e-08,3.004046789101267e-08,3.0541141171624986e-08,3.1041814452237304e-08,3.15424912855633e-08,3.204316456617562e-08],"_type":"histogram","values":[50,0,0,0,0,0,0,0,0,0,0,0,0,0,0,0,0,0,0,0,0,0,0,0,0,0,0,0,0,0,0,0,0,0,0,0,1,0,1,2,3,4,2,7,3,5,9,2,4,2,1,2,0,0,0,1,0,0,0,0,0,0,0,1]},"gradients/features.4.bias":{"bins":[-9.697191938329297e-10,-9.46014822034158e-10,-9.22310394724235e-10,-8.986060229254633e-10,-8.749015956155404e-10,-8.511972238167687e-10,-8.274928520179969e-10,-8.03788424708074e-10,-7.800840529093023e-10,-7.563796811105306e-10,-7.326752538006076e-10,-7.089708820018359e-10,-6.852665102030642e-10,-6.615620828931412e-10,-6.378577110943695e-10,-6.141532837844466e-10,-5.904489119856748e-10,-5.667445401869031e-10,-5.430401128769802e-10,-5.193357410782085e-10,-4.956313137682855e-10,-4.719269419695138e-10,-4.4822257017074207e-10,-4.2451817061639474e-10,-4.008137710620474e-10,-3.771093715077001e-10,-3.5340497195335274e-10,-3.29700600154581e-10,-3.059962006002337e-10,-2.8229180104588636e-10,-2.5858742924711464e-10,-2.348830296927673e-10,-2.1117863013841998e-10,-1.8747423058407264e-10,-1.6376984490751312e-10,-1.400654592309536e-10,-1.1636105967660626e-10,-9.265666706115283e-11,-6.89522744456994e-11,-4.524788183024597e-11,-2.1543489214792544e-11,2.160903400660885e-12,2.5865296016114314e-11,4.956968863156774e-11,7.327408124702117e-11,9.69784738624746e-11,1.2068286647792803e-10,1.4438725215448756e-10,1.680916517088349e-10,1.9179605126318222e-10,2.1550043693974175e-10,2.3920482261630127e-10,2.629092221706486e-10,2.8661362172499594e-10,3.1031799352376765e-10,3.34022393078115e-10,3.577267926324623e-10,3.8143119218680965e-10,4.05135591741157e-10,4.288399635399287e-10,4.5254436309427604e-10,4.762487626486234e-10,4.999531344473951e-10,5.23657561757318e-10,5.473619335560898e-10],"_type":"histogram","values":[1,0,0,0,0,1,0,0,0,0,1,1,0,0,0,0,1,1,0,1,0,0,1,0,0,1,3,0,1,1,2,1,1,0,2,1,0,4,1,0,0,0,0,1,1,0,0,0,0,0,0,0,0,0,1,0,0,0,0,1,0,1,0,1]},"gradients/features.7.weight":{"values":[3,4,8,17,20,16,18,20,26,28,44,47,49,62,55,87,118,157,165,176,230,301,384,432,497,542,645,756,907,1114,1342,1558,1806,2095,2527,2708,2290,1846,1558,947,563,336,270,202,173,110,67,54,56,50,30,16,27,20,21,16,9,5,5,4,4,2,1,2],"bins":[-3.897403288988244e-09,-3.783925617284467e-09,-3.6704477235360855e-09,-3.556970051832309e-09,-3.4434921580839273e-09,-3.3300144863801506e-09,-3.216536592631769e-09,-3.1030589209279924e-09,-2.989581027179611e-09,-2.876103355475834e-09,-2.7626254617274526e-09,-2.649147790023676e-09,-2.5356698962752944e-09,-2.4221922245715177e-09,-2.308714330823136e-09,-2.1952366591193595e-09,-2.081758765370978e-09,-1.9682810936672013e-09,-1.8548033109411222e-09,-1.741325528215043e-09,-1.627847745488964e-09,-1.5143699627628848e-09,-1.4008921800368057e-09,-1.2874143973107266e-09,-1.17393672560695e-09,-1.0604589428808708e-09,-9.469811601547917e-10,-8.335033219175614e-10,-7.200255947026335e-10,-6.065478119765544e-10,-4.930700292504753e-10,-3.7959224652439616e-10,-2.6611446379831705e-10,-1.5263668107223793e-10,-3.915891222394663e-11,7.431886356323858e-11,1.877966393504238e-10,3.012744220765029e-10,4.147521770470064e-10,5.282299597730855e-10,6.417077424991646e-10,7.551855252252437e-10,8.686633079513228e-10,9.821410351662507e-10,1.0956188178923298e-09,1.209096600618409e-09,1.322574383344488e-09,1.4360521660705672e-09,1.5495299487966463e-09,1.6630077315227254e-09,1.7764855142488045e-09,1.8899632969748836e-09,2.0034409686786603e-09,2.116918862427042e-09,2.2303965341308185e-09,2.3438744278792e-09,2.4573520995829767e-09,2.5708299933313583e-09,2.684307665035135e-09,2.7977855587835165e-09,2.911263230487293e-09,3.0247411242356748e-09,3.1382187959394514e-09,3.251696689687833e-09,3.3651743613916096e-09],"_type":"histogram"},"_timestamp":1.7659439024699311e+09,"best validation loss":4.913807682537481,"gradients/classifier.1.weight":{"bins":[-8.384644090142501e-10,-8.253633887456147e-10,-8.122623684769792e-10,-7.99161403719495e-10,-7.860603834508595e-10,-7.72959363182224e-10,-7.598583984247398e-10,-7.467573781561043e-10,-7.336563578874689e-10,-7.205553376188334e-10,-7.074543173501979e-10,-6.943533525927137e-10,-6.812523323240782e-10,-6.681513120554428e-10,-6.550503472979585e-10,-6.419493270293231e-10,-6.288483067606876e-10,-6.157472864920521e-10,-6.026462662234167e-10,-5.895453014659324e-10,-5.76444281197297e-10,-5.633432609286615e-10,-5.502422961711773e-10,-5.371412759025418e-10,-5.240402556339063e-10,-5.109392353652709e-10,-4.978382150966354e-10,-4.847372503391512e-10,-4.716362300705157e-10,-4.5853520980188023e-10,-4.454342172888204e-10,-4.3233322477576053e-10,-4.1923220450712506e-10,-4.061311842384896e-10,-3.9303019172542975e-10,-3.799291992123699e-10,-3.6682817894373443e-10,-3.5372715867509896e-10,-3.406261661620391e-10,-3.2752517364897926e-10,-3.144241533803438e-10,-3.0132313311170833e-10,-2.882221405986485e-10,-2.7512114808558863e-10,-2.6202012781695316e-10,-2.489191075483177e-10,-2.3581811503525785e-10,-2.227171086444102e-10,-2.0961610225356253e-10,-1.9651509586271487e-10,-1.8341408947186721e-10,-1.7031308308101956e-10,-1.572120766901719e-10,-1.4411107029932424e-10,-1.3101006390847658e-10,-1.1790905751762892e-10,-1.0480805112678127e-10,-9.170704473593361e-11,-7.860603834508595e-11,-6.550503195423829e-11,-5.240402556339063e-11,-3.9303019172542975e-11,-2.6202012781695316e-11,-1.3101006390847658e-11,0],"_type":"histogram","values":[3,5,11,15,31,34,51,54,77,90,107,168,203,263,270,346,379,420,466,472,476,536,577,606,603,709,789,851,927,1003,1150,1239,1397,1479,1476,1543,1593,1559,1558,1584,1611,1708,1844,2063,2145,2145,2172,2172,2195,2060,2220,2171,2136,2249,2174,2144,2214,2757,3086,2981,3216,1890,511,85016]},"gradients/features.3.bias":{"values":[1,0,0,0,0,0,0,0,1,0,0,0,0,1,1,0,1,0,3,0,2,2,3,1,3,2,2,1,0,1,1,1,0,2,1,0,0,1,0,0,0,0,0,0,0,0,0,0,0,0,0,0,0,0,0,0,0,0,0,0,0,0,0,1],"bins":[-2.7755575615628914e-16,-2.654126918244515e-16,-2.5326962749261384e-16,-2.411265631607762e-16,-2.2898349882893854e-16,-2.1684043449710089e-16,-2.0469737016526324e-16,-1.9255430583342559e-16,-1.8041124150158794e-16,-1.682681771697503e-16,-1.5612511283791264e-16,-1.43982048506075e-16,-1.3183898417423734e-16,-1.196959198423997e-16,-1.0755285551056204e-16,-9.540979117872439e-17,-8.326672684688674e-17,-7.112366251504909e-17,-5.898059818321144e-17,-4.683753385137379e-17,-3.469446951953614e-17,-2.2551405187698492e-17,-1.0408340855860843e-17,1.734723475976807e-18,1.3877787807814457e-17,2.6020852139652106e-17,3.8163916471489756e-17,5.0306980803327406e-17,6.245004513516506e-17,7.45931094670027e-17,8.673617379884035e-17,9.8879238130678e-17,1.1102230246251565e-16,1.231653667943533e-16,1.3530843112619095e-16,1.474514954580286e-16,1.5959455978986625e-16,1.717376241217039e-16,1.8388068845354155e-16,1.960237527853792e-16,2.0816681711721685e-16,2.203098814490545e-16,2.3245294578089215e-16,2.445960101127298e-16,2.5673907444456745e-16,2.688821387764051e-16,2.8102520310824275e-16,2.931682674400804e-16,3.0531133177191805e-16,3.174543961037557e-16,3.2959746043559335e-16,3.41740524767431e-16,3.5388358909926865e-16,3.660266534311063e-16,3.7816971776294395e-16,3.903127820947816e-16,4.0245584642661925e-16,4.145989107584569e-16,4.2674197509029455e-16,4.388850394221322e-16,4.510281037539698e-16,4.631711680858075e-16,4.753142324176451e-16,4.874572967494828e-16,4.996003610813204e-16],"_type":"histogram"},"validation precision":0,"_step":21,"validation loss":7.949731830455741,"gradients/features.0.weight":{"bins":[-5.995352214682725e-09,-5.797254232220439e-09,-5.599155805668943e-09,-5.401057823206656e-09,-5.20295984074437e-09,-5.004861414192874e-09,-4.806763431730587e-09,-4.608665005179091e-09,-4.410567022716805e-09,-4.212469040254518e-09,-4.014370613703022e-09,-3.816272631240736e-09,-3.6181744267338445e-09,-3.420076222226953e-09,-3.221978239764667e-09,-3.0238800352577755e-09,-2.825781830750884e-09,-2.627683626243993e-09,-2.4295854217371016e-09,-2.231487439274815e-09,-2.033389234767924e-09,-1.8352910302610326e-09,-1.6371929367764437e-09,-1.4390948432918549e-09,-1.2409966387849636e-09,-1.0428984342780723e-09,-8.448003407934834e-10,-6.467021917977434e-10,-4.486040428020033e-10,-2.505058938062632e-10,-5.240774481052313e-11,1.4569040418521695e-10,3.4378810909174717e-10,5.418862580874872e-10,7.399844070832273e-10,9.380825005678162e-10,1.1361807050747075e-09,1.3342789095815988e-09,1.5323770030661876e-09,1.7304750965507765e-09,1.9285733010576678e-09,2.126671505564559e-09,2.3247697100714504e-09,2.5228676925337368e-09,2.720965897040628e-09,2.9190641015475194e-09,3.1171620840098058e-09,3.315260288516697e-09,3.5133584930235884e-09,3.7114566975304797e-09,3.909554902037371e-09,4.107652884499657e-09,4.305751311051154e-09,4.50384929351344e-09,4.701947275975726e-09,4.900045702527223e-09,5.098143684989509e-09,5.296241667451795e-09,5.494340094003292e-09,5.692438076465578e-09,5.890536058927864e-09,6.088634485479361e-09,6.286732467941647e-09,6.484830894493143e-09,6.68292887695543e-09],"_type":"histogram","values":[10,6,0,0,0,0,0,0,0,0,0,0,0,0,1,6,4,7,15,20,21,6,6,22,31,21,48,25,54,70,164,78,55,27,9,0,9,14,12,18,24,18,19,24,21,31,16,2,8,6,13,6,3,9,7,3,9,11,11,5,6,3,2,8]},"gradients/features.1.bias":{"values":[1,0,0,0,0,0,0,0,0,0,0,0,0,0,1,0,0,0,0,1,0,0,0,2,0,0,0,0,0,0,0,1,1,0,0,1,0,0,2,0,0,0,0,0,1,0,0,0,0,0,1,0,0,0,0,0,0,0,0,0,2,0,1,1],"bins":[-2.163027978951959e-09,-2.1156258966925634e-09,-2.0682238144331677e-09,-2.020821954218377e-09,-1.9734198719589813e-09,-1.9260177896995856e-09,-1.87861570744019e-09,-1.8312136251807942e-09,-1.783811653943701e-09,-1.7364095716843053e-09,-1.6890074894249096e-09,-1.6416055181878164e-09,-1.5942034359284207e-09,-1.546801353669025e-09,-1.4993993824319318e-09,-1.4519973001725361e-09,-1.404595328935443e-09,-1.3571932466760472e-09,-1.3097911644166516e-09,-1.2623891931795583e-09,-1.2149871109201626e-09,-1.167585028660767e-09,-1.1201830574236737e-09,-1.072780975164278e-09,-1.0253788929048824e-09,-9.779769216677892e-10,-9.305748394083935e-10,-8.83172812660149e-10,-8.357707304007533e-10,-7.883687036525089e-10,-7.409666769042644e-10,-6.935645946448687e-10,-6.461625678966243e-10,-5.987605411483798e-10,-5.513584588889842e-10,-5.039564321407397e-10,-4.5655440539249526e-10,-4.091523508886752e-10,-3.617502963848551e-10,-3.1434826963661067e-10,-2.669462151327906e-10,-2.1954417450675834e-10,-1.7214213388072608e-10,-1.24740079376906e-10,-7.733803875087375e-11,-2.993599465539454e-11,1.7466049440084674e-11,6.486809700501084e-11,1.122701376310431e-10,1.5967217825707536e-10,2.0707421888310762e-10,2.544762733869277e-10,3.0187830013517214e-10,3.492803546389922e-10,3.966824091428123e-10,4.4408443589105673e-10,4.914865181504524e-10,5.388885448986969e-10,5.862905716469413e-10,6.336925983951858e-10,6.810946806545815e-10,7.284967074028259e-10,7.758987341510704e-10,8.23300816410466e-10,8.707028431587105e-10],"_type":"histogram"},"train loss":1.7135415252278463e-06,"gradients/classifier.3.bias":{"bins":[3.2381544112780603e-09,3.2381544112780603e-09],"_type":"histogram","values":[1]},"gradients/features.1.weight":{"values":[1,0,0,1,0,0,1,0,0,0,0,0,0,1,0,0,0,0,2,0,0,0,1,0,0,1,0,1,0,1,1,0,1,1,0,0,0,0,0,0,0,1,0,0,0,0,0,0,0,0,0,0,0,0,0,0,0,1,0,0,0,0,0,1],"bins":[-1.3260180731222704e-09,-1.2760600354155827e-09,-1.226101997708895e-09,-1.1761439600022072e-09,-1.1261859222955195e-09,-1.0762278845888318e-09,-1.026269846882144e-09,-9.763118091754563e-10,-9.263538269799199e-10,-8.763957892732321e-10,-8.264377515665444e-10,-7.764797138598567e-10,-7.265217316643202e-10,-6.765636939576325e-10,-6.266056562509448e-10,-5.766476185442571e-10,-5.266895808375693e-10,-4.767315431308816e-10,-4.267735054241939e-10,-3.768154954730818e-10,-3.268574577663941e-10,-2.7689942005970636e-10,-2.2694139623080645e-10,-1.7698337240190654e-10,-1.2702533469521882e-10,-7.7067303927425e-11,-2.7109273159631186e-11,2.284875760816263e-11,7.280678837595644e-11,1.2276482608264416e-10,1.7272284991154407e-10,2.2268087374044399e-10,2.7263902246943417e-10,3.225970601761219e-10,3.725550978828096e-10,4.225131078339217e-10,4.72471173296185e-10,5.224291554917215e-10,5.723871931984092e-10,6.22345230905097e-10,6.723032686117847e-10,7.222613063184724e-10,7.722193440251601e-10,8.221773817318478e-10,8.721353639273843e-10,9.220934016340721e-10,9.720514393407598e-10,1.0220094770474475e-09,1.0719675147541352e-09,1.121925552460823e-09,1.1718835901675106e-09,1.2218416278741984e-09,1.271799665580886e-09,1.3217577032875738e-09,1.3717157409942615e-09,1.4216737787009492e-09,1.4716317053853345e-09,1.5215897430920222e-09,1.57154778079871e-09,1.6215058185053977e-09,1.6714638562120854e-09,1.721421893918773e-09,1.7713799316254608e-09,1.8213379693321485e-09,1.8712960070388363e-09],"_type":"histogram"},"validation accuracy":0.875,"gradients/features.3.weight":{"_type":"histogram","values":[12,22,11,6,5,7,6,14,17,4,6,8,5,5,0,0,2,2,4,3,6,5,12,6,6,10,21,35,44,76,66,78,58,129,205,232,308,748,1341,3164,9429,8353,3837,1775,758,622,338,165,131,126,123,125,85,56,15,21,5,36,18,13,27,5,3,13],"bins":[-1.1662018906122285e-08,-1.1375601793872647e-08,-1.108918468162301e-08,-1.0802767569373373e-08,-1.0516350457123735e-08,-1.0229933344874098e-08,-9.94351623262446e-09,-9.657099120374824e-09,-9.370682008125186e-09,-9.08426400769713e-09,-8.797846895447492e-09,-8.511429783197855e-09,-8.225012670948217e-09,-7.93859555869858e-09,-7.652178446448943e-09,-7.3657613341993056e-09,-7.079344221949668e-09,-6.792927109700031e-09,-6.506509997450394e-09,-6.2200928852007564e-09,-5.933675772951119e-09,-5.647258216612272e-09,-5.360841104362635e-09,-5.0744239921129974e-09,-4.78800687986336e-09,-4.501589767613723e-09,-4.2151726553640856e-09,-3.928755543114448e-09,-3.642338208820206e-09,-3.355921096570569e-09,-3.0695037622763266e-09,-2.7830866500266893e-09,-2.496669981866262e-09,-2.2102528696166246e-09,-1.9238357573669873e-09,-1.637418423072745e-09,-1.3510013108231078e-09,-1.0645841985734705e-09,-7.781669753015308e-10,-4.917498075407423e-10,-2.0533263977995375e-10,8.108452798083476e-11,3.675016957416233e-10,6.539188635024118e-10,9.403360312632003e-10,1.2267531435128376e-09,1.5131703667847773e-09,1.799587590056717e-09,2.0860047023063544e-09,2.3724218145559917e-09,2.658838926805629e-09,2.945256261099871e-09,3.2316733733495084e-09,3.5180904855991457e-09,3.804507819893388e-09,4.090924932143025e-09,4.3773420443926625e-09,4.6637591566423e-09,4.950176268891937e-09,5.236593381141574e-09,5.523010493391212e-09,5.809428049730059e-09,6.095845161979696e-09,6.382262274229333e-09,6.668679386478971e-09]},"gradients/features.10.weight":{"bins":[-6.494786930488772e-09,-6.393248153102604e-09,-6.2917098198056465e-09,-6.190171042419479e-09,-6.088632265033311e-09,-5.987093487647144e-09,-5.885555154350186e-09,-5.7840163769640185e-09,-5.682477599577851e-09,-5.580939266280893e-09,-5.479400488894726e-09,-5.377861711508558e-09,-5.2763229341223905e-09,-5.174784600825433e-09,-5.073245823439265e-09,-4.971707046053098e-09,-4.87016826866693e-09,-4.768629935369972e-09,-4.667091157983805e-09,-4.565552380597637e-09,-4.4640140473006795e-09,-4.362475269914512e-09,-4.260936492528344e-09,-4.159397715142177e-09,-4.057859381845219e-09,-3.9563206044590515e-09,-3.854781827072884e-09,-3.753243493775926e-09,-3.6517047163897587e-09,-3.550165939003591e-09,-3.4486273836620285e-09,-3.347088606275861e-09,-3.2455500509342983e-09,-3.1440114955927356e-09,-3.042472718206568e-09,-2.9409341628650054e-09,-2.839395385478838e-09,-2.7378568301372752e-09,-2.6363182747957126e-09,-2.534779497409545e-09,-2.4332409420679824e-09,-2.3317021646818148e-09,-2.230163609340252e-09,-2.1286248319540846e-09,-2.027086276612522e-09,-1.9255474992263544e-09,-1.8240089438847917e-09,-1.7224702775209266e-09,-1.6209316111570615e-09,-1.5193929447931964e-09,-1.4178543894516338e-09,-1.3163157230877687e-09,-1.2147770567239036e-09,-1.1132383903600385e-09,-1.0116997239961734e-09,-9.101610576323083e-10,-8.086224467795944e-10,-7.070837804157293e-10,-6.055451140518642e-10,-5.040064476879991e-10,-4.024678090797096e-10,-3.009291704714201e-10,-1.993905179853428e-10,-9.78518585603716e-11,3.686791323620486e-12],"_type":"histogram","values":[1,1,2,1,2,0,3,1,2,2,4,5,4,7,6,12,6,7,14,11,20,18,27,28,37,24,44,52,49,84,73,115,141,143,178,194,217,241,235,243,257,263,231,186,231,163,176,144,147,137,148,189,194,214,192,201,310,431,565,666,717,798,1263,3747]}}