{"gradients/features.4.bias":{"values":[1,0,1,0,0,0,0,0,0,0,0,0,0,0,0,0,0,0,0,0,0,0,0,0,0,1,0,4,0,1,1,2,1,2,1,0,2,2,1,1,1,1,1,1,1,0,0,0,1,0,0,0,0,1,0,0,0,0,0,0,1,0,2,1],"bins":[-1.064190882971161e-06,-1.0423070762044517e-06,-1.0204231557509047e-06,-9.985393489841954e-07,-9.76655542217486e-07,-9.54771621763939e-07,-9.328878149972297e-07,-9.110039513871016e-07,-8.891200877769734e-07,-8.672362810102641e-07,-8.453524174001359e-07,-8.234685537900077e-07,-8.015846901798795e-07,-7.797008834131702e-07,-7.578170198030421e-07,-7.359331561929139e-07,-7.140492925827857e-07,-6.921654858160764e-07,-6.702816222059482e-07,-6.4839775859582e-07,-6.265139518291107e-07,-6.046300882189826e-07,-5.827462246088544e-07,-5.608623609987262e-07,-5.389785542320169e-07,-5.170946906218887e-07,-4.952108270117606e-07,-4.733269918233418e-07,-4.5144315663492307e-07,-4.295592930247949e-07,-4.0767545783637615e-07,-3.85791594226248e-07,-3.6390775903782924e-07,-3.420239238494105e-07,-3.201400602392823e-07,-2.982562250508636e-07,-2.763723614407354e-07,-2.5448852625231666e-07,-2.326046768530432e-07,-2.1072082745376974e-07,-1.8883697805449629e-07,-1.6695312865522283e-07,-1.4506927925594937e-07,-1.231854298566759e-07,-1.0130158756282981e-07,-7.941773816355635e-08,-5.753389231699657e-08,-3.565004647043679e-08,-1.3766197071163333e-08,8.117650551753286e-09,3.0001498174669905e-08,5.1885344021229685e-08,7.376919342050314e-08,9.56530428197766e-08,1.175368851136227e-07,1.3942073451289616e-07,1.6130458391216962e-07,1.8318843331144308e-07,2.0507228271071654e-07,2.2695613210999e-07,2.4883996729840874e-07,2.707238309085369e-07,2.9260766609695565e-07,3.1449152970708383e-07,3.3637536489550257e-07],"_type":"histogram"},"gradients/classifier.3.weight":{"bins":[0,4.373929414214217e-07,8.747858828428434e-07,1.3121788242642651e-06,1.7495717656856868e-06,2.186964593420271e-06,2.6243576485285303e-06,3.0617507036367897e-06,3.4991435313713737e-06,3.936536359105958e-06,4.373929186840542e-06,4.8113224693224765e-06,5.2487152970570605e-06,5.6861081247916445e-06,6.123501407273579e-06,6.560894235008163e-06,6.998287062742747e-06,7.435679890477331e-06,7.873072718211915e-06,8.31046600069385e-06,8.747858373681083e-06,9.185251656163018e-06,9.622644938644953e-06,1.0060037311632186e-05,1.0497430594114121e-05,1.0934823876596056e-05,1.1372216249583289e-05,1.1809609532065224e-05,1.2247002814547159e-05,1.2684395187534392e-05,1.3121788470016327e-05,1.355918084300356e-05,1.3996574125485495e-05,1.443396740796743e-05,1.4871359780954663e-05,1.5308753063436598e-05,1.574614543642383e-05,1.6183539628400467e-05,1.66209320013877e-05,1.7058324374374934e-05,1.7495716747362167e-05,1.7933110939338803e-05,1.8370503312326036e-05,1.880789568531327e-05,1.9245289877289906e-05,1.968268225027714e-05,2.0120074623264372e-05,2.055746881524101e-05,2.0994861188228242e-05,2.1432253561215475e-05,2.1869647753192112e-05,2.2307040126179345e-05,2.2744432499166578e-05,2.3181826691143215e-05,2.3619219064130448e-05,2.405661143711768e-05,2.4494005629094318e-05,2.493139800208155e-05,2.5368790375068784e-05,2.5806182748056017e-05,2.6243576940032654e-05,2.6680969313019887e-05,2.711836168600712e-05,2.7555755877983756e-05,2.799314825097099e-05],"_type":"histogram","values":[49,0,0,0,0,0,0,0,0,0,0,0,0,0,0,0,0,0,0,0,0,0,0,0,0,0,0,0,0,0,0,0,0,1,1,0,0,0,0,2,1,1,1,1,5,3,1,2,2,4,2,6,1,4,1,4,4,3,0,0,0,0,0,1]},"gradients/features.7.weight":{"bins":[-2.9307723252713913e-06,-2.851555109373294e-06,-2.7723378934751963e-06,-2.6931204502034234e-06,-2.613903234305326e-06,-2.5346860184072284e-06,-2.455468802509131e-06,-2.3762515866110334e-06,-2.297034370712936e-06,-2.217816927441163e-06,-2.1385997115430655e-06,-2.059382495644968e-06,-1.9801652797468705e-06,-1.9009479501619353e-06,-1.8217307342638378e-06,-1.7425134046789026e-06,-1.663296188780805e-06,-1.5840789728827076e-06,-1.5048616432977724e-06,-1.425644427399675e-06,-1.3464270978147397e-06,-1.2672098819166422e-06,-1.1879926660185447e-06,-1.1087753364336095e-06,-1.029558120535512e-06,-9.503408477939956e-07,-8.711235750524793e-07,-7.919063591543818e-07,-7.126890864128654e-07,-6.334718136713491e-07,-5.542545977732516e-07,-4.7503732503173524e-07,-3.9581982491654344e-07,-3.166025521750271e-07,-2.3738530785522016e-07,-1.5816804932455852e-07,-7.895079079389689e-08,2.6646773676475277e-10,7.948372626742639e-08,1.5870098479808803e-07,2.3791824332874967e-07,3.17135516070266e-07,3.9635276039007294e-07,4.7557000470987987e-07,5.547872774513962e-07,6.340045501929126e-07,7.132217660910101e-07,7.924390388325264e-07,8.716563115740428e-07,9.508735843155591e-07,1.0300908570570755e-06,1.109308072955173e-06,1.1885254025401082e-06,1.2677426184382057e-06,1.3469598343363032e-06,1.4261771639212384e-06,1.5053943798193359e-06,1.5846115957174334e-06,1.6638289253023686e-06,1.743046141200466e-06,1.8222633570985636e-06,1.9014806866834988e-06,1.980698016268434e-06,2.0599152321665315e-06,2.139132448064629e-06],"_type":"histogram","values":[1,0,4,5,6,6,13,13,15,20,31,37,35,41,49,68,63,81,74,115,129,159,190,231,315,362,390,493,590,710,866,1061,1135,1200,1575,1831,2316,2305,2195,1974,1620,1355,1026,768,583,430,254,202,172,148,83,95,65,38,24,17,17,16,10,7,4,6,2,2]},"gradients/features.8.weight":{"_type":"histogram","values":[1,0,0,0,0,0,0,0,0,0,1,0,0,0,0,0,0,0,1,0,0,1,0,1,1,2,1,3,1,2,1,0,2,1,1,0,2,0,2,1,2,0,1,0,1,0,0,0,0,1,0,0,0,0,0,0,1,0,0,0,0,0,0,1],"bins":[-3.530856702127494e-06,-3.476213123576599e-06,-3.421569317652029e-06,-3.3669257391011342e-06,-3.3122821605502395e-06,-3.2576385819993448e-06,-3.2029947760747746e-06,-3.14835119752388e-06,-3.093707618972985e-06,-3.0390640404220903e-06,-2.98442023449752e-06,-2.9297766559466254e-06,-2.8751330773957307e-06,-2.820489498844836e-06,-2.7658456929202657e-06,-2.711202114369371e-06,-2.6565585358184762e-06,-2.601914729893906e-06,-2.5472711513430113e-06,-2.4926275727921166e-06,-2.437983994241222e-06,-2.3833401883166516e-06,-2.328696609765757e-06,-2.274053031214862e-06,-2.2194094526639674e-06,-2.164765646739397e-06,-2.1101220681885025e-06,-2.0554784896376077e-06,-2.000834911086713e-06,-1.9461911051621428e-06,-1.891547526611248e-06,-1.8369039480603533e-06,-1.782260142135783e-06,-1.7276165635848884e-06,-1.6729728713471559e-06,-1.6183292927962611e-06,-1.5636856005585287e-06,-1.509042022007634e-06,-1.4543983297699015e-06,-1.3997547512190067e-06,-1.3451110589812743e-06,-1.2904674804303795e-06,-1.235823788192647e-06,-1.1811802096417523e-06,-1.1265365174040198e-06,-1.0718928251662874e-06,-1.0172492466153926e-06,-9.626055543776602e-07,-9.079619758267654e-07,-8.533183404324518e-07,-7.986747050381382e-07,-7.440310696438246e-07,-6.89387434249511e-07,-6.347437420117785e-07,-5.801001066174649e-07,-5.254564712231513e-07,-4.708128358288377e-07,-4.161692004345241e-07,-3.615255650402105e-07,-3.068819296458969e-07,-2.522382942515833e-07,-1.9759465885726968e-07,-1.4295102346295607e-07,-8.830737385778775e-08,-3.3663738463474147e-08]},"gradients/features.1.bias":{"_type":"histogram","values":[1,0,0,0,0,0,0,0,2,0,0,0,0,0,0,0,0,0,0,1,0,0,0,0,0,0,0,0,2,0,0,0,0,0,0,1,1,2,0,0,1,0,0,0,0,0,0,0,0,1,1,0,0,0,1,0,0,0,1,0,0,0,0,1],"bins":[-1.3140474948158953e-06,-1.2871565786554129e-06,-1.2602655488080927e-06,-1.2333746326476103e-06,-1.20648360280029e-06,-1.1795926866398077e-06,-1.1527016567924875e-06,-1.125810740632005e-06,-1.0989197107846849e-06,-1.0720287946242024e-06,-1.0451377647768822e-06,-1.0182468486163998e-06,-9.913558187690796e-07,-9.644649026085972e-07,-9.375739296046959e-07,-9.106829566007946e-07,-8.837919835968933e-07,-8.56901010592992e-07,-8.300100375890906e-07,-8.031190645851893e-07,-7.76228091581288e-07,-7.493371185773867e-07,-7.224461455734854e-07,-6.955551725695841e-07,-6.686642564091017e-07,-6.417732834052003e-07,-6.14882310401299e-07,-5.879913373973977e-07,-5.611003643934964e-07,-5.342093913895951e-07,-5.073184183856938e-07,-4.804274453817925e-07,-4.5353644395618176e-07,-4.2664547095228045e-07,-3.9975449794837914e-07,-3.7286352494447783e-07,-3.4597258036228595e-07,-3.1908160735838464e-07,-2.9219063435448334e-07,-2.6529966135058203e-07,-2.3840868834668072e-07,-2.115177153427794e-07,-1.846267423388781e-07,-1.577357835458315e-07,-1.308448105419302e-07,-1.0395383753802889e-07,-7.706287163955494e-08,-5.017190218836731e-08,-2.3280932737179683e-08,3.610036714007947e-09,3.0501006165195577e-08,5.7391975616383206e-08,8.428294506757084e-08,1.1117391807147214e-07,1.3806487686451874e-07,1.6495584986842005e-07,1.9184682287232135e-07,2.1873779587622266e-07,2.4562876888012397e-07,2.725197418840253e-07,2.994107148879266e-07,3.2630165947011847e-07,3.531926324740198e-07,3.800836054779211e-07,4.069745784818224e-07]},"gradients/features.10.bias":{"_type":"histogram","values":[3,1,0,0,1,0,0,2,0,1,1,2,1,1,0,1,0,1,0,0,0,0,0,0,0,0,0,0,0,0,0,0,0,0,0,0,0,0,0,0,0,0,0,0,0,0,0,0,0,0,0,0,0,0,0,0,0,0,0,0,0,0,0,1],"bins":[-3.831540198007133e-06,-3.771674755626009e-06,-3.711809313244885e-06,-3.651943870863761e-06,-3.592078428482637e-06,-3.532212986101513e-06,-3.4723475437203888e-06,-3.4124821013392648e-06,-3.3526166589581408e-06,-3.292751443950692e-06,-3.232886001569568e-06,-3.173020559188444e-06,-3.11315511680732e-06,-3.053289674426196e-06,-2.993424232045072e-06,-2.933558789663948e-06,-2.873693347282824e-06,-2.8138279049017e-06,-2.753962462520576e-06,-2.694097020139452e-06,-2.634231577758328e-06,-2.574366135377204e-06,-2.51450069299608e-06,-2.454635250614956e-06,-2.3947700356075075e-06,-2.3349045932263834e-06,-2.2750391508452594e-06,-2.2151737084641354e-06,-2.1553082660830114e-06,-2.0954428237018874e-06,-2.0355773813207634e-06,-1.9757119389396394e-06,-1.91584626918484e-06,-1.8559809404905536e-06,-1.7961154981094296e-06,-1.7362500557283056e-06,-1.6763846133471816e-06,-1.6165192846528953e-06,-1.5566538422717713e-06,-1.4967883998906473e-06,-1.4369229575095233e-06,-1.3770575151283992e-06,-1.3171920727472752e-06,-1.2573266303661512e-06,-1.1974611879850272e-06,-1.1375957456039032e-06,-1.077730416909617e-06,-1.0178649745284929e-06,-9.579995321473689e-07,-8.981340897662449e-07,-8.382686473851209e-07,-7.784032050039968e-07,-7.185378194662917e-07,-6.586723770851677e-07,-5.988069347040437e-07,-5.389415491663385e-07,-4.790761067852145e-07,-4.192106644040905e-07,-3.593452220229665e-07,-2.994798080635519e-07,-2.396143941041373e-07,-1.797489517230133e-07,-1.19883523552744e-07,-6.001809538247471e-08,-1.5266721220541513e-10]},"gradients/features.3.weight":{"_type":"histogram","values":[6,2,5,7,8,6,3,3,2,3,7,11,8,15,20,42,42,32,39,69,130,200,150,176,232,326,515,679,1249,2160,3674,5482,5376,3313,2368,1582,1037,721,549,362,318,336,273,256,201,132,75,86,81,75,63,52,38,34,9,21,29,21,6,9,10,13,10,9],"bins":[-3.8254702303675e-06,-3.7045713270345004e-06,-3.583672196327825e-06,-3.462773292994825e-06,-3.34187416228815e-06,-3.22097525895515e-06,-3.1000761282484746e-06,-2.9791772249154747e-06,-2.8582780942087993e-06,-2.7373791908757994e-06,-2.6164802875427995e-06,-2.495581156836124e-06,-2.3746822535031242e-06,-2.253783122796449e-06,-2.132884219463449e-06,-2.0119850887567736e-06,-1.8910861854237737e-06,-1.770187168403936e-06,-1.6492881513840985e-06,-1.5283891343642608e-06,-1.4074901173444232e-06,-1.2865912140114233e-06,-1.1656921969915857e-06,-1.044793179971748e-06,-9.238941629519104e-07,-8.029951459320728e-07,-6.820961289122351e-07,-5.611971687358164e-07,-4.4029815171597875e-07,-3.193991346961411e-07,-1.9850014609801292e-07,-7.760114328903e-08,4.329785951995291e-08,1.6419686232893582e-07,2.8509586513791874e-07,4.0599485373604693e-07,5.268938707558846e-07,6.477928877757222e-07,7.68691847952141e-07,8.895908649719786e-07,1.0104898819918162e-06,1.1313888990116538e-06,1.2522879160314915e-06,1.3731869330513291e-06,1.494085836384329e-06,1.6149848534041666e-06,1.7358838704240043e-06,1.856782887443842e-06,1.9776819044636795e-06,2.0985808077966794e-06,2.2194799385033548e-06,2.3403788418363547e-06,2.46127797254303e-06,2.58217687587603e-06,2.7030760065827053e-06,2.823974909915705e-06,2.944873813248705e-06,3.0657729439553805e-06,3.1866718472883804e-06,3.3075709779950557e-06,3.4284698813280556e-06,3.549369012034731e-06,3.670267915367731e-06,3.7911670460744062e-06,3.912065949407406e-06]},"gradients/features.3.bias":{"bins":[-6.536993168992922e-13,-6.370459715299148e-13,-6.203926261605375e-13,-6.037392807911601e-13,-5.870859354217828e-13,-5.704325900524054e-13,-5.537792446830281e-13,-5.371258993136507e-13,-5.204725539442734e-13,-5.03819208574896e-13,-4.871658632055187e-13,-4.705125178361413e-13,-4.53859172466764e-13,-4.3720582709738665e-13,-4.205524817280093e-13,-4.0389913635863195e-13,-3.872457909892546e-13,-3.7059244561987725e-13,-3.539391002504999e-13,-3.3728575488112256e-13,-3.206324095117452e-13,-3.0397906414236786e-13,-2.873257187729905e-13,-2.7067237340361316e-13,-2.540190280342358e-13,-2.3736568266485847e-13,-2.2071233729548112e-13,-2.0405899192610377e-13,-1.8740564655672642e-13,-1.7075230118734908e-13,-1.5409895581797173e-13,-1.3744561044859438e-13,-1.2079226507921703e-13,-1.0413891970983968e-13,-8.748557434046234e-14,-7.083222897108499e-14,-5.417888360170764e-14,-3.752553823233029e-14,-2.0872192862952943e-14,-4.218847493575595e-15,1.2434497875801753e-14,2.90878432451791e-14,4.574118861455645e-14,6.23945339839338e-14,7.904787935331115e-14,9.57012247226885e-14,1.1235457009206584e-13,1.290079154614432e-13,1.4566126083082054e-13,1.6231460620019789e-13,1.7896795156957523e-13,1.9562129693895258e-13,2.1227464230832993e-13,2.289279876777073e-13,2.4558133304708463e-13,2.62234678416462e-13,2.788880237858393e-13,2.9554136915521667e-13,3.12194714524594e-13,3.2884805989397137e-13,3.455014052633487e-13,3.6215475063272606e-13,3.788080960021034e-13,3.9546144137148076e-13,4.121147867408581e-13],"_type":"histogram","values":[1,0,0,0,0,0,0,0,0,0,0,0,0,0,0,0,0,0,0,0,0,0,0,0,0,0,0,1,0,0,0,0,0,2,2,2,4,3,3,0,2,0,3,4,1,1,0,1,0,0,0,0,1,0,0,0,0,0,0,0,0,0,0,1]},"gradients/features.1.weight":{"_type":"histogram","values":[1,0,0,0,0,0,0,0,0,0,0,0,0,0,0,1,0,0,0,0,0,2,0,0,0,0,0,0,1,0,3,0,1,0,0,1,0,0,1,1,0,0,0,0,0,0,1,0,0,0,0,0,0,0,0,0,0,1,0,0,1,0,0,1],"bins":[-1.3014623618801124e-06,-1.2638181488000555e-06,-1.2261740494068363e-06,-1.1885298363267793e-06,-1.1508856232467224e-06,-1.1132415238535032e-06,-1.0755973107734462e-06,-1.0379530976933893e-06,-1.00030899830017e-06,-9.626647852201131e-07,-9.25020628983475e-07,-8.87376472746837e-07,-8.4973225966678e-07,-8.120881034301419e-07,-7.744439471935038e-07,-7.367997341134469e-07,-6.991555778768088e-07,-6.615114216401707e-07,-6.238672085601138e-07,-5.862230523234757e-07,-5.485788960868376e-07,-5.109346830067807e-07,-4.732905267701426e-07,-4.356463705335045e-07,-3.98002185875157e-07,-3.603580012168095e-07,-3.227138449801714e-07,-2.850696603218239e-07,-2.474254756634764e-07,-2.097813194268383e-07,-1.721371347684908e-07,-1.34492964320998e-07,-9.68487938735052e-08,-5.9204619873298725e-08,-2.156044587309225e-08,1.6083728127114227e-08,5.3727902127320704e-08,9.13720725748135e-08,1.2901625723316101e-07,1.666604276806538e-07,2.043045981281466e-07,2.419487827864941e-07,2.795929390231322e-07,3.172371236814797e-07,3.5488130833982723e-07,3.925254645764653e-07,4.301696492348128e-07,4.678138054714509e-07,5.054579901297984e-07,5.431021463664365e-07,5.807463594464934e-07,6.183905156831315e-07,6.560346719197696e-07,6.936788849998266e-07,7.313230412364646e-07,7.689671974731027e-07,8.066114105531597e-07,8.442555667897977e-07,8.818997230264358e-07,9.195438792630739e-07,9.57188035499712e-07,9.94832248579769e-07,1.0324764616598259e-06,1.070120561053045e-06,1.107764774133102e-06]},"gradients/features.0.bias":{"bins":[-7.73070496506989e-12,-7.325695605686633e-12,-6.920686246303376e-12,-6.515676886920119e-12,-6.110667527536862e-12,-5.7056581681536045e-12,-5.300648808770347e-12,-4.89563944938709e-12,-4.490630090003833e-12,-4.085620730620576e-12,-3.680611371237319e-12,-3.275602011854062e-12,-2.8705926524708048e-12,-2.4655832930875476e-12,-2.0605739337042905e-12,-1.6555645743210334e-12,-1.2505552149377763e-12,-8.455458555545192e-13,-4.405364961712621e-13,-3.552713678800501e-14,3.694822225952521e-13,7.744915819785092e-13,1.1795009413617663e-12,1.5845103007450234e-12,1.9895196601282805e-12,2.3945290195115376e-12,2.7995383788947947e-12,3.204547738278052e-12,3.609557097661309e-12,4.014566457044566e-12,4.419575816427823e-12,4.82458517581108e-12,5.229594535194337e-12,5.6346038945775945e-12,6.0396132539608516e-12,6.444622613344109e-12,6.849631972727366e-12,7.254641332110623e-12,7.65965069149388e-12,8.064660050877137e-12,8.469669410260394e-12,8.874678769643651e-12,9.279688129026908e-12,9.684697488410166e-12,1.0089706847793423e-11,1.049471620717668e-11,1.0899725566559937e-11,1.1304734925943194e-11,1.1709744285326451e-11,1.2114753644709708e-11,1.2519763004092965e-11,1.2924772363476222e-11,1.332978172285948e-11,1.3734791082242737e-11,1.4139800441625994e-11,1.454480980100925e-11,1.4949819160392508e-11,1.5354828519775765e-11,1.5759837879159022e-11,1.616484723854228e-11,1.6569856597925536e-11,1.6974865957308793e-11,1.737987531669205e-11,1.7784884676075308e-11,1.8189894035458565e-11],"_type":"histogram","values":[1,1,0,1,1,0,0,0,0,0,1,1,0,0,1,0,1,0,0,1,1,1,0,0,0,1,0,1,1,0,0,0,1,0,0,0,0,0,0,0,0,0,0,0,0,0,0,0,0,0,0,0,0,0,0,0,0,0,0,0,0,0,0,1]},"_runtime":8.60916269,"gradients/features.10.weight":{"_type":"histogram","values":[2,6,13,8,10,14,18,21,21,31,32,37,67,65,86,77,99,106,96,115,127,138,165,178,147,156,160,171,163,172,176,147,158,156,161,147,160,158,173,171,181,195,208,214,170,140,172,140,145,149,150,174,157,229,306,387,437,528,539,755,967,650,858,1865],"bins":[-4.858081865677377e-06,-4.7819598876230884e-06,-4.705837454821449e-06,-4.62971547676716e-06,-4.553593498712871e-06,-4.4774715206585824e-06,-4.401349087856943e-06,-4.325227109802654e-06,-4.249105131748365e-06,-4.1729831536940765e-06,-4.096860720892437e-06,-4.020738742838148e-06,-3.944616764783859e-06,-3.8684947867295705e-06,-3.7923725813016063e-06,-3.716250375873642e-06,-3.6401283978193533e-06,-3.564006192391389e-06,-3.487883986963425e-06,-3.411762008909136e-06,-3.335639803481172e-06,-3.259517825426883e-06,-3.183395619998919e-06,-3.10727364194463e-06,-3.031151436516666e-06,-2.955029458462377e-06,-2.878907253034413e-06,-2.802785274980124e-06,-2.72666306955216e-06,-2.650541091497871e-06,-2.574418886069907e-06,-2.498296908015618e-06,-2.422174702587654e-06,-2.346052724533365e-06,-2.269930519105401e-06,-2.193808541051112e-06,-2.117686335623148e-06,-2.041564357568859e-06,-1.965442152140895e-06,-1.8893200603997684e-06,-1.813197968658642e-06,-1.7370758769175154e-06,-1.660953785176389e-06,-1.5848316934352624e-06,-1.508709601694136e-06,-1.4325875099530094e-06,-1.356465418211883e-06,-1.2803433264707564e-06,-1.20422123472963e-06,-1.1280991429885034e-06,-1.051977051247377e-06,-9.758549595062505e-07,-8.997328109217051e-07,-8.236107191805786e-07,-7.474886274394521e-07,-6.713665356983256e-07,-5.952443871137802e-07,-5.191222953726538e-07,-4.4300020363152726e-07,-3.6687811189040076e-07,-2.9075602014927426e-07,-2.1463391419729305e-07,-1.3851182245616656e-07,-6.238971650418534e-08,1.373238056601167e-08]},"gradients/classifier.1.bias":{"bins":[-4.813852001461782e-07,-4.738635652756784e-07,-4.6634190198346914e-07,-4.588202671129693e-07,-4.5129863224246947e-07,-4.437769689502602e-07,-4.3625533407976036e-07,-4.287336992092605e-07,-4.212120643387607e-07,-4.136904010465514e-07,-4.061687661760516e-07,-3.9864713130555174e-07,-3.9112546801334247e-07,-3.8360383314284263e-07,-3.760821982723428e-07,-3.685605349801335e-07,-3.610389001096337e-07,-3.5351726523913385e-07,-3.459956019469246e-07,-3.3847396707642474e-07,-3.309523322059249e-07,-3.2343066891371564e-07,-3.159090340432158e-07,-3.0838739917271596e-07,-3.008657358805067e-07,-2.9334410101000685e-07,-2.85822466139507e-07,-2.783008312690072e-07,-2.707791679767979e-07,-2.6325753310629807e-07,-2.5573589823579823e-07,-2.4821423494358896e-07,-2.406926000730891e-07,-2.3317095099173457e-07,-2.2564931612123473e-07,-2.1812766703988018e-07,-2.1060603216938034e-07,-2.030843830880258e-07,-1.9556273400667123e-07,-1.880410991361714e-07,-1.8051945005481684e-07,-1.729978009734623e-07,-1.6547616610296245e-07,-1.579545170216079e-07,-1.5043286794025335e-07,-1.429112330697535e-07,-1.3538958398839895e-07,-1.2786794911789912e-07,-1.2034630003654456e-07,-1.1282465806061737e-07,-1.0530301608469017e-07,-9.778136700333562e-08,-9.025972502740842e-08,-8.273808305148123e-08,-7.521643397012667e-08,-6.769479199419948e-08,-6.017315001827228e-08,-5.2651508042345085e-08,-4.512986251370421e-08,-3.7608216985063336e-08,-3.008657500913614e-08,-2.2564931256852105e-08,-1.504328750456807e-08,-7.521643752284035e-09,0],"_type":"histogram","values":[1,1,0,2,2,1,0,1,1,2,0,2,1,0,1,0,0,0,0,2,0,0,1,0,2,1,2,0,2,2,0,1,0,1,0,0,0,0,1,2,2,1,1,0,1,2,0,1,0,0,0,0,2,3,0,1,1,2,1,1,0,0,0,49]},"gradients/features.4.weight":{"_type":"histogram","values":[1,0,0,0,0,0,0,0,0,0,0,0,0,0,0,0,0,0,0,0,0,0,1,0,0,0,0,0,0,1,0,2,0,2,1,0,1,3,4,2,1,1,1,1,0,1,0,1,1,1,1,1,0,0,0,0,0,0,0,0,0,1,1,2],"bins":[-1.953438186319545e-06,-1.905684484881931e-06,-1.8579306697574793e-06,-1.8101768546330277e-06,-1.7624231531954138e-06,-1.7146694517577998e-06,-1.6669156366333482e-06,-1.6191618215088965e-06,-1.5714081200712826e-06,-1.5236544186336687e-06,-1.475900603509217e-06,-1.4281467883847654e-06,-1.3803930869471515e-06,-1.3326393855095375e-06,-1.2848855703850859e-06,-1.2371317552606342e-06,-1.1893780538230203e-06,-1.1416243523854064e-06,-1.0938705372609547e-06,-1.046116722136503e-06,-9.983630206988892e-07,-9.506092624178564e-07,-9.028555041368236e-07,-8.551017458557908e-07,-8.07347987574758e-07,-7.595942292937252e-07,-7.118404710126924e-07,-6.640867127316596e-07,-6.163329544506269e-07,-5.685791961695941e-07,-5.208254378885613e-07,-4.730716796075285e-07,-4.2531803501333343e-07,-3.7756427673230064e-07,-3.2981051845126785e-07,-2.8205676017023507e-07,-2.3430300188920228e-07,-1.865492436081695e-07,-1.387954853271367e-07,-9.104172704610392e-08,-4.328796876507113e-08,4.46578951596166e-09,5.221954779699445e-08,9.997330607802724e-08,1.4772706435906002e-07,1.954808226400928e-07,2.432345809211256e-07,2.909883392021584e-07,3.3874209748319117e-07,3.8649585576422396e-07,4.3424961404525675e-07,4.820033723262895e-07,5.297571306073223e-07,5.775108888883551e-07,6.252646471693879e-07,6.730184054504207e-07,7.207721637314535e-07,7.685259220124863e-07,8.16279680293519e-07,8.640334385745518e-07,9.117871968555846e-07,9.595410119800363e-07,1.0072947134176502e-06,1.0550484148552641e-06,1.1028022299797158e-06]},"gradients/classifier.1.weight":{"values":[1,3,5,13,38,44,71,103,143,164,155,201,223,259,257,285,372,393,394,413,415,476,510,561,639,745,801,906,1057,1147,1333,1419,1396,1359,1456,1354,1340,1345,1361,1473,1671,1808,2104,2148,2158,2219,2176,2015,1969,2278,2420,2367,2310,2193,2034,1989,2407,3053,2865,2873,3529,2373,882,83529],"bins":[-9.348047456114728e-07,-9.201984312312561e-07,-9.055921168510395e-07,-8.90985745627404e-07,-8.763794312471873e-07,-8.617731168669707e-07,-8.47166802486754e-07,-8.325604881065374e-07,-8.179541737263207e-07,-8.033478025026852e-07,-7.887414881224686e-07,-7.741351737422519e-07,-7.595288593620353e-07,-7.449225449818186e-07,-7.30316230601602e-07,-7.157098593779665e-07,-7.011035449977499e-07,-6.864972306175332e-07,-6.718909162373166e-07,-6.572846018570999e-07,-6.426782874768833e-07,-6.280719162532478e-07,-6.134656018730311e-07,-5.988592874928145e-07,-5.842529731125978e-07,-5.696466587323812e-07,-5.550403443521645e-07,-5.40433973128529e-07,-5.258276587483124e-07,-5.112213443680957e-07,-4.966150299878791e-07,-4.820087156076625e-07,-4.674023728057364e-07,-4.5279605842551973e-07,-4.3818971562359366e-07,-4.23583401243377e-07,-4.0897708686316037e-07,-3.943707440612343e-07,-3.7976442968101765e-07,-3.65158115300801e-07,-3.505517724988749e-07,-3.359454581186583e-07,-3.2133914373844163e-07,-3.0673280093651556e-07,-2.921264865562989e-07,-2.7752017217608227e-07,-2.629138293741562e-07,-2.4830751499393955e-07,-2.337011864028682e-07,-2.1909485781179683e-07,-2.0448854343158018e-07,-1.8988221484050882e-07,-1.7527588624943746e-07,-1.6066957186922082e-07,-1.4606324327814946e-07,-1.314569146870781e-07,-1.168505932014341e-07,-1.0224427171579009e-07,-8.763794312471873e-08,-7.303162163907473e-08,-5.842529660071705e-08,-4.3818971562359366e-08,-2.9212648300358524e-08,-1.4606324150179262e-08,0],"_type":"histogram"},"_step":0,"_wandb":{"runtime":8},"gradients/features.7.bias":{"bins":[-3.694822225952521e-13,-3.5887959271008185e-13,-3.482769628249116e-13,-3.3767433293974136e-13,-3.270717030545711e-13,-3.1646907316940087e-13,-3.0586644328423063e-13,-2.952638133990604e-13,-2.8466118351389014e-13,-2.740585536287199e-13,-2.6345592374354965e-13,-2.528532938583794e-13,-2.4225066397320916e-13,-2.316480340880389e-13,-2.2104540420286867e-13,-2.1044277431769842e-13,-1.9984014443252818e-13,-1.8923751454735793e-13,-1.7863488466218769e-13,-1.6803225477701744e-13,-1.574296248918472e-13,-1.4682699500667695e-13,-1.362243651215067e-13,-1.2562173523633646e-13,-1.1501910535116622e-13,-1.0441647546599597e-13,-9.381384558082573e-14,-8.321121569565548e-14,-7.260858581048524e-14,-6.200595592531499e-14,-5.140332604014475e-14,-4.08006961549745e-14,-3.019806626980426e-14,-1.9595436384634013e-14,-8.992806499463768e-15,1.609823385706477e-15,1.2212453270876722e-14,2.2815083156046967e-14,3.341771304121721e-14,4.4020342926387457e-14,5.46229728115577e-14,6.522560269672795e-14,7.582823258189819e-14,8.643086246706844e-14,9.703349235223868e-14,1.0763612223740893e-13,1.1823875212257917e-13,1.2884138200774942e-13,1.3944401189291966e-13,1.500466417780899e-13,1.6064927166326015e-13,1.712519015484304e-13,1.8185453143360064e-13,1.9245716131877089e-13,2.0305979120394113e-13,2.1366242108911138e-13,2.2426505097428162e-13,2.3486768085945187e-13,2.454703107446221e-13,2.5607294062979236e-13,2.666755705149626e-13,2.7727820040013285e-13,2.878808302853031e-13,2.9848346017047334e-13,3.090860900556436e-13],"_type":"histogram","values":[2,0,0,0,0,0,0,0,1,0,0,2,0,0,0,0,0,1,0,0,1,0,0,0,1,3,0,0,1,0,1,0,1,1,1,1,0,0,0,1,0,0,2,1,1,0,0,1,1,0,1,1,0,0,1,2,1,0,1,0,0,0,0,1]},"_timestamp":1.7659393981829212e+09,"gradients/classifier.3.bias":{"values":[1],"bins":[4.811484359379392e-06,4.811484359379392e-06],"_type":"histogram"},"gradients/features.0.weight":{"bins":[-3.6692529192805523e-06,-3.5670859688252676e-06,-3.4649192457436584e-06,-3.3627522952883737e-06,-3.260585344833089e-06,-3.1584183943778044e-06,-3.0562514439225197e-06,-2.9540847208409104e-06,-2.8519177703856258e-06,-2.749750819930341e-06,-2.647584096848732e-06,-2.545417146393447e-06,-2.4432501959381625e-06,-2.341083245482878e-06,-2.238916295027593e-06,-2.136749571945984e-06,-2.0345826214906992e-06,-1.9324156710354146e-06,-1.8302488342669676e-06,-1.7280819974985206e-06,-1.625915047043236e-06,-1.5237480965879513e-06,-1.4215812598195043e-06,-1.3194144230510574e-06,-1.2172474725957727e-06,-1.115080522140488e-06,-1.012913685372041e-06,-9.107467917601753e-07,-8.085798981483094e-07,-7.064130045364436e-07,-6.042461109245778e-07,-5.02079217312712e-07,-3.9991209632717073e-07,-2.977452027153049e-07,-1.955783091034391e-07,-9.341141549157328e-08,8.755478120292537e-09,1.1092237173215835e-07,2.1308926534402417e-07,3.1525615895589e-07,4.174230525677558e-07,5.195899461796216e-07,6.217568397914874e-07,7.239237334033533e-07,8.260906270152191e-07,9.282575206270849e-07,1.0304244142389507e-06,1.1325912510073977e-06,1.2347582014626823e-06,1.336925151917967e-06,1.439091988686414e-06,1.541258825454861e-06,1.6434257759101456e-06,1.7455927263654303e-06,1.8477595631338772e-06,1.949926399902324e-06,2.052093350357609e-06,2.1542603008128935e-06,2.2564272512681782e-06,2.3585939743497875e-06,2.460760924805072e-06,2.562927875260357e-06,2.665094598341966e-06,2.7672615487972507e-06,2.8694284992525354e-06],"_type":"histogram","values":[8,3,4,1,0,0,0,0,0,0,0,0,0,0,0,0,0,0,0,0,0,1,5,5,15,6,9,14,47,50,21,30,27,62,33,69,93,40,46,17,34,36,38,53,16,18,21,15,12,15,17,10,11,18,17,23,20,20,8,7,3,3,2,1]},"gradients/features.8.bias":{"bins":[-3.310918373244931e-06,-3.2593738978903275e-06,-3.2078291951620486e-06,-3.156284719807445e-06,-3.1047402444528416e-06,-3.0531955417245626e-06,-3.001651066369959e-06,-2.9501063636416802e-06,-2.8985618882870767e-06,-2.8470174129324732e-06,-2.7954727102041943e-06,-2.743928234849591e-06,-2.6923837594949873e-06,-2.6408390567667084e-06,-2.589294581412105e-06,-2.5377501060575014e-06,-2.4862054033292225e-06,-2.434660927974619e-06,-2.3831164526200155e-06,-2.3315717498917365e-06,-2.280027274537133e-06,-2.228482571808854e-06,-2.1769380964542506e-06,-2.125393621099647e-06,-2.073848918371368e-06,-2.0223044430167647e-06,-1.9707599676621612e-06,-1.9192152649338823e-06,-1.8676707895792788e-06,-1.8161262005378376e-06,-1.7645816114963964e-06,-1.7130371361417929e-06,-1.661492433413514e-06,-1.6099479580589104e-06,-1.5584033690174692e-06,-1.506858779976028e-06,-1.4553143046214245e-06,-1.4037697155799833e-06,-1.352225126538542e-06,-1.3006805374971009e-06,-1.2491360621424974e-06,-1.1975914731010562e-06,-1.146046884059615e-06,-1.0945024087050115e-06,-1.0429578196635703e-06,-9.91413230622129e-07,-9.398686984241067e-07,-8.883241093826655e-07,-8.367795771846431e-07,-7.852349881432019e-07,-7.336904559451796e-07,-6.821459237471572e-07,-6.30601334705716e-07,-5.790568025076936e-07,-5.275122134662524e-07,-4.759676812682301e-07,-4.244231206484983e-07,-3.728785600287665e-07,-3.2133399940903473e-07,-2.6978943878930295e-07,-2.1824487816957117e-07,-1.667003317606941e-07,-1.1515577114096232e-07,-6.361121052123053e-08,-1.2066657006926107e-08],"_type":"histogram","values":[1,0,0,1,0,0,0,0,1,0,1,1,2,1,1,1,2,0,0,1,0,2,1,0,2,1,0,3,0,1,1,1,1,0,1,0,0,0,3,0,0,0,0,0,0,0,0,0,0,0,0,0,0,0,1,0,0,0,0,0,0,0,0,1]}}