{"validation loss":8.745670318926837,"gradients/features.3.weight":{"values":[3,7,13,12,4,11,10,5,12,21,16,29,23,15,24,26,23,24,19,21,35,29,34,21,20,34,63,88,161,256,494,919,1758,2779,4151,4951,4298,3158,2034,1613,1379,1101,784,512,395,290,308,196,117,74,55,70,40,17,26,35,34,33,25,9,12,14,19,9],"bins":[-1.5927166530094183e-10,-1.547881406382956e-10,-1.5030462985343718e-10,-1.4582110519079095e-10,-1.413375805281447e-10,-1.368540697432863e-10,-1.3237054508064006e-10,-1.2788703429578163e-10,-1.234035096331354e-10,-1.1891998497048917e-10,-1.1443647418563074e-10,-1.0995294952298451e-10,-1.0546943179923218e-10,-1.0098591407547985e-10,-9.650238941283362e-11,-9.20188716890813e-11,-8.753535396532897e-11,-8.305183624157664e-11,-7.856831851782431e-11,-7.408479385517808e-11,-6.960127613142575e-11,-6.511775840767342e-11,-6.063423374502719e-11,-5.615071602127486e-11,-5.166719829752253e-11,-4.7183680573770204e-11,-4.2700159380570923e-11,-3.821663818737164e-11,-3.3733120463619315e-11,-2.9249602739866987e-11,-2.4766081546667706e-11,-2.0282562088191902e-11,-1.579902875192829e-11,-1.1315509293452486e-11,-6.831989834976682e-12,-2.3484703765008774e-12,2.135049081974927e-12,6.618568540450731e-12,1.1102087998926535e-11,1.558560745740234e-11,2.0069126915878144e-11,2.4552646374353948e-11,2.9036165832829752e-11,3.351968702602903e-11,3.800320474978136e-11,4.248672247353369e-11,4.697024366673297e-11,5.145376485993225e-11,5.593728258368458e-11,6.04208003074369e-11,6.490431803118923e-11,6.938784269383547e-11,7.38713604175878e-11,7.835487814134012e-11,8.283840280398636e-11,8.732192052773868e-11,9.180543825149101e-11,9.628895597524334e-11,1.0077247369899567e-10,1.052559983616419e-10,1.0973951608539423e-10,1.1422303380914656e-10,1.187065584717928e-10,1.2319006925665121e-10,1.2767359391929745e-10],"_type":"histogram"},"validation accuracy":0.875,"_wandb":{"runtime":123},"gradients/classifier.3.weight":{"_type":"histogram","values":[49,0,0,0,0,0,0,0,0,0,0,0,0,0,0,0,0,0,0,0,0,0,0,0,0,0,0,0,0,0,0,0,0,0,0,0,0,0,0,0,1,1,1,2,2,2,2,10,6,4,2,3,6,4,2,0,0,1,0,1,0,0,0,1],"bins":[0,2.961395711986725e-11,5.92279142397345e-11,8.884187135960175e-11,1.18455828479469e-10,1.4806977866044235e-10,1.776837427192035e-10,2.0729770677796466e-10,2.36911656958938e-10,2.6652560713991136e-10,2.961395573208847e-10,3.2575353525743367e-10,3.55367485438407e-10,3.8498143561938036e-10,4.1459541355592933e-10,4.4420936373690267e-10,4.73823313917876e-10,5.03437291854425e-10,5.330512142798227e-10,5.626651922163717e-10,5.922791146417694e-10,6.218930925783184e-10,6.515070705148673e-10,6.811209929402651e-10,7.10734970876814e-10,7.40348948813363e-10,7.699628712387607e-10,7.995768491753097e-10,8.291908271118587e-10,8.588047495372564e-10,8.884187274738053e-10,9.180326498992031e-10,9.47646627835752e-10,9.77260605772301e-10,1.00687458370885e-09,1.0364884506230965e-09,1.0661024285596454e-09,1.0957164064961944e-09,1.1253303844327434e-09,1.1549443623692923e-09,1.1845582292835388e-09,1.2141722072200878e-09,1.2437861851566367e-09,1.2734001630931857e-09,1.3030141410297347e-09,1.3326281189662836e-09,1.3622419858805301e-09,1.391855963817079e-09,1.421469941753628e-09,1.451083919690177e-09,1.480697897626726e-09,1.5103117645409725e-09,1.5399257424775215e-09,1.5695397204140704e-09,1.5991536983506194e-09,1.6287676762871683e-09,1.6583816542237173e-09,1.6879955211379638e-09,1.7176094990745128e-09,1.7472234770110617e-09,1.7768374549476107e-09,1.8064514328841597e-09,1.8360652997984062e-09,1.8656793887572576e-09,1.895293255671504e-09]},"train loss":2.3749394907623955e-07,"gradients/features.4.bias":{"_type":"histogram","values":[1,0,0,0,0,0,0,1,0,0,0,0,0,0,0,0,0,0,0,1,0,0,0,1,1,0,1,1,0,2,0,0,2,0,4,0,0,1,0,1,0,1,0,2,1,1,1,0,0,1,2,0,1,0,0,0,0,0,1,0,2,0,0,2],"bins":[-6.032099819641701e-11,-5.915521544830327e-11,-5.798943616963648e-11,-5.6823653421522735e-11,-5.5657870673408993e-11,-5.449208792529525e-11,-5.332630864662846e-11,-5.216052589851472e-11,-5.099474315040098e-11,-4.982896387173419e-11,-4.866318112362045e-11,-4.7497398375506705e-11,-4.6331615627392964e-11,-4.5165836348726174e-11,-4.400005360061243e-11,-4.283427085249869e-11,-4.166848810438495e-11,-4.050270882571816e-11,-3.933692607760442e-11,-3.8171143329490675e-11,-3.7005364050823886e-11,-3.5839581302710144e-11,-3.46737985545964e-11,-3.350801580648266e-11,-3.234223652781587e-11,-3.117645377970213e-11,-3.001067103158839e-11,-2.884489001819812e-11,-2.7679109004807856e-11,-2.6513326256694114e-11,-2.534754524330385e-11,-2.4181762495190107e-11,-2.3015983216523317e-11,-2.185020220313305e-11,-2.068441945501931e-11,-1.9518638441629044e-11,-1.8352855693515302e-11,-1.7187074680125036e-11,-1.6021291932011295e-11,-1.485551091862103e-11,-1.3689729037869025e-11,-1.2523947157117021e-11,-1.1358165276365018e-11,-1.0192383395613014e-11,-9.026602382222748e-12,-7.860820501470744e-12,-6.695038620718741e-12,-5.529256739966737e-12,-4.363474859214733e-12,-3.1976929784627295e-12,-2.0319113145511603e-12,-8.661295422193738e-13,2.996522301124127e-13,1.4654340024441992e-12,2.6312157747759857e-12,3.796997438687555e-12,4.962779319439559e-12,6.128561200191562e-12,7.294343080943566e-12,8.46012496169557e-12,9.625905975085836e-12,1.079168785583784e-11,1.1957469736589843e-11,1.3123251617341847e-11,1.428903349809385e-11]},"_runtime":123,"gradients/features.1.weight":{"_type":"histogram","values":[1,0,0,0,0,0,0,0,0,0,0,0,0,0,0,0,0,0,0,1,0,1,1,1,0,0,1,0,0,1,1,0,0,1,0,1,0,0,0,0,1,0,0,0,0,0,0,1,1,0,0,1,0,0,1,0,0,0,0,0,0,0,0,1],"bins":[-5.096404201432314e-11,-4.9476599900399876e-11,-4.798915778647661e-11,-4.6501712203106393e-11,-4.501427008918313e-11,-4.352682797525986e-11,-4.20393858613366e-11,-4.055194374741333e-11,-3.906450163349007e-11,-3.757705605011985e-11,-3.6089613936196585e-11,-3.460217182227332e-11,-3.3114729708350055e-11,-3.162728759442679e-11,-3.013984201105657e-11,-2.8652399897133307e-11,-2.7164957783210042e-11,-2.5677515669286777e-11,-2.4190071820640036e-11,-2.270262970671677e-11,-2.121518585807003e-11,-1.9727743744146764e-11,-1.82403016302235e-11,-1.6752857781576758e-11,-1.5265415667653492e-11,-1.377797268636849e-11,-1.2290529705083486e-11,-1.0803087591160221e-11,-9.315644609875218e-12,-7.828201628590215e-12,-6.34075908098608e-12,-4.853316533381946e-12,-3.365870082649991e-12,-1.8784273182054223e-12,-3.909845537608536e-13,1.096458210683715e-12,2.5839009751282838e-12,4.071343956413287e-12,5.558786504017421e-12,7.046229051621555e-12,8.533672032906559e-12,1.0021115014191562e-11,1.1508557995476565e-11,1.299600010939983e-11,1.4483443090684833e-11,1.5970886071969836e-11,1.7458328185893102e-11,1.8945772034539843e-11,2.0433214148463108e-11,2.1920656262386373e-11,2.3408100111033114e-11,2.489554222495638e-11,2.638298607360312e-11,2.7870428187526386e-11,2.935787030144965e-11,3.0845312415372916e-11,3.233275452929618e-11,3.38202001126664e-11,3.5307642226589664e-11,3.679508434051293e-11,3.8282526454436194e-11,3.976996856835946e-11,4.1257414151729677e-11,4.274485626565294e-11,4.423229837957621e-11]},"_timestamp":1.7659399992132602e+09,"_step":42,"validation recall":0,"gradients/features.3.bias":{"_type":"histogram","values":[1,0,0,0,0,0,0,0,0,0,0,0,0,0,0,0,0,0,0,0,0,0,0,0,0,0,0,0,0,0,0,1,0,0,0,1,1,0,0,0,0,0,1,0,0,5,1,2,2,1,2,3,3,3,3,0,0,0,1,0,0,0,0,1],"bins":[-2.6454533008646308e-17,-2.5929372581348642e-17,-2.5404212154050976e-17,-2.487905172675331e-17,-2.4353891299455643e-17,-2.3828730872157977e-17,-2.330357044486031e-17,-2.2778410017562645e-17,-2.225324959026498e-17,-2.1728089162967312e-17,-2.1202928735669646e-17,-2.067776830837198e-17,-2.0152607881074314e-17,-1.9627447453776647e-17,-1.910228702647898e-17,-1.8577126599181315e-17,-1.805196617188365e-17,-1.7526805744585983e-17,-1.7001645317288316e-17,-1.647648488999065e-17,-1.5951324462692984e-17,-1.5426164035395318e-17,-1.4901003608097652e-17,-1.4375843180799985e-17,-1.3850682753502319e-17,-1.3325522326204653e-17,-1.2800361898906987e-17,-1.227520147160932e-17,-1.1750041044311654e-17,-1.1224880617013988e-17,-1.0699720189716322e-17,-1.0174559762418656e-17,-9.64939933512099e-18,-9.124238907823323e-18,-8.599078480525657e-18,-8.073918053227991e-18,-7.548757625930325e-18,-7.023597198632658e-18,-6.498436771334992e-18,-5.973276344037326e-18,-5.44811591673966e-18,-4.9229554894419936e-18,-4.397795062144327e-18,-3.872634634846661e-18,-3.347474207548995e-18,-2.8223137802513287e-18,-2.2971533529536625e-18,-1.7719929256559963e-18,-1.2468324983583301e-18,-7.216720710606639e-19,-1.9651164376299768e-19,3.2864878353466853e-19,8.538092108323347e-19,1.378969638130001e-18,1.904130065427667e-18,2.4292904927253334e-18,2.9544509200229996e-18,3.479611347320666e-18,4.004771774618332e-18,4.529932201915998e-18,5.0550926292136644e-18,5.580253056511331e-18,6.105413483808997e-18,6.630573911106663e-18,7.15573433840433e-18]},"gradients/features.0.weight":{"values":[1,2,2,4,1,3,2,0,1,4,13,9,3,2,3,8,2,4,13,15,8,16,7,14,26,26,19,28,37,31,57,47,35,51,34,38,41,37,50,66,47,18,23,21,20,7,12,11,12,16,9,5,2,5,7,8,3,7,4,14,6,3,0,4],"bins":[-9.441768894502545e-11,-9.135597139886542e-11,-8.82942538527054e-11,-8.523253630654537e-11,-8.217082569927925e-11,-7.910910815311922e-11,-7.60473906069592e-11,-7.298567306079917e-11,-6.992395551463915e-11,-6.686223796847912e-11,-6.38005204223191e-11,-6.073880287615907e-11,-5.7677088799446e-11,-5.461537125328597e-11,-5.15536571765729e-11,-4.849193963041287e-11,-4.543022208425285e-11,-4.236850453809282e-11,-3.9306786991932796e-11,-3.624507291521972e-11,-3.31833553690597e-11,-3.012163782289967e-11,-2.7059922011463122e-11,-2.3998206200026573e-11,-2.0936488653866547e-11,-1.7874771107706522e-11,-1.4813055296269972e-11,-1.1751338617471685e-11,-8.689621938673397e-12,-5.62790525987511e-12,-2.5661885810768226e-12,4.955280977214649e-13,3.5572447765197523e-12,6.61896145531804e-12,9.680678134116327e-12,1.2742394812914615e-11,1.5804111491712902e-11,1.8865829037872928e-11,2.1927544849309477e-11,2.4989260660746027e-11,2.8050978206906052e-11,3.111269575306608e-11,3.41744132992261e-11,3.7236127375939176e-11,4.02978449220992e-11,4.335956246825923e-11,4.64212765449723e-11,4.9482994091132326e-11,5.254471163729235e-11,5.560642918345238e-11,5.86681467296124e-11,6.172986427577243e-11,6.479157488303855e-11,6.785329242919858e-11,7.09150099753586e-11,7.397672752151863e-11,7.703844506767865e-11,8.010016261383868e-11,8.31618801599987e-11,8.622359770615873e-11,8.928531525231875e-11,9.234702585958487e-11,9.54087434057449e-11,9.847046095190493e-11,1.0153217849806495e-10],"_type":"histogram"},"gradients/classifier.3.bias":{"_type":"histogram","values":[1],"bins":[1.8211546159996317e-10,1.8211546159996317e-10]},"best validation loss":5.0867521656653025,"gradients/features.10.bias":{"values":[1,1,0,0,0,0,1,0,0,0,1,1,0,1,0,1,1,0,1,4,2,0,0,0,0,0,0,0,0,0,0,0,0,0,0,0,0,0,0,0,0,0,0,0,0,0,0,0,0,0,0,0,0,0,0,0,0,0,0,0,0,0,0,1],"bins":[-2.0971968606176006e-10,-2.0644343179387903e-10,-2.03167177525998e-10,-1.9989092325811697e-10,-1.9661466899023594e-10,-1.933384147223549e-10,-1.9006216045447388e-10,-1.8678590618659285e-10,-1.8350965191871182e-10,-1.802333976508308e-10,-1.7695714338294977e-10,-1.7368087523728093e-10,-1.704046209693999e-10,-1.6712836670151887e-10,-1.6385211243363784e-10,-1.605758581657568e-10,-1.5729960389787578e-10,-1.5402334962999475e-10,-1.5074709536211373e-10,-1.474708410942327e-10,-1.4419458682635167e-10,-1.4091833255847064e-10,-1.376420782905896e-10,-1.3436582402270858e-10,-1.3108956975482755e-10,-1.2781331548694652e-10,-1.245370612190655e-10,-1.2126080695118446e-10,-1.1798455268330343e-10,-1.147082914765285e-10,-1.1143203720864747e-10,-1.0815578294076644e-10,-1.0487952867288541e-10,-1.0160327440500438e-10,-9.832702013712336e-11,-9.505075893034842e-11,-9.177450466246739e-11,-8.849825039458636e-11,-8.522199612670533e-11,-8.19457418588243e-11,-7.866948759094328e-11,-7.539323332306225e-11,-7.211697905518122e-11,-6.884072478730019e-11,-6.556447051941916e-11,-6.228821625153813e-11,-5.90119550447632e-11,-5.573570424632912e-11,-5.245944650900114e-11,-4.918319224112011e-11,-4.590693797323908e-11,-4.263068370535805e-11,-3.935442943747702e-11,-3.6078175169595994e-11,-3.280191743226801e-11,-2.9525663164386984e-11,-2.6249408896505955e-11,-2.2973154628624926e-11,-1.969689862602042e-11,-1.642064435813939e-11,-1.3144389222896624e-11,-9.868134087653857e-12,-6.591879386091959e-12,-3.3156244676896263e-12,-3.9369447643339966e-14],"_type":"histogram"},"gradients/features.0.bias":{"_type":"histogram","values":[1,0,0,0,0,0,0,0,0,0,1,0,0,0,0,1,0,0,0,0,1,1,0,3,1,0,1,0,0,1,1,0,1,0,0,1,0,0,0,0,0,0,0,0,0,0,0,0,0,0,0,0,0,0,0,0,0,0,0,1,0,0,0,1],"bins":[-1.8041124150158794e-15,-1.7377592420597665e-15,-1.6714060691036536e-15,-1.6050528961475408e-15,-1.5386997231914279e-15,-1.472346550235315e-15,-1.4059933772792022e-15,-1.3396402043230893e-15,-1.2732870313669764e-15,-1.2069338584108635e-15,-1.1405806854547507e-15,-1.0742275124986378e-15,-1.007874339542525e-15,-9.41521166586412e-16,-8.751679936302992e-16,-8.088148206741863e-16,-7.424616477180734e-16,-6.761084747619606e-16,-6.097553018058477e-16,-5.434021288497348e-16,-4.77048955893622e-16,-4.106957829375091e-16,-3.443426099813962e-16,-2.7798943702528334e-16,-2.1163626406917047e-16,-1.452830911130576e-16,-7.892991815694472e-17,-1.2576745200831851e-17,5.377642775528102e-17,1.201296007113939e-16,1.8648277366750676e-16,2.5283594662361963e-16,3.191891195797325e-16,3.855422925358454e-16,4.518954654919582e-16,5.182486384480711e-16,5.84601811404184e-16,6.509549843602969e-16,7.173081573164097e-16,7.836613302725226e-16,8.500145032286355e-16,9.163676761847483e-16,9.827208491408612e-16,1.049074022096974e-15,1.115427195053087e-15,1.1817803680091998e-15,1.2481335409653127e-15,1.3144867139214256e-15,1.3808398868775384e-15,1.4471930598336513e-15,1.5135462327897642e-15,1.579899405745877e-15,1.64625257870199e-15,1.7126057516581028e-15,1.7789589246142157e-15,1.8453120975703285e-15,1.9116652705264414e-15,1.9780184434825543e-15,2.044371616438667e-15,2.11072478939478e-15,2.177077962350893e-15,2.2434311353070058e-15,2.3097843082631186e-15,2.3761374812192315e-15,2.4424906541753444e-15]},"gradients/features.10.weight":{"bins":[-2.8647065275499983e-10,-2.8199453883104297e-10,-2.7751845266266173e-10,-2.7304233873870487e-10,-2.68566224814748e-10,-2.6409013864636677e-10,-2.596140247224099e-10,-2.5513793855402866e-10,-2.506618246300718e-10,-2.4618571070611495e-10,-2.417096245377337e-10,-2.3723351061377684e-10,-2.327574105676078e-10,-2.2828129664365093e-10,-2.2380519659748188e-10,-2.1932909655131283e-10,-2.1485299650514378e-10,-2.1037688258118692e-10,-2.0590078253501787e-10,-2.0142468248884882e-10,-1.9694856856489196e-10,-1.924724685187229e-10,-1.8799636847255385e-10,-1.835202684263848e-10,-1.7904415450242794e-10,-1.745680544562589e-10,-1.7009195441008984e-10,-1.6561584048613298e-10,-1.6113974043996393e-10,-1.5666364039379488e-10,-1.5218754034762583e-10,-1.4771142642366897e-10,-1.4323532637749992e-10,-1.3875922633133086e-10,-1.34283112407374e-10,-1.2980701236120495e-10,-1.253309123150359e-10,-1.2085481226886685e-10,-1.163787052838039e-10,-1.1190259829874094e-10,-1.0742649825257189e-10,-1.0295039126750893e-10,-9.847428428244598e-11,-9.399818423627693e-11,-8.952207725121397e-11,-8.504597720504492e-11,-8.056987021998196e-11,-7.609377017381291e-11,-7.161766318874996e-11,-6.7141556203687e-11,-6.266545615751795e-11,-5.818935264190195e-11,-5.3713249126285945e-11,-4.923714214122299e-11,-4.4761038625606986e-11,-4.028493510999098e-11,-3.580883159437498e-11,-3.1332728078758976e-11,-2.6856624563142972e-11,-2.2380519312803493e-11,-1.790441579718749e-11,-1.3428312281571486e-11,-8.952207898593745e-12,-4.476103949296872e-12,0],"_type":"histogram","values":[1,4,1,5,6,6,15,21,17,18,16,30,30,42,42,56,63,68,73,86,92,96,118,143,178,177,184,203,193,227,217,207,183,169,145,159,113,133,120,108,91,96,100,130,130,158,201,212,217,297,262,254,235,215,256,269,302,381,433,524,690,865,1068,2673]},"gradients/features.1.bias":{"bins":[-6.638948418791202e-11,-6.515753908642452e-11,-6.392559398493702e-11,-6.269365582234343e-11,-6.146171072085593e-11,-6.022976561936844e-11,-5.899782051788094e-11,-5.7765878885840394e-11,-5.6533933784352897e-11,-5.53019886828654e-11,-5.4070047050824854e-11,-5.283810194933736e-11,-5.160615684784986e-11,-5.0374215215809315e-11,-4.914227011432182e-11,-4.791032848228127e-11,-4.6678383380793775e-11,-4.544643827930628e-11,-4.421449664726573e-11,-4.2982551545778236e-11,-4.175060991373769e-11,-4.0518664812250194e-11,-3.9286719710762696e-11,-3.805477807872215e-11,-3.6822832977234654e-11,-3.559088787574716e-11,-3.435894624370661e-11,-3.3127001142219115e-11,-3.189505604073162e-11,-3.066311440869107e-11,-2.9431169307203575e-11,-2.8199225940439554e-11,-2.6967282573675533e-11,-2.5735339206911512e-11,-2.450339584014749e-11,-2.3271450738659993e-11,-2.2039507371895972e-11,-2.080756400513195e-11,-1.9575618903644454e-11,-1.8343675536880433e-11,-1.711173217011641e-11,-1.587978880335239e-11,-1.464784543658837e-11,-1.3415900335100872e-11,-1.2183956968336851e-11,-1.095201360157283e-11,-9.72006936744707e-12,-8.488125133321311e-12,-7.25618176655729e-12,-6.0242379661124e-12,-4.79229416566751e-12,-3.56035036522262e-12,-2.3284065647777297e-12,-1.0964627643328395e-12,1.3548103611205065e-13,1.3674248365569408e-12,2.599368637001831e-12,3.831312437446721e-12,5.063256237891611e-12,6.2952000383365014e-12,7.527143838781392e-12,8.759087205545413e-12,9.991031439671172e-12,1.1222975673796931e-11,1.2454919040560952e-11],"_type":"histogram","values":[1,0,0,0,0,0,0,0,0,0,0,0,0,0,0,0,0,0,0,0,0,0,0,1,1,0,0,0,1,0,2,0,0,0,0,1,0,0,1,0,0,0,1,0,1,0,1,1,0,0,0,0,0,1,0,0,0,0,0,0,1,0,1,1]},"gradients/features.4.weight":{"values":[1,0,0,0,0,0,0,0,0,0,0,0,0,0,0,0,0,0,0,0,0,1,2,2,0,1,0,0,0,1,2,2,0,0,2,3,0,3,1,0,0,2,0,0,1,0,3,1,0,0,0,1,0,0,0,0,0,1,0,0,0,0,1,1],"bins":[-7.078989477937725e-11,-6.88501616830095e-11,-6.691042858664176e-11,-6.497068855138011e-11,-6.303095545501236e-11,-6.109122235864461e-11,-5.915148926227687e-11,-5.721175269646217e-11,-5.5272019600094424e-11,-5.333228650372668e-11,-5.139254993791198e-11,-4.9452816841544234e-11,-4.751308374517649e-11,-4.557334717936179e-11,-4.3633614082994043e-11,-4.1693877517179345e-11,-3.97541444208116e-11,-3.781441132444385e-11,-3.5874674758629155e-11,-3.393494166226141e-11,-3.199520509644671e-11,-3.0055472000078964e-11,-2.8115738903711218e-11,-2.6176004072619996e-11,-2.4236269241528774e-11,-2.2296534410437552e-11,-2.035679957934633e-11,-1.8417066482978584e-11,-1.647733165188736e-11,-1.453759682079614e-11,-1.2597862857066655e-11,-1.0658128893337171e-11,-8.7183975316929e-12,-6.778663134282548e-12,-4.8389287368721945e-12,-2.8991943394618414e-12,-9.594599420514882e-13,9.80274455358865e-13,2.920008852769218e-12,4.859743250179571e-12,6.799477647589924e-12,8.739212478681146e-12,1.067894644241063e-11,1.2618680406140115e-11,1.4558415237231337e-11,1.649815006832256e-11,1.8437883164690305e-11,2.0377617995781527e-11,2.231735282687275e-11,2.425708765796397e-11,2.6196822489055194e-11,2.813655558542294e-11,3.0076288681790686e-11,3.2016025247605384e-11,3.395575834397313e-11,3.589549490978783e-11,3.7835228006155575e-11,3.977496110252332e-11,4.171469766833802e-11,4.3654430764705765e-11,4.559416733052046e-11,4.753390042688821e-11,4.9473633523255955e-11,5.1413370089070654e-11,5.33531031854384e-11],"_type":"histogram"},"gradients/features.7.weight":{"_type":"histogram","values":[1,1,0,2,0,2,5,1,7,2,5,12,12,13,17,33,44,71,103,145,151,213,289,355,470,685,875,1222,1664,2044,2253,2463,2469,2431,2216,1946,1498,1071,757,509,335,219,176,165,124,101,70,60,42,33,23,33,30,34,22,25,30,21,20,10,8,4,4,2],"bins":[-1.4852399865539212e-10,-1.4397801006982291e-10,-1.394320214842537e-10,-1.348860328986845e-10,-1.303400443131153e-10,-1.257940557275461e-10,-1.2124805326418908e-10,-1.1670206467861988e-10,-1.1215607609305067e-10,-1.0761008750748147e-10,-1.0306409892191226e-10,-9.851811033634306e-11,-9.397212175077385e-11,-8.942613316520465e-11,-8.488013764074154e-11,-8.033414905517233e-11,-7.578816046960313e-11,-7.124217188403392e-11,-6.669618329846472e-11,-6.215018777400161e-11,-5.7604199188432403e-11,-5.30582106028632e-11,-4.8512222017293993e-11,-4.3966229962277836e-11,-3.942024137670863e-11,-3.4874252791139426e-11,-3.032826073612327e-11,-2.5782272150554064e-11,-2.1236281830261383e-11,-1.6690291509968702e-11,-1.2144302057037759e-11,-7.598312604106816e-12,-3.052322283814135e-12,1.493667602797677e-12,6.039657489409489e-12,1.0585646942340432e-11,1.5131637262633113e-11,1.9677627582925794e-11,2.4223616168495e-11,2.876960648878768e-11,3.331559680908036e-11,3.7861585394649566e-11,4.240757744966572e-11,4.695356603523493e-11,5.1499554620804133e-11,5.604554667582029e-11,6.059153873083645e-11,6.513752731640565e-11,6.968351590197486e-11,7.422950448754406e-11,7.877549307311327e-11,8.332148859757638e-11,8.786747718314558e-11,9.241346576871479e-11,9.695945435428399e-11,1.015054429398532e-10,1.060514315254224e-10,1.1059742704988551e-10,1.1514341563545472e-10,1.1968941115991782e-10,1.2423539974548703e-10,1.2878138833105623e-10,1.3332737691662544e-10,1.3787336550219464e-10,1.4241935408776385e-10]},"gradients/classifier.1.bias":{"bins":[-1.9786665361731792e-11,-1.9477499474396254e-11,-1.916833185233724e-11,-1.88591659650017e-11,-1.8549998342942686e-11,-1.8240832455607148e-11,-1.7931664833548133e-11,-1.7622498946212595e-11,-1.731333132415358e-11,-1.7004165436818042e-11,-1.6694999549482503e-11,-1.638583192742349e-11,-1.607666604008795e-11,-1.5767498418028936e-11,-1.5458332530693397e-11,-1.5149164908634383e-11,-1.4839999021298844e-11,-1.4530832266601568e-11,-1.4221665511904291e-11,-1.3912498757207015e-11,-1.3603332002509738e-11,-1.32941661151742e-11,-1.2984999360476923e-11,-1.2675832605779647e-11,-1.236666585108237e-11,-1.2057499096385094e-11,-1.1748332341687817e-11,-1.143916558699054e-11,-1.1129999699655002e-11,-1.0820832944957726e-11,-1.0511666190260449e-11,-1.0202499435563173e-11,-9.893332680865896e-12,-9.58416592616862e-12,-9.274999171471343e-12,-8.965832416774067e-12,-8.65666566207679e-12,-8.347499774741252e-12,-8.038333020043975e-12,-7.729166265346699e-12,-7.419999510649422e-12,-7.1108327559521456e-12,-6.801666001254869e-12,-6.4924996802384616e-12,-6.183332925541185e-12,-5.8741661708439086e-12,-5.564999849827501e-12,-5.2558330951302246e-12,-4.946666340432948e-12,-4.6374995857356716e-12,-4.328332831038395e-12,-4.0191665100219875e-12,-3.709999755324711e-12,-3.4008330006274345e-12,-3.0916664627705925e-12,-2.7824999249137505e-12,-2.473333170216474e-12,-2.1641664155191975e-12,-1.8549998776623555e-12,-1.5458332313852963e-12,-1.236666585108237e-12,-9.274999388311778e-13,-6.183332925541185e-13,-3.0916664627705925e-13,0],"_type":"histogram","values":[2,0,0,1,0,0,0,1,3,0,1,2,1,1,1,1,0,1,0,0,0,1,1,0,0,1,1,1,2,1,2,1,1,1,1,0,0,0,0,1,2,2,1,1,0,3,0,0,1,0,0,0,2,3,0,1,2,1,1,1,0,0,0,49]},"gradients/features.7.bias":{"values":[1,0,0,0,0,0,0,0,0,0,0,0,0,0,0,0,0,2,0,1,0,0,0,1,2,0,0,1,1,1,0,1,1,3,0,3,0,2,2,1,1,2,1,0,0,0,1,0,0,0,0,0,0,1,0,1,0,0,0,0,1,0,0,1],"bins":[-4.2934406030425976e-17,-4.157237705124106e-17,-4.0210348072056146e-17,-3.884831909287123e-17,-3.7486290113686316e-17,-3.61242611345014e-17,-3.4762232155316486e-17,-3.340020317613157e-17,-3.2038174196946656e-17,-3.067614521776174e-17,-2.9314116238576826e-17,-2.795208725939191e-17,-2.6590058280206996e-17,-2.522802930102208e-17,-2.3866000321837166e-17,-2.250397134265225e-17,-2.1141942363467336e-17,-1.977991338428242e-17,-1.8417884405097507e-17,-1.7055855425912592e-17,-1.5693826446727677e-17,-1.4331797467542762e-17,-1.2969768488357847e-17,-1.1607739509172932e-17,-1.0245710529988017e-17,-8.883681550803102e-18,-7.521652571618187e-18,-6.159623592433272e-18,-4.797594613248357e-18,-3.435565634063442e-18,-2.0735366548785272e-18,-7.115076756936123e-19,6.505213034913027e-19,2.0125502826762176e-18,3.3745792618611326e-18,4.7366082410460475e-18,6.0986372202309624e-18,7.460666199415877e-18,8.822695178600792e-18,1.0184724157785707e-17,1.1546753136970622e-17,1.2908782116155537e-17,1.4270811095340452e-17,1.5632840074525367e-17,1.6994869053710282e-17,1.8356898032895197e-17,1.9718927012080112e-17,2.1080955991265027e-17,2.2442984970449942e-17,2.3805013949634857e-17,2.5167042928819772e-17,2.6529071908004687e-17,2.78911008871896e-17,2.9253129866374517e-17,3.061515884555943e-17,3.1977187824744346e-17,3.333921680392926e-17,3.4701245783114176e-17,3.606327476229909e-17,3.7425303741484006e-17,3.878733272066892e-17,4.0149361699853836e-17,4.151139067903875e-17,4.2873419658223666e-17,4.423544863740858e-17],"_type":"histogram"},"gradients/classifier.1.weight":{"_type":"histogram","values":[2,0,18,25,44,41,55,68,91,129,194,277,336,384,403,427,522,652,778,883,966,897,881,1022,1039,1000,907,861,1008,1152,1260,1311,1437,1656,1723,1818,1841,1868,1830,1712,1704,1571,1763,1936,2018,2278,1974,2046,1951,2451,1840,1779,1622,1570,2187,2415,1897,2352,3097,2953,2381,1102,95,83500],"bins":[-4.764667133061451e-11,-4.69021904647704e-11,-4.615771306837324e-11,-4.541323220252913e-11,-4.466875480613197e-11,-4.392427394028786e-11,-4.31797965438907e-11,-4.243531567804659e-11,-4.1690838281649434e-11,-4.0946357415805323e-11,-4.0201880019408165e-11,-3.9457399153564054e-11,-3.8712921757166896e-11,-3.7968440891322786e-11,-3.722396349492563e-11,-3.6479482629081517e-11,-3.573500523268436e-11,-3.499052436684025e-11,-3.424604350099614e-11,-3.350156610459898e-11,-3.275708523875487e-11,-3.201260784235771e-11,-3.12681269765136e-11,-3.052364958011644e-11,-2.977916871427233e-11,-2.9034689583151696e-11,-2.829021045203106e-11,-2.7545731320910427e-11,-2.6801252189789793e-11,-2.6056773058669158e-11,-2.5312293927548524e-11,-2.456781479642789e-11,-2.3823335665307255e-11,-2.307885653418662e-11,-2.2334377403065986e-11,-2.158989827194535e-11,-2.0845419140824717e-11,-2.0100940009704082e-11,-1.9356460878583448e-11,-1.8611981747462814e-11,-1.786750261634218e-11,-1.712302175049807e-11,-1.6378542619377434e-11,-1.56340634882568e-11,-1.4889584357136165e-11,-1.414510522601553e-11,-1.3400626094894896e-11,-1.2656146963774262e-11,-1.1911667832653627e-11,-1.1167188701532993e-11,-1.0422709570412358e-11,-9.678230439291724e-12,-8.93375130817109e-12,-8.189271309688717e-12,-7.444792178568083e-12,-6.700313047447448e-12,-5.955833916326814e-12,-5.211354785206179e-12,-4.466875654085545e-12,-3.722396089284041e-12,-2.977916958163407e-12,-2.2334378270427724e-12,-1.4889584790817034e-12,-7.444792395408517e-13,0]},"gradients/features.8.bias":{"_type":"histogram","values":[1,0,0,0,0,0,0,0,0,0,1,0,1,0,0,2,0,0,0,0,0,2,1,3,1,1,1,1,1,0,2,1,0,1,1,3,1,1,2,1,0,1,0,1,0,0,0,0,0,0,0,0,0,0,0,0,0,0,0,0,0,0,0,1],"bins":[-2.305146074021991e-10,-2.2718789349784885e-10,-2.238611795934986e-10,-2.2053446568914836e-10,-2.1720775178479812e-10,-2.1388103788044788e-10,-2.1055432397609763e-10,-2.072276100717474e-10,-2.0390089616739715e-10,-2.005741822630469e-10,-1.9724746835869666e-10,-1.9392075445434642e-10,-1.9059404054999618e-10,-1.8726732664564594e-10,-1.839406127412957e-10,-1.8061389883694545e-10,-1.772871849325952e-10,-1.7396048490603278e-10,-1.7063377100168253e-10,-1.673070570973323e-10,-1.6398034319298205e-10,-1.606536292886318e-10,-1.5732691538428156e-10,-1.5400020147993132e-10,-1.5067348757558108e-10,-1.4734677367123084e-10,-1.440200597668806e-10,-1.4069334586253035e-10,-1.373666319581801e-10,-1.3403991805382987e-10,-1.3071320414947962e-10,-1.2738649024512938e-10,-1.2405977634077914e-10,-1.207330624364289e-10,-1.1740634853207865e-10,-1.1407963462772841e-10,-1.1075292072337817e-10,-1.0742620681902793e-10,-1.0409949291467768e-10,-1.0077277901032744e-10,-9.74460651059772e-11,-9.411935120162696e-11,-9.079263729727671e-11,-8.746592339292647e-11,-8.413920948857623e-11,-8.081249558422599e-11,-7.748578167987574e-11,-7.41590677755255e-11,-7.083235387117526e-11,-6.750564690571892e-11,-6.417893300136868e-11,-6.085221909701843e-11,-5.752550519266819e-11,-5.419879128831795e-11,-5.0872077383967707e-11,-4.7545363479617464e-11,-4.421864957526722e-11,-4.089193567091698e-11,-3.7565221766566737e-11,-3.4238507862216494e-11,-3.091179395786625e-11,-2.7585081788239485e-11,-2.425836961861272e-11,-2.0931655714262476e-11,-1.7604941809912233e-11]},"validation precision":0,"gradients/features.8.weight":{"bins":[-2.0097989938960836e-10,-1.9805605766531897e-10,-1.9513221594102959e-10,-1.922083742167402e-10,-1.892845324924508e-10,-1.863606768903736e-10,-1.8343683516608422e-10,-1.8051299344179483e-10,-1.7758915171750544e-10,-1.7466530999321606e-10,-1.7174146826892667e-10,-1.6881762654463728e-10,-1.658937848203479e-10,-1.629699430960585e-10,-1.600460874939813e-10,-1.5712224576969192e-10,-1.5419840404540253e-10,-1.5127456232111314e-10,-1.4835072059682375e-10,-1.4542687887253436e-10,-1.4250303714824497e-10,-1.3957919542395558e-10,-1.366553536996662e-10,-1.33731498097589e-10,-1.308076563732996e-10,-1.2788381464901022e-10,-1.2495997292472083e-10,-1.2203613120043144e-10,-1.1911228947614205e-10,-1.1618844775185266e-10,-1.1326459908866937e-10,-1.1034075736437998e-10,-1.0741690870119669e-10,-1.044930669769073e-10,-1.0156922525261791e-10,-9.864538352832852e-11,-9.572154180403913e-11,-9.279769314085584e-11,-8.987385141656645e-11,-8.695000969227706e-11,-8.402616796798767e-11,-8.110231930480438e-11,-7.817847758051499e-11,-7.52546358562256e-11,-7.233079413193622e-11,-6.940695240764683e-11,-6.648310374446353e-11,-6.355926202017415e-11,-6.063542029588476e-11,-5.7711575102148416e-11,-5.478773337785903e-11,-5.1863888184122686e-11,-4.89400464598333e-11,-4.601620473554391e-11,-4.309235954180757e-11,-4.016851781751818e-11,-3.724467262378184e-11,-3.432083089949245e-11,-3.139698570575611e-11,-2.847314398146672e-11,-2.5549300522453855e-11,-2.262545706344099e-11,-1.9701613604428125e-11,-1.677777014541526e-11,-1.3853927553764134e-11],"_type":"histogram","values":[1,2,0,0,0,0,0,2,0,0,0,0,0,0,0,2,0,0,1,0,2,0,2,1,1,2,1,1,1,1,3,0,1,0,0,3,0,0,0,1,0,0,1,1,1,0,0,0,0,0,0,0,0,0,0,0,0,0,0,0,0,0,0,1]}}