{"gradients/features.1.weight":{"bins":[-6.548225961466869e-09,-6.254632367586055e-09,-5.961038773705241e-09,-5.667445179824426e-09,-5.373851585943612e-09,-5.0802584361520076e-09,-4.786664842271193e-09,-4.493071248390379e-09,-4.199477654509565e-09,-3.90588406062875e-09,-3.612290466747936e-09,-3.3186970949117267e-09,-3.0251035010309124e-09,-2.731509907150098e-09,-2.4379165353138887e-09,-2.1443229414330744e-09,-1.8507293475522602e-09,-1.5571357536714459e-09,-1.263542270812934e-09,-9.699487879544222e-10,-6.763551940736079e-10,-3.827616557039448e-10,-8.916811733428176e-11,2.044254210353813e-10,4.980189594050444e-10,7.916124977747074e-10,1.0852060361443705e-09,1.3787995190028823e-09,1.6723931128836966e-09,1.965986706764511e-09,2.2595800786007203e-09,2.5531736724815346e-09,2.846766378183929e-09,3.1403599720647435e-09,3.4339535659455578e-09,3.727547159826372e-09,4.021140753707186e-09,4.314733903498791e-09,4.608327497379605e-09,4.9019210912604194e-09,5.195514685141234e-09,5.489108279022048e-09,5.782701872902862e-09,6.076295466783677e-09,6.369888616575281e-09,6.663482210456095e-09,6.95707580433691e-09,7.250669398217724e-09,7.544262992098538e-09,7.837856585979353e-09,8.131450179860167e-09,8.425043773740981e-09,8.718637367621795e-09,9.01223096150261e-09,9.305824555383424e-09,9.599418149264238e-09,9.893010854966633e-09,1.0186604448847447e-08,1.0480198042728261e-08,1.0773791636609076e-08,1.106738523048989e-08,1.1360978824370704e-08,1.1654572418251519e-08,1.1948166012132333e-08,1.2241759606013147e-08],"_type":"histogram","values":[1,0,0,1,0,0,0,1,1,1,0,0,0,0,1,1,1,0,0,1,2,0,0,1,0,0,0,0,0,0,0,0,0,0,0,0,0,1,0,0,0,0,0,0,0,0,1,0,0,0,1,0,0,0,0,0,0,0,0,0,0,0,0,1]},"gradients/features.4.bias":{"_type":"histogram","values":[1,0,0,0,0,0,0,0,1,0,0,0,0,1,0,0,1,0,0,1,0,0,0,1,1,0,1,1,0,0,0,0,0,2,4,1,2,1,1,0,2,1,0,0,0,1,1,1,1,2,1,0,0,0,0,0,0,0,0,1,0,0,0,1],"bins":[-1.2157164164250389e-08,-1.1907021146839725e-08,-1.165687724125064e-08,-1.1406734223839976e-08,-1.1156590318250892e-08,-1.0906447300840227e-08,-1.0656303395251143e-08,-1.0406160377840479e-08,-1.0156016472251395e-08,-9.90587345484073e-09,-9.655730437430066e-09,-9.405586531840981e-09,-9.155443514430317e-09,-8.905299608841233e-09,-8.655156591430568e-09,-8.405012685841484e-09,-8.15486966843082e-09,-7.904726651020155e-09,-7.654582745431071e-09,-7.404439283931197e-09,-7.1542958224313224e-09,-6.904152805020658e-09,-6.654009343520784e-09,-6.403865882020909e-09,-6.153722420521035e-09,-5.903578959021161e-09,-5.653435497521286e-09,-5.403292036021412e-09,-5.153149018610748e-09,-4.903005557110873e-09,-4.652862095610999e-09,-4.402718634111125e-09,-4.15257606078967e-09,-3.902432599289796e-09,-3.6522891377899214e-09,-3.402145898334652e-09,-3.1520024368347777e-09,-2.9018589753349033e-09,-2.651715735879634e-09,-2.4015722743797596e-09,-2.1514288128798853e-09,-1.901285351380011e-09,-1.6511420009024391e-09,-1.4009986504248673e-09,-1.150855188924993e-09,-9.007117829362699e-10,-6.505683769475468e-10,-4.004249709588237e-10,-1.502815649701006e-10,9.98618410186225e-11,3.500052470073456e-10,6.001486529960687e-10,8.502920589847918e-10,1.100435520484666e-09,1.350578870962238e-09,1.6007222214398098e-09,1.8508656829396841e-09,2.1010091444395584e-09,2.3511526059394328e-09,2.601295845394702e-09,2.8514393068945765e-09,3.101582768394451e-09,3.35172600784972e-09,3.6018694693495945e-09,3.852012930849469e-09]},"validation precision":0,"gradients/features.7.weight":{"_type":"histogram","values":[1,2,2,2,1,4,4,10,10,16,18,16,19,26,39,35,65,77,113,131,167,211,325,421,626,932,1350,1713,2009,2267,2359,2299,2201,1798,1568,1545,1365,1043,713,556,360,278,208,143,109,81,65,29,39,44,36,37,37,32,37,12,14,6,5,6,6,2,2,1],"bins":[-2.7092529109040697e-08,-2.6239286299301057e-08,-2.5386041713204577e-08,-2.4532798903464936e-08,-2.3679554317368456e-08,-2.2826311507628816e-08,-2.1973068697889175e-08,-2.1119824111792695e-08,-2.0266581302053055e-08,-1.9413338492313414e-08,-1.8560093906216935e-08,-1.7706851096477294e-08,-1.6853608286737654e-08,-1.6000363700641174e-08,-1.5147120890901533e-08,-1.4293877192983473e-08,-1.3440633495065413e-08,-1.2587389797147353e-08,-1.1734146099229292e-08,-1.0880903289489652e-08,-1.0027659591571592e-08,-9.174415893653531e-09,-8.321173083913891e-09,-7.46792938599583e-09,-6.6146856880777705e-09,-5.76144199015971e-09,-4.90819873633086e-09,-4.0549554825020095e-09,-3.2017117845839493e-09,-2.348468308710494e-09,-1.4952248328370388e-09,-6.419813569635835e-10,2.112621189098718e-10,1.064505594783327e-09,1.9177490706567824e-09,2.7709925465302376e-09,3.624236022403693e-09,4.477479720321753e-09,5.3307229741506035e-09,6.183966227979454e-09,7.037209925897514e-09,7.890453623815574e-09,8.743697321733634e-09,9.596940131473275e-09,1.0450183829391335e-08,1.1303427527309395e-08,1.2156670337049036e-08,1.3009914034967096e-08,1.3863157732885156e-08,1.4716401430803216e-08,1.5569645128721277e-08,1.6422887938460917e-08,1.7276132524557397e-08,1.8129375334297038e-08,1.8982618144036678e-08,1.9835862730133158e-08,2.06891055398728e-08,2.154234834961244e-08,2.239559293570892e-08,2.324883574544856e-08,2.41020785551882e-08,2.495532314128468e-08,2.580856595102432e-08,2.66618105371208e-08,2.751505334686044e-08]},"validation accuracy":0.875,"_runtime":49,"gradients/features.1.bias":{"values":[1,1,0,0,0,0,0,1,0,0,0,0,0,0,1,0,0,0,0,2,0,0,2,0,0,0,0,0,0,0,0,0,0,1,0,1,0,0,0,1,0,0,0,1,1,1,0,0,0,0,0,0,0,0,0,0,0,0,1,0,0,0,0,1],"bins":[-7.681347113930315e-09,-7.541480329109618e-09,-7.401612656110501e-09,-7.261745427200594e-09,-7.1218786423798974e-09,-6.982011413469991e-09,-6.842144184560084e-09,-6.702276955650177e-09,-6.56240972674027e-09,-6.4225424978303636e-09,-6.282675713009667e-09,-6.14280848409976e-09,-6.002941255189853e-09,-5.863074026279946e-09,-5.7232067973700396e-09,-5.583339568460133e-09,-5.443472339550226e-09,-5.303605554729529e-09,-5.163738325819622e-09,-5.0238710969097156e-09,-4.884003867999809e-09,-4.744136639089902e-09,-4.604269410179995e-09,-4.464402625359298e-09,-4.3245353964493916e-09,-4.184668167539485e-09,-4.044800938629578e-09,-3.904933709719671e-09,-3.7650664808097645e-09,-3.6251994739444626e-09,-3.485332245034556e-09,-3.345465238169254e-09,-3.205598231303952e-09,-3.0657310023940454e-09,-2.9258639955287435e-09,-2.7859967666188368e-09,-2.64612953770893e-09,-2.506262530843628e-09,-2.3663953019337214e-09,-2.2265280730238146e-09,-2.0866610661585128e-09,-1.946793837248606e-09,-1.8069266083386992e-09,-1.667059490451095e-09,-1.5271923725634906e-09,-1.3873251436535838e-09,-1.2474580257659795e-09,-1.1075907968560728e-09,-9.677236789684684e-10,-8.278565055697129e-10,-6.879893321709574e-10,-5.481222142833531e-10,-4.082550408845975e-10,-2.68387867485842e-10,-1.2852072184266206e-10,1.1346437678305676e-11,1.512135971992734e-10,2.9108077059802895e-10,4.3094791624120887e-10,5.708150618843888e-10,7.106822352831443e-10,8.505494086818999e-10,9.904165265695042e-10,1.130283755479411e-09,1.2701508733670153e-09],"_type":"histogram"},"train accuracy":1,"gradients/features.3.weight":{"bins":[-1.636840885055335e-08,-1.5615700732496407e-08,-1.4862994390796302e-08,-1.4110286272739359e-08,-1.3357579042860834e-08,-1.260487181298231e-08,-1.1852163694925366e-08,-1.1099456465046842e-08,-1.0346749235168318e-08,-9.594042005289793e-09,-8.84133477541127e-09,-8.088626657354325e-09,-7.335919427475801e-09,-6.583212197597277e-09,-5.830504523629543e-09,-5.077796849661809e-09,-4.3250896197832844e-09,-3.5723821678601553e-09,-2.819674715937026e-09,-2.066967264013897e-09,-1.3142598120907678e-09,-5.615523601676387e-10,1.911550917554905e-10,9.438625436786197e-10,1.6965699956017488e-09,2.449277447524878e-09,3.201984899448007e-09,3.954692573415741e-09,4.7073998032942654e-09,5.46010703317279e-09,6.212814707140524e-09,6.965522381108258e-09,7.718227834629943e-09,8.470935064508467e-09,9.223642294386991e-09,9.976350412443935e-09,1.072905764232246e-08,1.1481764872200984e-08,1.2234472990257927e-08,1.2987180220136452e-08,1.3739887450014976e-08,1.44925946798935e-08,1.5245301909772024e-08,1.5998010027828968e-08,1.6750718145885912e-08,1.7503424487586017e-08,1.825613260564296e-08,1.9008838947343065e-08,1.976154706540001e-08,2.0514255183456953e-08,2.1266961525157058e-08,2.2019669643214e-08,2.2772375984914106e-08,2.352508410297105e-08,2.4277792221027994e-08,2.50304985627281e-08,2.5783206680785042e-08,2.6535914798841986e-08,2.728862114054209e-08,2.8041329258599035e-08,2.879403737665598e-08,2.9546743718356083e-08,3.029945006005619e-08,3.105215995446997e-08,3.1804866296170076e-08],"_type":"histogram","values":[1,0,1,0,1,3,2,6,12,35,74,85,77,103,197,304,386,691,1201,2503,3476,4297,5186,4042,2230,1552,1049,745,665,588,500,414,406,310,242,211,158,107,78,84,62,66,46,52,40,68,49,50,24,71,44,42,13,17,29,26,12,14,9,5,1,3,0,3]},"gradients/classifier.3.bias":{"_type":"histogram","values":[1],"bins":[4.32817728324153e-08,4.32817728324153e-08]},"train recall":0,"gradients/features.8.weight":{"values":[1,0,0,0,0,0,0,0,0,0,0,0,0,1,0,1,0,0,1,2,1,0,3,1,0,1,1,0,1,3,1,2,0,2,0,1,1,2,0,0,1,1,1,1,0,0,0,0,0,0,0,0,0,0,0,0,0,0,0,1,0,0,0,1],"bins":[-4.2081914841674006e-08,-4.143225851294119e-08,-4.078259863149469e-08,-4.0132942302761876e-08,-3.948328597402906e-08,-3.883362609258256e-08,-3.8183969763849746e-08,-3.753431343511693e-08,-3.688465710638411e-08,-3.6234997224937615e-08,-3.55853408962048e-08,-3.493568456747198e-08,-3.4286024686025485e-08,-3.363636835729267e-08,-3.298671202855985e-08,-3.2337052147113354e-08,-3.168739581838054e-08,-3.103773948964772e-08,-3.0388079608201224e-08,-2.9738423279468407e-08,-2.908876695073559e-08,-2.8439108845645933e-08,-2.7789450740556276e-08,-2.713979441182346e-08,-2.6490136306733802e-08,-2.5840478201644146e-08,-2.519082187291133e-08,-2.4541163767821672e-08,-2.3891505662732015e-08,-2.3241849333999198e-08,-2.2592191228909542e-08,-2.1942534900176724e-08,-2.1292878571443907e-08,-2.064322046635425e-08,-1.9993564137621433e-08,-1.9343906032531777e-08,-1.869424792744212e-08,-1.8044591598709303e-08,-1.7394933493619646e-08,-1.674527716488683e-08,-1.6095619059797173e-08,-1.5445960954707516e-08,-1.4796303737796279e-08,-1.4146646520885042e-08,-1.3496989303973805e-08,-1.2847332087062568e-08,-1.2197673981972912e-08,-1.1548016765061675e-08,-1.0898359548150438e-08,-1.0248702331239201e-08,-9.599044226149545e-09,-8.949387009238308e-09,-8.29972979232707e-09,-7.650072575415834e-09,-7.000414914415387e-09,-6.35075725341494e-09,-5.7011000365037034e-09,-5.051442375503257e-09,-4.40178515859202e-09,-3.752127497591573e-09,-3.102470280680336e-09,-2.4528126196798894e-09,-1.80315529174635e-09,-1.1534978527905082e-09,-5.038404138346664e-10],"_type":"histogram"},"gradients/features.0.bias":{"values":[1,0,0,0,0,0,0,0,0,0,0,0,0,0,0,0,0,0,0,0,0,0,0,0,0,1,0,2,1,0,1,0,0,0,1,0,0,1,0,0,0,1,1,1,0,1,0,1,0,0,0,2,0,0,0,0,0,0,0,0,0,0,0,1],"bins":[-2.611244553918368e-13,-2.5415780591231396e-13,-2.471911564327911e-13,-2.4022450695326825e-13,-2.332578574737454e-13,-2.2629120799422253e-13,-2.1932455851469967e-13,-2.1235790903517682e-13,-2.0539125955565396e-13,-1.984246100761311e-13,-1.9145796059660825e-13,-1.844913111170854e-13,-1.7752466163756253e-13,-1.7055801215803967e-13,-1.6359136267851682e-13,-1.5662471319899396e-13,-1.496580637194711e-13,-1.4269141423994824e-13,-1.3572476476042539e-13,-1.2875811528090253e-13,-1.2179146580137967e-13,-1.1482481632185682e-13,-1.0785816684233396e-13,-1.008915173628111e-13,-9.392486788328824e-14,-8.695821840376539e-14,-7.999156892424253e-14,-7.302491944471967e-14,-6.605826996519681e-14,-5.909162048567396e-14,-5.21249710061511e-14,-4.515832152662824e-14,-3.8191672047105385e-14,-3.122502256758253e-14,-2.425837308805967e-14,-1.7291723608536813e-14,-1.0325074129013956e-14,-3.3584246494910985e-15,3.608224830031759e-15,1.0574874309554616e-14,1.7541523789077473e-14,2.450817326860033e-14,3.147482274812319e-14,3.8441472227646045e-14,4.54081217071689e-14,5.237477118669176e-14,5.934142066621462e-14,6.630807014573747e-14,7.327471962526033e-14,8.024136910478319e-14,8.720801858430605e-14,9.41746680638289e-14,1.0114131754335176e-13,1.0810796702287462e-13,1.1507461650239748e-13,1.2204126598192033e-13,1.290079154614432e-13,1.3597456494096605e-13,1.429412144204889e-13,1.4990786390001176e-13,1.5687451337953462e-13,1.6384116285905748e-13,1.7080781233858033e-13,1.777744618181032e-13,1.8474111129762605e-13],"_type":"histogram"},"gradients/features.8.bias":{"bins":[-3.997515563014531e-08,-3.936001036208836e-08,-3.874486509403141e-08,-3.812971982597446e-08,-3.751457811063119e-08,-3.689943284257424e-08,-3.628428757451729e-08,-3.5669142306460344e-08,-3.5053997038403395e-08,-3.4438851770346446e-08,-3.38237065022895e-08,-3.3208564786946226e-08,-3.259341951888928e-08,-3.197827425083233e-08,-3.136312898277538e-08,-3.074798371471843e-08,-3.013283844666148e-08,-2.951769495496137e-08,-2.8902549686904422e-08,-2.8287404418847473e-08,-2.7672260927147363e-08,-2.7057115659090414e-08,-2.6441970391033465e-08,-2.5826825122976516e-08,-2.5211681631276406e-08,-2.4596536363219457e-08,-2.3981391095162508e-08,-2.3366247603462398e-08,-2.275110233540545e-08,-2.21359570673485e-08,-2.152081179929155e-08,-2.090566830759144e-08,-2.029052481589133e-08,-1.9675379547834382e-08,-1.9060234279777433e-08,-1.8445090788077323e-08,-1.7829945520020374e-08,-1.7214800251963425e-08,-1.6599654983906476e-08,-1.5984511492206366e-08,-1.5369366224149417e-08,-1.4754221844270887e-08,-1.4139076576213938e-08,-1.3523932196335409e-08,-1.290878692827846e-08,-1.229364254839993e-08,-1.1678497280342981e-08,-1.1063352900464452e-08,-1.0448208520585922e-08,-9.833063252528973e-09,-9.217918872650444e-09,-8.602773604593494e-09,-7.987629224714965e-09,-7.372484400747226e-09,-6.757339576779486e-09,-6.142194752811747e-09,-5.527049928844008e-09,-4.9119051048762685e-09,-4.296760280908529e-09,-3.681615678985395e-09,-3.0664708550176556e-09,-2.4513262530945212e-09,-1.836181429126782e-09,-1.2210366051590427e-09,-6.058918367024546e-10],"_type":"histogram","values":[1,0,0,0,0,0,0,1,0,0,0,1,2,0,1,1,2,0,1,0,2,2,0,2,1,1,1,1,0,1,2,0,1,2,1,1,1,0,0,1,0,0,0,0,0,0,0,0,0,0,0,0,0,0,0,1,0,0,0,0,0,0,0,1]},"_timestamp":1.7659547630521574e+09,"gradients/features.10.bias":{"_type":"histogram","values":[2,0,0,0,1,0,0,0,1,1,0,0,1,1,1,2,1,2,0,1,0,0,0,1,0,0,0,0,0,0,0,0,0,0,0,0,0,0,0,0,0,0,0,0,0,0,0,0,0,0,0,0,0,0,0,0,0,0,0,0,0,0,0,1],"bins":[-4.2277459755268865e-08,-4.161687527926006e-08,-4.095629080325125e-08,-4.029570277452876e-08,-3.9635118298519956e-08,-3.897453382251115e-08,-3.831394934650234e-08,-3.7653361317779854e-08,-3.699277684177105e-08,-3.633219236576224e-08,-3.567160788975343e-08,-3.5011019861030945e-08,-3.435043538502214e-08,-3.368985090901333e-08,-3.302926643300452e-08,-3.2368678404282036e-08,-3.170809392827323e-08,-3.104750945226442e-08,-3.0386924976255614e-08,-2.9726338723889967e-08,-2.906575424788116e-08,-2.8405167995515512e-08,-2.7744583519506705e-08,-2.7083997267141058e-08,-2.642341279113225e-08,-2.5762826538766603e-08,-2.5102242062757796e-08,-2.444165581039215e-08,-2.378107133438334e-08,-2.3120485082017694e-08,-2.2459900606008887e-08,-2.179931435364324e-08,-2.1138729877634432e-08,-2.0478145401625625e-08,-1.9817559149259978e-08,-1.915697467325117e-08,-1.8496388420885523e-08,-1.7835803944876716e-08,-1.717521769251107e-08,-1.651463321650226e-08,-1.5854046964136614e-08,-1.5193462488127807e-08,-1.453287712394058e-08,-1.3872291759753352e-08,-1.3211706395566125e-08,-1.2551121031378898e-08,-1.189053566719167e-08,-1.1229950303004443e-08,-1.0569364938817216e-08,-9.908779574629989e-09,-9.248194210442762e-09,-8.587608846255534e-09,-7.927023482068307e-09,-7.26643856197029e-09,-6.6058531977830626e-09,-5.945267833595835e-09,-5.284682469408608e-09,-4.624097105221381e-09,-3.963511741034154e-09,-3.3029265988915313e-09,-2.642341234704304e-09,-1.981755870517077e-09,-1.321170617352152e-09,-6.60585308676076e-10,0]},"gradients/features.7.bias":{"_type":"histogram","values":[1,0,0,0,0,0,0,0,0,0,0,0,0,0,0,0,0,0,1,1,0,1,0,0,0,3,0,1,0,1,1,0,1,2,0,2,1,0,1,2,1,2,1,1,0,3,0,0,0,1,0,1,0,0,0,0,0,0,1,0,0,1,0,1],"bins":[-9.159339953157541e-15,-8.924284922162684e-15,-8.689229891167827e-15,-8.45417486017297e-15,-8.219119829178112e-15,-7.984064798183255e-15,-7.749009767188397e-15,-7.51395473619354e-15,-7.278899705198683e-15,-7.043844674203825e-15,-6.808789643208968e-15,-6.5737346122141105e-15,-6.338679581219253e-15,-6.103624550224396e-15,-5.8685695192295384e-15,-5.633514488234681e-15,-5.398459457239824e-15,-5.163404426244966e-15,-4.928349395250109e-15,-4.6932943642552516e-15,-4.458239333260394e-15,-4.223184302265537e-15,-3.9881292712706795e-15,-3.753074240275822e-15,-3.5180192092809648e-15,-3.2829641782861074e-15,-3.04790914729125e-15,-2.8128541162963927e-15,-2.5777990853015353e-15,-2.342744054306678e-15,-2.1076890233118206e-15,-1.8726339923169633e-15,-1.6375789613221059e-15,-1.4025239303272485e-15,-1.1674688993323912e-15,-9.324138683375338e-16,-6.973588373426765e-16,-4.623038063478191e-16,-2.2724877535296173e-16,7.806255641895632e-18,2.42861286636753e-16,4.779163176316104e-16,7.129713486264677e-16,9.48026379621325e-16,1.1830814106161824e-15,1.4181364416110398e-15,1.6531914726058972e-15,1.8882465036007545e-15,2.123301534595612e-15,2.3583565655904692e-15,2.5934115965853266e-15,2.828466627580184e-15,3.0635216585750413e-15,3.2985766895698987e-15,3.533631720564756e-15,3.7686867515596134e-15,4.003741782554471e-15,4.238796813549328e-15,4.4738518445441855e-15,4.708906875539043e-15,4.9439619065339e-15,5.1790169375287576e-15,5.414071968523615e-15,5.649126999518472e-15,5.88418203051333e-15]},"gradients/classifier.3.weight":{"bins":[0,5.847399009439869e-09,1.1694798018879737e-08,1.7542197028319606e-08,2.3389596037759475e-08,2.9236995047199343e-08,3.508439405663921e-08,4.093179484243592e-08,4.677919207551895e-08,5.262658930860198e-08,5.847399009439869e-08,6.43213908801954e-08,7.016878811327842e-08,7.601618534636145e-08,8.186358968487184e-08,8.771098691795487e-08,9.35583841510379e-08,9.940578138412093e-08,1.0525317861720396e-07,1.1110058295571434e-07,1.1694798018879737e-07,1.2279538452730776e-07,1.286427817603908e-07,1.3449017899347382e-07,1.4033757622655685e-07,1.4618497345963988e-07,1.520323706927229e-07,1.5787976792580594e-07,1.6372717936974368e-07,1.695745766028267e-07,1.7542197383590974e-07,1.8126937106899277e-07,1.871167683020758e-07,1.9296416553515883e-07,1.9881156276824186e-07,2.0465896000132489e-07,2.1050635723440791e-07,2.1635376867834566e-07,2.222011659114287e-07,2.2804856314451172e-07,2.3389596037759475e-07,2.397433718215325e-07,2.455907690546155e-07,2.5143816628769855e-07,2.572855635207816e-07,2.631329607538646e-07,2.6898035798694764e-07,2.7482775522003067e-07,2.806751524531137e-07,2.865225496861967e-07,2.9236994691927976e-07,2.982173441523628e-07,3.040647413854458e-07,3.0991213861852884e-07,3.1575953585161187e-07,3.216069330846949e-07,3.2745435873948736e-07,3.333017559725704e-07,3.391491532056534e-07,3.4499655043873645e-07,3.508439476718195e-07,3.566913449049025e-07,3.6253874213798554e-07,3.6838613937106857e-07,3.742335366041516e-07],"_type":"histogram","values":[50,0,0,0,0,0,0,0,0,0,0,0,0,0,0,0,0,0,0,0,0,0,0,0,0,0,0,0,0,0,0,0,0,0,0,0,0,0,0,1,1,3,2,4,3,4,4,7,5,2,4,7,0,1,0,0,1,0,0,0,0,0,0,1]},"validation recall":0,"gradients/classifier.1.weight":{"values":[5,9,26,26,40,68,120,148,191,204,252,256,287,263,310,361,354,431,512,577,690,718,750,873,892,949,1066,1113,1165,1210,1313,1252,1166,1229,1341,1490,1562,1686,1809,1968,2088,2008,1853,1671,1690,1916,2093,2107,2265,2326,1841,1722,1726,2020,1829,2176,2314,2433,2696,3270,2468,1539,267,85000],"bins":[-9.816800705664264e-09,-9.663413180760472e-09,-9.51002565585668e-09,-9.356638130952888e-09,-9.203250606049096e-09,-9.049863081145304e-09,-8.896475556241512e-09,-8.74308803133772e-09,-8.589700506433928e-09,-8.436312981530136e-09,-8.282925456626344e-09,-8.129537931722552e-09,-7.97615040681876e-09,-7.822762881914969e-09,-7.669375357011177e-09,-7.515987832107385e-09,-7.362600307203593e-09,-7.209213226389011e-09,-7.055825701485219e-09,-6.902438176581427e-09,-6.749050651677635e-09,-6.595663126773843e-09,-6.442275601870051e-09,-6.288888076966259e-09,-6.135500552062467e-09,-5.982113027158675e-09,-5.828725502254883e-09,-5.6753379773510915e-09,-5.5219504524472995e-09,-5.368562927543508e-09,-5.215175402639716e-09,-5.061787877735924e-09,-4.908400352832132e-09,-4.75501282792834e-09,-4.601625303024548e-09,-4.448237778120756e-09,-4.294850253216964e-09,-4.141462728313172e-09,-3.98807520340938e-09,-3.834687678505588e-09,-3.6813001536017964e-09,-3.5279128507426094e-09,-3.3745253258388175e-09,-3.2211378009350256e-09,-3.0677502760312336e-09,-2.9143627511274417e-09,-2.7609752262236498e-09,-2.607587701319858e-09,-2.454200176416066e-09,-2.300812651512274e-09,-2.147425126608482e-09,-1.99403760170469e-09,-1.8406500768008982e-09,-1.6872626629194087e-09,-1.5338751380156168e-09,-1.3804876131118249e-09,-1.227100088208033e-09,-1.073712563304241e-09,-9.203250384004491e-10,-7.669375690078084e-10,-6.135500441040165e-10,-4.6016251920022455e-10,-3.0677502205200824e-10,-1.5338751102600412e-10,0],"_type":"histogram"},"gradients/features.3.bias":{"_type":"histogram","values":[1,0,0,0,0,0,1,1,1,0,3,1,0,1,1,1,2,0,4,3,1,1,1,1,1,4,0,0,0,0,1,0,0,0,0,0,0,1,0,0,0,0,0,0,0,0,0,0,0,0,0,0,0,0,0,0,0,0,0,0,0,0,0,1],"bins":[-2.1649348980190553e-15,-2.03743272253476e-15,-1.9099305470504646e-15,-1.7824283715661693e-15,-1.654926196081874e-15,-1.5274240205975786e-15,-1.3999218451132833e-15,-1.272419669628988e-15,-1.1449174941446927e-15,-1.0174153186603974e-15,-8.89913143176102e-16,-7.624109676918067e-16,-6.349087922075114e-16,-5.074066167232161e-16,-3.7990444123892075e-16,-2.5240226575462543e-16,-1.249000902703301e-16,2.6020852139652106e-18,1.3010426069826053e-16,2.5760643618255585e-16,3.8510861166685117e-16,5.126107871511465e-16,6.401129626354418e-16,7.676151381197371e-16,8.951173136040325e-16,1.0226194890883278e-15,1.1501216645726231e-15,1.2776238400569184e-15,1.4051260155412137e-15,1.532628191025509e-15,1.6601303665098044e-15,1.7876325419940997e-15,1.915134717478395e-15,2.0426368929626904e-15,2.1701390684469857e-15,2.297641243931281e-15,2.4251434194155763e-15,2.5526455948998716e-15,2.680147770384167e-15,2.8076499458684623e-15,2.9351521213527576e-15,3.062654296837053e-15,3.1901564723213482e-15,3.3176586478056436e-15,3.445160823289939e-15,3.572662998774234e-15,3.7001651742585295e-15,3.827667349742825e-15,3.95516952522712e-15,4.0826717007114155e-15,4.210173876195711e-15,4.337676051680006e-15,4.4651782271643015e-15,4.592680402648597e-15,4.720182578132892e-15,4.8476847536171874e-15,4.975186929101483e-15,5.102689104585778e-15,5.230191280070073e-15,5.357693455554369e-15,5.485195631038664e-15,5.612697806522959e-15,5.740199982007255e-15,5.86770215749155e-15,5.995204332975845e-15]},"train precision":0,"validation loss":6.684887042448324,"gradients/classifier.1.bias":{"_type":"histogram","values":[1,0,0,1,3,1,1,1,2,0,1,2,0,0,1,0,0,0,0,2,0,0,1,0,2,1,2,0,3,1,0,1,1,0,0,0,0,1,0,3,1,1,1,0,2,1,0,1,0,0,0,1,2,2,0,1,2,1,1,1,0,0,0,50],"bins":[-4.362863847973131e-09,-4.294693933815097e-09,-4.226524463746273e-09,-4.158354549588239e-09,-4.090185079519415e-09,-4.022015165361381e-09,-3.953845251203347e-09,-3.885675781134523e-09,-3.8175058669764894e-09,-3.7493359528184556e-09,-3.6811664827496315e-09,-3.6129965685915977e-09,-3.5448268764781687e-09,-3.47665718436474e-09,-3.408487270206706e-09,-3.340317578093277e-09,-3.272147885979848e-09,-3.203978193866419e-09,-3.13580850175299e-09,-3.0676385875949563e-09,-2.9994688954815274e-09,-2.9312992033680985e-09,-2.8631292892100646e-09,-2.7949595970966357e-09,-2.7267899049832067e-09,-2.6586202128697778e-09,-2.590450520756349e-09,-2.522280606598315e-09,-2.454110914484886e-09,-2.385941222371457e-09,-2.3177713082134233e-09,-2.2496016160999943e-09,-2.1814319239865654e-09,-2.1132622318731364e-09,-2.0450925397597075e-09,-1.9769226256016736e-09,-1.9087529334882447e-09,-1.8405832413748158e-09,-1.7724134382390844e-09,-1.704243635103353e-09,-1.636073942989924e-09,-1.567904250876495e-09,-1.4997344477407637e-09,-1.4315646446050323e-09,-1.3633949524916034e-09,-1.2952252603781744e-09,-1.227055457242443e-09,-1.1588856541067116e-09,-1.0907159619932827e-09,-1.0225462698798538e-09,-9.543764667441224e-10,-8.862067191195422e-10,-8.18036971494962e-10,-7.498672238703818e-10,-6.816974762458017e-10,-6.135277286212215e-10,-5.453579809966413e-10,-4.771882333720612e-10,-4.09018485747481e-10,-3.4084873812290084e-10,-2.7267899049832067e-10,-2.045092428737405e-10,-1.3633949524916034e-10,-6.816974762458017e-11,0]},"_wandb":{"runtime":49},"train loss":1.9824544736479766e-05,"gradients/features.0.weight":{"values":[8,8,3,4,1,3,7,4,5,4,10,6,3,2,13,8,3,3,3,12,43,60,67,30,30,59,81,59,50,51,43,61,26,30,30,23,12,18,14,10,12,15,4,9,14,12,7,8,5,5,3,5,2,0,0,0,0,0,0,0,0,0,12,4],"bins":[-1.9599420753024788e-08,-1.8862113648765444e-08,-1.81248065445061e-08,-1.7387499440246756e-08,-1.6650192335987413e-08,-1.591288523172807e-08,-1.5175578127468725e-08,-1.4438270135030962e-08,-1.3700963030771618e-08,-1.2963655926512274e-08,-1.222634882225293e-08,-1.1489041717993587e-08,-1.0751733725555823e-08,-1.001442662129648e-08,-9.277119517037136e-09,-8.539812412777792e-09,-7.802505308518448e-09,-7.065198204259104e-09,-6.327891099999761e-09,-5.590583551651207e-09,-4.853276447391863e-09,-4.1159693431325195e-09,-3.378662016828571e-09,-2.641354690524622e-09,-1.9040475862652784e-09,-1.1667403709836321e-09,-4.294331557019859e-10,3.078740595796603e-10,1.0451812748613065e-09,1.7824884901429527e-09,2.519795705424599e-09,3.2571030317285476e-09,3.994410135987891e-09,4.731717240247235e-09,5.469024344506579e-09,6.2063318928551325e-09,6.943638997114476e-09,7.68094654546303e-09,8.418253649722374e-09,9.155560753981717e-09,9.892867858241061e-09,1.0630174962500405e-08,1.1367482066759749e-08,1.2104789171019092e-08,1.2842097163456856e-08,1.35794042677162e-08,1.4316711371975543e-08,1.5054018476234887e-08,1.579132558049423e-08,1.6528632684753575e-08,1.726593978901292e-08,1.8003246893272262e-08,1.8740553997531606e-08,1.947786110179095e-08,2.0215168206050294e-08,2.0952475310309637e-08,2.168978241456898e-08,2.2427091295185164e-08,2.3164398399444508e-08,2.3901705503703852e-08,2.4639012607963195e-08,2.537631971222254e-08,2.6113626816481883e-08,2.6850933920741227e-08,2.758824102500057e-08],"_type":"histogram"},"gradients/features.4.weight":{"_type":"histogram","values":[1,0,0,0,0,0,0,0,1,0,0,0,0,0,0,0,0,1,1,1,1,2,1,2,0,2,1,1,1,2,0,0,0,1,2,1,1,1,1,0,0,0,0,0,0,1,0,0,0,0,0,1,0,1,0,0,3,0,0,0,0,0,0,1],"bins":[-1.248648917595574e-08,-1.2096394996774507e-08,-1.1706301705771693e-08,-1.131620752659046e-08,-1.0926113347409228e-08,-1.0536019168227995e-08,-1.0145925877225181e-08,-9.755831698043949e-09,-9.365737518862716e-09,-8.975644227859902e-09,-8.58555004867867e-09,-8.195455869497437e-09,-7.805361690316204e-09,-7.415267955224181e-09,-7.025174220132158e-09,-6.635080040950925e-09,-6.244986305858902e-09,-5.854892570766879e-09,-5.464798391585646e-09,-5.074704656493623e-09,-4.68461047731239e-09,-4.294516742220367e-09,-3.904422563039134e-09,-3.5143288279471108e-09,-3.1242348708104828e-09,-2.734140913673855e-09,-2.344046956537227e-09,-1.953952999400599e-09,-1.5638591532862733e-09,-1.1737651961496454e-09,-7.836712945241686e-10,-3.9357736514311625e-10,-3.483435762063891e-12,3.8661049361898847e-10,7.767044230000408e-10,1.1667983246255176e-09,1.5568922817621456e-09,1.946986127876471e-09,2.337080085013099e-09,2.727174042149727e-09,3.117267999286355e-09,3.507361956422983e-09,3.897455691515006e-09,4.287549870696239e-09,4.677643605788262e-09,5.067737784969495e-09,5.457831520061518e-09,5.847925699242751e-09,6.238019434334774e-09,6.628113169426797e-09,7.01820734860803e-09,7.408301083700053e-09,7.798394818792076e-09,8.188488997973309e-09,8.578583177154542e-09,8.968677356335775e-09,9.358770647338588e-09,9.74886482651982e-09,1.0138959005701054e-08,1.0529052296703867e-08,1.09191464758851e-08,1.1309240655066333e-08,1.1699334834247566e-08,1.2089428125250379e-08,1.2479522304431612e-08]},"gradients/features.10.weight":{"values":[2,3,3,0,3,6,3,1,4,4,6,19,22,25,37,47,48,57,75,77,90,102,97,128,150,152,201,231,212,268,200,228,207,188,152,117,114,110,81,94,71,77,94,119,136,168,188,209,190,202,240,224,196,213,256,326,409,506,579,607,675,912,736,2927],"bins":[-6.164942334407897e-08,-6.068606239750807e-08,-5.972270145093717e-08,-5.875934405707994e-08,-5.779598666322272e-08,-5.683262571665182e-08,-5.586926477008092e-08,-5.4905907376223695e-08,-5.3942546429652793e-08,-5.297918548308189e-08,-5.201582808922467e-08,-5.105246714265377e-08,-5.0089106196082867e-08,-4.9125748802225644e-08,-4.816238785565474e-08,-4.719903046179752e-08,-4.623566951522662e-08,-4.527230856865572e-08,-4.4308951174798494e-08,-4.334559022822759e-08,-4.238223283437037e-08,-4.141887188779947e-08,-4.045551094122857e-08,-3.9492153547371345e-08,-3.8528792600800443e-08,-3.756543165422954e-08,-3.660207426037232e-08,-3.563871331380142e-08,-3.4675352367230516e-08,-3.3711994973373294e-08,-3.274863402680239e-08,-3.178527663294517e-08,-3.082191213366059e-08,-2.985855473980337e-08,-2.8895193793232465e-08,-2.7931834623018403e-08,-2.6968473676447502e-08,-2.600511450623344e-08,-2.5041755336019378e-08,-2.4078396165805316e-08,-2.3115035219234414e-08,-2.2151676049020352e-08,-2.118831687880629e-08,-2.0224957708592228e-08,-1.9261596762021327e-08,-1.8298237591807265e-08,-1.7334878421593203e-08,-1.637151925137914e-08,-1.540815830480824e-08,-1.4444799134594177e-08,-1.3481439964380115e-08,-1.2518079905987634e-08,-1.1554720735773572e-08,-1.059136067738109e-08,-9.628001507167028e-09,-8.664641448774546e-09,-7.701282278560484e-09,-6.737922664257212e-09,-5.77456304995394e-09,-4.811203435650668e-09,-3.8478438213473964e-09,-2.8844842070441246e-09,-1.9211245927408527e-09,-9.577648674152783e-10,5.5947416838231234e-12],"_type":"histogram"},"_step":20}