{"gradients/features.3.bias":{"bins":[-2.3314683517128287e-15,-2.237793284010081e-15,-2.1441182163073336e-15,-2.050443148604586e-15,-1.9567680809018384e-15,-1.863093013199091e-15,-1.7694179454963432e-15,-1.6757428777935957e-15,-1.582067810090848e-15,-1.4883927423881005e-15,-1.394717674685353e-15,-1.3010426069826053e-15,-1.2073675392798577e-15,-1.1136924715771102e-15,-1.0200174038743626e-15,-9.26342336171615e-16,-8.326672684688674e-16,-7.389922007661198e-16,-6.453171330633722e-16,-5.516420653606247e-16,-4.579669976578771e-16,-3.642919299551295e-16,-2.706168622523819e-16,-1.7694179454963432e-16,-8.326672684688674e-17,1.0408340855860843e-17,1.0408340855860843e-16,1.97758476261356e-16,2.914335439641036e-16,3.8510861166685117e-16,4.787836793695988e-16,5.724587470723463e-16,6.661338147750939e-16,7.598088824778415e-16,8.534839501805891e-16,9.471590178833367e-16,1.0408340855860843e-15,1.1345091532888318e-15,1.2281842209915794e-15,1.321859288694327e-15,1.4155343563970746e-15,1.5092094240998222e-15,1.6028844918025698e-15,1.6965595595053173e-15,1.790234627208065e-15,1.8839096949108125e-15,1.97758476261356e-15,2.0712598303163077e-15,2.1649348980190553e-15,2.258609965721803e-15,2.3522850334245504e-15,2.445960101127298e-15,2.5396351688300456e-15,2.633310236532793e-15,2.7269853042355408e-15,2.8206603719382883e-15,2.914335439641036e-15,3.0080105073437835e-15,3.101685575046531e-15,3.1953606427492787e-15,3.2890357104520263e-15,3.382710778154774e-15,3.4763858458575214e-15,3.570060913560269e-15,3.6637359812630166e-15],"_type":"histogram","values":[1,1,0,0,0,0,0,0,0,0,1,0,1,0,4,1,0,1,1,0,1,3,2,2,2,1,0,2,0,0,1,2,1,0,0,0,1,0,0,0,0,0,0,0,1,1,0,0,0,0,0,0,0,0,0,0,0,0,0,0,0,0,0,1]},"gradients/features.10.weight":{"bins":[-6.141431185824331e-08,-6.045465283932572e-08,-5.949498671498077e-08,-5.853532769606318e-08,-5.757566512443191e-08,-5.661600255280064e-08,-5.565633998116937e-08,-5.46966774095381e-08,-5.3737018390620506e-08,-5.2777355818989236e-08,-5.1817693247357965e-08,-5.0858030675726695e-08,-4.9898368104095425e-08,-4.8938705532464155e-08,-4.7979046513546564e-08,-4.7019383941915294e-08,-4.6059721370284024e-08,-4.5100058798652753e-08,-4.4140396227021483e-08,-4.318073720810389e-08,-4.222107463647262e-08,-4.126141206484135e-08,-4.030174949321008e-08,-3.934208692157881e-08,-3.838242434994754e-08,-3.742276533102995e-08,-3.646310275939868e-08,-3.550344018776741e-08,-3.454377761613614e-08,-3.358411504450487e-08,-3.262445602558728e-08,-3.166479345395601e-08,-3.070512732961106e-08,-2.974546653433663e-08,-2.878580396270536e-08,-2.7826143167430928e-08,-2.6866480595799658e-08,-2.5906818024168388e-08,-2.4947157228893957e-08,-2.3987494657262687e-08,-2.3027832085631417e-08,-2.2068171290356986e-08,-2.1108508718725716e-08,-2.0148847923451285e-08,-1.9189185351820015e-08,-1.8229522780188745e-08,-1.7269861984914314e-08,-1.6310199413283044e-08,-1.5350536841651774e-08,-1.4390876046377343e-08,-1.3431213474746073e-08,-1.2471551791293223e-08,-1.1511890107840372e-08,-1.0552228424387522e-08,-9.592565852756252e-09,-8.632904169303401e-09,-7.673242485850551e-09,-6.713580358308491e-09,-5.75391867485564e-09,-4.79425654731358e-09,-3.83459486386073e-09,-2.8749329583632743e-09,-1.915271052865819e-09,-9.556091473683637e-10,4.052793690922929e-12],"_type":"histogram","values":[2,3,3,0,3,6,3,1,3,5,6,20,20,25,39,47,46,58,73,78,87,103,99,130,143,154,205,226,215,269,201,224,210,188,159,116,119,103,85,88,73,78,94,124,135,161,188,210,195,193,239,230,189,215,255,317,404,508,593,603,661,946,719,2929]},"gradients/features.8.bias":{"_type":"histogram","values":[1,0,0,0,0,0,0,1,0,0,0,1,2,0,1,1,2,0,1,0,2,2,0,1,2,1,1,1,0,1,2,0,1,3,0,1,1,0,1,0,0,0,0,0,0,0,0,0,0,0,0,0,0,0,0,1,0,0,0,0,0,0,0,1],"bins":[-3.979489804351033e-08,-3.9182257438596935e-08,-3.856961683368354e-08,-3.7956976228770145e-08,-3.734433562385675e-08,-3.6731695018943356e-08,-3.611905441402996e-08,-3.5506413809116566e-08,-3.489377320420317e-08,-3.4281132599289776e-08,-3.366849199437638e-08,-3.305585138946299e-08,-3.244321078454959e-08,-3.18305701796362e-08,-3.12179295747228e-08,-3.060528896980941e-08,-2.999264836489601e-08,-2.938000598362578e-08,-2.8767365378712384e-08,-2.815472477379899e-08,-2.7542084168885594e-08,-2.69294435639722e-08,-2.6316802959058805e-08,-2.570416235414541e-08,-2.5091521749232015e-08,-2.447888114431862e-08,-2.3866240539405226e-08,-2.325359993449183e-08,-2.2640959329578436e-08,-2.202831872466504e-08,-2.1415678119751647e-08,-2.0803037514838252e-08,-2.0190398686281696e-08,-1.95777580813683e-08,-1.8965117476454907e-08,-1.8352476871541512e-08,-1.7739836266628117e-08,-1.7127195661714723e-08,-1.6514555056801328e-08,-1.5901914451887933e-08,-1.5289273846974538e-08,-1.4676632353882724e-08,-1.4063991748969329e-08,-1.3451351144055934e-08,-1.283871053914254e-08,-1.2226069934229145e-08,-1.161342932931575e-08,-1.1000788724402355e-08,-1.038814723131054e-08,-9.775506626397146e-09,-9.162866021483751e-09,-8.550225416570356e-09,-7.937584811656961e-09,-7.324944206743567e-09,-6.712303601830172e-09,-6.099662996916777e-09,-5.487022392003382e-09,-4.8743817870899875e-09,-4.261741182176593e-09,-3.649100355218593e-09,-3.0364597503051982e-09,-2.4238191453918034e-09,-1.8111784294561062e-09,-1.198537713520409e-09,-5.858971086070142e-10]},"_wandb":{"runtime":42},"validation recall":0,"gradients/features.0.weight":{"values":[9,6,2,4,2,1,6,6,4,6,6,3,5,6,15,6,3,6,4,23,60,58,53,35,37,70,73,53,50,45,44,56,23,39,25,16,16,13,11,10,14,11,5,8,18,11,9,5,5,3,6,2,1,0,0,0,0,0,0,0,0,1,11,4],"bins":[-1.9086590086203614e-08,-1.835416796325262e-08,-1.7621747616658467e-08,-1.6889327270064314e-08,-1.615690514711332e-08,-1.5424483024162328e-08,-1.4692062677568174e-08,-1.39596414427956e-08,-1.3227220208023027e-08,-1.2494798973250454e-08,-1.176237773847788e-08,-1.1029956503705307e-08,-1.0297535268932734e-08,-9.56511403416016e-09,-8.832692799387587e-09,-8.100271564615014e-09,-7.36785032984244e-09,-6.635429095069867e-09,-5.9030078602972935e-09,-5.17058662552472e-09,-4.438165390752147e-09,-3.7057441559795734e-09,-2.973322921207e-09,-2.2409016864344267e-09,-1.5084804516618533e-09,-7.760592168892799e-10,-4.363798211670655e-11,6.887832526558668e-10,1.4212044874284402e-09,2.1536257222010136e-09,2.886046956973587e-09,3.6184681917461603e-09,4.350891202875573e-09,5.0833124376481464e-09,5.81573367242072e-09,6.548154907193293e-09,7.2805761419658666e-09,8.01299737673844e-09,8.745418611511013e-09,9.477839846283587e-09,1.021026108105616e-08,1.0942682315828733e-08,1.1675103550601307e-08,1.240752478537388e-08,1.3139946020146454e-08,1.3872367254919027e-08,1.46047884896916e-08,1.5337210612642593e-08,1.6069630959236747e-08,1.68020513058309e-08,1.7534473428781894e-08,1.8266895551732887e-08,1.899931589832704e-08,1.9731736244921194e-08,2.0464158367872187e-08,2.119658049082318e-08,2.1929000837417334e-08,2.2661421184011488e-08,2.339384330696248e-08,2.4126265429913474e-08,2.4858685776507627e-08,2.559110612310178e-08,2.6323528246052774e-08,2.7055950369003767e-08,2.778837071559792e-08],"_type":"histogram"},"validation loss":6.683114161918901,"validation precision":0,"gradients/classifier.1.bias":{"bins":[-4.34263691673209e-09,-4.274783194091469e-09,-4.206929471450849e-09,-4.139075748810228e-09,-4.0712220261696075e-09,-4.003368303528987e-09,-3.935514580888366e-09,-3.867660858247746e-09,-3.799807135607125e-09,-3.731953412966504e-09,-3.6640999123704887e-09,-3.596246189729868e-09,-3.5283924670892475e-09,-3.460538744448627e-09,-3.3926850218080062e-09,-3.3248312991673856e-09,-3.25697779857137e-09,-3.1891240759307493e-09,-3.1212703532901287e-09,-3.053416630649508e-09,-2.9855629080088875e-09,-2.917709185368267e-09,-2.8498554627276462e-09,-2.7820017400870256e-09,-2.714148017446405e-09,-2.6462942948057844e-09,-2.5784405721651638e-09,-2.510587071569148e-09,-2.4427333489285274e-09,-2.374879626287907e-09,-2.3070259036472862e-09,-2.2391721810066656e-09,-2.171318458366045e-09,-2.1034647357254244e-09,-2.0356110130848037e-09,-1.967757290444183e-09,-1.8999035678035625e-09,-1.8320499561852444e-09,-1.7641962335446237e-09,-1.6963425109040031e-09,-1.628488899285685e-09,-1.5606351766450643e-09,-1.4927814540044437e-09,-1.4249277313638231e-09,-1.3570740087232025e-09,-1.2892202860825819e-09,-1.2213666744642637e-09,-1.1535129518236431e-09,-1.0856592291830225e-09,-1.0178055065424019e-09,-9.499517839017813e-10,-8.820981167723119e-10,-8.142444496428425e-10,-7.463907270022219e-10,-6.785370043616012e-10,-6.106833372321319e-10,-5.428296145915112e-10,-4.749758919508906e-10,-4.0712222482142124e-10,-3.392685021808006e-10,-2.714148072957556e-10,-2.0356111241071062e-10,-1.357074036478778e-10,-6.78537018239389e-11,0],"_type":"histogram","values":[1,0,0,1,3,1,1,1,2,0,1,2,0,0,1,0,0,0,0,2,0,0,1,0,2,1,2,0,3,1,0,1,1,0,0,0,0,1,0,3,1,1,1,0,2,1,0,1,0,0,0,1,2,2,0,1,2,1,1,1,0,0,0,50]},"gradients/features.4.weight":{"values":[1,0,0,0,0,0,0,0,0,1,0,0,0,0,0,0,0,1,1,1,1,2,1,1,1,2,1,1,1,1,1,0,0,0,3,0,1,2,0,1,0,0,0,0,0,1,0,0,0,0,1,0,0,1,0,0,3,0,0,0,0,0,0,1],"bins":[-1.2464417054047772e-08,-1.207618449683423e-08,-1.1687951939620689e-08,-1.1299720270585567e-08,-1.0911487713372026e-08,-1.0523255156158484e-08,-1.0135022598944943e-08,-9.746790929909821e-09,-9.35855837269628e-09,-8.970325815482738e-09,-8.582093258269197e-09,-8.193860701055655e-09,-7.805629032020533e-09,-7.417396474806992e-09,-7.029163917593451e-09,-6.640931804469119e-09,-6.2526992472555776e-09,-5.864466690042036e-09,-5.4762345769177045e-09,-5.088002019704163e-09,-4.6997699065798315e-09,-4.31153734936629e-09,-3.9233052362419585e-09,-3.535072679028417e-09,-3.1468403438594805e-09,-2.758608008690544e-09,-2.3703756735216075e-09,-1.982143338352671e-09,-1.593910892161432e-09,-1.2056785569924955e-09,-8.174461663124077e-10,-4.292138033878956e-10,-4.098144046338348e-11,3.4725092246112865e-10,7.354832853856408e-10,1.1237156760657285e-09,1.511948011234665e-09,1.900180457425904e-09,2.2884127925948405e-09,2.676645127763777e-09,3.0648774629327136e-09,3.45310979810165e-09,3.8413423553151915e-09,4.229574468439523e-09,4.6178070256530646e-09,5.006039138777396e-09,5.394271695990938e-09,5.782503809115269e-09,6.170736366328811e-09,6.558968923542352e-09,6.947201036666684e-09,7.335433593880225e-09,7.723666151093767e-09,8.111897820128888e-09,8.50013037734243e-09,8.888362934555971e-09,9.276595491769513e-09,9.664828048983054e-09,1.0053059718018176e-08,1.0441292275231717e-08,1.0829524832445259e-08,1.12177573896588e-08,1.1605989058693922e-08,1.1994221615907463e-08,1.2382454173121005e-08],"_type":"histogram"},"gradients/classifier.3.weight":{"_type":"histogram","values":[50,0,0,0,0,0,0,0,0,0,0,0,0,0,0,0,0,0,0,0,0,0,0,0,0,0,0,0,0,0,0,0,0,0,0,0,0,0,1,0,1,3,3,3,3,4,5,6,7,1,4,6,1,0,0,0,1,0,0,0,0,0,0,1],"bins":[0,5.84360293487407e-09,1.168720586974814e-08,1.753080880462221e-08,2.337441173949628e-08,2.9218014674370352e-08,3.506161760924442e-08,4.090522054411849e-08,4.674882347899256e-08,5.259242641386663e-08,5.8436029348740703e-08,6.427963228361477e-08,7.012323521848884e-08,7.596683815336291e-08,8.181044108823698e-08,8.765404402311106e-08,9.349764695798513e-08,9.93412498928592e-08,1.0518485282773327e-07,1.1102845576260734e-07,1.1687205869748141e-07,1.2271566163235548e-07,1.2855926456722955e-07,1.3440286750210362e-07,1.402464704369777e-07,1.4609007337185176e-07,1.5193367630672583e-07,1.577772792415999e-07,1.6362088217647397e-07,1.6946448511134804e-07,1.753080880462221e-07,1.8115169098109618e-07,1.8699529391597025e-07,1.9283889685084432e-07,1.986824997857184e-07,2.0452610272059246e-07,2.1036970565546653e-07,2.162133085903406e-07,2.2205691152521467e-07,2.2790051446008874e-07,2.3374411739496281e-07,2.395877345406916e-07,2.4543132326471095e-07,2.512749119887303e-07,2.571185291344591e-07,2.629621462801879e-07,2.6880573500420724e-07,2.746493237282266e-07,2.804929408739554e-07,2.8633655801968416e-07,2.921801467437035e-07,2.9802373546772287e-07,3.0386735261345166e-07,3.0971096975918044e-07,3.155545584831998e-07,3.2139814720721915e-07,3.2724176435294794e-07,3.330853814986767e-07,3.389289702226961e-07,3.4477255894671544e-07,3.506161760924442e-07,3.56459793238173e-07,3.6230338196219236e-07,3.681469706862117e-07,3.739905878319405e-07]},"gradients/features.4.bias":{"_type":"histogram","values":[1,0,0,0,0,0,0,0,1,0,0,0,0,1,0,0,1,0,0,1,0,0,0,1,1,0,1,1,0,0,0,0,0,2,4,1,1,3,0,0,2,0,1,0,0,1,1,1,1,2,1,0,0,0,0,0,0,0,0,0,1,0,0,1],"bins":[-1.2098306356733701e-08,-1.1849643044570257e-08,-1.1600979732406813e-08,-1.1352316420243369e-08,-1.1103653108079925e-08,-1.08549906840949e-08,-1.0606327371931457e-08,-1.0357664059768013e-08,-1.0109000747604568e-08,-9.860337435441124e-09,-9.61167412327768e-09,-9.363010811114236e-09,-9.114348387129212e-09,-8.865685074965768e-09,-8.617021762802324e-09,-8.36835845063888e-09,-8.119695138475436e-09,-7.871031826311992e-09,-7.622368514148548e-09,-7.373705646074313e-09,-7.125042333910869e-09,-6.876379021747425e-09,-6.627716153673191e-09,-6.379052841509747e-09,-6.130389529346303e-09,-5.881726217182859e-09,-5.633062905019415e-09,-5.3844000369451805e-09,-5.1357367247817365e-09,-4.8870734126182924e-09,-4.638410544544058e-09,-4.389747232380614e-09,-4.14108392021717e-09,-3.892420608053726e-09,-3.643757517934887e-09,-3.3950944278160478e-09,-3.1464311156526037e-09,-2.8977678034891596e-09,-2.6491047133703205e-09,-2.4004416232514814e-09,-2.1517783110880373e-09,-1.9031149989245932e-09,-1.654451908805754e-09,-1.4057887076646125e-09,-1.157125506523471e-09,-9.084623053823293e-10,-6.597991042411877e-10,-4.111359031000461e-10,-1.624727019589045e-10,8.619049918223709e-11,3.348537003233787e-10,5.835169014645203e-10,8.321801026056619e-10,1.0808433037468035e-09,1.329506504887945e-09,1.5781697060290867e-09,1.8268329071702283e-09,2.0754962193336723e-09,2.3241593094525115e-09,2.5728223995713506e-09,2.8214857117347947e-09,3.0701490238982387e-09,3.318812114017078e-09,3.567475204135917e-09,3.816138516299361e-09]},"gradients/features.10.bias":{"_type":"histogram","values":[2,0,0,0,1,0,0,0,1,1,0,0,1,1,1,2,1,2,0,1,0,0,0,1,0,0,0,0,0,0,0,0,0,0,0,0,0,0,0,0,0,0,0,0,0,0,0,0,0,0,0,0,0,0,0,0,0,0,0,0,0,0,0,1],"bins":[-4.2128800004093137e-08,-4.1470539002830265e-08,-4.0812274448853714e-08,-4.015401344759084e-08,-3.949574889361429e-08,-3.883748789235142e-08,-3.817922333837487e-08,-3.7520962337111996e-08,-3.6862701335849124e-08,-3.620443678187257e-08,-3.55461757806097e-08,-3.488791122663315e-08,-3.422965022537028e-08,-3.3571389224107406e-08,-3.2913124670130856e-08,-3.2254863668867984e-08,-3.159659911489143e-08,-3.093833811362856e-08,-3.028007355965201e-08,-2.9621812558389138e-08,-2.8963549780769426e-08,-2.8305287003149715e-08,-2.7647024225530004e-08,-2.698876322426713e-08,-2.633050044664742e-08,-2.567223766902771e-08,-2.5013974891407997e-08,-2.4355712113788286e-08,-2.3697449336168575e-08,-2.3039188334905703e-08,-2.238092555728599e-08,-2.172266277966628e-08,-2.1064400002046568e-08,-2.0406137224426857e-08,-1.9747874446807145e-08,-1.9089611669187434e-08,-1.8431350667924562e-08,-1.777308789030485e-08,-1.711482511268514e-08,-1.6456562335065428e-08,-1.5798299557445716e-08,-1.5140036779826005e-08,-1.4481774890384713e-08,-1.3823512112765002e-08,-1.316525022332371e-08,-1.2506987445703999e-08,-1.1848724668084287e-08,-1.1190462778642996e-08,-1.0532200001023284e-08,-9.873937223403573e-09,-9.215675333962281e-09,-8.55741255634257e-09,-7.899149778722858e-09,-7.240887445192357e-09,-6.582625111661855e-09,-5.924362334042144e-09,-5.266100000511642e-09,-4.6078376669811405e-09,-3.949574889361429e-09,-3.2913125558309275e-09,-2.633050000255821e-09,-1.9747874446807145e-09,-1.3165250001279105e-09,-6.582625000639553e-10,0]},"gradients/features.8.weight":{"bins":[-4.187063495919574e-08,-4.122416186191913e-08,-4.0577688764642517e-08,-3.9931215667365905e-08,-3.928474257008929e-08,-3.8638265920099e-08,-3.799179282282239e-08,-3.734531972554578e-08,-3.6698846628269166e-08,-3.6052373530992554e-08,-3.540590043371594e-08,-3.475942733643933e-08,-3.411295423916272e-08,-3.3466481141886106e-08,-3.2820004491895816e-08,-3.2173531394619204e-08,-3.152705829734259e-08,-3.088058520006598e-08,-3.023411210278937e-08,-2.9587639005512756e-08,-2.8941165908236144e-08,-2.8294691034602693e-08,-2.764821793732608e-08,-2.700174484004947e-08,-2.6355271742772857e-08,-2.5708798645496245e-08,-2.5062323771862793e-08,-2.441585067458618e-08,-2.376937757730957e-08,-2.3122904480032958e-08,-2.2476429606399506e-08,-2.1829956509122894e-08,-2.118348518820312e-08,-2.053701209092651e-08,-1.989053721729306e-08,-1.9244064120016446e-08,-1.8597591022739834e-08,-1.7951117925463222e-08,-1.730464305182977e-08,-1.665816995455316e-08,-1.6011696857276547e-08,-1.5365223759999935e-08,-1.4718749774544904e-08,-1.4072276677268292e-08,-1.342580269181326e-08,-1.2779329594536648e-08,-1.2132855609081616e-08,-1.1486382511805004e-08,-1.0839908526349973e-08,-1.0193435429073361e-08,-9.546962331796749e-09,-8.900488346341717e-09,-8.254015249065105e-09,-7.607541263610074e-09,-6.961068166333462e-09,-6.31459462496764e-09,-5.668121083601818e-09,-5.021647542235996e-09,-4.3751740008701745e-09,-3.728700459504353e-09,-3.082227140183136e-09,-2.435753598817314e-09,-1.7892800574514922e-09,-1.1428066271079729e-09,-4.963331412533023e-10],"_type":"histogram","values":[1,0,0,0,0,0,0,0,0,0,0,0,0,1,0,1,0,0,1,2,1,0,3,1,0,1,1,0,1,3,1,2,1,1,0,1,1,2,0,0,1,2,0,1,0,0,0,0,0,0,0,0,0,0,0,0,0,0,0,1,0,0,0,1]},"train loss":1.9797645411046005e-05,"gradients/features.7.bias":{"bins":[-5.10702591327572e-15,-4.926614671774132e-15,-4.746203430272544e-15,-4.565792188770956e-15,-4.385380947269368e-15,-4.2049697057677804e-15,-4.0245584642661925e-15,-3.8441472227646045e-15,-3.6637359812630166e-15,-3.4833247397614286e-15,-3.3029134982598407e-15,-3.1225022567582528e-15,-2.942091015256665e-15,-2.761679773755077e-15,-2.581268532253489e-15,-2.400857290751901e-15,-2.220446049250313e-15,-2.040034807748725e-15,-1.8596235662471372e-15,-1.6792123247455493e-15,-1.4988010832439613e-15,-1.3183898417423734e-15,-1.1379786002407855e-15,-9.575673587391975e-16,-7.771561172376096e-16,-5.967448757360216e-16,-4.163336342344337e-16,-2.3592239273284576e-16,-5.551115123125783e-17,1.249000902703301e-16,3.0531133177191805e-16,4.85722573273506e-16,6.661338147750939e-16,8.465450562766819e-16,1.0269562977782698e-15,1.2073675392798577e-15,1.3877787807814457e-15,1.5681900222830336e-15,1.7486012637846216e-15,1.9290125052862095e-15,2.1094237467877974e-15,2.2898349882893854e-15,2.4702462297909733e-15,2.6506574712925612e-15,2.831068712794149e-15,3.011479954295737e-15,3.191891195797325e-15,3.372302437298913e-15,3.552713678800501e-15,3.733124920302089e-15,3.913536161803677e-15,4.093947403305265e-15,4.274358644806853e-15,4.454769886308441e-15,4.6351811278100286e-15,4.8155923693116165e-15,4.9960036108132044e-15,5.176414852314792e-15,5.35682609381638e-15,5.537237335317968e-15,5.717648576819556e-15,5.898059818321144e-15,6.078471059822732e-15,6.25888230132432e-15,6.439293542825908e-15],"_type":"histogram","values":[1,0,0,0,0,0,0,0,0,0,0,2,0,0,0,1,0,0,0,2,0,0,0,1,1,1,1,0,1,0,2,0,0,1,3,1,0,1,0,2,1,2,1,1,0,1,1,0,0,0,0,0,1,0,0,1,0,0,0,0,1,0,0,1]},"gradients/features.7.weight":{"_type":"histogram","values":[1,2,3,1,1,4,4,11,9,17,18,17,19,24,42,33,70,72,112,137,184,213,320,440,657,968,1350,1735,2032,2278,2370,2285,2211,1757,1564,1543,1375,977,714,538,348,259,213,135,112,71,60,30,43,44,37,35,35,38,25,13,16,6,4,5,6,2,2,1],"bins":[-2.697217738045765e-08,-2.6120906326809745e-08,-2.526963704951868e-08,-2.4418365995870772e-08,-2.3567094942222866e-08,-2.27158256649318e-08,-2.1864554611283893e-08,-2.1013283557635987e-08,-2.016201250398808e-08,-1.9310743226697014e-08,-1.8459472173049107e-08,-1.76082011194012e-08,-1.6756931842110134e-08,-1.5905660788462228e-08,-1.5054389734814322e-08,-1.4203119569344835e-08,-1.3351849403875349e-08,-1.2500579238405862e-08,-1.1649308184757956e-08,-1.079803801928847e-08,-9.946766965640563e-09,-9.095496800171077e-09,-8.24422663470159e-09,-7.392956025142894e-09,-6.5416854155841975e-09,-5.690414806025501e-09,-4.839144196466805e-09,-3.987874030997318e-09,-3.136603421438622e-09,-2.2853328118799254e-09,-1.434062424365834e-09,-5.827919258294401e-10,2.6847857270695386e-10,1.1197490712433478e-09,1.9710195697797417e-09,2.822289957293833e-09,3.6735605668525295e-09,4.524831176411226e-09,5.3761013418807124e-09,6.227371951439409e-09,7.078642560998105e-09,7.929912726467592e-09,8.781183780115498e-09,9.632453945584984e-09,1.0483724111054471e-08,1.1334995164702377e-08,1.2186265330171864e-08,1.303753638381977e-08,1.3888806549289257e-08,1.4740076714758743e-08,1.559134688022823e-08,1.6442617933876136e-08,1.7293888987524042e-08,1.814515826481511e-08,1.8996429318463015e-08,1.984770037211092e-08,2.0698969649401988e-08,2.1550240703049894e-08,2.24015117566978e-08,2.3252782810345707e-08,2.4104052087636774e-08,2.495532314128468e-08,2.5806594194932586e-08,2.6657863472223653e-08,2.750913452587156e-08]},"best validation loss":4.512467826023567,"_runtime":42,"gradients/features.1.weight":{"values":[1,0,0,1,0,0,0,2,0,1,0,0,0,0,2,0,1,0,0,1,2,0,0,1,0,0,0,0,0,0,0,0,0,0,0,0,0,1,0,0,0,0,0,0,0,1,0,0,0,1,0,0,0,0,0,0,0,0,0,0,0,0,0,1],"bins":[-6.456876811000711e-09,-6.164509791517503e-09,-5.872143216123504e-09,-5.579776640729506e-09,-5.287409621246297e-09,-4.995042601763089e-09,-4.70267602636909e-09,-4.410309450975092e-09,-4.117942431491883e-09,-3.825575412008675e-09,-3.5332088366146763e-09,-3.240842039176073e-09,-2.9484752417374693e-09,-2.656108444298866e-09,-2.3637416468602623e-09,-2.071374849421659e-09,-1.7790080519830553e-09,-1.4866412545444518e-09,-1.1942744571058483e-09,-9.019076596672448e-10,-6.095408622286413e-10,-3.1717406479003785e-10,-2.4807267351434348e-11,2.6755953008716915e-10,5.599263275257726e-10,8.522931249643761e-10,1.1446599224029796e-09,1.4370267198415831e-09,1.7293935172801866e-09,2.02176031471879e-09,2.3141271121573936e-09,2.606493909595997e-09,2.8988607070346006e-09,3.191227504473204e-09,3.4835943019118076e-09,3.775960877305806e-09,4.068327896789015e-09,4.360694916272223e-09,4.653061491666222e-09,4.94542806706022e-09,5.237795086543429e-09,5.530162106026637e-09,5.822528681420636e-09,6.114895256814634e-09,6.407262276297843e-09,6.699629295781051e-09,6.99199587117505e-09,7.284362446569048e-09,7.576729466052257e-09,7.869096485535465e-09,8.161462616840254e-09,8.453829636323462e-09,8.74619665580667e-09,9.038563675289879e-09,9.330930694773087e-09,9.623296826077876e-09,9.915663845561085e-09,1.0208030865044293e-08,1.0500396996349082e-08,1.079276401583229e-08,1.1085131035315499e-08,1.1377498054798707e-08,1.1669865074281915e-08,1.1962231205586704e-08,1.2254598225069913e-08],"_type":"histogram"},"gradients/features.3.weight":{"bins":[-1.6125556001611585e-08,-1.538324312377881e-08,-1.4640929357767618e-08,-1.3898615591756425e-08,-1.3156302713923651e-08,-1.2413988947912458e-08,-1.1671675181901264e-08,-1.092936230406849e-08,-1.0187048538057297e-08,-9.444734772046104e-09,-8.70242189421333e-09,-7.960108128202137e-09,-7.217794806280153e-09,-6.47548148435817e-09,-5.7331677183469765e-09,-4.990854396424993e-09,-4.2485410745030094e-09,-3.506227752581026e-09,-2.7639142086144375e-09,-2.021600664647849e-09,-1.2792873427258655e-09,-5.369739097815796e-10,2.0533952316270643e-10,9.476529561069924e-10,1.6899663890512784e-09,2.432279710973262e-09,3.1745932549398503e-09,3.916906798906439e-09,4.659220120828422e-09,5.401533442750406e-09,6.143847208761599e-09,6.886160530683583e-09,7.628472076248727e-09,8.37078584225992e-09,9.113098720092694e-09,9.855412486103887e-09,1.0597725363936661e-08,1.1340039129947854e-08,1.2082352895959048e-08,1.2824665773791821e-08,1.3566979539803015e-08,1.4309293305814208e-08,1.5051606183646982e-08,1.5793919061479755e-08,1.653623371566937e-08,1.7278546593502142e-08,1.8020859471334916e-08,1.876317412552453e-08,1.9505487003357302e-08,2.0247799881190076e-08,2.099011453537969e-08,2.1732427413212463e-08,2.2474740291045237e-08,2.321705494523485e-08,2.3959367823067623e-08,2.4701680700900397e-08,2.544399535509001e-08,2.6186308232922784e-08,2.6928621110755557e-08,2.767093398858833e-08,2.8413248642777944e-08,2.9155561520610718e-08,2.989787617480033e-08,3.0640187276276265e-08,3.138250193046588e-08],"_type":"histogram","values":[1,0,1,0,1,3,1,6,16,44,75,89,72,107,210,305,380,708,1214,2529,3468,4286,5166,3973,2255,1525,1020,758,657,597,507,433,408,319,248,204,169,103,84,76,67,60,50,45,46,58,57,44,30,57,48,46,22,14,26,31,11,12,12,4,4,3,0,3]},"validation accuracy":0.875,"_timestamp":1.7659515843319461e+09,"gradients/classifier.3.bias":{"_type":"histogram","values":[1],"bins":[4.308302337108216e-08,4.308302337108216e-08]},"gradients/features.0.bias":{"bins":[-4.547473508864641e-13,-4.455880109333066e-13,-4.3642867098014904e-13,-4.272693310269915e-13,-4.1810999107383395e-13,-4.089506511206764e-13,-3.9979131116751887e-13,-3.9063197121436133e-13,-3.814726312612038e-13,-3.7231329130804625e-13,-3.631539513548887e-13,-3.5399461140173116e-13,-3.448352714485736e-13,-3.356759314954161e-13,-3.2651659154225854e-13,-3.17357251589101e-13,-3.0819791163594346e-13,-2.990385716827859e-13,-2.8987923172962837e-13,-2.8071989177647083e-13,-2.715605518233133e-13,-2.6240121187015575e-13,-2.532418719169982e-13,-2.4408253196384067e-13,-2.349231920106831e-13,-2.2576385205752558e-13,-2.1660451210436804e-13,-2.074451721512105e-13,-1.9828583219805296e-13,-1.8912649224489542e-13,-1.7996715229173788e-13,-1.7080781233858033e-13,-1.616484723854228e-13,-1.5248913243226525e-13,-1.433297924791077e-13,-1.3417045252595017e-13,-1.2501111257279263e-13,-1.1585177261963508e-13,-1.0669243266647754e-13,-9.753309271332e-14,-8.837375276016246e-14,-7.921441280700492e-14,-7.005507285384738e-14,-6.089573290068984e-14,-5.1736392947532295e-14,-4.2577052994374753e-14,-3.341771304121721e-14,-2.425837308805967e-14,-1.509903313490213e-14,-5.9396931817445875e-15,3.219646771412954e-15,1.2378986724570495e-14,2.1538326677728037e-14,3.069766663088558e-14,3.985700658404312e-14,4.901634653720066e-14,5.81756864903582e-14,6.733502644351574e-14,7.649436639667329e-14,8.565370634983083e-14,9.481304630298837e-14,1.0397238625614591e-13,1.1313172620930345e-13,1.22291066162461e-13,1.3145040611561853e-13],"_type":"histogram","values":[1,0,0,0,0,0,0,0,0,0,0,0,0,0,0,0,0,0,0,0,0,0,0,0,0,0,0,0,0,0,0,0,1,0,1,0,0,0,0,0,0,0,0,0,1,0,1,0,3,0,1,2,2,0,0,1,0,0,0,0,0,0,0,2]},"gradients/classifier.1.weight":{"values":[5,11,25,24,41,72,120,149,190,203,257,258,282,264,308,359,353,428,510,577,687,714,755,878,892,961,1069,1126,1160,1226,1305,1241,1161,1210,1352,1481,1559,1671,1836,1961,2092,2000,1855,1673,1690,1911,2093,2083,2287,2326,1850,1732,1718,2010,1833,2168,2323,2436,2690,3268,2476,1533,272,85000],"bins":[-9.77022018844309e-09,-9.617560081665033e-09,-9.464900863065395e-09,-9.312240756287338e-09,-9.1595815376877e-09,-9.006921430909642e-09,-8.854262212310005e-09,-8.701602105531947e-09,-8.54894288693231e-09,-8.396282780154252e-09,-8.243623561554614e-09,-8.090963454776556e-09,-7.938304236176918e-09,-7.785644129398861e-09,-7.632984910799223e-09,-7.480324804021166e-09,-7.327665141332318e-09,-7.17500547864347e-09,-7.022345815954623e-09,-6.869686153265775e-09,-6.717026490576927e-09,-6.5643668278880796e-09,-6.411707165199232e-09,-6.259047502510384e-09,-6.106387395732327e-09,-5.953727733043479e-09,-5.801068070354631e-09,-5.648408407665784e-09,-5.495748744976936e-09,-5.343089082288088e-09,-5.190429419599241e-09,-5.037769756910393e-09,-4.885110094221545e-09,-4.732450431532698e-09,-4.57979076884385e-09,-4.427131106155002e-09,-4.274471443466155e-09,-4.121811780777307e-09,-3.969152118088459e-09,-3.8164924553996116e-09,-3.663832570666159e-09,-3.5111729079773113e-09,-3.3585132452884636e-09,-3.205853582599616e-09,-3.0531936978661633e-09,-2.9005340351773157e-09,-2.747874372488468e-09,-2.5952147097996203e-09,-2.4425550471107726e-09,-2.289895384421925e-09,-2.1372357217330773e-09,-1.9845760590442296e-09,-1.8319162853330795e-09,-1.6792566226442318e-09,-1.5265968489330817e-09,-1.373937186244234e-09,-1.2212775235553863e-09,-1.0686178608665386e-09,-9.159581426665397e-10,-7.632984244665408e-10,-6.106387617776932e-10,-4.5797907133326987e-10,-3.053193808888466e-10,-1.526596904444233e-10,0],"_type":"histogram"},"gradients/features.1.bias":{"_type":"histogram","values":[1,1,0,0,0,0,1,0,0,0,0,0,0,1,0,0,0,0,0,2,0,1,1,0,0,0,0,0,0,0,0,0,0,0,1,0,1,0,0,1,0,0,0,2,0,1,0,0,0,0,0,0,0,0,0,0,0,0,1,0,0,0,0,1],"bins":[-7.601721030425779e-09,-7.463028417475925e-09,-7.324335804526072e-09,-7.185642747487009e-09,-7.0469501345371555e-09,-6.908257521587302e-09,-6.769564908637449e-09,-6.6308718515983855e-09,-6.492179238648532e-09,-6.353486625698679e-09,-6.2147940127488255e-09,-6.076101399798972e-09,-5.937408342759909e-09,-5.7987157298100556e-09,-5.660023116860202e-09,-5.521330503910349e-09,-5.382637446871286e-09,-5.243944833921432e-09,-5.105252220971579e-09,-4.9665596080217256e-09,-4.827866995071872e-09,-4.689173938032809e-09,-4.550481325082956e-09,-4.411788712133102e-09,-4.273096099183249e-09,-4.134403486233396e-09,-3.995710429194332e-09,-3.857017816244479e-09,-3.7183252032946257e-09,-3.5796323683001674e-09,-3.440939755350314e-09,-3.3022469203558558e-09,-3.1635545294506073e-09,-3.024861916500754e-09,-2.8861690815062957e-09,-2.7474764685564423e-09,-2.608783633561984e-09,-2.4700910206121307e-09,-2.3313981856176724e-09,-2.192705572667819e-09,-2.0540129597179657e-09,-1.9153201247235074e-09,-1.7766274007513516e-09,-1.6379346767791958e-09,-1.4992420638293424e-09,-1.3605493398571866e-09,-1.2218566158850308e-09,-1.083163891912875e-09,-9.444711679407192e-10,-8.057784439685634e-10,-6.670857199964075e-10,-5.283930515354029e-10,-3.8970032756324713e-10,-2.510076035910913e-10,-1.1231490737451111e-10,2.6377802719856902e-11,1.650705128142249e-10,3.0376323678638073e-10,4.4245593300296093e-10,5.811486292195411e-10,7.19841353191697e-10,8.585340771638528e-10,9.972267456248574e-10,1.1359194695970132e-09,1.274612193569169e-09]},"_step":21}