{"validation precision":0,"validation accuracy":0.875,"gradients/features.0.weight":{"values":[10,5,3,3,2,1,8,6,3,5,7,5,6,2,15,8,3,2,4,13,60,50,68,31,36,70,77,48,52,51,42,58,22,30,34,18,13,17,10,12,12,14,4,8,12,13,8,9,3,5,4,4,2,0,0,0,0,0,0,0,0,0,12,4],"bins":[-1.890652079339361e-08,-1.818581907286898e-08,-1.746511735234435e-08,-1.674441563181972e-08,-1.602371391129509e-08,-1.530301219077046e-08,-1.458231047024583e-08,-1.38616087497212e-08,-1.3140907029196569e-08,-1.2420205308671939e-08,-1.1699503588147309e-08,-1.0978801867622678e-08,-1.0258100147098048e-08,-9.537398426573418e-09,-8.816696706048788e-09,-8.095994985524158e-09,-7.375293264999527e-09,-6.654591544474897e-09,-5.933889823950267e-09,-5.213188103425637e-09,-4.4924863829010064e-09,-3.771784662376376e-09,-3.051082941851746e-09,-2.3303812213271158e-09,-1.6096795008024856e-09,-8.889777802778553e-10,-1.6827605975322513e-10,5.524256607714051e-10,1.2731273812960353e-09,1.9938291018206655e-09,2.7145308223452957e-09,3.435232542869926e-09,4.155932487037717e-09,4.876634207562347e-09,5.597335928086977e-09,6.3180376486116074e-09,7.038739369136238e-09,7.759441089660868e-09,8.480142810185498e-09,9.200844530710128e-09,9.921546251234759e-09,1.0642247971759389e-08,1.1362949692284019e-08,1.208365141280865e-08,1.280435313333328e-08,1.352505485385791e-08,1.424575657438254e-08,1.496645829490717e-08,1.56871600154318e-08,1.640786173595643e-08,1.712856345648106e-08,1.784926517700569e-08,1.856996689753032e-08,1.929066861805495e-08,2.001137033857958e-08,2.0732072059104212e-08,2.1452773779628842e-08,2.2173475500153472e-08,2.2894177220678102e-08,2.3614878941202733e-08,2.4335580661727363e-08,2.5056282382251993e-08,2.5776984102776623e-08,2.6497685823301254e-08,2.7218387543825884e-08],"_type":"histogram"},"gradients/features.3.bias":{"bins":[-1.0547118733938987e-14,-1.0358033875057515e-14,-1.0168949016176043e-14,-9.979864157294571e-15,-9.7907792984131e-15,-9.601694439531627e-15,-9.412609580650155e-15,-9.223524721768683e-15,-9.034439862887211e-15,-8.84535500400574e-15,-8.656270145124267e-15,-8.467185286242795e-15,-8.278100427361323e-15,-8.089015568479851e-15,-7.89993070959838e-15,-7.710845850716908e-15,-7.521760991835436e-15,-7.332676132953964e-15,-7.143591274072492e-15,-6.95450641519102e-15,-6.765421556309548e-15,-6.576336697428076e-15,-6.387251838546604e-15,-6.198166979665132e-15,-6.00908212078366e-15,-5.819997261902188e-15,-5.630912403020716e-15,-5.441827544139244e-15,-5.252742685257772e-15,-5.0636578263763e-15,-4.874572967494828e-15,-4.685488108613356e-15,-4.496403249731884e-15,-4.307318390850412e-15,-4.11823353196894e-15,-3.929148673087468e-15,-3.740063814205996e-15,-3.550978955324524e-15,-3.361894096443052e-15,-3.17280923756158e-15,-2.9837243786801082e-15,-2.7946395197986362e-15,-2.6055546609171643e-15,-2.4164698020356923e-15,-2.2273849431542203e-15,-2.0383000842727483e-15,-1.8492152253912764e-15,-1.6601303665098044e-15,-1.4710455076283324e-15,-1.2819606487468604e-15,-1.0928757898653885e-15,-9.037909309839165e-16,-7.147060721024445e-16,-5.2562121322097255e-16,-3.365363543395006e-16,-1.474514954580286e-16,4.163336342344337e-17,2.3071822230491534e-16,4.198030811863873e-16,6.088879400678593e-16,7.979727989493313e-16,9.870576578308032e-16,1.1761425167122752e-15,1.3652273755937472e-15,1.5543122344752192e-15],"_type":"histogram","values":[1,0,0,0,0,0,0,0,0,0,0,0,0,0,0,0,0,0,0,0,0,0,0,0,0,0,0,0,0,0,0,0,0,0,0,0,0,0,0,0,0,0,0,0,0,0,0,1,2,1,0,1,2,1,4,4,4,2,4,2,2,0,0,1]},"train recall":0,"_runtime":45,"train loss":1.9499023707680863e-05,"gradients/features.8.bias":{"_type":"histogram","values":[1,0,0,0,0,0,0,1,0,0,0,1,2,0,1,1,1,2,0,0,2,2,0,1,2,1,1,1,0,1,2,0,1,3,0,1,1,0,0,1,0,0,0,0,0,0,0,0,0,0,0,0,0,0,0,1,0,0,0,0,0,0,0,1],"bins":[-3.918847113482116e-08,-3.858475849938259e-08,-3.798104586394402e-08,-3.737733678121913e-08,-3.677362414578056e-08,-3.616991151034199e-08,-3.556619887490342e-08,-3.496248623946485e-08,-3.435877715673996e-08,-3.375506452130139e-08,-3.315135188586282e-08,-3.2547639250424254e-08,-3.1943926614985685e-08,-3.1340213979547116e-08,-3.0736504896822225e-08,-3.0132792261383656e-08,-2.9529079625945087e-08,-2.8925366990506518e-08,-2.8321656131424788e-08,-2.771794349598622e-08,-2.711423263690449e-08,-2.651052000146592e-08,-2.590680736602735e-08,-2.530309650694562e-08,-2.4699383871507052e-08,-2.4095671236068483e-08,-2.3491960376986754e-08,-2.2888247741548184e-08,-2.2284535106109615e-08,-2.1680824247027886e-08,-2.1077111611589316e-08,-2.0473400752507587e-08,-1.9869689893425857e-08,-1.9265977257987288e-08,-1.8662266398905558e-08,-1.805855376346699e-08,-1.745484112802842e-08,-1.685113026894669e-08,-1.624741763350812e-08,-1.5643704998069552e-08,-1.5039994138987822e-08,-1.4436281503549253e-08,-1.3832569756289104e-08,-1.3228858009028954e-08,-1.2625146261768805e-08,-1.2021433626330236e-08,-1.1417721879070086e-08,-1.0814010131809937e-08,-1.0210298384549787e-08,-9.606585749111218e-09,-9.002874001851069e-09,-8.39916225459092e-09,-7.79545050733077e-09,-7.191738315981411e-09,-6.5880261246320515e-09,-5.984314377371902e-09,-5.380602186022543e-09,-4.776890438762393e-09,-4.173178247413034e-09,-3.5694665001528847e-09,-2.9657543088035254e-09,-2.362042561543376e-09,-1.7583304812163192e-09,-1.1546185119115648e-09,-5.509065426068105e-10]},"gradients/features.0.bias":{"values":[1,0,0,0,0,0,0,0,0,0,0,0,0,0,0,0,0,0,0,0,0,0,0,0,0,0,0,0,0,0,0,0,0,0,0,0,0,0,0,0,0,0,1,1,1,0,0,0,0,0,0,1,0,0,0,0,1,2,2,0,2,1,2,1],"bins":[-4.405364961712621e-13,-4.3326453535996734e-13,-4.2599257454867256e-13,-4.187206137373778e-13,-4.11448652926083e-13,-4.0417669211478824e-13,-3.9690473130349346e-13,-3.896327704921987e-13,-3.823608096809039e-13,-3.7508884886960914e-13,-3.6781688805831436e-13,-3.605449272470196e-13,-3.532729664357248e-13,-3.4600100562443004e-13,-3.3872904481313526e-13,-3.314570840018405e-13,-3.241851231905457e-13,-3.1691316237925093e-13,-3.0964120156795616e-13,-3.023692407566614e-13,-2.950972799453666e-13,-2.8782531913407183e-13,-2.8055335832277706e-13,-2.732813975114823e-13,-2.660094367001875e-13,-2.5873747588889273e-13,-2.5146551507759796e-13,-2.441935542663032e-13,-2.369215934550084e-13,-2.2964963264371363e-13,-2.2237767183241886e-13,-2.1510571102112408e-13,-2.078337502098293e-13,-2.0056178939853453e-13,-1.9328982858723975e-13,-1.8601786777594498e-13,-1.787459069646502e-13,-1.7147394615335543e-13,-1.6420198534206065e-13,-1.5693002453076588e-13,-1.496580637194711e-13,-1.4238610290817633e-13,-1.3511414209688155e-13,-1.2784218128558678e-13,-1.20570220474292e-13,-1.1329825966299722e-13,-1.0602629885170245e-13,-9.875433804040767e-14,-9.14823772291129e-14,-8.421041641781812e-14,-7.693845560652335e-14,-6.966649479522857e-14,-6.23945339839338e-14,-5.512257317263902e-14,-4.785061236134425e-14,-4.057865155004947e-14,-3.3306690738754696e-14,-2.603472992745992e-14,-1.8762769116165146e-14,-1.149080830487037e-14,-4.218847493575595e-15,3.0531133177191805e-15,1.0325074129013956e-14,1.759703494030873e-14,2.4868995751603507e-14],"_type":"histogram"},"validation recall":0,"gradients/features.4.bias":{"values":[1,0,0,0,0,0,0,0,1,0,0,0,0,1,0,0,1,0,0,1,0,0,0,1,1,0,1,1,0,0,0,0,0,3,3,1,1,2,1,0,1,2,0,0,0,1,1,1,1,2,1,0,0,0,0,0,0,0,0,1,0,0,0,1],"bins":[-1.195356702510253e-08,-1.1707903091462413e-08,-1.1462239157822296e-08,-1.121657522418218e-08,-1.0970911290542062e-08,-1.0725247356901946e-08,-1.0479583423261829e-08,-1.0233919489621712e-08,-9.988255555981596e-09,-9.742592510519898e-09,-9.496928576879782e-09,-9.251264643239665e-09,-9.005600709599548e-09,-8.759936775959432e-09,-8.514272842319315e-09,-8.268608908679198e-09,-8.022944975039081e-09,-7.777281041398965e-09,-7.531617107758848e-09,-7.285953174118731e-09,-7.040289240478614e-09,-6.7946257509277075e-09,-6.548961817287591e-09,-6.303297883647474e-09,-6.057633950007357e-09,-5.8119700163672405e-09,-5.566306082727124e-09,-5.320642149087007e-09,-5.0749786595361e-09,-4.8293147258959834e-09,-4.583650792255867e-09,-4.33798685861575e-09,-4.0923220367972135e-09,-3.846658103157097e-09,-3.60099416951698e-09,-3.3553304579214682e-09,-3.1096665242813515e-09,-2.8640025906412347e-09,-2.618338879045723e-09,-2.372674945405606e-09,-2.1270110117654895e-09,-1.8813470781253727e-09,-1.6356832555075584e-09,-1.3900194328897442e-09,-1.1443554992496274e-09,-8.986916211206619e-10,-6.530277429916964e-10,-4.073638648627309e-10,-1.616999867337654e-10,8.396389139520011e-11,3.296277695241656e-10,5.752916476531311e-10,8.209555257820966e-10,1.0666194594222134e-09,1.3122832820400276e-09,1.557947104657842e-09,1.8036110382979587e-09,2.0492749719380754e-09,2.294938905578192e-09,2.540602617173704e-09,2.7862665508138207e-09,3.0319304844539374e-09,3.2775941960494492e-09,3.523258129689566e-09,3.768922063329683e-09],"_type":"histogram"},"_step":20,"gradients/features.1.weight":{"bins":[-6.448040767992325e-09,-6.160686627509904e-09,-5.873332042938273e-09,-5.585977902455852e-09,-5.298623761973431e-09,-5.0112691774018e-09,-4.7239150369193794e-09,-4.4365608964369585e-09,-4.149206311865328e-09,-3.861852171382907e-09,-3.574498030900486e-09,-3.28714366837346e-09,-2.9997893058464342e-09,-2.7124351653640133e-09,-2.4250808028369875e-09,-2.1377266623545665e-09,-1.8503722998275407e-09,-1.5630180483228173e-09,-1.275663796818094e-09,-9.88309434291068e-10,-7.009551827863447e-10,-4.1360090352604573e-10,-1.2624662426574673e-10,1.6110765499455226e-10,4.4846193425485126e-10,7.358161857595746e-10,1.023170437264298e-09,1.3105247997913239e-09,1.5978790512960472e-09,1.8852333028007706e-09,2.1725876653277965e-09,2.4599418058102174e-09,2.747296612426453e-09,3.034650974953479e-09,3.3220051154359e-09,3.6093594779629257e-09,3.8967136184453466e-09,4.184068203016977e-09,4.471422343499398e-09,4.758776483981819e-09,5.04613062446424e-09,5.333485209035871e-09,5.620839349518292e-09,5.908193490000713e-09,6.1955480745723435e-09,6.482902215054764e-09,6.770256355537185e-09,7.057610940108816e-09,7.344965080591237e-09,7.632319665162868e-09,7.919673805645289e-09,8.20702794612771e-09,8.49438208661013e-09,8.781736227092551e-09,9.069090367574972e-09,9.356445396235813e-09,9.643799536718234e-09,9.931153677200655e-09,1.0218507817683076e-08,1.0505861958165497e-08,1.0793216098647918e-08,1.1080571127308758e-08,1.1367925267791179e-08,1.16552794082736e-08,1.1942633548756021e-08],"_type":"histogram","values":[1,0,0,1,0,0,0,1,1,0,1,0,0,0,1,1,1,0,0,1,0,2,0,1,0,0,0,0,0,0,0,0,0,0,0,0,0,1,0,0,0,0,0,0,0,0,1,0,0,0,1,0,0,0,0,0,0,0,0,0,0,0,0,1]},"gradients/features.3.weight":{"bins":[-1.5956317156451405e-08,-1.522443149326591e-08,-1.4492546718258836e-08,-1.3760661943251762e-08,-1.3028776280066268e-08,-1.2296890616880773e-08,-1.1565005841873699e-08,-1.0833121066866624e-08,-1.010123540368113e-08,-9.369349740495636e-09,-8.637464965488562e-09,-7.905580190481487e-09,-7.173694527295993e-09,-6.4418093081997085e-09,-5.709924089103424e-09,-4.97803887000714e-09,-4.2461536509108555e-09,-3.514268431814571e-09,-2.782383212718287e-09,-2.0504979936220025e-09,-1.3186127745257181e-09,-5.867275554294338e-10,1.4515766366685057e-10,8.770428827631349e-10,1.6089281018594193e-09,2.3408133209557036e-09,3.072698540051988e-09,3.804583759148272e-09,4.536468978244557e-09,5.268354197340841e-09,6.000239416437125e-09,6.73212463553341e-09,7.464009854629694e-09,8.195895517815188e-09,8.927780292822263e-09,9.659665067829337e-09,1.0391550731014831e-08,1.1123436394200326e-08,1.18553211692074e-08,1.2587205944214475e-08,1.3319091607399969e-08,1.4050977270585463e-08,1.4782862045592537e-08,1.5514746820599612e-08,1.6246632483785106e-08,1.69785181469706e-08,1.7710402033799255e-08,1.844228769698475e-08,1.9174173360170244e-08,1.9906059023355738e-08,2.0637944686541232e-08,2.1369828573369887e-08,2.210171423655538e-08,2.2833599899740875e-08,2.356548378656953e-08,2.4297369449755024e-08,2.5029255112940518e-08,2.5761140776126012e-08,2.6493026439311507e-08,2.722491032614016e-08,2.7956795989325656e-08,2.868868165251115e-08,2.9420565539339805e-08,3.015245297888214e-08,3.088433686571079e-08],"_type":"histogram","values":[1,0,1,0,1,3,1,7,12,40,76,88,78,101,193,293,375,681,1154,2427,3403,4263,5076,4133,2371,1565,1049,787,657,599,521,423,381,321,263,217,173,104,96,73,58,75,54,42,48,56,52,46,32,54,56,45,22,15,28,29,12,12,11,4,4,3,0,3]},"gradients/features.7.weight":{"_type":"histogram","values":[1,1,3,1,2,4,4,13,7,16,17,18,16,26,39,36,59,79,102,134,177,202,309,401,609,886,1313,1656,1999,2275,2388,2289,2214,1864,1568,1566,1381,1059,733,569,374,283,209,136,112,83,65,26,44,40,41,36,38,34,34,15,16,5,4,6,5,3,2,1],"bins":[-2.6682538845079762e-08,-2.5844391515761345e-08,-2.5006245962799767e-08,-2.416809863348135e-08,-2.3329953080519772e-08,-2.2491805751201355e-08,-2.1653660198239777e-08,-2.081551286892136e-08,-1.9977367315959782e-08,-1.9139219986641365e-08,-1.8301072657322948e-08,-1.746292710436137e-08,-1.6624779775042953e-08,-1.5786634222081375e-08,-1.4948486892762958e-08,-1.411034045162296e-08,-1.3272194010482963e-08,-1.2434047569342965e-08,-1.1595901128202968e-08,-1.075775468706297e-08,-9.919608245922973e-09,-9.081460916604556e-09,-8.243314475464558e-09,-7.405168034324561e-09,-6.567021593184563e-09,-5.728875152044566e-09,-4.890728710904568e-09,-4.052581825675361e-09,-3.2144353845353635e-09,-2.376288943395366e-09,-1.5381422802107636e-09,-6.999957280484637e-10,1.3815082411383628e-10,9.762973762761362e-10,1.8144439284384362e-09,2.6525905916230386e-09,3.490737032763036e-09,4.3288834739030335e-09,5.167030359132241e-09,6.005176800272238e-09,6.843323241412236e-09,7.681469682552233e-09,8.51961612369223e-09,9.357762564832228e-09,1.0195909894150645e-08,1.1034056335290643e-08,1.187220277643064e-08,1.2710349217570638e-08,1.3548495658710635e-08,1.4386642099850633e-08,1.522478854099063e-08,1.6062935870309047e-08,1.6901081423270625e-08,1.7739228752589042e-08,1.857737430555062e-08,1.9415521634869037e-08,2.0253668964187455e-08,2.1091814517149032e-08,2.192996184646745e-08,2.2768107399429027e-08,2.3606254728747444e-08,2.4444400281709022e-08,2.528254761102744e-08,2.6120693163989017e-08,2.6958840493307434e-08]},"gradients/features.10.weight":{"values":[2,3,3,0,3,6,2,2,3,5,6,19,21,24,40,46,46,56,75,76,90,103,97,124,150,153,202,232,207,275,200,222,208,193,151,119,114,107,84,95,70,75,96,122,138,162,187,203,199,197,245,232,193,209,251,316,388,512,602,610,658,946,717,2932],"bins":[-6.041604194706451e-08,-5.94719722357695e-08,-5.852790607718816e-08,-5.758383636589315e-08,-5.663977020731181e-08,-5.56957004960168e-08,-5.475163078472178e-08,-5.380756462614045e-08,-5.286349491484543e-08,-5.1919428756264097e-08,-5.097535904496908e-08,-5.003128933367407e-08,-4.908722317509273e-08,-4.8143153463797717e-08,-4.719908730521638e-08,-4.6255017593921366e-08,-4.531094788262635e-08,-4.4366881724045015e-08,-4.342281201275e-08,-4.2478745854168665e-08,-4.153467614287365e-08,-4.0590609984292314e-08,-3.96465402729973e-08,-3.8702470561702285e-08,-3.775840440312095e-08,-3.6814334691825934e-08,-3.58702685332446e-08,-3.4926198821949583e-08,-3.398212911065457e-08,-3.303806295207323e-08,-3.209399324077822e-08,-3.114992708219688e-08,-3.0205860923615546e-08,-2.926179121232053e-08,-2.8317723277382356e-08,-2.737365534244418e-08,-2.6429585631149166e-08,-2.548551769621099e-08,-2.4541449761272816e-08,-2.359738182633464e-08,-2.2653313891396465e-08,-2.170924595645829e-08,-2.0765176245163275e-08,-1.98211083102251e-08,-1.8877040375286924e-08,-1.793297244034875e-08,-1.6988904505410574e-08,-1.604483479411556e-08,-1.5100766859177384e-08,-1.4156698924239208e-08,-1.3212630989301033e-08,-1.2268562166184438e-08,-1.1324494231246263e-08,-1.0380426296308087e-08,-9.436357473191492e-09,-8.492289538253317e-09,-7.548220715136722e-09,-6.604152780198547e-09,-5.6600844011711615e-09,-4.716016466232986e-09,-3.771948087205601e-09,-2.827879708178216e-09,-1.8838115511954356e-09,-9.397431721680505e-10,4.325071550903559e-12],"_type":"histogram"},"gradients/classifier.1.bias":{"_type":"histogram","values":[1,0,0,1,3,1,1,1,2,0,1,2,0,0,1,0,0,0,0,2,0,0,1,0,2,1,2,0,3,1,0,1,1,0,0,0,0,1,0,3,1,1,1,0,2,1,0,1,0,0,0,1,2,2,0,1,2,1,1,1,0,0,0,50],"bins":[-4.268606801360875e-09,-4.2019099311119135e-09,-4.135213060862952e-09,-4.068515746524781e-09,-4.00181887627582e-09,-3.935122006026859e-09,-3.868424691688688e-09,-3.8017278214397265e-09,-3.735030951190765e-09,-3.668334080941804e-09,-3.601636988648238e-09,-3.534939896354672e-09,-3.4682430261057107e-09,-3.4015461558567495e-09,-3.3348490635631833e-09,-3.268151971269617e-09,-3.201455101020656e-09,-3.134758230771695e-09,-3.0680611384781287e-09,-3.0013640461845625e-09,-2.9346671759356013e-09,-2.86797030568664e-09,-2.801273213393074e-09,-2.734576121099508e-09,-2.6678792508505467e-09,-2.6011823806015855e-09,-2.5344852883080193e-09,-2.467788196014453e-09,-2.401091325765492e-09,-2.334394455516531e-09,-2.2676973632229647e-09,-2.2010002709293985e-09,-2.1343034006804373e-09,-2.067606530431476e-09,-2.00090943813791e-09,-1.934212345844344e-09,-1.8675154755953827e-09,-1.800818494324119e-09,-1.7341215130528553e-09,-1.6674245317815917e-09,-1.600727550510328e-09,-1.5340305692390643e-09,-1.4673335879678007e-09,-1.400636606696537e-09,-1.3339396254252733e-09,-1.2672426441540097e-09,-1.200545662882746e-09,-1.1338486816114823e-09,-1.0671517003402187e-09,-1.000454719068955e-09,-9.337577377976913e-10,-8.670607565264277e-10,-8.00363775255164e-10,-7.336667939839003e-10,-6.669698127126367e-10,-6.00272831441373e-10,-5.335758501701093e-10,-4.668788688988457e-10,-4.00181887627582e-10,-3.3348490635631833e-10,-2.6678792508505467e-10,-2.00090943813791e-10,-1.3339396254252733e-10,-6.669698127126367e-11,0]},"gradients/classifier.1.weight":{"_type":"histogram","values":[5,10,26,25,40,70,121,147,190,204,255,258,285,268,301,360,353,427,515,573,686,719,766,876,921,963,1079,1136,1155,1224,1300,1233,1145,1200,1339,1498,1561,1665,1843,1980,2099,2006,1837,1656,1687,1895,2093,2108,2302,2304,1861,1729,1696,2018,1824,2169,2362,2399,2674,3293,2462,1532,272,85000],"bins":[-9.605286344083197e-09,-9.45520373107911e-09,-9.305121118075022e-09,-9.155038505070934e-09,-9.004955892066846e-09,-8.854873279062758e-09,-8.70479066605867e-09,-8.554708053054583e-09,-8.404625440050495e-09,-8.254542827046407e-09,-8.10446021404232e-09,-7.954377601038232e-09,-7.804294988034144e-09,-7.654212375030056e-09,-7.504129762025968e-09,-7.354047149021881e-09,-7.203964536017793e-09,-7.053882367102915e-09,-6.903799754098827e-09,-6.7537171410947394e-09,-6.603634528090652e-09,-6.453551915086564e-09,-6.303469302082476e-09,-6.153386689078388e-09,-6.003304076074301e-09,-5.853221463070213e-09,-5.703138850066125e-09,-5.553056237062037e-09,-5.4029736240579496e-09,-5.252891011053862e-09,-5.102808398049774e-09,-4.952725785045686e-09,-4.8026431720415985e-09,-4.652560559037511e-09,-4.502477946033423e-09,-4.352395333029335e-09,-4.2023127200252475e-09,-4.05223010702116e-09,-3.902147494017072e-09,-3.752064881012984e-09,-3.6019822680088964e-09,-3.4518998770494136e-09,-3.301817264045326e-09,-3.151734651041238e-09,-3.0016520380371503e-09,-2.8515694250330625e-09,-2.7014868120289748e-09,-2.551404199024887e-09,-2.4013215860207993e-09,-2.2512389730167115e-09,-2.1011563600126237e-09,-1.951073747008536e-09,-1.8009911340044482e-09,-1.650908632022663e-09,-1.5008260190185752e-09,-1.3507434060144874e-09,-1.2006607930103996e-09,-1.0505781800063119e-09,-9.004955670022241e-10,-7.504130095092876e-10,-6.003303965051998e-10,-4.5024778350111205e-10,-3.001651982525999e-10,-1.5008259912629995e-10,0]},"_timestamp":1.7659533947847488e+09,"gradients/features.1.bias":{"_type":"histogram","values":[1,0,1,0,0,0,0,1,0,0,0,0,0,1,0,0,0,0,1,0,1,0,2,0,0,0,0,0,0,0,0,0,0,0,1,0,1,0,0,1,0,0,0,1,1,1,0,0,0,0,0,0,0,0,0,0,0,0,1,0,0,0,0,1],"bins":[-7.536713475531087e-09,-7.399463264334827e-09,-7.2622130531385665e-09,-7.124962841942306e-09,-6.987712630746046e-09,-6.850462419549785e-09,-6.713212208353525e-09,-6.575961997157265e-09,-6.438711785961004e-09,-6.301461574764744e-09,-6.164211363568484e-09,-6.026961152372223e-09,-5.889710941175963e-09,-5.752460729979703e-09,-5.615210518783442e-09,-5.477960307587182e-09,-5.3407100963909215e-09,-5.203459885194661e-09,-5.066209673998401e-09,-4.9289594628021405e-09,-4.79170925160588e-09,-4.65445904040962e-09,-4.5172088292133594e-09,-4.379958618017099e-09,-4.242708406820839e-09,-4.105458195624578e-09,-3.968207984428318e-09,-3.830957773232058e-09,-3.6937075620357973e-09,-3.556457350839537e-09,-3.4192071396432766e-09,-3.2819569284470163e-09,-3.144706495206151e-09,-3.0074562840098906e-09,-2.8702060728136303e-09,-2.73295586161737e-09,-2.5957056504211096e-09,-2.4584554392248492e-09,-2.321205228028589e-09,-2.1839550168323285e-09,-2.046704805636068e-09,-1.909454594439808e-09,-1.7722043832435475e-09,-1.634954172047287e-09,-1.4977039608510267e-09,-1.3604537496547664e-09,-1.223203538458506e-09,-1.0859533272622457e-09,-9.487031160659853e-10,-8.11452904869725e-10,-6.742026936734646e-10,-5.369524824772043e-10,-3.9970227128094393e-10,-2.624520600846836e-10,-1.2520184888842323e-10,1.2048362307837124e-11,1.4929857350409748e-10,2.8654878470035783e-10,4.237989958966182e-10,5.610492070928785e-10,6.982994182891389e-10,8.355496294853992e-10,9.727998406816596e-10,1.11005005187792e-09,1.2473002630741803e-09]},"gradients/classifier.3.weight":{"_type":"histogram","values":[50,0,0,0,0,0,0,0,0,0,0,0,0,0,0,0,0,0,0,0,0,0,0,0,0,0,0,0,0,0,0,0,0,0,0,0,0,0,1,1,3,1,4,4,4,4,6,6,2,4,7,0,1,0,0,1,0,0,0,0,0,0,0,1],"bins":[0,5.831516602938791e-09,1.1663033205877582e-08,1.7494549808816373e-08,2.3326066411755164e-08,2.9157583014693955e-08,3.4989099617632746e-08,4.082061622057154e-08,4.665213282351033e-08,5.248364942644912e-08,5.831516602938791e-08,6.41466826323267e-08,6.997819923526549e-08,7.580971583820428e-08,8.164123244114307e-08,8.747274904408187e-08,9.330426564702066e-08,9.913578224995945e-08,1.0496729885289824e-07,1.1079881545583703e-07,1.1663033205877582e-07,1.2246184155628725e-07,1.282933652646534e-07,1.3412488897301955e-07,1.3995639847053098e-07,1.4578790796804242e-07,1.5161943167640857e-07,1.5745095538477472e-07,1.6328246488228615e-07,1.6911397437979758e-07,1.7494549808816373e-07,1.8077702179652988e-07,1.866085312940413e-07,1.9244004079155275e-07,1.982715644999189e-07,2.0410308820828504e-07,2.0993459770579648e-07,2.157661072033079e-07,2.2159763091167406e-07,2.274291546200402e-07,2.3326066411755164e-07,2.390921736150631e-07,2.449236831125745e-07,2.5075522103179537e-07,2.565867305293068e-07,2.6241824002681824e-07,2.682497779460391e-07,2.7408128744355054e-07,2.7991279694106197e-07,2.857443064385734e-07,2.9157581593608484e-07,2.974073538553057e-07,3.0323886335281713e-07,3.0907037285032857e-07,3.1490191076954943e-07,3.2073342026706086e-07,3.265649297645723e-07,3.3239643926208373e-07,3.3822794875959517e-07,3.4405948667881603e-07,3.4989099617632746e-07,3.557225056738389e-07,3.6155404359305976e-07,3.673855530905712e-07,3.732170625880826e-07]},"_wandb":{"runtime":45},"validation loss":6.694567311122263,"gradients/classifier.3.bias":{"_type":"histogram","values":[1],"bins":[4.234941286540561e-08,4.234941286540561e-08]},"gradients/features.7.bias":{"values":[1,0,1,0,0,0,0,1,0,0,0,1,1,0,0,0,0,1,0,0,1,3,0,2,0,4,4,3,1,0,1,1,1,2,0,0,0,0,1,0,1,0,0,0,0,0,0,0,0,0,0,0,0,0,0,0,0,0,0,0,0,0,0,1],"bins":[-6.2450045135165055e-15,-6.021658865984492e-15,-5.798313218452478e-15,-5.574967570920464e-15,-5.35162192338845e-15,-5.128276275856436e-15,-4.904930628324422e-15,-4.681584980792408e-15,-4.458239333260394e-15,-4.23489368572838e-15,-4.0115480381963664e-15,-3.7882023906643525e-15,-3.5648567431323386e-15,-3.3415110956003247e-15,-3.1181654480683108e-15,-2.894819800536297e-15,-2.671474153004283e-15,-2.448128505472269e-15,-2.224782857940255e-15,-2.001437210408241e-15,-1.7780915628762273e-15,-1.5547459153442134e-15,-1.3314002678121994e-15,-1.1080546202801855e-15,-8.847089727481716e-16,-6.613633252161577e-16,-4.380176776841438e-16,-2.1467203015212988e-16,8.673617379884035e-18,2.3201926491189795e-16,4.553649124439119e-16,6.787105599759258e-16,9.020562075079397e-16,1.1254018550399536e-15,1.3487475025719675e-15,1.5720931501039814e-15,1.7954387976359953e-15,2.0187844451680093e-15,2.242130092700023e-15,2.465475740232037e-15,2.688821387764051e-15,2.912167035296065e-15,3.135512682828079e-15,3.3588583303600927e-15,3.582203977892107e-15,3.8055496254241206e-15,4.0288952729561345e-15,4.252240920488148e-15,4.475586568020162e-15,4.698932215552176e-15,4.92227786308419e-15,5.145623510616204e-15,5.368969158148218e-15,5.592314805680232e-15,5.815660453212246e-15,6.03900610074426e-15,6.262351748276274e-15,6.4856973958082875e-15,6.7090430433403014e-15,6.932388690872315e-15,7.15573433840433e-15,7.379079985936343e-15,7.602425633468357e-15,7.825771281000371e-15,8.049116928532385e-15],"_type":"histogram"},"train precision":0,"gradients/features.8.weight":{"_type":"histogram","values":[1,0,0,0,0,0,0,0,0,0,0,0,0,1,0,1,0,1,1,1,1,0,3,1,0,1,1,0,1,3,1,2,1,1,0,1,1,2,0,0,1,2,0,1,0,0,0,0,0,0,0,0,0,0,0,0,0,0,0,1,0,0,0,1],"bins":[-4.1174175180458406e-08,-4.053813995597011e-08,-3.9902101178768135e-08,-3.926606595427984e-08,-3.863003072979154e-08,-3.799399195258957e-08,-3.735795672810127e-08,-3.6721921503612975e-08,-3.6085882726411e-08,-3.5449847501922704e-08,-3.481381227743441e-08,-3.4177773500232433e-08,-3.354173827574414e-08,-3.290570305125584e-08,-3.2269664274053866e-08,-3.163362904956557e-08,-3.0997590272363595e-08,-3.03615550478753e-08,-2.9725519823387003e-08,-2.9089482822541868e-08,-2.8453445821696732e-08,-2.7817410597208436e-08,-2.71813735963633e-08,-2.6545336595518165e-08,-2.590930137102987e-08,-2.5273264370184734e-08,-2.4637227369339598e-08,-2.4001190368494463e-08,-2.3365155144006167e-08,-2.272911814316103e-08,-2.2093081142315896e-08,-2.14570459178276e-08,-2.0821010693339304e-08,-2.0184973692494168e-08,-1.9548938468005872e-08,-1.8912901467160737e-08,-1.82768644663156e-08,-1.7640829241827305e-08,-1.700479224098217e-08,-1.6368755240137034e-08,-1.57327182392919e-08,-1.5096683014803602e-08,-1.4460646013958467e-08,-1.3824609901291751e-08,-1.3188572900446616e-08,-1.25525367877799e-08,-1.1916500675113184e-08,-1.1280463674268049e-08,-1.0644427561601333e-08,-1.0008390560756197e-08,-9.372354448089482e-09,-8.736318335422766e-09,-8.10028133457763e-09,-7.464245221910915e-09,-6.828208665154989e-09,-6.192172108399063e-09,-5.5561359957323475e-09,-4.920099438976422e-09,-4.284062882220496e-09,-3.6480265475091755e-09,-3.011990212797855e-09,-2.3759536560419292e-09,-1.739917210308306e-09,-1.1038807645746829e-09,-4.678443188410597e-10]},"gradients/features.4.weight":{"_type":"histogram","values":[1,0,0,0,0,0,0,0,0,1,0,0,0,0,0,0,0,1,1,1,1,2,1,1,1,2,1,1,1,2,0,0,0,0,3,1,1,1,0,1,0,0,0,0,0,1,0,0,0,0,0,1,0,1,0,0,3,0,0,0,0,0,0,1],"bins":[-1.2300387375319133e-08,-1.1917602904532032e-08,-1.1534818433744931e-08,-1.115203396295783e-08,-1.076924949217073e-08,-1.0386465021383628e-08,-1.0003680550596528e-08,-9.620896079809427e-09,-9.238110720843906e-09,-8.855326250056805e-09,-8.472541779269704e-09,-8.089757308482604e-09,-7.706972837695503e-09,-7.324188366908402e-09,-6.941403896121301e-09,-6.5586194253342e-09,-6.175834954547099e-09,-5.793050483759998e-09,-5.4102660129728974e-09,-5.0274815421857966e-09,-4.644697071398696e-09,-4.261912156522385e-09,-3.879127685735284e-09,-3.4963432149481832e-09,-3.1135587441610824e-09,-2.7307742733739815e-09,-2.3479898025868806e-09,-1.965205109755175e-09,-1.582420638968074e-09,-1.199636168180973e-09,-8.168515863715697e-10,-4.3406706007331763e-10,-5.128164559664583e-11,3.3150288070160627e-10,7.142874069998584e-10,1.0970719888092617e-09,1.4798564595963626e-09,1.8626409303834635e-09,2.2454256232151693e-09,2.62821009400227e-09,3.010994564789371e-09,3.393779035576472e-09,3.776563506363573e-09,4.159347977150674e-09,4.542132892026984e-09,4.924917362814085e-09,5.307701833601186e-09,5.690486304388287e-09,6.073270775175388e-09,6.456055245962489e-09,6.8388397167495896e-09,7.2216241875366904e-09,7.604408658323791e-09,7.987193129110892e-09,8.369977599897993e-09,8.752762070685094e-09,9.135547429650615e-09,9.518331900437715e-09,9.901116371224816e-09,1.0283900842011917e-08,1.0666685312799018e-08,1.1049469783586119e-08,1.143225425437322e-08,1.181503872516032e-08,1.2197823195947421e-08]},"train accuracy":1,"gradients/features.10.bias":{"bins":[-4.142959397768209e-08,-4.078225757098153e-08,-4.013491761156729e-08,-3.948758120486673e-08,-3.884024479816617e-08,-3.819290839146561e-08,-3.754556843205137e-08,-3.689823202535081e-08,-3.625089561865025e-08,-3.560355565923601e-08,-3.495621925253545e-08,-3.430888284583489e-08,-3.3661546439134327e-08,-3.301420647972009e-08,-3.236687007301953e-08,-3.1719533666318966e-08,-3.1072197259618406e-08,-3.0424857300204167e-08,-2.9777520893503606e-08,-2.9130182710446206e-08,-2.8482846303745646e-08,-2.7835508120688246e-08,-2.7188171713987686e-08,-2.6540833530930286e-08,-2.5893495347872886e-08,-2.5246158941172325e-08,-2.4598820758114925e-08,-2.3951484351414365e-08,-2.3304146168356965e-08,-2.2656809761656405e-08,-2.2009471578599005e-08,-2.1362135171898444e-08,-2.0714796988841044e-08,-2.0067458805783644e-08,-1.9420122399083084e-08,-1.8772784216025684e-08,-1.8125447809325124e-08,-1.7478109626267724e-08,-1.6830773219567163e-08,-1.6183435036509763e-08,-1.5536098629809203e-08,-1.4888760446751803e-08,-1.4241423151872823e-08,-1.3594085856993843e-08,-1.2946747673936443e-08,-1.2299410379057463e-08,-1.1652073084178483e-08,-1.1004735789299502e-08,-1.0357398494420522e-08,-9.710061199541542e-09,-9.062723904662562e-09,-8.415386609783582e-09,-7.768049314904601e-09,-7.1207115759364115e-09,-6.4733738369682214e-09,-5.826036542089241e-09,-5.178699247210261e-09,-4.531361952331281e-09,-3.884024657452301e-09,-3.2366869184841107e-09,-2.5893496236051305e-09,-1.9420123287261504e-09,-1.2946748118025653e-09,-6.473374059012826e-10,0],"_type":"histogram","values":[2,0,0,0,1,0,0,0,1,1,0,0,1,1,1,2,1,2,0,1,0,0,0,1,0,0,0,0,0,0,0,0,0,0,0,0,0,0,0,0,0,0,0,0,0,0,0,0,0,0,0,0,0,0,0,0,0,0,0,0,0,0,0,1]}}